,0,1,2,3,4,5,6,7,8,9,10,11,12,13,14,15,16,17,18,19,20,21,22,23,24,25,26,27,28,29,30,31,32,33,34,35,36,37,38,39,40,41,42,43,44,45,46,47,48,49,50,51,52,53,54,55,56,57,58,59,60,61,62,63,64,65,66,67,68,69,70,71,72,73,74,75,76,77,78,79,80,81,82,83,84,85,86,87,88,89,90,91,92,93,94,95,96,97,98,99,100,101,102,103,104,105,106,107,108,109,110,111,112,113,114,115,116,117,118,119,120,121,122,123,124,125,126,127,128,129,130,131,132,133,134,135,136,137,138,139,140,141,142,143,144,145,146,147,148,149,150,151,152,153,154,155,156,157,158,159,160,161,162,163,164,165,166,167,168,169,170,171,172,173,174,175,176,177,178,179,180,181,182,183,184,185,186,187,188,189,190,191,192,193,194,195,196,197,198,199,200,201,202,203,204,205,206,207,208,209,210,211,212,213,214,215,216,217,218,219,220,221,222,223,224,225,226,227,228,229,230,231,232,233,234,235,236,237,238,239,240,241,242,243,244,245,246,247,248,249,250,251,252,253,254,255,256,257,258,259,260,261,262,263,264,265,266,267,268,269,270,271,272,273,274,275,276,277,278,279,280,281,282,283,284,285,286,287,288,289,290,291,292,293,294,295,296,297,298,299,300,301,302,303,304,305,306,307,308,309,310,311,312,313,314,315,316,317,318,319,320,321,322,323,324,325,326,327,328,329,330,331,332,333,334,335,336,337,338,339,340,341,342,343,344,345,346,347,348,349,350,351,352,353,354,355,356,357,358,359,360,361,362,363,364,365,366,367,368,369,370,371,372,373,374,375,376,377,378,379,380,381,382,383,384,385,386,387,388,389,390,391,392,393,394,395,396,397,398,399,400,401,402,403,404,405,406,407,408,409,410,411,412,413,414,415,416,417,418,419,420,421,422,423,424,425,426,427,428,429,430,431,432,433,434,435,436,437,438,439,440,441,442,443,444,445,446,447,448,449,450,451,452,453,454,455,456,457,458,459,460,461,462,463,464,465,466,467,468,469,470,471,472,473,474,475,476,477,478,479,480,481,482,483,484,485,486,487,488,489,490,491,492,493,494,495,496,497,498,499,500,501,502,503,504,505,506,507,508,509,510,511,img
0,0.012346792,-0.049737673,-0.057125926,-0.020642504,-0.001907637,0.10496374,0.10656563,0.17891285,0.12311951,0.06686637,0.08098526,0.09722575,0.10146388,-0.11239594,0.042117875,-0.04644607,0.022918701,-0.08860268,0.084736414,0.08466042,-0.016083293,-0.13064598,-0.0619547,-0.14144042,-0.06515177,0.11209856,-0.038201008,-0.028270695,-0.08875087,0.03974017,-0.03596186,0.012216802,0.002846668,0.11381598,-0.1082702,0.10214163,0.050342686,0.03920962,0.042025678,-0.049390536,0.06165828,-0.013088457,-0.11558657,0.16520363,-0.11994833,-0.12194279,-0.13301787,0.081065975,-0.17215565,0.13017716,-0.12612063,0.14284992,0.15882689,-0.12915125,0.06863106,-0.13236463,-0.089614,0.17587593,-0.0021930803,0.0013084031,0.00076601433,-0.066211216,-0.044596538,0.09925777,0.144904,0.004449188,0.13876653,-0.010415394,0.006671472,0.18062966,-0.086748086,-0.07266233,-0.1891889,0.24867629,0.09705295,-0.081278056,-0.16166067,-0.052335247,0.13665919,0.01194566,0.038833443,0.024505077,-0.10676322,0.015462798,0.007225809,0.041265257,-0.14912845,0.020303687,0.12280388,-0.059307683,-0.31505933,0.18034631,-0.15956894,-0.1212534,0.0051761586,0.0039853514,-0.0016826454,0.17760062,-0.028732749,-0.016960008,-0.010964146,-0.034876604,0.052201703,-0.013538184,-0.037659153,-0.010530216,-0.12745763,-0.11606801,0.11534658,0.03889079,0.02582891,0.014774034,-0.09838044,0.18647677,-0.065859124,-0.0060625533,-0.025269201,0.07002557,0.12499772,-0.051033493,0.10000304,0.18900411,0.03792184,-0.17809863,0.16692053,-0.04357388,-0.084496394,-0.0064800843,-0.008223289,0.0054371916,0.16203281,0.043664444,-0.21625827,0.08415736,0.13561364,0.06614226,-0.00905819,-0.08367526,0.005320568,0.058952134,-0.052684274,-0.07388598,0.06400751,0.13953006,0.13950537,0.049146075,-0.008470875,-0.13142778,-0.036624,0.13497573,-0.19801013,-0.26086557,-0.016112076,-0.19106221,-0.10986954,-0.11363726,-0.21990258,0.034388408,0.12561952,0.051299762,-0.043720305,-0.056261722,-0.0412381,0.10588132,-0.13308452,-0.037943777,-0.107622616,-0.022067882,-0.12966794,-0.012909015,0.013304378,-0.117097415,-0.12384988,-0.051491383,-0.07785962,0.096734546,-0.11813515,-0.18215074,0.016953832,0.06594143,0.051451534,-0.04120059,0.05499851,-0.04139733,-0.121483825,-0.20475928,-0.16505069,-0.19301225,-0.022871928,0.15161026,-0.057448987,-0.09014325,-0.0066430336,0.053927626,-0.0029218278,0.05658365,-0.007985986,-0.14416456,0.017803948,0.14407885,-0.08030089,0.26860043,-0.022395665,0.15783872,0.03816395,0.19684221,0.084161654,0.0019033542,0.09236968,-0.07024294,0.178759,-0.12142816,0.11990962,0.12222623,0.013270989,-0.09142445,-0.041696094,-0.04441238,0.22185831,-0.22875781,-0.09209992,-0.10136088,-0.023432802,0.023554565,0.016059468,0.0044940095,0.11268553,-0.09798567,0.0019434856,0.0041686464,0.14085348,0.027847627,-0.021687573,0.070786946,0.047711387,0.11880292,-0.05643786,-0.13070557,-0.044815585,0.21235521,0.019178871,0.08837899,0.087330125,-0.072422184,0.08499191,0.08296306,0.1082271,0.069742136,-0.067178704,-0.11002006,-0.024194576,-0.069197156,0.088307865,0.025311014,-0.14359571,-0.11636102,-0.067195885,0.09421658,0.24334538,0.020716725,-0.031065332,0.0017382592,-0.20015094,0.049842365,0.04805178,-0.09933852,-0.23483771,-0.012503892,0.043796822,-0.03109171,-0.039219942,0.09821377,-0.049946297,-0.06391946,-0.048212305,0.045450736,0.049680963,0.028045768,-0.21992172,0.02941384,-0.26411182,-0.014536081,-0.07259253,-0.073045924,-0.0948021,-0.07980839,0.06510469,-0.045295183,-0.07965826,-0.17834318,-0.01732098,0.057473473,0.1606138,-0.058049362,-0.101110674,-0.039773308,0.1295469,-0.0063122767,0.05034297,-0.2376215,-0.0873264,0.052549176,0.08456869,-0.06940381,-0.0047949078,0.10470667,0.045748018,0.015833164,0.14101166,0.039717805,0.03779905,0.052529596,0.02516615,0.08001061,0.1082444,0.0115048345,-0.14993814,-0.09773865,0.088850714,0.036034234,-0.07576447,0.045661703,-0.03916457,0.053960238,-0.1821083,-0.055774454,-0.14212726,-0.0325633,0.22071059,0.03828809,0.08500745,-0.10351861,-0.022162665,-0.021686567,0.045646157,-0.13272694,0.09505644,-0.06625383,0.10748189,0.1130841,0.05889418,-0.026373312,0.013375007,-0.089917086,-0.06652696,-0.079863004,0.011280302,-0.025013523,0.094970584,-0.0109708365,-0.0672233,-0.031177191,0.043829203,0.005218743,0.06530412,0.026575409,0.025732359,-0.046818838,-0.04383743,-0.053342454,-0.10115791,0.028571153,0.06383563,-0.15554191,-0.1203562,-0.18686235,-0.012208692,-0.0292335,-0.06477348,0.07234631,-0.07820035,-0.108369276,0.014049791,0.022253107,0.020858163,0.0015906129,0.093556866,0.031379268,0.087299265,0.12489029,-0.11144102,-0.022270145,0.019240284,-0.011059495,-0.08052247,-0.060310863,0.056413177,0.04575135,0.066492334,-0.07000283,-0.106197655,0.021590209,0.08513835,0.018318204,0.002660364,-0.056595244,0.015744189,0.004399654,-0.043772493,0.032977857,-0.12695435,0.0017143037,0.02638316,0.21375313,0.13206317,-0.07250504,0.10082758,0.09774839,0.01531454,0.104567036,-0.060905784,-0.013774519,0.05751498,-0.070042446,0.14832269,0.10288673,0.056683138,-0.19423728,-0.19509877,-0.06570118,0.041290626,-0.08671018,0.012051756,-0.053003363,0.087711915,0.16034137,0.055815373,-0.055396196,-0.17776956,-0.055744827,0.084520504,-0.011582887,0.14379823,-0.03966082,0.16290808,0.14037412,-0.33038542,0.121134974,0.018056702,0.14716811,0.12873681,-0.08245673,0.26929003,0.15159516,-0.06889518,0.1755698,0.024237826,-0.028320134,0.09160742,0.023757443,-0.10717161,0.017055018,-0.027567463,0.06759644,-0.114875026,0.20041545,-0.012662444,-0.011635959,-0.09409529,-0.015422523,0.003494548,0.062828235,-0.027352775,-0.09699315,0.11340186,0.21890327,0.087376446,0.12449009,0.12104475,0.1587734,-0.0030793028,-0.1561973,-0.003410999,0.035201006,-0.06983934,0.06525684,0.029346421,-0.049815677,0.101039484,0.20943874,-0.027271496,-0.0860466,-0.06272344,0.014484756,0.053109013,-0.014738576,-0.23067169,0.12516302,-0.09824536,-0.007232749,0.08158088,-0.060737643,-0.16884018,0.0022536328,0.110978305,0.17408146,-0.1884597,-0.14785829,0.11158555,-0.044507533,-0.2454958,-0.12339319,-0.0224854,-0.11893774,0.003411227,0.09207602,0.019295588,-0.09865177,-0.04320869,0.08882062,0.17068487,0.028631404,fatman6.jpg
1,0.02064532,-0.053345982,-0.05296436,-0.012621383,-0.01295973,0.12149475,0.114334226,0.19490238,0.13019316,0.0740542,0.09439412,0.10836084,0.10461408,-0.12993924,0.04121094,-0.039892547,0.038379665,-0.10094499,0.08115599,0.08611146,-0.011709001,-0.13796902,-0.049791127,-0.14018007,-0.07191935,0.120557874,-0.040702097,-0.015865296,-0.09577296,0.037673276,-0.031406213,0.020096011,0.0053939726,0.12481985,-0.121162415,0.09698119,0.060234465,0.038083237,0.049614444,-0.056866966,0.07082537,-0.0194929,-0.124686725,0.18045376,-0.12882335,-0.11946098,-0.1563502,0.074391134,-0.17700328,0.14928812,-0.13460952,0.14447978,0.15021333,-0.13258941,0.07842936,-0.13606155,-0.08556126,0.19935437,-0.004879752,-0.0074618873,-0.011532619,-0.07124821,-0.053704567,0.0873328,0.14610316,0.008388139,0.14940847,-0.019073935,0.0056909625,0.18926094,-0.1091579,-0.09221984,-0.18968216,0.25725982,0.087399304,-0.10875799,-0.1810984,-0.044390574,0.16013055,0.007841456,0.04454745,0.015768936,-0.114376284,0.008220902,0.0028965522,0.047562376,-0.16149475,0.007178814,0.13551639,-0.06892918,-0.31833538,0.19015636,-0.18596664,-0.13450663,0.00062800135,0.008147903,0.002671331,0.18209408,-0.028904252,-0.010874704,-0.020984545,-0.035206474,0.05069505,-0.022348288,-0.036692034,-0.017950531,-0.14223495,-0.122438684,0.1158153,0.051689237,0.02845727,0.012943691,-0.08871921,0.19339745,-0.07913556,-0.0037815918,-0.026722444,0.07229042,0.13650455,-0.03833908,0.10479073,0.19299684,0.021634249,-0.18939447,0.1685006,-0.050945833,-0.07345859,-0.018437374,-0.014660428,0.0077770445,0.16382916,0.042118844,-0.23674189,0.07570217,0.13346906,0.07870864,-0.00841663,-0.08457566,0.011910794,0.0703468,-0.05812512,-0.08177865,0.063616045,0.15637194,0.14132847,0.04879763,0.0041657845,-0.1433857,-0.02924139,0.1331292,-0.20680712,-0.27702823,-0.022956902,-0.20042032,-0.12033027,-0.12819454,-0.22364306,0.03107253,0.11997019,0.060309045,-0.05890184,-0.059471264,-0.043568924,0.107546665,-0.1525631,-0.036448583,-0.11019068,-0.026713697,-0.14958246,-0.0036803375,0.005230799,-0.1257254,-0.139453,-0.052034315,-0.08746593,0.09991416,-0.12081172,-0.20797056,0.018797547,0.07024689,0.04955518,-0.050565746,0.063910484,-0.06513008,-0.13263632,-0.21302335,-0.1519613,-0.20469889,-0.018372826,0.1538034,-0.051260732,-0.09862834,-0.00473572,0.042993035,0.002201192,0.059193805,-0.014916674,-0.16978306,0.01899676,0.15152606,-0.09738535,0.28129706,-0.01960969,0.16786963,0.029845662,0.21285255,0.09065173,0.00032641497,0.105267316,-0.07792248,0.18481795,-0.13205092,0.12600207,0.12351005,0.034352962,-0.115892,-0.037393816,-0.06086859,0.22346292,-0.23586479,-0.10171315,-0.116140634,-0.024125015,0.022992106,0.023366392,0.005051996,0.11955658,-0.09629136,0.010106199,0.019173993,0.13920215,0.043965153,-0.012243622,0.08047369,0.047295675,0.13115533,-0.061167818,-0.12282191,-0.045863796,0.21893199,0.018095333,0.08818594,0.084684126,-0.07704009,0.092465304,0.0851696,0.12713665,0.08186866,-0.064678796,-0.106532514,-0.03070882,-0.07745965,0.08753203,0.017551608,-0.17446336,-0.12500401,-0.0801509,0.10299245,0.25027615,0.02015221,-0.03415099,0.0018800998,-0.21303958,0.053069018,0.03264079,-0.108104475,-0.23815486,-0.016194794,0.042940006,-0.015937528,-0.05226166,0.10819121,-0.058510866,-0.06213016,-0.05854035,0.057801016,0.054218158,0.018518833,-0.2263696,0.036240242,-0.278713,-0.032657046,-0.080097936,-0.07423301,-0.11960955,-0.09347349,0.060556024,-0.048964728,-0.081645474,-0.16859403,-0.014209191,0.06845716,0.17650972,-0.060847897,-0.09744973,-0.04136643,0.14033851,0.0030296969,0.036701303,-0.2442097,-0.10439668,0.040014498,0.080430806,-0.070230484,-0.0032392526,0.11161153,0.046237737,0.015647737,0.14990434,0.040211126,0.045773596,0.05432186,0.00769065,0.08362332,0.111148246,0.0046846154,-0.15426831,-0.08179368,0.09593433,0.029697364,-0.093157895,0.05319906,-0.035396352,0.046547297,-0.18818277,-0.06391025,-0.15267916,-0.032552455,0.22463326,0.035306226,0.097573705,-0.097073905,-0.01678224,-0.012695757,0.047820866,-0.14863409,0.11176657,-0.07603627,0.108058944,0.108400084,0.059381694,-0.035605952,0.01768601,-0.08836398,-0.071526125,-0.09019853,0.023903877,-0.020187814,0.09143235,-0.016537892,-0.06668686,-0.033154093,0.05307302,0.00027439723,0.07812899,0.014292026,0.014234522,-0.07459251,-0.040505387,-0.06094702,-0.0936628,0.05146055,0.0715604,-0.17280753,-0.1335711,-0.18747574,-0.020321311,-0.014159035,-0.082626306,0.06522144,-0.104980476,-0.13759021,-0.0008535148,0.027125971,0.020863367,-0.002833427,0.10645773,0.032146767,0.09743207,0.1403024,-0.1246667,-0.014334715,0.0281806,-0.0138943335,-0.09352903,-0.07804434,0.058849614,0.05303724,0.0811361,-0.0742069,-0.1130711,0.018815875,0.09752464,0.02535166,0.0033752848,-0.066343024,0.006580615,0.01008995,-0.0502012,0.04392558,-0.13584684,0.0052034734,0.019647148,0.22501834,0.13779758,-0.07944362,0.10744323,0.09917746,0.022151377,0.112621434,-0.05130981,-0.023673747,0.0662171,-0.0878064,0.15513939,0.10355034,0.051815774,-0.1966884,-0.21118383,-0.07203849,0.047041442,-0.08738165,0.006991005,-0.058535457,0.09724419,0.17045408,0.06452689,-0.05791597,-0.17571373,-0.050242756,0.10108322,-0.013032347,0.1503052,-0.04209724,0.1613311,0.15648207,-0.34209174,0.14796159,0.01931076,0.14153732,0.13594489,-0.095724165,0.27129373,0.16401072,-0.086580485,0.18536565,0.04372055,-0.03339966,0.08848929,0.034478877,-0.11836788,0.02043752,-0.026799433,0.0784595,-0.12881532,0.19086729,0.002191987,-0.020492705,-0.106366426,-0.036146354,6.342864e-05,0.036386065,-0.047254406,-0.11099702,0.1175433,0.22621393,0.10698706,0.11912928,0.122544296,0.16499914,0.0031454843,-0.16031615,-0.02429675,0.042503078,-0.06401828,0.070910364,0.025398495,-0.05754017,0.10535835,0.21205729,-0.032867327,-0.0985559,-0.066726886,0.018906564,0.04359767,-0.016238566,-0.23473057,0.124929264,-0.10023805,-0.007090519,0.0908479,-0.072573446,-0.18267338,0.0061321757,0.11269116,0.17651945,-0.20590858,-0.15319867,0.11928498,-0.034007452,-0.24420841,-0.13425107,-0.024646007,-0.12386869,0.009714088,0.088890016,0.021352232,-0.10128873,-0.04760459,0.106443316,0.17065735,0.028963586,fatman4.jpg
2,0.027501052,-0.0449341,-0.06169793,-0.019333819,-0.018367259,0.10601241,0.122517735,0.20877384,0.12651448,0.082692094,0.09373138,0.11732399,0.11840982,-0.13899398,0.054976612,-0.031359266,0.04585224,-0.108201146,0.08043643,0.08388881,-0.013052832,-0.14292035,-0.05222798,-0.1468617,-0.07402942,0.10749334,-0.051188953,-0.026864434,-0.10339697,0.032867245,-0.027001077,0.026266161,0.008038419,0.12726197,-0.13673016,0.084361725,0.055820137,0.028195666,0.043865398,-0.05611222,0.07132142,-0.019015532,-0.12068833,0.18308112,-0.14064135,-0.1138722,-0.15666856,0.08436113,-0.18472853,0.14259277,-0.14492238,0.15313204,0.16928056,-0.13071065,0.09561073,-0.1339623,-0.08868216,0.2012937,-0.0036379527,0.00024116169,-0.009759097,-0.077065654,-0.062001195,0.087620825,0.15592974,0.0063426807,0.15240277,-0.011368788,0.014731916,0.20403068,-0.11826908,-0.09888933,-0.18837361,0.25684842,0.0881726,-0.11807424,-0.1772967,-0.045106165,0.15925875,0.012941379,0.04068814,0.012959179,-0.114228144,0.0004442981,0.0052358657,0.056940366,-0.15859874,-0.0021627243,0.15376532,-0.081997864,-0.3245584,0.19241968,-0.18809307,-0.11907492,0.0011598427,0.012971886,0.005815399,0.19349676,-0.039595813,-0.003905819,-0.021144232,-0.032271683,0.0632324,-0.014788721,-0.042328287,-0.020816645,-0.13974707,-0.113539524,0.1308116,0.059810136,0.024771726,0.015705552,-0.09018018,0.2138024,-0.07391805,0.0030454574,-0.016298052,0.07498716,0.13849102,-0.05782588,0.114048295,0.20199914,0.006807467,-0.18696074,0.17507148,-0.045902442,-0.07284907,-0.025940059,-0.011408269,0.017367702,0.16571522,0.040507678,-0.23784816,0.08304598,0.14104722,0.0946962,-0.0077061993,-0.0871333,0.014000761,0.079982236,-0.06152164,-0.07170494,0.06355696,0.15663292,0.14663795,0.045242433,-0.007819945,-0.14466609,-0.03485826,0.14432192,-0.22028936,-0.27510592,-0.027835209,-0.20841044,-0.11456855,-0.13865153,-0.22657733,0.038536727,0.1246818,0.05609995,-0.055562668,-0.050410654,-0.042873256,0.10474977,-0.15524364,-0.046358265,-0.106754966,-0.02305464,-0.15942663,-0.0098065315,0.008628999,-0.13961007,-0.1336626,-0.04901184,-0.07820862,0.09363355,-0.119083434,-0.21679397,0.02381726,0.07295705,0.046191696,-0.048961997,0.074215144,-0.0590916,-0.1480185,-0.21743809,-0.15181111,-0.20422451,-0.013183604,0.15374607,-0.06158886,-0.10357033,-0.007656149,0.041728944,0.00042670706,0.070081316,-0.01940261,-0.17637074,0.015483131,0.15481046,-0.11256936,0.29141906,-0.019498935,0.1723252,0.031533156,0.21443062,0.07448131,0.0031576802,0.10462924,-0.086245924,0.1870538,-0.13821691,0.12969807,0.10936245,0.04287551,-0.11093267,-0.039421912,-0.06322537,0.21239413,-0.25534055,-0.08816477,-0.12352855,-0.008607843,0.022931738,0.032743175,0.0040099877,0.116804615,-0.09742575,0.0069311536,0.024150515,0.14590558,0.030453023,-0.010118146,0.07668152,0.03335427,0.13189682,-0.06076267,-0.112280205,-0.059678,0.2297292,0.024988336,0.08861701,0.08106387,-0.07357367,0.09312471,0.09192312,0.123320095,0.08447377,-0.0787393,-0.10915575,-0.048813555,-0.08472554,0.08147334,0.020032113,-0.17262731,-0.1323144,-0.07832459,0.095769465,0.25060657,0.022932181,-0.036008462,-0.0027762814,-0.21073706,0.054405935,0.025116747,-0.108840525,-0.25882193,-0.006331086,0.042534932,-0.021306632,-0.062312726,0.10884281,-0.06546737,-0.06391196,-0.06952681,0.055223834,0.05562341,0.020785144,-0.23720023,0.041317694,-0.2921284,-0.037579462,-0.090254806,-0.06894506,-0.13416713,-0.105922684,0.048364773,-0.04866453,-0.08324504,-0.16819113,-0.013215071,0.06606889,0.17338105,-0.07277287,-0.10757937,-0.02687917,0.14592543,0.00056260877,0.036773365,-0.24719872,-0.10431732,0.04721181,0.08788254,-0.07169442,-0.018154418,0.114438124,0.049357012,0.029099718,0.1420095,0.041361466,0.050198764,0.05269881,0.0057851546,0.08226689,0.10793622,0.0044542695,-0.15607552,-0.09175677,0.099762395,0.033842437,-0.097268894,0.05925036,-0.03005116,0.036656424,-0.19471097,-0.06085031,-0.1472088,-0.032550186,0.22852033,0.032658823,0.09416527,-0.10548989,-0.013962205,-0.01440064,0.04428122,-0.14178397,0.110818386,-0.07544679,0.11560874,0.113956064,0.06810315,-0.04073977,0.0081641935,-0.08765728,-0.071420014,-0.09523981,0.034172684,-0.014988262,0.100016035,-0.015466712,-0.077088915,-0.036062043,0.037724335,0.0012669831,0.07935074,0.025424069,0.023683421,-0.077840164,-0.03852119,-0.066706814,-0.11510851,0.046832502,0.07476565,-0.18100196,-0.12067123,-0.19454303,-0.02469098,-0.014111641,-0.08481075,0.060847804,-0.10913447,-0.13824938,-0.0028874567,0.02928475,0.009385536,0.001125085,0.112859726,0.04213179,0.104371205,0.15163764,-0.13649903,-0.011935971,0.033664215,-0.02330363,-0.09609773,-0.080124244,0.0636898,0.068622336,0.08440781,-0.078758456,-0.10893681,0.023454526,0.10908144,0.031864874,0.017727876,-0.06911241,-0.0059622973,0.020888822,-0.04465662,0.03670148,-0.13588305,0.010439891,0.02349827,0.23835766,0.13408577,-0.09651904,0.10553353,0.0972684,0.013112734,0.12507308,-0.064132884,-0.0104478365,0.058192376,-0.09237399,0.15668729,0.098251395,0.05099725,-0.19431311,-0.23455994,-0.06365517,0.048009094,-0.09068662,0.01782643,-0.058063403,0.08159196,0.17382024,0.06449215,-0.04411112,-0.17104182,-0.04655322,0.11238383,-0.012560095,0.15674542,-0.050811075,0.15462415,0.17087445,-0.3349529,0.15358718,0.009675015,0.15296066,0.14175534,-0.09786714,0.28389096,0.16701622,-0.07606862,0.18956402,0.034452002,-0.033798274,0.09152348,0.03042662,-0.12484249,0.020346267,-0.0144863,0.09643993,-0.13644572,0.18512358,-0.011408189,-0.024108065,-0.106883444,-0.03891926,7.041138e-05,0.03952948,-0.055188376,-0.123308584,0.12919083,0.22003533,0.111163236,0.11385687,0.12882337,0.16956964,0.0026693617,-0.17028092,-0.04043144,0.053142365,-0.052821837,0.07044672,0.023326173,-0.055990353,0.109175,0.21029378,-0.040644575,-0.106173284,-0.06939036,0.022839157,0.04225358,-0.014208114,-0.24502146,0.13172683,-0.09864176,-0.009648928,0.09919827,-0.06701811,-0.1906683,0.015640091,0.106290475,0.1789745,-0.2201043,-0.1522637,0.12350179,-0.035579212,-0.25325662,-0.1442326,-0.031360008,-0.13010481,0.015643412,0.1012514,0.019985784,-0.112471655,-0.048248947,0.09628816,0.17149425,0.028946815,fatman5.jpg
3,0.025444575,-0.045537304,-0.046155743,-0.026917664,-0.009572014,0.090090394,0.12229524,0.19163245,0.121598236,0.069949605,0.091904484,0.112986065,0.1029616,-0.13070619,0.05009032,-0.033785053,0.052088138,-0.08850978,0.08046353,0.07670659,-0.022451654,-0.1350777,-0.051673777,-0.14125241,-0.07405387,0.09153693,-0.044875555,-0.028755268,-0.09695916,0.015786007,-0.0192623,0.038461115,0.0034073568,0.111703284,-0.13081585,0.08653108,0.050245535,0.02852077,0.035498418,-0.04663815,0.06380686,-0.010237461,-0.116150096,0.18266037,-0.13829096,-0.10518544,-0.1345644,0.067947224,-0.17128743,0.11934633,-0.14034635,0.14473444,0.16229238,-0.12976395,0.09281587,-0.1296652,-0.06005017,0.18599845,-0.00030232154,0.0046597077,-0.011697598,-0.08062066,-0.067420974,0.08889524,0.14550802,0.003603391,0.14819571,-0.011861927,0.020836497,0.18411127,-0.094019465,-0.09038028,-0.19507179,0.23662,0.07689555,-0.11806998,-0.17058834,-0.049005315,0.14719915,0.014794647,0.043932218,0.01451252,-0.10687052,-0.0029329548,-0.0057719746,0.0519524,-0.1526531,-0.0058065667,0.1450683,-0.07302464,-0.29852843,0.18405406,-0.17091516,-0.1116895,0.0009865832,0.01116192,0.012450956,0.18458362,-0.039220303,-0.006652888,-0.027997259,-0.03583228,0.061549127,-0.011139695,-0.047218785,-0.026128456,-0.13803777,-0.100498684,0.12699191,0.045995105,0.009930405,0.013618494,-0.09086944,0.1999684,-0.058826,0.011644152,-0.022371147,0.063877404,0.13863702,-0.048472863,0.103074886,0.19422734,0.01100467,-0.18698591,0.16439946,-0.03995561,-0.06576365,-0.020897685,-0.0021633902,0.025378555,0.17402603,0.04469805,-0.228665,0.07235996,0.13048247,0.0857314,0.007064408,-0.07895753,0.027554937,0.08185952,-0.04823723,-0.072686635,0.05756136,0.14229386,0.1392496,0.035278942,-0.021382635,-0.13285568,-0.044730045,0.14111029,-0.2064226,-0.26131746,-0.034867156,-0.18876567,-0.10115284,-0.13780914,-0.2281545,0.039614774,0.11743213,0.047391403,-0.040973105,-0.039948657,-0.036115006,0.102684714,-0.13997623,-0.051391274,-0.103973165,-0.0065687546,-0.14398745,-0.012612372,0.010078651,-0.13283932,-0.11545266,-0.047844425,-0.0796041,0.08826667,-0.11221747,-0.19341868,0.011179864,0.06329095,0.06674246,-0.03608274,0.062088914,-0.049398366,-0.14190197,-0.19364963,-0.16143551,-0.19072516,-0.022718623,0.13829517,-0.0563334,-0.09518846,-0.00963685,0.042615972,-0.0010159981,0.06725951,-0.021805454,-0.16445675,0.022270378,0.14693414,-0.08624722,0.28040674,-0.021117656,0.16433887,0.030992243,0.2090304,0.06694738,0.012729999,0.1076191,-0.085459255,0.18735197,-0.13390495,0.11848095,0.11095002,0.028964505,-0.11425837,-0.05060902,-0.04965647,0.21341132,-0.21993095,-0.092482656,-0.10389301,-0.007828486,0.022080628,0.032533716,0.011602811,0.11149094,-0.11696784,0.005439484,0.016569333,0.14101629,0.012872601,-0.003024604,0.072089195,0.03601469,0.12873879,-0.054962453,-0.12142809,-0.057975322,0.21969214,0.026050176,0.08467724,0.0657114,-0.074783064,0.085104324,0.08414773,0.12170155,0.09327572,-0.07899124,-0.108045146,-0.05067864,-0.07372361,0.07419917,0.020777803,-0.1618726,-0.1275835,-0.070307106,0.09191019,0.24628875,0.019206712,-0.033976097,0.0030066178,-0.20279157,0.061365478,0.032647695,-0.10855702,-0.24205263,-0.0074335686,0.033606276,-0.030309873,-0.050394095,0.10498379,-0.0544106,-0.067710035,-0.06684986,0.04789956,0.051840656,0.025569612,-0.22376251,0.024066778,-0.29166773,-0.040503778,-0.08567605,-0.06579725,-0.11747192,-0.10478751,0.05675966,-0.045230478,-0.07846766,-0.15603913,-0.010978542,0.068049796,0.16865239,-0.08058871,-0.106331,-0.031514656,0.13284183,-0.0043779626,0.02908765,-0.25027773,-0.09696046,0.048924625,0.09263532,-0.06249977,-0.009395007,0.104381666,0.05091506,0.022439118,0.13497637,0.039939884,0.042824816,0.05021919,-0.005325947,0.06814999,0.09694883,0.009888616,-0.13112172,-0.08930784,0.08344632,0.035276223,-0.07543988,0.047671217,-0.035665553,0.037440915,-0.19104661,-0.05353655,-0.1365827,-0.03255664,0.22792338,0.026007298,0.09056992,-0.098066896,-0.029869847,-0.016745145,0.036505498,-0.1344267,0.10596516,-0.06486625,0.11591242,0.11280428,0.047092993,-0.03607656,-8.3850406e-05,-0.08459384,-0.06268342,-0.09942192,0.026424,-0.022519948,0.08912849,-0.0044870465,-0.063125,-0.042352706,0.03854673,-0.0024885586,0.074603796,0.028050397,0.010687406,-0.07260936,-0.04863748,-0.061524544,-0.111834325,0.037228763,0.06631929,-0.1646113,-0.11703008,-0.18871357,-0.02074621,-0.0069379285,-0.07327942,0.08319248,-0.092217654,-0.1338288,-0.0023271113,0.022727506,0.019839361,0.008400051,0.093316786,0.040409144,0.10329547,0.13828297,-0.11951784,-0.017547274,0.029288458,-0.029454788,-0.09027417,-0.06352597,0.05835881,0.06715299,0.08089645,-0.062245894,-0.101008594,0.012721018,0.09599895,0.025926236,0.014585896,-0.06697478,-0.00036777754,-0.0015932599,-0.03992087,0.044189163,-0.13201886,0.015232137,0.028549634,0.23265758,0.13512574,-0.08398607,0.098831,0.0929553,0.022633547,0.10908953,-0.06395628,0.0036597776,0.062442593,-0.067910105,0.14891186,0.0876885,0.048130564,-0.18170239,-0.21652764,-0.062094454,0.04530917,-0.08853942,0.0051011387,-0.06406662,0.08431816,0.16399844,0.06430188,-0.0460241,-0.17188652,-0.050184168,0.09310772,-0.011330707,0.1493862,-0.034761705,0.16635814,0.1565173,-0.3299143,0.13785067,0.010018438,0.1528852,0.13739124,-0.086589664,0.2853315,0.16720945,-0.07066991,0.17477964,0.03717211,-0.028249564,0.08024661,0.018113723,-0.121079355,0.017254744,-0.026215602,0.087097816,-0.13661319,0.18768685,-0.020017775,-0.019739242,-0.08868071,-0.02033694,0.003962906,0.042200603,-0.049868416,-0.10663942,0.1204001,0.21089372,0.096353285,0.10459365,0.11540186,0.1688725,0.0043230555,-0.17380553,-0.0289848,0.05095979,-0.046821285,0.06704567,0.026079943,-0.043258607,0.103139706,0.19853553,-0.048453,-0.10057147,-0.06100135,0.025716806,0.037692145,-0.014883073,-0.23630282,0.116484515,-0.083748125,-0.009313439,0.09842149,-0.062355477,-0.17683902,0.015689308,0.11227007,0.19085003,-0.21195385,-0.15364708,0.12713532,-0.03381894,-0.2528991,-0.1383936,-0.031166805,-0.12701945,0.006144129,0.107470654,0.014607457,-0.10412293,-0.033634137,0.096792415,0.16203403,0.02876719,fatman1.jpg
4,0.028541084,-0.050586663,-0.059512395,-0.014664678,-0.017421093,0.108686805,0.11873622,0.21009842,0.122655585,0.082052365,0.10408494,0.11724028,0.11762816,-0.14937118,0.050913963,-0.035565503,0.053764716,-0.10176929,0.075744726,0.09010823,-0.020462926,-0.13952284,-0.061451264,-0.1324611,-0.07870474,0.102877654,-0.055450834,-0.0064802323,-0.103114985,0.018411612,-0.023715045,0.025845185,0.0061879293,0.12703528,-0.13297182,0.08751226,0.0589393,0.026937934,0.048748396,-0.043967802,0.071360916,-0.0056554223,-0.13213462,0.17282866,-0.14221908,-0.1000262,-0.15930986,0.074423715,-0.17793539,0.1495201,-0.14055307,0.14877461,0.16357328,-0.13431083,0.09226551,-0.1280247,-0.08556222,0.20529656,-0.0027549402,0.0051470725,-0.018446397,-0.07650085,-0.057906836,0.081113085,0.14669038,0.0055872295,0.15333897,-0.013276894,0.00990533,0.18592477,-0.12388423,-0.10074913,-0.18769123,0.26649424,0.08042288,-0.12275541,-0.18608268,-0.042233124,0.16007563,0.011409369,0.03443768,-0.000930062,-0.13169521,-0.012352307,-0.008103405,0.048749674,-0.16324645,-0.0017597792,0.14601278,-0.07301428,-0.3214238,0.1879598,-0.19168329,-0.122475654,0.0002940278,0.00900782,0.0059208353,0.19000195,-0.04292679,-0.009243239,-0.02037996,-0.037852608,0.05847424,-0.03705962,-0.044081025,-0.015605389,-0.1489964,-0.113133825,0.13127808,0.05127752,0.030119766,0.010767146,-0.0978687,0.21790078,-0.075464495,-0.0076025533,-0.03392528,0.08172209,0.14504297,-0.04357733,0.10965291,0.20275234,0.010121077,-0.19569235,0.16911936,-0.047987584,-0.0742979,-0.036438737,-0.013847531,0.029788809,0.1668348,0.035758216,-0.23093921,0.075144984,0.1351038,0.08979471,-0.010970255,-0.089800276,0.02887634,0.071971744,-0.060923204,-0.070296034,0.0627769,0.16342638,0.14279082,0.051993567,0.00023913491,-0.14612134,-0.032108247,0.14058399,-0.22456847,-0.27516863,-0.020602243,-0.19810747,-0.116754174,-0.13036555,-0.22103673,0.026029546,0.12257793,0.058911122,-0.057532713,-0.05361879,-0.028363056,0.104109414,-0.1645028,-0.03218757,-0.110271625,-0.020496625,-0.16165233,-0.0025736042,-0.0010283667,-0.12792091,-0.13917555,-0.050724573,-0.08615919,0.09153797,-0.119929984,-0.21575944,0.01935316,0.07903709,0.040388428,-0.045289528,0.07468406,-0.06820815,-0.15146907,-0.21208103,-0.14682591,-0.21130453,-0.01019497,0.15452346,-0.06612714,-0.105296664,-0.0038032932,0.037184373,0.0012672778,0.056150656,-0.032805815,-0.18198311,0.015068777,0.15477002,-0.10565892,0.27922916,-0.021381963,0.17219564,0.016150922,0.2152801,0.078974545,-0.008620145,0.11525392,-0.090417355,0.18321294,-0.14487061,0.12546672,0.12243033,0.045274112,-0.11482871,-0.03870087,-0.0705098,0.2135608,-0.2318228,-0.091093644,-0.12433803,-0.00955548,0.026152167,0.018921832,0.009581538,0.115178935,-0.100462995,0.017437879,0.033920527,0.14589222,0.033370923,-0.008073096,0.0787831,0.033931717,0.14030372,-0.06565946,-0.122554876,-0.057986062,0.22424114,0.017304508,0.0830577,0.08453166,-0.078710474,0.093285635,0.084107,0.12636764,0.08305923,-0.07622274,-0.103739195,-0.05047094,-0.07602434,0.08848846,0.007269471,-0.1833513,-0.12962078,-0.07407292,0.09750685,0.25332156,0.023379615,-0.053726297,-0.0030679512,-0.2119559,0.062270544,0.032509908,-0.11856211,-0.24527636,-0.008637445,0.04628937,-0.02700016,-0.06272099,0.106123425,-0.057450857,-0.068990074,-0.064029515,0.05811455,0.04357809,0.01350117,-0.23740965,0.04598251,-0.29320076,-0.045142893,-0.07597638,-0.06614607,-0.12665546,-0.10567069,0.05999328,-0.050660983,-0.08200055,-0.16160393,-0.014169079,0.06395209,0.17385627,-0.07390128,-0.09472652,-0.02532488,0.14392425,0.0040003303,0.035396524,-0.25317234,-0.102836035,0.03607841,0.09301084,-0.056034464,-0.013777891,0.11560951,0.040946472,0.022055184,0.13756257,0.04311473,0.047554042,0.059506427,-0.0033876824,0.06242283,0.12234801,-0.011078554,-0.15422115,-0.072161384,0.0968865,0.024186803,-0.09237517,0.053454503,-0.040719822,0.04233976,-0.19176902,-0.06366701,-0.15521388,-0.032549772,0.22013606,0.029788058,0.09017663,-0.10762274,-0.00787217,-0.015618999,0.050211318,-0.14284785,0.115121715,-0.06293958,0.10932761,0.11028358,0.057511408,-0.03811306,0.014678093,-0.08457183,-0.082923084,-0.09760508,0.038088232,-0.02136798,0.08316359,-0.012108459,-0.08122014,-0.037994392,0.04111926,-0.014976075,0.08006055,0.021865383,0.013833153,-0.08806619,-0.03326488,-0.07533116,-0.10334385,0.041690033,0.06408533,-0.18112154,-0.13247617,-0.19997801,-0.020567464,-0.004772315,-0.0828766,0.06535608,-0.111323476,-0.13785191,-0.0039145737,0.027495187,0.00093497103,0.0104212165,0.121420816,0.04565885,0.110473655,0.14450046,-0.14003567,-0.0023209522,0.026372196,-0.027322274,-0.09592632,-0.090398274,0.056612745,0.06236939,0.08760273,-0.07450689,-0.10523757,0.02372802,0.09645368,0.036858983,0.018815998,-0.06762203,0.011538865,0.014639786,-0.049939804,0.042557422,-0.14461613,0.016619861,0.02824442,0.23501748,0.13868809,-0.08201198,0.10642011,0.09141456,0.010218583,0.1204041,-0.06304484,-0.017874872,0.05421121,-0.096159674,0.16380769,0.10550501,0.045269232,-0.20074508,-0.2218437,-0.06931226,0.048286553,-0.08677067,0.0040915725,-0.071004644,0.09920072,0.17507248,0.07882133,-0.04772749,-0.17811984,-0.047623623,0.12086134,-0.0049375882,0.1632518,-0.047892377,0.15008308,0.15044048,-0.3368894,0.15343936,0.00608036,0.1470283,0.14604174,-0.098965414,0.263592,0.15529008,-0.077612646,0.18504769,0.03504096,-0.03115419,0.09162635,0.034308713,-0.123928994,0.015972117,-0.019858638,0.094000384,-0.14318539,0.18459143,-0.0056512333,-0.022513065,-0.11324384,-0.044205002,0.0054402975,0.02825978,-0.053046048,-0.11804708,0.13281198,0.22965392,0.11114742,0.111166984,0.123750284,0.17120817,0.0030295947,-0.17805637,-0.03946264,0.048805043,-0.046995673,0.076476105,0.022575183,-0.059953183,0.10734952,0.19390596,-0.03995304,-0.11364287,-0.07345965,0.0021188098,0.035232905,-0.02291507,-0.23712982,0.12990706,-0.09588115,-0.023465907,0.09753008,-0.07286216,-0.19178958,0.025400385,0.111249715,0.19003999,-0.21773869,-0.1514617,0.13166662,-0.03508209,-0.24799281,-0.14240478,-0.03512888,-0.12618019,0.010275622,0.10412534,0.02057785,-0.119987555,-0.048643593,0.1003523,0.16725938,0.03486972,fatman3.jpg
5,0.020599496,-0.05446191,-0.053152926,-0.017058274,-0.013027605,0.10820227,0.11439733,0.19410902,0.12756433,0.083626665,0.093460366,0.10998716,0.11719758,-0.1294588,0.049652494,-0.029618204,0.041019805,-0.10360773,0.08118425,0.09448239,-0.014133446,-0.13577463,-0.055470426,-0.13919231,-0.065538496,0.118821494,-0.04150629,-0.024653638,-0.09160017,0.03719788,-0.024860417,0.016481366,0.009655944,0.12649368,-0.12616096,0.08377283,0.053826593,0.034904107,0.050463982,-0.059627935,0.059324168,-0.014095813,-0.1146056,0.17488539,-0.11729674,-0.12177493,-0.13879383,0.08061596,-0.17624742,0.13881345,-0.121579126,0.14605722,0.17214453,-0.1181082,0.083379775,-0.13949439,-0.093618095,0.19369733,-0.00060447335,-0.013031763,-0.01227218,-0.06397215,-0.050362725,0.0834539,0.13934079,0.0056301276,0.13928957,-0.019270832,0.007027853,0.1918541,-0.1046253,-0.08118002,-0.18984942,0.25552875,0.10316146,-0.10209711,-0.17165339,-0.047226902,0.14493628,0.013493989,0.037423834,0.017861422,-0.11845682,0.0021191167,0.004087119,0.05112887,-0.14536747,0.009872513,0.13570593,-0.06439167,-0.32189107,0.1831072,-0.16742533,-0.1292361,-0.0015635976,0.0021813083,0.009089724,0.1844154,-0.019059826,-0.007025306,-0.016759345,-0.028756432,0.04796677,-0.026410967,-0.042021148,-0.018638326,-0.1271001,-0.10461804,0.1268526,0.04944144,0.019690085,0.017070375,-0.097008005,0.194367,-0.07087636,0.0019268238,-0.016722186,0.08544985,0.13162859,-0.055328224,0.10947433,0.19052094,0.02858858,-0.1960805,0.17003709,-0.052949138,-0.082801975,-0.015010746,-0.0017855017,0.01164736,0.1584063,0.0385093,-0.2406115,0.08453941,0.13043195,0.07117101,-0.0065429714,-0.090929255,0.0026320838,0.06556544,-0.060689583,-0.073148385,0.07101609,0.12953837,0.1412756,0.053171616,-0.005471978,-0.13685925,-0.032553732,0.12136257,-0.21337952,-0.27128187,-0.024205549,-0.19318804,-0.10473876,-0.12439327,-0.21896787,0.039121624,0.12112778,0.054172665,-0.052340608,-0.059525836,-0.051621888,0.106612675,-0.13654941,-0.038064174,-0.11529871,-0.028976684,-0.1398697,-0.013077593,0.017581074,-0.1287726,-0.13662301,-0.05317168,-0.0849412,0.10309005,-0.1289088,-0.2066686,0.024727048,0.07063836,0.048783656,-0.04756192,0.061253984,-0.058443923,-0.13137607,-0.22116575,-0.15924777,-0.19738798,-0.023091163,0.15355782,-0.06579299,-0.092700824,-0.0026896163,0.055052288,-0.0015171879,0.05603565,-0.022907626,-0.16110893,0.020237409,0.1499329,-0.09502147,0.28953692,-0.022263627,0.16791181,0.028752878,0.1990737,0.08214271,0.0044340664,0.10033889,-0.076979324,0.1812101,-0.11698795,0.13228102,0.12753284,0.035977717,-0.09954609,-0.03698139,-0.05356925,0.22010383,-0.24000491,-0.0934835,-0.1138462,-0.0112087615,0.026577838,0.01734547,0.0025303012,0.11594402,-0.08485948,0.002751737,0.022471795,0.13859798,0.02989258,-0.012829822,0.07557583,0.04656064,0.13352172,-0.05723496,-0.13490827,-0.048068974,0.21331108,0.038611326,0.08782295,0.08320405,-0.069182865,0.09507578,0.09069231,0.12672734,0.07981348,-0.059471738,-0.11772426,-0.022834446,-0.0830555,0.09479623,0.027634164,-0.1535088,-0.12427041,-0.08337183,0.09427147,0.24557228,0.012119593,-0.034021832,0.0013759745,-0.20928538,0.044194933,0.03821211,-0.109019734,-0.24500866,-0.0066813305,0.05020937,-0.029876003,-0.039543156,0.098588966,-0.050720237,-0.06287851,-0.06356728,0.04436783,0.05573604,0.01844698,-0.2359397,0.047179986,-0.27260336,-0.026591802,-0.073107965,-0.07903446,-0.118351325,-0.08648167,0.057309315,-0.046534084,-0.08486524,-0.18667266,-0.018921502,0.061152156,0.16689543,-0.058001045,-0.10559722,-0.03312014,0.14199243,0.0076771984,0.04283228,-0.24200271,-0.10030986,0.046672385,0.08644,-0.07316862,-0.008486605,0.10842246,0.050132204,0.024934977,0.14329016,0.040792096,0.039218593,0.058115244,0.0044337977,0.082348935,0.1076213,0.010489807,-0.16045354,-0.089416936,0.101023704,0.040410962,-0.09640494,0.05443153,-0.038243078,0.046200596,-0.18682936,-0.056654777,-0.14964236,-0.032558948,0.22177753,0.042027302,0.086446986,-0.10585675,-0.012369141,-0.011561361,0.039176423,-0.14920297,0.10693124,-0.074901804,0.10957444,0.11414314,0.06220602,-0.044350162,0.016877804,-0.100415215,-0.07475054,-0.088389486,0.021626554,-0.021332977,0.097479984,-0.017037231,-0.07417461,-0.028536,0.05059932,0.007143517,0.066946544,0.031644218,0.032957282,-0.0710333,-0.03209556,-0.060609844,-0.104858376,0.041553505,0.05525973,-0.17002882,-0.124475144,-0.18582805,-0.013106735,-0.032277312,-0.07307577,0.06238534,-0.09741397,-0.12587422,0.010559409,0.019135138,0.017857311,-0.0039262064,0.104055256,0.029663237,0.09328557,0.14073026,-0.11378932,-0.016749302,0.02490906,-0.022585902,-0.08927508,-0.077078626,0.05554142,0.04732051,0.0833742,-0.073510885,-0.10998511,0.032838233,0.09564024,0.023819158,0.005202073,-0.056886252,0.008292391,0.008400973,-0.047649242,0.038627878,-0.14164256,0.0037099354,0.024191275,0.21972853,0.13494791,-0.07554289,0.100413874,0.09988205,0.012508733,0.12287453,-0.055367917,-0.019624736,0.061721478,-0.0755643,0.15096197,0.10450307,0.055518597,-0.19468269,-0.21600004,-0.07171525,0.044197664,-0.09078943,0.014942104,-0.047711685,0.08994372,0.16229248,0.07496295,-0.055623308,-0.17911738,-0.04129679,0.096555814,-0.013640155,0.15797172,-0.051115155,0.14749895,0.15667996,-0.33248162,0.13782161,0.022055734,0.14575474,0.12564847,-0.0929317,0.27428955,0.15947196,-0.07531545,0.1925565,0.024619076,-0.02982326,0.09650505,0.033712175,-0.11710788,0.020361466,-0.016583739,0.08526799,-0.12357272,0.2035077,-0.010803829,-0.018895557,-0.102820285,-0.035448737,-0.007590839,0.049394753,-0.039232977,-0.11606939,0.122529946,0.22860314,0.1033357,0.1259542,0.12777278,0.1650055,0.0022764914,-0.15515563,-0.025851822,0.037260756,-0.06294352,0.072973125,0.023034457,-0.050924387,0.10502555,0.21197669,-0.030735767,-0.10114236,-0.06707737,0.021918295,0.051852807,-0.009819301,-0.23638296,0.12954123,-0.106070995,-0.016689178,0.08573531,-0.05349701,-0.18403654,0.009265272,0.1093644,0.17375311,-0.20268741,-0.15720503,0.123342976,-0.03576469,-0.24399646,-0.13782693,-0.04137717,-0.12811546,0.0074528214,0.09222615,0.014476678,-0.1012684,-0.046483308,0.099642105,0.16754696,0.029480485,fatwoman1.jpg
6,0.030675845,-0.04954114,-0.053107712,-0.013912234,-0.018701913,0.09602071,0.11864714,0.19430445,0.1191676,0.08097304,0.096173115,0.12419506,0.11223609,-0.13747285,0.050108023,-0.0302315,0.043734286,-0.10131738,0.07748647,0.08792558,-0.010595312,-0.14128944,-0.050441217,-0.15337901,-0.07096884,0.09876363,-0.046735078,-0.029310778,-0.101740666,0.0234073,-0.020495273,0.031582262,0.0077947364,0.1252478,-0.14021222,0.08392397,0.053437356,0.025392747,0.038725223,-0.054037176,0.06568976,-0.014354973,-0.11889986,0.18891656,-0.13621649,-0.11399,-0.15166797,0.08278739,-0.18075286,0.13429789,-0.14642355,0.1515919,0.17373239,-0.1288309,0.08642962,-0.13081564,-0.0766454,0.1945281,0.0008966204,-0.0026893688,-0.01954534,-0.07637852,-0.063643634,0.083206154,0.14349186,0.0044727926,0.15169714,-0.009894898,0.012899423,0.19840528,-0.10654711,-0.09107359,-0.19074,0.25125277,0.08569555,-0.11746848,-0.17475732,-0.045310464,0.15595259,0.019352693,0.041944318,0.007928998,-0.11224376,-0.0046783662,-0.0010371986,0.059912838,-0.16112408,-0.002527151,0.14672638,-0.079260156,-0.32082057,0.18632516,-0.18273905,-0.11844011,0.0013252266,0.011621451,0.0118186865,0.1906082,-0.038105153,0.0005595348,-0.031902254,-0.035735793,0.06174299,-0.007408242,-0.042069484,-0.03047508,-0.13910857,-0.105256654,0.1389496,0.050500214,0.02114766,0.017367365,-0.09159391,0.20400152,-0.065604486,0.014552203,-0.018743476,0.07390107,0.13257256,-0.056875095,0.11484711,0.19564417,0.01731099,-0.18424775,0.17154416,-0.04096942,-0.083061606,-0.021413703,-0.010370515,0.022449309,0.17189535,0.039556365,-0.244297,0.085099176,0.13002452,0.08610665,-0.007630844,-0.0848626,0.019184973,0.08248243,-0.055740755,-0.07677862,0.062802546,0.14621079,0.14906894,0.05088924,-0.014706452,-0.14384915,-0.03111507,0.13401762,-0.21947595,-0.27242225,-0.031506594,-0.20103203,-0.10936332,-0.13671777,-0.22583282,0.04250956,0.12472295,0.055513497,-0.05685901,-0.05033441,-0.042509545,0.103947125,-0.1451246,-0.0480449,-0.10955926,-0.024678018,-0.15231545,-0.013386293,0.013403973,-0.14403594,-0.13452326,-0.052909367,-0.08367118,0.095421106,-0.11839254,-0.20923272,0.021160385,0.07358962,0.04352499,-0.04480093,0.07240819,-0.06378772,-0.14303032,-0.21649541,-0.1634077,-0.20001774,-0.02115785,0.16310744,-0.06403982,-0.09989557,-0.0051035318,0.05101777,0.0019912787,0.06769744,-0.028575445,-0.17786103,0.021502199,0.14780001,-0.10248542,0.30181485,-0.018826287,0.16881195,0.030883387,0.20903218,0.069483176,0.012500637,0.114358835,-0.082999,0.18753244,-0.14106925,0.12873061,0.11762622,0.03537034,-0.10578319,-0.046189796,-0.051265895,0.2086529,-0.23403543,-0.098083094,-0.11823646,-0.005161139,0.026475001,0.03228041,0.0028548439,0.11144243,-0.107286766,0.009322591,0.030093618,0.14269361,0.030196069,-0.0066508707,0.07490527,0.037691962,0.1323931,-0.05578565,-0.118142985,-0.058138553,0.222614,0.033005342,0.08923532,0.07926667,-0.06932697,0.0925077,0.09190889,0.12982465,0.087908566,-0.07452514,-0.11366569,-0.040484462,-0.08721734,0.08323356,0.021928255,-0.16741578,-0.13192101,-0.081349105,0.097134784,0.24985753,0.015340808,-0.03762207,0.0031523257,-0.20980975,0.058606993,0.025719,-0.107780166,-0.25731018,-0.00014048716,0.042708714,-0.031037392,-0.053619504,0.10599049,-0.05332806,-0.06562718,-0.074902646,0.044528756,0.05415572,0.019428808,-0.22952354,0.040088497,-0.29654518,-0.040135615,-0.08891393,-0.07353267,-0.12798744,-0.10681209,0.05262294,-0.05184572,-0.085130006,-0.16833173,-0.010598778,0.06489954,0.17214298,-0.06718949,-0.10866684,-0.025069306,0.14385977,0.011100934,0.03072726,-0.24749395,-0.10164493,0.049178477,0.088707484,-0.0761854,-0.021980578,0.10965817,0.055507235,0.035721354,0.13812968,0.045552757,0.05321444,0.05496412,-0.0063493983,0.07100106,0.10269853,0.013278198,-0.15395859,-0.094027296,0.09991824,0.036624152,-0.09998192,0.0590114,-0.040420584,0.03688587,-0.18336196,-0.064845376,-0.15550293,-0.03255476,0.21687976,0.032555513,0.09127844,-0.10556459,-0.02184316,-0.010818176,0.034677632,-0.15582874,0.110374585,-0.0778804,0.116379574,0.11558556,0.05990388,-0.038138486,0.0073472047,-0.08943846,-0.07376659,-0.09715891,0.036535885,-0.01681561,0.10084207,-0.012609261,-0.0733688,-0.033619836,0.045004953,0.0019742004,0.07296031,0.03397579,0.018620646,-0.08764837,-0.040783875,-0.06412826,-0.11978132,0.042841196,0.0661003,-0.16777447,-0.12635505,-0.19384119,-0.026660817,-0.011761908,-0.082478866,0.057456758,-0.09881732,-0.13955534,0.0029926482,0.028512126,0.01275625,0.00047242732,0.106131054,0.042495355,0.09868582,0.14051324,-0.12891117,-0.015606878,0.034009367,-0.029813685,-0.08267194,-0.06951722,0.06723511,0.066638745,0.09431403,-0.07164338,-0.09954068,0.020666456,0.10348086,0.032572027,0.022153033,-0.074187145,-0.0040660514,0.010479557,-0.04457669,0.04171454,-0.1306497,0.009422645,0.023069188,0.23850805,0.12969077,-0.08775721,0.10090086,0.10002244,0.014179451,0.12221534,-0.06448628,-0.002870584,0.069279425,-0.08142125,0.1523108,0.09968029,0.049891643,-0.19163232,-0.22690067,-0.06905103,0.046879034,-0.091592014,0.0119356625,-0.05398353,0.08098674,0.15789554,0.06921234,-0.04358541,-0.17826483,-0.040036414,0.10944887,-0.014455374,0.15292367,-0.0507913,0.1561563,0.16108637,-0.32921675,0.15272175,0.0136922235,0.14322056,0.13153681,-0.088305674,0.28917623,0.1713728,-0.08042992,0.18939155,0.037264872,-0.039218865,0.07927975,0.028943334,-0.12614655,0.026543511,-0.021343436,0.09319902,-0.14437689,0.1873201,-0.022831684,-0.021721711,-0.09696473,-0.038802583,-0.0030249318,0.04468366,-0.054586336,-0.118597224,0.12909313,0.21809988,0.10712123,0.10842004,0.13237639,0.16848609,0.006797457,-0.16930082,-0.036518935,0.060839772,-0.059654146,0.07080621,0.017697766,-0.04241251,0.11018197,0.20586248,-0.050441045,-0.10402528,-0.06928505,0.032911588,0.033185203,-0.016341567,-0.24946427,0.12741803,-0.09017644,-0.00980511,0.09979053,-0.06263143,-0.19238181,0.013178899,0.113370575,0.17824304,-0.21296646,-0.15984666,0.12916733,-0.024179405,-0.25094855,-0.148135,-0.032730617,-0.13190147,0.007930628,0.10208256,0.018055089,-0.10700271,-0.043058503,0.10662227,0.1692424,0.03374069,fatwoman3.jpg
7,0.030888408,-0.047181807,-0.05718309,-0.02319098,-0.022480762,0.09446453,0.11734266,0.2099112,0.11811646,0.0915054,0.09887263,0.116842836,0.11320258,-0.13109742,0.056595653,-0.029021224,0.044585627,-0.10357553,0.07946183,0.09010559,-0.023328071,-0.14477642,-0.051075503,-0.13980609,-0.068910874,0.08879731,-0.048091806,-0.027498785,-0.10166902,0.020887889,-0.019139519,0.038306113,0.011184153,0.11975425,-0.14732273,0.08141734,0.05946822,0.015057068,0.038275495,-0.06437557,0.07209035,-0.014604423,-0.11590084,0.18575223,-0.13416915,-0.09917927,-0.15125407,0.078672215,-0.17966159,0.14262314,-0.1417682,0.14332296,0.17447846,-0.12408011,0.09908613,-0.13800657,-0.08872909,0.20577312,-0.00016958332,-0.0039862166,-0.019246437,-0.07786415,-0.061257664,0.08151319,0.12857106,0.0072613144,0.15768582,-0.020048494,0.011936703,0.19861582,-0.11739243,-0.08679635,-0.17970295,0.26747936,0.08147197,-0.12738974,-0.17922395,-0.045449182,0.15314683,0.02511288,0.04756801,-0.00019254521,-0.12583876,-0.01762341,-0.0041949367,0.06298331,-0.15472749,-0.00069242704,0.15812899,-0.0721109,-0.32310355,0.189394,-0.178896,-0.120442875,-0.0017922205,0.001894122,0.018651051,0.19153604,-0.022532776,-0.0005250114,-0.030729724,-0.027628789,0.05182156,-0.012927896,-0.045940988,-0.030408612,-0.13520005,-0.108056836,0.1332363,0.055246443,0.022672016,0.014713735,-0.09925171,0.20568365,-0.070587955,0.017689442,-0.019382518,0.086864494,0.14134076,-0.046952456,0.11326223,0.199255,0.00990417,-0.20172988,0.17433685,-0.04885471,-0.084129505,-0.026109945,-0.004428861,0.0206693,0.1669587,0.038476065,-0.24929538,0.07589067,0.13046071,0.09062415,0.005669052,-0.08978865,0.018281974,0.07132984,-0.057432555,-0.07315408,0.060307965,0.13830157,0.14768407,0.05527889,-0.008994266,-0.14203648,-0.034927834,0.12967463,-0.22383057,-0.27241322,-0.03908159,-0.19847836,-0.111264706,-0.13509877,-0.22365531,0.030848313,0.12263909,0.051164623,-0.058911767,-0.051465422,-0.03914017,0.1078097,-0.15067531,-0.03720201,-0.106757075,-0.022265412,-0.15978296,-0.012861562,0.0021450717,-0.14036502,-0.13457759,-0.0590465,-0.080409065,0.106900394,-0.12550741,-0.22186609,0.022841847,0.06578212,0.056290023,-0.039626714,0.07751361,-0.066949934,-0.15005192,-0.21487437,-0.14803588,-0.20320468,-0.022198053,0.13682327,-0.06693702,-0.1073878,-0.0068783276,0.046801567,-0.000544027,0.05602051,-0.028436692,-0.17708819,0.031366028,0.15286557,-0.1131848,0.2939008,-0.016236318,0.17244963,0.017552763,0.20854199,0.07196699,0.012821099,0.108465165,-0.07783297,0.18427125,-0.13671027,0.12733147,0.10963999,0.04214928,-0.10971675,-0.036333065,-0.06392732,0.20891121,-0.23307736,-0.09641079,-0.120337516,-0.00861699,0.02390558,0.03220209,0.003917327,0.11788055,-0.090389416,0.0043049967,0.026242714,0.1421365,0.023696084,-0.0073718647,0.0767619,0.028979862,0.1354091,-0.062425923,-0.11304379,-0.052838985,0.22571747,0.0272309,0.09419365,0.074214324,-0.06869796,0.10005763,0.082801566,0.1305316,0.0938895,-0.07568932,-0.11693168,-0.036713976,-0.08783269,0.08285214,0.019035459,-0.16523193,-0.1311033,-0.08470628,0.101053596,0.23943266,0.014866613,-0.04170534,-0.0006823872,-0.21477991,0.05272205,0.012238491,-0.117233254,-0.25103998,0.000194292,0.04589351,-0.032432787,-0.056872744,0.10600891,-0.05061426,-0.06775677,-0.082636416,0.041426614,0.05799993,0.013541294,-0.2402246,0.04371385,-0.29134515,-0.044381574,-0.08874041,-0.07941704,-0.14235944,-0.101759695,0.050312154,-0.04927909,-0.08678133,-0.16661394,-0.0031427615,0.058189712,0.16887182,-0.074594565,-0.11496281,-0.019761171,0.14642474,0.017116252,0.023720114,-0.24325413,-0.10554961,0.043957006,0.096215494,-0.07508719,-0.017621811,0.112625785,0.05528835,0.02875902,0.14092822,0.04922273,0.047246285,0.061183706,-0.0012944285,0.07260955,0.107116655,0.008777688,-0.16093092,-0.091421954,0.10899427,0.028071927,-0.10801544,0.060602587,-0.046005066,0.02247569,-0.18922943,-0.061466303,-0.15722863,-0.03255326,0.21048881,0.033585995,0.096807435,-0.1062983,-0.01857526,-0.010310332,0.038968526,-0.15781012,0.11152378,-0.079116255,0.112878874,0.106783435,0.07008629,-0.05043092,0.00433024,-0.09786277,-0.07169482,-0.08932635,0.022996373,-0.019552696,0.096911766,-0.010591592,-0.08325762,-0.04003291,0.045249965,0.0005949138,0.066736095,0.036147002,0.02065771,-0.08076691,-0.04194426,-0.07484096,-0.110874645,0.051015995,0.053298023,-0.1738216,-0.13157387,-0.19621211,-0.020771125,-0.010304083,-0.070195965,0.063311234,-0.10230175,-0.15277731,0.0037196672,0.027185697,0.0151502,0.003423013,0.113405354,0.039288715,0.107515715,0.15703477,-0.12957357,-0.010504485,0.039532997,-0.03904009,-0.08879838,-0.0742529,0.06792244,0.05101401,0.09743461,-0.06692044,-0.10554763,0.023964457,0.09372564,0.026895275,0.02340227,-0.07214155,-0.0185114,0.00946404,-0.047208812,0.043606006,-0.1379207,0.016653877,0.026906028,0.23198137,0.1387886,-0.08773786,0.10755728,0.082466476,0.00024115399,0.13302092,-0.060891274,-0.002794995,0.06599241,-0.083000295,0.1504064,0.10133637,0.04994662,-0.20056136,-0.22422802,-0.06949845,0.049771488,-0.09021603,0.0036012328,-0.05813425,0.09073587,0.15844002,0.07683429,-0.047859576,-0.17399523,-0.03619047,0.1110319,-0.011914867,0.14970532,-0.057611663,0.15138465,0.16909318,-0.33104396,0.14943887,0.013974007,0.15169747,0.13852417,-0.1079737,0.27178547,0.17164016,-0.07890598,0.18723875,0.024596581,-0.0353436,0.087768316,0.032596745,-0.11449904,0.02856758,-0.016352026,0.09609113,-0.13868164,0.18636748,-0.012910054,-0.020129763,-0.10337438,-0.043039516,0.00045175196,0.034445573,-0.04361807,-0.121505156,0.1320181,0.21795031,0.11269791,0.10542631,0.12086332,0.17345823,0.008520761,-0.17353654,-0.049744315,0.05419637,-0.054853626,0.07637549,0.020193277,-0.042508055,0.114686176,0.2050845,-0.040678795,-0.110280335,-0.06675673,0.023949869,0.037081514,-0.0072718756,-0.24966413,0.13107353,-0.086507015,-0.0123371715,0.10141822,-0.062064126,-0.21263416,0.018423487,0.119777076,0.1890906,-0.22786777,-0.1632093,0.12699085,-0.030343737,-0.24861243,-0.16086718,-0.044192135,-0.13010493,0.011862336,0.09477039,0.012136991,-0.10848437,-0.04130255,0.105197534,0.16806328,0.034275096,fatwoman2.jpg
8,0.036484428,-0.055482686,-0.054840274,-0.009340092,-0.015616574,0.105497345,0.11274046,0.19733748,0.12162452,0.08851701,0.09382631,0.11970927,0.1237133,-0.13215932,0.047497932,-0.02993395,0.033804975,-0.107364535,0.07669091,0.09033082,-0.00979738,-0.14427109,-0.055819497,-0.15085562,-0.07975942,0.11177703,-0.04687137,-0.024637267,-0.101458415,0.017451927,-0.010917384,0.03886479,0.003131223,0.12741679,-0.14348629,0.09306143,0.047836196,0.032094754,0.049031716,-0.06542598,0.07155689,-0.028044047,-0.1198769,0.18304303,-0.13586006,-0.118901946,-0.16137122,0.06914715,-0.18160743,0.13186002,-0.14459476,0.15308163,0.16750564,-0.11116003,0.08908978,-0.14929985,-0.066084065,0.20821533,-0.0028607338,-0.00396923,-0.024355156,-0.08908817,-0.06480061,0.082137056,0.1489871,0.003351616,0.15314041,-0.025629278,0.009274136,0.1949868,-0.11123143,-0.090196356,-0.17833312,0.253377,0.083482444,-0.12257155,-0.18398435,-0.04584166,0.15286422,0.011698899,0.058179826,0.00090047636,-0.11936642,-0.003271898,-0.008299149,0.062560275,-0.16388147,-0.0015449194,0.15386261,-0.092474736,-0.30853522,0.19521931,-0.18520375,-0.12598406,-0.009779961,0.005588607,0.024711583,0.1831611,-0.036972687,-0.010970266,-0.033712756,-0.030851,0.064104564,0.007242972,-0.04584516,-0.028209848,-0.14127891,-0.113872334,0.14369133,0.06520506,0.017189382,0.012850281,-0.08664947,0.20560025,-0.06592054,-0.0008123281,-0.026885953,0.07491855,0.14302178,-0.060131405,0.11594348,0.19185102,0.00919231,-0.1823474,0.17346406,-0.048238583,-0.06739247,-0.033351835,-0.003627153,0.005748545,0.17055114,0.034966055,-0.24408819,0.08291953,0.13740388,0.09096218,-0.0104200225,-0.0837791,0.038984917,0.081432566,-0.056207098,-0.087598726,0.064968504,0.15419577,0.14356314,0.04029647,-0.022210198,-0.14382522,-0.036662646,0.13235442,-0.21429077,-0.2773736,-0.036655206,-0.18613854,-0.1105479,-0.1366347,-0.22793621,0.046545785,0.12070843,0.050508823,-0.05793909,-0.046995267,-0.036286574,0.09604762,-0.14537524,-0.047612324,-0.1068951,-0.019519921,-0.15869017,-0.0056752046,0.019959839,-0.13735753,-0.14456354,-0.052997738,-0.09235294,0.08965241,-0.12243242,-0.21621077,0.035929125,0.07824943,0.040683933,-0.044768818,0.07529762,-0.06846818,-0.131033,-0.22280322,-0.15277988,-0.2071344,-0.0115580885,0.15540738,-0.067102194,-0.113152914,-0.0030758511,0.04443241,0.0016811709,0.062337533,-0.030317958,-0.18727638,0.023420885,0.14702474,-0.105635196,0.29684895,-0.02842875,0.16846257,0.01907423,0.21422729,0.08914898,0.01807254,0.12486166,-0.07428053,0.19136417,-0.1487771,0.13962291,0.12574641,0.028328909,-0.11690432,-0.052008823,-0.060286406,0.20952779,-0.23672229,-0.09719783,-0.12154446,-0.01141943,0.025502535,0.029315153,0.008029767,0.115619734,-0.09320305,0.013318055,0.033097245,0.14108163,0.039228298,0.004431769,0.09132169,0.041897085,0.14507957,-0.05818357,-0.11639873,-0.06601306,0.22200365,0.016787807,0.09569667,0.0925194,-0.06941424,0.09854837,0.081323825,0.1287199,0.08694893,-0.072226636,-0.110407196,-0.03676179,-0.07841483,0.08408605,0.028004948,-0.18471624,-0.13103016,-0.084495366,0.095375694,0.26012427,0.0150109315,-0.038718645,0.0022263618,-0.20699416,0.062443864,0.024976237,-0.11674557,-0.2671275,0.0032387108,0.045258045,-0.017940905,-0.05362165,0.1111344,-0.059510574,-0.07046011,-0.06690886,0.05255428,0.056124497,0.016817063,-0.23480535,0.04696974,-0.30292755,-0.030077776,-0.09103262,-0.07652645,-0.13977402,-0.10909609,0.043279927,-0.053114764,-0.086123206,-0.16300237,-0.01068225,0.05275952,0.17220418,-0.063682556,-0.10380037,-0.027776444,0.14900161,0.0065064966,0.025042767,-0.24142575,-0.09441056,0.041584484,0.09145983,-0.07435154,-0.023088256,0.1145424,0.06054801,0.026488982,0.13828358,0.04386539,0.051587466,0.041232523,-0.0012776754,0.06729501,0.09874359,0.006428516,-0.1538721,-0.08065477,0.100861914,0.047735184,-0.096721426,0.06746841,-0.026880829,0.04139023,-0.18177435,-0.07142879,-0.15480243,-0.032552343,0.21580417,0.030295411,0.08638877,-0.10351336,-0.025398519,-0.000872013,0.040816247,-0.15283857,0.120307304,-0.07086706,0.10778693,0.10210309,0.0616223,-0.042085957,0.014127726,-0.084419,-0.06848265,-0.093564704,0.044711888,-0.009961233,0.08531052,-0.00672233,-0.07886915,-0.04002208,0.048937883,-0.006123024,0.08874504,0.041272394,0.013148035,-0.09744398,-0.029200384,-0.07268994,-0.10919353,0.0595657,0.07088223,-0.18158455,-0.1297847,-0.18184222,-0.026213678,0.0076827384,-0.084194526,0.061427508,-0.10307279,-0.15100682,0.008674157,0.030311536,0.010545077,-0.00062091975,0.10866565,0.047410715,0.10172053,0.14328401,-0.12590691,-0.0121060675,0.033172462,-0.03222776,-0.094219655,-0.07228208,0.05479181,0.066139966,0.096804455,-0.08794321,-0.118317895,0.01251308,0.10177609,0.033248994,0.03090093,-0.085480355,-0.0024353075,0.008737947,-0.047312614,0.044275735,-0.13832948,0.009971231,0.024837598,0.2376437,0.13417514,-0.08402095,0.0952352,0.09998628,0.025727686,0.11010339,-0.065073416,-0.009180304,0.06979382,-0.09134633,0.15224764,0.09725071,0.048916962,-0.18947963,-0.23818338,-0.06762378,0.05098927,-0.08643744,0.005722901,-0.05822486,0.08422143,0.1569383,0.080234714,-0.050602794,-0.16777246,-0.044620734,0.11270344,-0.009761399,0.16091003,-0.047475483,0.1526676,0.165178,-0.33824283,0.15673389,0.0007170878,0.14004092,0.13007091,-0.095233284,0.30742943,0.18075654,-0.09493419,0.20191097,0.033866867,-0.020191265,0.09740347,0.042242993,-0.105975814,0.016990878,-0.0050895642,0.098526254,-0.1521667,0.18179402,-0.013162236,-0.030110003,-0.09932194,-0.047262825,-0.005843944,0.04577062,-0.054545943,-0.12065685,0.13335536,0.2192637,0.11373361,0.09171086,0.12099182,0.16919789,0.0069724685,-0.16550685,-0.050268613,0.049393423,-0.056667782,0.07399774,0.00958979,-0.044411607,0.103344165,0.22672795,-0.04684391,-0.103954725,-0.07415013,0.027463045,0.0166911,-0.03248159,-0.2365821,0.12529308,-0.104976654,-0.011752725,0.10266982,-0.06318935,-0.192199,0.005730263,0.10582964,0.1835376,-0.2125219,-0.14808956,0.12663077,-0.021458555,-0.24097724,-0.140859,-0.05137536,-0.13148873,0.014739291,0.1130694,0.010930359,-0.11045205,-0.05044424,0.104730874,0.1802853,0.032290943,fatwoman6.jpg
9,0.035738572,-0.046815246,-0.06178462,-0.021030197,-0.017950783,0.10118923,0.12475592,0.20609494,0.116844945,0.08419953,0.098896235,0.1205894,0.11447112,-0.13889356,0.056423336,-0.0353059,0.048410006,-0.09773584,0.07582741,0.082663946,-0.018481005,-0.14169848,-0.051887687,-0.1456404,-0.08398084,0.095417775,-0.050117213,-0.02407763,-0.10061193,0.011525426,-0.012655494,0.043536417,0.006321261,0.12136659,-0.13579966,0.09069981,0.055079803,0.023280462,0.03648125,-0.0552806,0.06466781,-0.012957937,-0.12328372,0.18240708,-0.14178482,-0.110258706,-0.15536304,0.07154724,-0.18263407,0.13788363,-0.14630674,0.15302798,0.169424,-0.12621082,0.09521685,-0.14129734,-0.06651091,0.20119141,-0.0013002986,0.008252957,-0.021802822,-0.08829746,-0.06917832,0.08180085,0.14467557,-0.0017171664,0.15430823,-0.014574421,0.014555292,0.1917373,-0.114676006,-0.088887624,-0.19010675,0.25694054,0.078975916,-0.12687871,-0.17655784,-0.039477885,0.15557389,0.017770102,0.04810572,-0.0013071402,-0.119526975,-0.0040554507,-0.008416198,0.058561694,-0.15863527,-0.009114229,0.15476763,-0.076748766,-0.31509906,0.19406681,-0.1875403,-0.11441057,-0.0013769123,0.006966997,0.021655254,0.18318605,-0.03835433,-0.007915059,-0.02838173,-0.03248016,0.06769972,-0.0073477775,-0.04491483,-0.032147914,-0.13828239,-0.1043213,0.14309058,0.04900127,0.02394053,0.008515349,-0.086036876,0.20776217,-0.067399584,0.007324692,-0.02149876,0.07114003,0.13944511,-0.049647335,0.11369268,0.19433711,0.009072965,-0.19182621,0.17148477,-0.054782625,-0.069070645,-0.033799842,-0.011424107,0.025429482,0.1694658,0.03517556,-0.24202281,0.08339339,0.13518265,0.09416681,-0.002320617,-0.09530394,0.035708092,0.08134995,-0.055461396,-0.07862786,0.061309073,0.15190281,0.144678,0.04466786,-0.017622432,-0.14712453,-0.037572358,0.13631505,-0.2231625,-0.27387664,-0.033845115,-0.19462714,-0.11603921,-0.13767591,-0.22508559,0.03312874,0.1261807,0.052634224,-0.051640563,-0.046079338,-0.030581566,0.10341518,-0.14578688,-0.039539617,-0.11189343,-0.013468537,-0.15256794,-0.0081386985,0.0070082587,-0.13395435,-0.13422464,-0.051109307,-0.09302298,0.082831025,-0.12361342,-0.21463577,0.025927369,0.077463984,0.050642267,-0.041757695,0.07183598,-0.066970296,-0.15147325,-0.21327856,-0.15501131,-0.20732784,-0.013891248,0.14802304,-0.06440995,-0.10540675,-0.008606876,0.039394118,-0.0026319006,0.062637605,-0.022596486,-0.18462342,0.019625014,0.14702591,-0.1113941,0.2926926,-0.023723235,0.16852404,0.021453202,0.2088929,0.07698253,0.0026705777,0.118646905,-0.08905034,0.18700267,-0.15475942,0.12562075,0.12352895,0.031211922,-0.11884043,-0.04403997,-0.06629544,0.20799367,-0.22366235,-0.088892065,-0.11766456,-0.0025268884,0.028917065,0.02834246,0.008312163,0.11884943,-0.103388734,0.009762959,0.02478099,0.13645087,0.025833856,-0.0080554765,0.08167233,0.032236896,0.14671794,-0.058721274,-0.1113773,-0.07041599,0.22904092,0.023643255,0.09272108,0.07505174,-0.07566162,0.09644645,0.087525986,0.12247877,0.08895905,-0.07955219,-0.107730635,-0.056090105,-0.0799607,0.08282461,0.012242856,-0.18250312,-0.13172781,-0.07457659,0.093804196,0.24723548,0.014023026,-0.041983094,-0.002118742,-0.21220537,0.063194714,0.027630614,-0.11407119,-0.2552832,-0.0039400957,0.042889796,-0.028723542,-0.054056164,0.10814069,-0.05494742,-0.069244914,-0.07297142,0.050034203,0.056794114,0.015239507,-0.23466548,0.041122757,-0.3008573,-0.041188337,-0.09007052,-0.069653474,-0.13290466,-0.11397395,0.05343455,-0.054070793,-0.08669144,-0.15544921,-0.01001304,0.05889654,0.1750127,-0.07949651,-0.09644864,-0.021944955,0.14261635,0.0029450979,0.023934865,-0.24671145,-0.10254885,0.04397117,0.09233571,-0.070789956,-0.014986407,0.11064117,0.053112812,0.025231672,0.13596809,0.043995716,0.055373494,0.048514694,0.0038963414,0.060108323,0.10802943,0.0026177228,-0.14575656,-0.08091965,0.09492097,0.041989643,-0.0934752,0.05982583,-0.035905145,0.032733437,-0.1932147,-0.07095167,-0.15700622,-0.032549925,0.21355991,0.025531834,0.09828565,-0.10095934,-0.022687593,-0.010368057,0.046607602,-0.14343502,0.11507901,-0.061527617,0.114068694,0.11600533,0.05433357,-0.046260886,0.0056334487,-0.095224686,-0.07039364,-0.098493665,0.04038609,-0.0161816,0.086935975,0.00025883378,-0.08269112,-0.043489974,0.035624336,-0.009610525,0.080165505,0.031558406,0.013555762,-0.08893775,-0.037105974,-0.071949326,-0.118337974,0.039668962,0.06348321,-0.1732633,-0.12709895,-0.19574775,-0.022526776,0.0029507028,-0.08396759,0.06638242,-0.10444714,-0.15332225,0.0051736245,0.026741853,0.0051774764,0.0056029405,0.1143199,0.05201716,0.107634656,0.14290015,-0.1383819,-0.009169402,0.024812184,-0.036567207,-0.092522964,-0.08673553,0.059971895,0.06307556,0.09217555,-0.07408111,-0.11012389,0.011176317,0.10029483,0.03758079,0.025421156,-0.073046245,0.0013463674,0.00999584,-0.04476288,0.04872321,-0.14173825,0.017881509,0.030092234,0.2409666,0.13817976,-0.09214204,0.098699145,0.0893812,0.011836966,0.12407215,-0.06881276,0.002886099,0.06979774,-0.0866033,0.15355656,0.09653463,0.047440324,-0.19169542,-0.22506112,-0.06532068,0.04735943,-0.08967385,0.0022736194,-0.06139268,0.09185959,0.16606122,0.08157484,-0.04565969,-0.17435125,-0.051771443,0.11314785,-0.0089253,0.15232016,-0.050192077,0.15554863,0.15987507,-0.3323717,0.15815456,0.0017224987,0.15069504,0.13312994,-0.10016953,0.29010993,0.17234312,-0.08295349,0.18372902,0.034607727,-0.02194809,0.09174097,0.022501254,-0.11791662,0.019184932,-0.012906299,0.09745075,-0.15015116,0.17785108,-0.013110856,-0.02851436,-0.10749063,-0.03491158,0.0057720607,0.037035063,-0.055575073,-0.11269385,0.1283193,0.21858777,0.11383701,0.10102253,0.12054921,0.16993868,0.0060200887,-0.16926946,-0.049681716,0.05133267,-0.048753288,0.06791795,0.018486444,-0.05178812,0.10470926,0.20881161,-0.0474479,-0.110631384,-0.07446397,0.0205688,0.02032037,-0.019879157,-0.23914249,0.124873854,-0.09621594,-0.018776082,0.10824512,-0.059898276,-0.19989279,0.015594813,0.1093598,0.19040866,-0.21784157,-0.15686981,0.12775041,-0.032298114,-0.24917004,-0.14567894,-0.037554126,-0.12989543,0.016825361,0.119619496,0.009572611,-0.113355026,-0.04454531,0.10712918,0.17143662,0.04090772,fatwoman4.jpg
