,0,1,2,3,4,5,6,7,8,9,10,11,12,13,14,15,16,17,18,19,20,21,22,23,24,25,26,27,28,29,30,31,32,33,34,35,36,37,38,39,40,41,42,43,44,45,46,47,48,49,50,51,52,53,54,55,56,57,58,59,60,61,62,63,64,65,66,67,68,69,70,71,72,73,74,75,76,77,78,79,80,81,82,83,84,85,86,87,88,89,90,91,92,93,94,95,96,97,98,99,100,101,102,103,104,105,106,107,108,109,110,111,112,113,114,115,116,117,118,119,120,121,122,123,124,125,126,127,128,129,130,131,132,133,134,135,136,137,138,139,140,141,142,143,144,145,146,147,148,149,150,151,152,153,154,155,156,157,158,159,160,161,162,163,164,165,166,167,168,169,170,171,172,173,174,175,176,177,178,179,180,181,182,183,184,185,186,187,188,189,190,191,192,193,194,195,196,197,198,199,200,201,202,203,204,205,206,207,208,209,210,211,212,213,214,215,216,217,218,219,220,221,222,223,224,225,226,227,228,229,230,231,232,233,234,235,236,237,238,239,240,241,242,243,244,245,246,247,248,249,250,251,252,253,254,255,256,257,258,259,260,261,262,263,264,265,266,267,268,269,270,271,272,273,274,275,276,277,278,279,280,281,282,283,284,285,286,287,288,289,290,291,292,293,294,295,296,297,298,299,300,301,302,303,304,305,306,307,308,309,310,311,312,313,314,315,316,317,318,319,320,321,322,323,324,325,326,327,328,329,330,331,332,333,334,335,336,337,338,339,340,341,342,343,344,345,346,347,348,349,350,351,352,353,354,355,356,357,358,359,360,361,362,363,364,365,366,367,368,369,370,371,372,373,374,375,376,377,378,379,380,381,382,383,384,385,386,387,388,389,390,391,392,393,394,395,396,397,398,399,400,401,402,403,404,405,406,407,408,409,410,411,412,413,414,415,416,417,418,419,420,421,422,423,424,425,426,427,428,429,430,431,432,433,434,435,436,437,438,439,440,441,442,443,444,445,446,447,448,449,450,451,452,453,454,455,456,457,458,459,460,461,462,463,464,465,466,467,468,469,470,471,472,473,474,475,476,477,478,479,480,481,482,483,484,485,486,487,488,489,490,491,492,493,494,495,496,497,498,499,500,501,502,503,504,505,506,507,508,509,510,511,img
0,0.022392008,-0.0583573,-0.04934743,-0.036289718,-0.015206417,0.1052306,0.105415225,0.23548332,0.11743656,0.10770057,0.10864611,0.1252389,0.11416055,-0.1402637,0.045935035,-0.019438557,0.04841715,-0.11535215,0.08120949,0.11692981,-0.025906596,-0.14603525,-0.06380159,-0.14410223,-0.062369972,0.10122737,-0.038916253,-0.00510585,-0.08338331,0.028958326,-0.01769225,0.0005716702,0.025612641,0.12350948,-0.13945368,0.071909316,0.06071728,0.034911774,0.04298605,-0.06141504,0.058481265,-0.0012013137,-0.12080704,0.16289462,-0.120557204,-0.09786798,-0.16510253,0.100637,-0.19061734,0.15375571,-0.12889405,0.14917412,0.19348772,-0.13844554,0.0954284,-0.12384995,-0.13414079,0.21210386,-0.0027340632,-0.010128211,-0.030191764,-0.060973167,-0.04115839,0.088183075,0.13453875,0.029594753,0.13589971,-0.022604328,0.013882111,0.21094349,-0.1292486,-0.07300223,-0.20454168,0.2821642,0.11589225,-0.12097213,-0.16168374,-0.04648798,0.16276065,0.021039512,0.031707592,0.016979141,-0.13619927,-0.022490695,0.0054646106,0.061892103,-0.15731989,0.010588651,0.14561443,-0.08159276,-0.36559314,0.18633176,-0.18121505,-0.12173098,0.008370157,-0.0034190505,0.0010440663,0.2108685,-0.013986788,-0.0022591199,-0.020558389,-0.011705201,0.041958008,-0.036763407,-0.0366128,-0.008184753,-0.15282238,-0.103325,0.14186527,0.059238676,0.048885293,0.018643139,-0.110802814,0.22316237,-0.07138412,0.013483958,-0.023973677,0.104148746,0.13436562,-0.051927228,0.11470078,0.20423608,0.019254612,-0.21973278,0.17112464,-0.04497014,-0.09344721,-0.032813072,0.0048835953,0.0305046,0.15969339,0.026327604,-0.22471677,0.09745056,0.13237654,0.078431055,-0.010645319,-0.11608993,-0.00061015633,0.051928975,-0.06375556,-0.057489797,0.076247245,0.124083124,0.14785118,0.065355875,0.0050523626,-0.1380905,-0.0085048685,0.123826705,-0.2374018,-0.28030807,-0.024501838,-0.20372935,-0.119659856,-0.12269984,-0.21356677,0.032593966,0.13032871,0.06500724,-0.071767144,-0.06715922,-0.054858547,0.10136819,-0.16197482,-0.030337783,-0.10470913,-0.04369705,-0.1733187,-0.02308744,0.012711719,-0.13283114,-0.1558263,-0.072293356,-0.07632881,0.096625306,-0.13529481,-0.23765026,0.031087054,0.0587214,0.044194918,-0.03471871,0.07938517,-0.08742406,-0.13840593,-0.24360526,-0.1365444,-0.2159129,-0.024364512,0.15881278,-0.07653712,-0.11606623,0.0099210385,0.043828737,-0.007809629,0.045747552,-0.027660431,-0.18372583,0.028868653,0.1680849,-0.13799214,0.28269064,-0.010612699,0.1865126,0.03404048,0.2074821,0.07154195,-0.013871994,0.0884639,-0.08441286,0.18409772,-0.12769058,0.1286622,0.114197135,0.052317567,-0.07967295,-0.022934573,-0.070799634,0.20402552,-0.24992062,-0.0800134,-0.14148052,-0.013089468,0.028704504,0.004916108,-0.0033383174,0.12354783,-0.08650745,-0.000342199,0.044353418,0.12841311,0.029365914,-0.023001287,0.06870149,0.037555754,0.14412084,-0.050029792,-0.112859495,-0.035314567,0.23898487,0.041991126,0.082091324,0.09490614,-0.07005387,0.08984748,0.09869506,0.13896418,0.08808679,-0.06120613,-0.13512708,-0.020689296,-0.121559665,0.1017241,0.029594192,-0.15856747,-0.11680804,-0.086057,0.1045167,0.22948648,0.010292955,-0.044421744,-0.0055735987,-0.22131565,0.058280595,0.036867473,-0.10879554,-0.25331888,-0.003009084,0.05925,-0.04761779,-0.05383297,0.09511193,-0.038789764,-0.047547497,-0.08001757,0.037972603,0.06265027,-0.0020008362,-0.2525167,0.07055397,-0.2744366,-0.051652797,-0.06246495,-0.092197485,-0.12867622,-0.09205406,0.065181546,-0.04911866,-0.09467036,-0.19783862,-0.0044135703,0.06555049,0.16815683,-0.0573694,-0.10444826,-0.022668093,0.16193035,0.039655086,0.038635917,-0.24742584,-0.100232586,0.04081104,0.077467285,-0.07659367,-0.010247537,0.1234115,0.044807963,0.023236288,0.14337724,0.038663555,0.026534306,0.08017936,-0.002439364,0.080905,0.12640694,-0.00036438784,-0.16627894,-0.08562979,0.11600666,0.015376188,-0.13888629,0.06046447,-0.055608727,0.0515085,-0.21361554,-0.04586171,-0.15706027,-0.03256093,0.19845831,0.053863116,0.08655276,-0.12363605,0.007911921,-0.0061967834,0.03743727,-0.16171807,0.104057945,-0.084767066,0.11750517,0.11052401,0.065634236,-0.052349687,0.024991386,-0.110357195,-0.07379188,-0.10057038,0.016149744,-0.018841412,0.11271164,-0.011362238,-0.09366453,-0.0179402,0.045229994,0.014246765,0.07044619,0.024893004,0.04211091,-0.077210985,-0.038884502,-0.06859443,-0.108032346,0.035794448,0.05510676,-0.16666912,-0.13049467,-0.20207195,-0.017271314,-0.039397977,-0.06859613,0.031419735,-0.0923197,-0.13284715,0.0042193383,0.012189755,0.005025761,0.016679015,0.13436897,0.02194929,0.10692853,0.14823078,-0.14709102,-0.0028003508,0.034143236,-0.015186169,-0.088379554,-0.08792708,0.06831939,0.027860178,0.104260676,-0.085304774,-0.09761595,0.052889116,0.10576707,0.020918423,0.019664533,-0.05989184,-0.006975352,0.020163933,-0.056309607,0.03558862,-0.15724365,0.02175643,0.032501515,0.22754252,0.14463428,-0.076570734,0.11196387,0.0765768,-0.014939127,0.14066394,-0.060930528,-0.010887969,0.04857395,-0.100804836,0.16011263,0.11821776,0.05977525,-0.21619819,-0.22158791,-0.06402957,0.058439717,-0.09391783,0.016191248,-0.05319056,0.10887452,0.15817663,0.09347604,-0.05366044,-0.18616235,-0.033703126,0.124033704,-0.006942826,0.16057344,-0.07747646,0.11828898,0.17774385,-0.325805,0.1398469,0.00035174057,0.15772001,0.14769793,-0.10548784,0.24051982,0.16362579,-0.07800097,0.20404643,0.024030205,-0.05009466,0.08110915,0.048831686,-0.12300684,0.024675807,-0.018122861,0.0959072,-0.13034259,0.19644505,-0.0025612046,-0.0031286867,-0.13011573,-0.051875215,0.0016461962,0.030367613,-0.023881024,-0.14867003,0.13532566,0.2282899,0.1248739,0.12892433,0.13769488,0.18115099,0.0067371577,-0.16880469,-0.039375544,0.038508136,-0.07261615,0.08217764,0.028357482,-0.052998364,0.122565955,0.20896848,-0.03763797,-0.12740679,-0.073195055,0.02346279,0.0565383,0.0021528297,-0.26361004,0.14631398,-0.102521025,-0.03609388,0.08590257,-0.0599577,-0.2181006,0.024514968,0.114826895,0.19370368,-0.21111725,-0.1656385,0.13301046,-0.044460937,-0.2452388,-0.16330728,-0.051418945,-0.13181472,-0.002385206,0.08927697,0.019481063,-0.11662315,-0.04795688,0.09763996,0.17725274,0.04505926,thinman1.jpg
1,0.016361253,-0.052151233,-0.06411331,-0.029755106,-0.016879672,0.10764126,0.10369474,0.21038856,0.12046752,0.100593664,0.087736435,0.1041039,0.118773475,-0.12614538,0.04748314,-0.02658629,0.032778576,-0.12297203,0.08720191,0.10771453,-0.014526205,-0.14408967,-0.05035874,-0.14875117,-0.06284328,0.11582141,-0.03268855,-0.013920823,-0.08541249,0.048520572,-0.026577942,-0.012234176,0.014076133,0.124979824,-0.12516151,0.088969044,0.062136583,0.04322035,0.040295344,-0.07014389,0.06424776,-0.011064489,-0.11079941,0.16057815,-0.10809553,-0.13318886,-0.14980084,0.11218196,-0.17714524,0.16165075,-0.12581696,0.14530236,0.19113815,-0.13461585,0.08545679,-0.13273364,-0.14308508,0.19634652,0.0002936454,-0.008759944,-0.012414036,-0.06461417,-0.033810318,0.09392507,0.13830164,0.02064243,0.13749745,-0.018882256,0.0038992679,0.21401535,-0.108751215,-0.077057995,-0.19512254,0.28193587,0.11701509,-0.09367249,-0.15734339,-0.045146033,0.14159924,0.025413021,0.024673494,0.019425606,-0.14138684,-0.008617208,0.013257395,0.053060975,-0.14713474,0.03073425,0.1347838,-0.077727556,-0.36239734,0.18999314,-0.16417196,-0.13016175,0.015285543,-0.01188277,-0.0074410946,0.21024075,-0.015088924,-0.016939867,-0.027140848,-0.010721146,0.03974028,-0.022506919,-0.027800515,-0.009036354,-0.13056001,-0.124907635,0.13279958,0.057664942,0.039909005,0.019210856,-0.111725144,0.2034775,-0.07337575,0.00064854434,-0.021722155,0.11368423,0.1205427,-0.06295722,0.11508358,0.19733953,0.029158823,-0.20445094,0.18234304,-0.05091517,-0.101460956,-0.020344898,0.0024972751,-0.0034770453,0.14053549,0.03605634,-0.22634652,0.10439751,0.1328192,0.06299553,-0.015776563,-0.11271132,-0.020985972,0.052054252,-0.06445253,-0.06294188,0.077475935,0.124156766,0.15420733,0.068628326,-0.0034844533,-0.15884395,-0.015586267,0.111727744,-0.22383831,-0.27692503,-0.009703067,-0.20869234,-0.12429582,-0.11113961,-0.21643804,0.035925142,0.13711718,0.0643348,-0.06772449,-0.066519625,-0.048722975,0.10343174,-0.15677579,-0.02010481,-0.10701125,-0.048139382,-0.15825944,-0.015436123,0.020229753,-0.11728786,-0.16506854,-0.06259894,-0.07954232,0.11326855,-0.1291008,-0.22987089,0.034348868,0.056837324,0.043969233,-0.037913326,0.074001655,-0.069285505,-0.13266696,-0.2429319,-0.14416736,-0.21049249,-0.032085624,0.16801924,-0.0727115,-0.10023624,0.0068311123,0.05018368,-0.0071071023,0.045561187,-0.010060034,-0.165508,0.02397089,0.16560665,-0.117117144,0.28495574,-0.012636667,0.18975118,0.035628952,0.19820444,0.095671736,-0.009384326,0.07519768,-0.07038981,0.18160672,-0.12031897,0.13491902,0.1098562,0.044810288,-0.08545801,-0.018513203,-0.06773837,0.21769075,-0.2646929,-0.09045001,-0.12505779,-0.01792698,0.02399184,0.015849357,0.0038528508,0.12049143,-0.06994562,0.000749478,0.03190522,0.13672726,0.03557549,-0.026978118,0.0713187,0.046690702,0.13990958,-0.059896965,-0.11968192,-0.044250667,0.23800322,0.04850872,0.086707056,0.09968719,-0.06495525,0.08849965,0.08920772,0.12429102,0.07035045,-0.05383448,-0.1350912,-0.01597552,-0.09493567,0.1070589,0.045505226,-0.14435029,-0.12092446,-0.08641108,0.114578985,0.23117869,0.010635505,-0.038755905,-0.0015963408,-0.21481086,0.04414024,0.034993432,-0.10567621,-0.25279468,-0.0054310574,0.059658125,-0.03463632,-0.053018145,0.10011105,-0.057191603,-0.04367366,-0.0677302,0.03949598,0.05373042,0.020086767,-0.24932134,0.06215307,-0.255757,-0.028134007,-0.07069407,-0.089615054,-0.11657459,-0.069808595,0.06180781,-0.044509914,-0.09163988,-0.21112314,-0.012943099,0.057518657,0.1567913,-0.053880148,-0.1113844,-0.03502234,0.1507871,0.030281913,0.052741114,-0.24316096,-0.09289999,0.05362938,0.08150845,-0.07136099,-0.010114416,0.118197985,0.047733147,0.021388222,0.15673937,0.06353303,0.032600604,0.07556368,0.019801915,0.0975155,0.12626323,-1.4320825e-05,-0.18634371,-0.10285002,0.12871395,0.024050329,-0.12636712,0.06550805,-0.044836555,0.05001704,-0.19692111,-0.045614794,-0.16154554,-0.03256126,0.20163669,0.056549586,0.08059618,-0.12247769,0.0036469104,-0.024715858,0.043806035,-0.16439356,0.10486816,-0.096167475,0.104634546,0.11914674,0.08250978,-0.032260474,0.023017064,-0.11620077,-0.07003718,-0.08461241,0.017400717,-0.018778814,0.112679906,-0.017549913,-0.09476465,-0.019595005,0.05032805,0.019661205,0.061345153,0.024227994,0.057380613,-0.053796407,-0.03003485,-0.06638608,-0.103360794,0.03979501,0.06534252,-0.17027152,-0.12805174,-0.20362614,-0.009894122,-0.047796704,-0.06566114,0.034277376,-0.08722931,-0.12065111,0.013952079,0.021863258,0.014170379,-0.0018384174,0.12268287,0.020171242,0.0955879,0.13760126,-0.12489801,-0.01638641,0.023832206,-0.0038785893,-0.078880556,-0.07156654,0.06618358,0.03771645,0.07202695,-0.08535717,-0.1068994,0.045296416,0.100542784,0.018093793,0.011428888,-0.05686765,-0.0126397945,0.019331971,-0.055059932,0.023675837,-0.1490098,0.001453157,0.030545024,0.22048143,0.13343072,-0.07464438,0.11785481,0.08580874,-0.009734515,0.13299777,-0.06834762,-0.023301786,0.044793498,-0.09535772,0.1545956,0.12746431,0.061458215,-0.21334217,-0.21494924,-0.06994074,0.05786736,-0.090299286,0.016145712,-0.03741922,0.09432521,0.16222122,0.074672215,-0.0556538,-0.19366232,-0.035956264,0.11083236,-0.013143778,0.16306484,-0.07079269,0.13113175,0.17784786,-0.33457413,0.12058327,0.015641801,0.14632067,0.12939101,-0.0983847,0.24314134,0.15834455,-0.07657309,0.20801347,0.016225725,-0.05288354,0.09405155,0.035274293,-0.11580204,0.02779472,-0.023979126,0.07720673,-0.10747254,0.20024547,0.00074558175,-0.009660085,-0.1213606,-0.036366805,-0.0050686337,0.0436727,-0.021568155,-0.13406353,0.12557487,0.22841722,0.11289776,0.13715598,0.14036804,0.16919087,0.009843236,-0.16666861,-0.035432275,0.03014707,-0.09334039,0.07580262,0.03256749,-0.049504686,0.12136483,0.20821954,-0.018318944,-0.11003873,-0.07650135,0.030018155,0.058645654,0.0005584632,-0.24810432,0.15312707,-0.108654246,-0.026359495,0.07365329,-0.050285712,-0.19680035,0.01535221,0.116031386,0.17569098,-0.20504268,-0.16361696,0.11774926,-0.05017273,-0.24471252,-0.15488894,-0.045013953,-0.1265833,0.0044355025,0.08748389,0.018759869,-0.10767067,-0.05930019,0.09493855,0.16969188,0.026833663,thinwoman1.jpg
2,0.012005196,-0.05907526,-0.055871367,-0.0316864,-0.017751468,0.08431669,0.10850005,0.22366942,0.11925406,0.11245337,0.101321384,0.1038581,0.11802441,-0.12879041,0.050410304,-0.023267541,0.05147881,-0.11150903,0.08385126,0.10953926,-0.029113863,-0.14772224,-0.069426745,-0.13240716,-0.058820534,0.085415386,-0.037933324,-0.011378603,-0.1017539,0.022030441,-0.02370046,0.0027396486,0.024657367,0.12542772,-0.14120318,0.08268243,0.056544043,0.02916574,0.038659595,-0.06525659,0.063654095,-0.0026173634,-0.118033566,0.14941666,-0.11946709,-0.10334019,-0.15589467,0.10758765,-0.18895084,0.1528658,-0.12489574,0.13895266,0.19964285,-0.13710499,0.09714863,-0.12515824,-0.15891652,0.21284051,0.00022204584,-0.016113536,-0.02308974,-0.05615738,-0.027335955,0.081379615,0.11730899,0.022771139,0.12814227,-0.018951204,0.014681917,0.21955174,-0.11306297,-0.061487887,-0.18641093,0.28798524,0.121675014,-0.11731106,-0.1607676,-0.039787017,0.15356806,0.023745617,0.026171422,0.0038505578,-0.14443614,-0.03162786,0.0055424278,0.07107775,-0.15178135,0.020374691,0.14528093,-0.079895884,-0.37578344,0.19297916,-0.16566938,-0.12218155,0.002187429,-0.003119598,0.0026884542,0.2052446,-0.014323231,-0.0006795072,-0.024317283,-0.006571393,0.042376135,-0.02985254,-0.0365708,-0.020301228,-0.14762627,-0.11389605,0.1378274,0.063548416,0.038162343,0.01538455,-0.11841545,0.21974124,-0.07407631,0.024039613,-0.01663386,0.11599964,0.13062719,-0.050120637,0.11917861,0.20603257,0.01080768,-0.21872565,0.18132845,-0.051167313,-0.102359205,-0.028153522,0.0055719516,0.019461181,0.1613039,0.029216697,-0.23086202,0.09354987,0.1329783,0.07183709,0.0003384065,-0.13103637,-0.0027172714,0.05372086,-0.056545112,-0.053737104,0.064786434,0.11565346,0.15132898,0.07535979,-0.0035006024,-0.14228898,-0.011791408,0.11816013,-0.23168929,-0.27481577,-0.019790642,-0.1969118,-0.11210778,-0.11903734,-0.20896469,0.035868607,0.14068031,0.057751298,-0.06969545,-0.05284154,-0.0403219,0.09494439,-0.16258183,-0.0148511175,-0.093584046,-0.050512362,-0.17086153,-0.02574583,0.012205547,-0.12335324,-0.15617082,-0.07710031,-0.06186972,0.09902659,-0.12925464,-0.23115651,0.03446818,0.045726705,0.04572197,-0.029547969,0.078578405,-0.08594287,-0.14133705,-0.2431131,-0.13000023,-0.20360374,-0.02515202,0.14619225,-0.08968932,-0.116263606,0.0069559924,0.048342112,-0.000305134,0.032633238,-0.00951512,-0.18479335,0.025587207,0.16218215,-0.14911786,0.27350065,-0.0088254595,0.18854274,0.025582721,0.1923976,0.07849947,-0.009353704,0.068567425,-0.087893985,0.17492086,-0.12999767,0.12024786,0.105281256,0.058905464,-0.084962636,-0.025190499,-0.073187396,0.1913168,-0.24041702,-0.07874769,-0.13787112,-0.0026029057,0.026918381,0.01521184,0.004626282,0.12397305,-0.07346451,-0.0077399113,0.046989128,0.1254835,0.024188269,-0.020646289,0.065408036,0.032338127,0.13606246,-0.060955722,-0.10904351,-0.039198045,0.2415972,0.02933565,0.08895674,0.102419965,-0.06518784,0.08735794,0.09748991,0.12743837,0.08575273,-0.053199526,-0.13275559,-0.021299632,-0.11299815,0.100995295,0.029108644,-0.14202441,-0.122153096,-0.07579508,0.101357006,0.22055998,0.015239219,-0.042903308,-0.008347776,-0.22190033,0.05593168,0.030874407,-0.09992418,-0.25282434,0.0038473157,0.06013575,-0.03682011,-0.057640076,0.09571379,-0.038243126,-0.0415477,-0.07752303,0.030348225,0.05654407,-0.004276339,-0.25327867,0.072371595,-0.26168853,-0.050547954,-0.07550068,-0.08926892,-0.13297838,-0.07895216,0.060131717,-0.049286503,-0.09589827,-0.20164925,-0.018336559,0.059790697,0.15160051,-0.06925471,-0.10148308,-0.02090972,0.15962073,0.029985607,0.03678051,-0.24292438,-0.09534819,0.047723692,0.07489557,-0.078759134,0.009145411,0.117781684,0.046023626,0.02790513,0.1397526,0.063916296,0.02430039,0.08664114,0.0008558284,0.07910382,0.12628713,-0.008794375,-0.1784897,-0.09688592,0.12003541,0.0014984807,-0.13878427,0.06508629,-0.063422814,0.032020077,-0.21300012,-0.045172524,-0.14491682,-0.032566126,0.18693605,0.046107188,0.08921573,-0.11741424,0.011554754,-0.011357911,0.042676743,-0.1658327,0.09761593,-0.08433445,0.11205422,0.13040401,0.074660994,-0.038101755,0.013894375,-0.121905684,-0.07260935,-0.09175463,0.017955992,-0.026320204,0.10794144,-0.009559495,-0.095904,-0.022325246,0.042556252,0.011276512,0.05970161,0.025426757,0.053066988,-0.06377332,-0.03142412,-0.06935245,-0.09989747,0.036551323,0.049099088,-0.16482517,-0.12471533,-0.21549211,-0.008610142,-0.046752222,-0.057541676,0.021539904,-0.08509165,-0.12794863,0.010710187,0.0141584035,0.0044018943,0.018036557,0.1436758,0.015540258,0.10267445,0.15705082,-0.13921876,-0.011632593,0.030456675,-0.030088095,-0.07452437,-0.08378902,0.055523172,0.026526626,0.09059149,-0.07493599,-0.09456839,0.056225758,0.0968217,0.027811324,0.03480224,-0.0597938,-0.008967961,0.023318717,-0.0489915,0.03624809,-0.15574569,0.018661726,0.03460055,0.22903718,0.14528836,-0.07688386,0.11933811,0.06247176,-0.033508755,0.14652717,-0.07359745,-0.0044833086,0.03179245,-0.09832907,0.14736958,0.11390968,0.057918895,-0.21286848,-0.2011651,-0.06604161,0.056798358,-0.09220096,0.019300649,-0.043119658,0.10744235,0.1554989,0.090327896,-0.05279014,-0.18938196,-0.03129777,0.11949149,-0.009680448,0.15511043,-0.075048834,0.11440422,0.18530244,-0.32285932,0.12627628,0.007201412,0.15525506,0.15029718,-0.114322454,0.22526416,0.15395835,-0.076104015,0.19042404,0.012468106,-0.055495292,0.07897611,0.05209592,-0.109249696,0.027335025,-0.022024283,0.09503666,-0.119925104,0.19078164,0.0010129082,0.0030134171,-0.13496365,-0.05625117,-0.00077503227,0.027893748,-0.015041287,-0.15077522,0.13048531,0.21949697,0.12569413,0.12851986,0.13980444,0.16951512,0.0121143125,-0.1803036,-0.0446434,0.03379475,-0.07786386,0.08536207,0.04048039,-0.043670468,0.12636814,0.21151473,-0.029643618,-0.11218623,-0.076794125,0.015137013,0.052918967,0.0096964175,-0.26741633,0.15634885,-0.08589223,-0.038669813,0.0885967,-0.058826547,-0.22096606,0.028151618,0.12619077,0.19039492,-0.21489702,-0.16683622,0.1163478,-0.05490019,-0.24794166,-0.16594145,-0.051387377,-0.13303119,0.004972117,0.08434349,0.011788117,-0.12018727,-0.049639553,0.090389706,0.16841416,0.03400957,thinwoman3.jpg
3,0.013301094,-0.06216309,-0.055598993,-0.035566825,-0.014333153,0.10319417,0.10592057,0.2222997,0.12718455,0.1062148,0.09891413,0.11406616,0.11539454,-0.13266718,0.046828244,-0.03088314,0.047310997,-0.114464484,0.08185255,0.11161008,-0.025496656,-0.14652638,-0.060247786,-0.12820162,-0.05906315,0.08989352,-0.042014,-0.0043749395,-0.097319305,0.024469884,-0.03379516,0.0075183394,0.017362257,0.117352,-0.1338641,0.08631471,0.06220825,0.038498558,0.04468245,-0.060562104,0.068523906,-0.000767638,-0.12326225,0.14705883,-0.12348063,-0.09642696,-0.16265595,0.09924636,-0.1916322,0.16836265,-0.12661867,0.14187823,0.19135346,-0.15539423,0.0934031,-0.13525629,-0.1495879,0.21045104,-0.0019475627,-0.0022892756,-0.020672787,-0.06619089,-0.037601307,0.09246757,0.13370845,0.024740541,0.12945469,-0.030891743,0.011663794,0.2169028,-0.13370243,-0.07994345,-0.19402272,0.28342384,0.10940437,-0.11708873,-0.16243652,-0.039327707,0.16545789,0.02679487,0.028744796,0.014950631,-0.13369823,-0.01917932,0.0021948258,0.06146794,-0.16113345,0.00960703,0.1420499,-0.07960339,-0.36541077,0.19250163,-0.18210265,-0.12295951,0.00869379,0.0024724163,0.0061048265,0.1958829,-0.014647253,-0.013854178,-0.013387137,-0.017549712,0.05090584,-0.040917743,-0.034227986,-0.01077531,-0.14735892,-0.11936934,0.13351141,0.052344,0.04185114,0.015321608,-0.10598651,0.21937758,-0.08074604,0.014605707,-0.02701428,0.110037565,0.13312806,-0.044672303,0.112090625,0.21406919,0.020029744,-0.2162571,0.17118211,-0.054057777,-0.088595256,-0.02656528,0.0042827246,0.030625686,0.15731646,0.034552388,-0.23171763,0.08526165,0.14417215,0.08223151,-0.0048562516,-0.11395982,-0.00667372,0.059742425,-0.054080326,-0.059731312,0.06932134,0.12551932,0.1475137,0.07145583,0.0080026835,-0.14544633,-0.011535581,0.122781046,-0.23003606,-0.28223532,-0.021826005,-0.20615716,-0.12044118,-0.12030896,-0.210623,0.032177977,0.13027562,0.06509622,-0.06525998,-0.05966965,-0.050772917,0.11172928,-0.16689475,-0.024096891,-0.10466079,-0.04435716,-0.17253777,-0.008636075,0.0017222951,-0.1345145,-0.16642296,-0.07128939,-0.07233054,0.097083464,-0.12725,-0.23593958,0.019783562,0.04987721,0.044932514,-0.039256684,0.074499816,-0.07607226,-0.14951584,-0.2370382,-0.13267435,-0.21486552,-0.01693897,0.14974229,-0.08109776,-0.11339188,0.0074758506,0.041183855,-0.009573392,0.04629242,-0.0149711715,-0.19090785,0.010166976,0.16557145,-0.12248441,0.27751246,-0.012531605,0.17978467,0.024032708,0.20502503,0.08236804,-0.0253249,0.07811581,-0.0929898,0.17897253,-0.124122985,0.11988912,0.11689929,0.05453295,-0.09426253,-0.024110686,-0.070464626,0.20555432,-0.24450886,-0.08275116,-0.13068342,-0.009265895,0.01753892,0.0062156036,0.009288993,0.12649414,-0.07723659,0.0033638598,0.037335113,0.13106363,0.031169211,-0.027137443,0.06894658,0.03767043,0.13865103,-0.06065767,-0.10908904,-0.032443326,0.23686513,0.03217434,0.080881976,0.0916256,-0.074376896,0.081653126,0.095303185,0.13131347,0.08443365,-0.057684664,-0.12553556,-0.037002373,-0.09946714,0.100823395,0.030460883,-0.15724455,-0.12792556,-0.07699362,0.106565714,0.23056969,0.01723869,-0.040641528,-0.0063473033,-0.21876334,0.055484973,0.042785108,-0.10788638,-0.24554244,-0.010526525,0.051743925,-0.039177015,-0.053081412,0.105219916,-0.042616878,-0.053311024,-0.081404194,0.04082326,0.053576306,-0.003917895,-0.25095806,0.0631252,-0.27660528,-0.03669659,-0.07452673,-0.08689259,-0.12792401,-0.09369496,0.06278398,-0.050232094,-0.09029318,-0.19395325,-0.011205472,0.0702216,0.16032252,-0.061051104,-0.0955753,-0.03186366,0.15501052,0.027291153,0.045319445,-0.24727185,-0.105764225,0.04238227,0.07767612,-0.068759896,-0.011883931,0.12552378,0.04537441,0.016662173,0.15229915,0.045101874,0.021223124,0.077116415,-0.0018937698,0.08473556,0.13336127,-0.005707659,-0.1737537,-0.08916278,0.11577263,0.0021740738,-0.124906875,0.051390626,-0.054216523,0.041456044,-0.2059145,-0.04694216,-0.15214872,-0.03255779,0.2026861,0.046732634,0.10399821,-0.12105432,0.005804068,-0.027050903,0.055492897,-0.15577917,0.10108993,-0.08293521,0.11040985,0.12163229,0.05907996,-0.03747401,0.026609754,-0.10709261,-0.08501082,-0.09615019,0.015108173,-0.023134885,0.111898504,-0.01659496,-0.08506657,-0.011520399,0.048620768,0.012903246,0.06463171,0.018073315,0.038605995,-0.06767412,-0.040564943,-0.07137183,-0.09969366,0.045274947,0.058221623,-0.16245969,-0.13286747,-0.20949638,-0.008120241,-0.046505984,-0.06704267,0.03656638,-0.1004664,-0.12528789,0.017373415,0.016200997,0.011007778,0.013722468,0.12948263,0.021040024,0.11553975,0.14511868,-0.14853998,-0.007691943,0.031092115,-0.011808332,-0.090523675,-0.09211669,0.06598583,0.0354481,0.08612167,-0.078858756,-0.10788222,0.050035607,0.09976794,0.02658371,0.0143516455,-0.06288203,-0.0060563106,0.025224527,-0.055299908,0.044348117,-0.15997136,0.015266969,0.02781322,0.22957194,0.14452596,-0.08415984,0.1198207,0.08587335,-0.017481012,0.13272342,-0.06664153,-0.016173601,0.038662665,-0.09511029,0.1578172,0.11388194,0.058663875,-0.21214789,-0.2088299,-0.065741144,0.055617232,-0.09103794,0.01279047,-0.063717626,0.11209742,0.16069129,0.08172387,-0.051894303,-0.18942302,-0.040143777,0.11996595,-0.008869315,0.16017978,-0.060737222,0.12346276,0.17239355,-0.32579142,0.14328419,0.02332499,0.1550293,0.14601402,-0.09932146,0.23153298,0.1582004,-0.07583476,0.19084466,0.03390659,-0.043862734,0.09158341,0.047684338,-0.1221605,0.018078038,-0.031368483,0.09363977,-0.12718076,0.19935608,0.012126212,-0.0199576,-0.12428292,-0.04322541,0.008095366,0.032098446,-0.024159368,-0.13860126,0.12569901,0.22914456,0.11880877,0.13824736,0.12357449,0.17584264,0.00024694402,-0.18115607,-0.036692537,0.029265333,-0.07237445,0.078329556,0.037257235,-0.061757926,0.12295957,0.20732963,-0.03003894,-0.117527425,-0.07255436,0.016118959,0.059824493,0.0043035317,-0.25738004,0.150353,-0.10010338,-0.024621982,0.08732932,-0.05732899,-0.21442585,0.020703113,0.12342218,0.19082868,-0.21911654,-0.16377258,0.12537593,-0.050311502,-0.24597412,-0.15443784,-0.036264617,-0.12826684,0.0020167516,0.08122044,0.013746245,-0.12035739,-0.046487894,0.090467356,0.17407385,0.0390105,thinman3.jpg
4,0.007608344,-0.056347363,-0.054403342,-0.043498043,-0.022227151,0.100416735,0.11215579,0.22752722,0.12284044,0.106687635,0.10738369,0.101576135,0.11442706,-0.12632923,0.04716774,-0.03041243,0.05034255,-0.10605923,0.0825223,0.11079568,-0.030870114,-0.14449652,-0.0638232,-0.13108617,-0.06291428,0.09417421,-0.045294527,-0.009564813,-0.09379938,0.021668246,-0.024586512,0.014748995,0.022645745,0.12554291,-0.13373668,0.08863678,0.06705445,0.027497593,0.04540241,-0.06369076,0.07712972,0.0039523025,-0.12940186,0.1646219,-0.11876513,-0.0982681,-0.16054039,0.10188786,-0.19456641,0.15762004,-0.12209057,0.14105503,0.20011657,-0.14758916,0.092948176,-0.13603652,-0.1542596,0.21642163,0.0012365679,-0.011546876,-0.008184202,-0.06260529,-0.03885901,0.09043666,0.1193663,0.02113227,0.14009859,-0.009055194,0.006800104,0.20923313,-0.122893535,-0.07344303,-0.19814076,0.28676143,0.114377245,-0.117871895,-0.16992302,-0.033843588,0.15776177,0.022145301,0.0341142,0.007975017,-0.14315644,-0.038541436,0.0013683594,0.05689378,-0.1645124,0.016735563,0.14722593,-0.069738545,-0.3694981,0.19431354,-0.17089815,-0.12860093,0.007080743,-0.0059486497,0.0023538487,0.20217675,-0.009420287,-0.00543887,-0.017810456,-0.017025817,0.038566627,-0.0428278,-0.033229414,-0.021138692,-0.1479344,-0.113324754,0.12945232,0.045459107,0.04043291,0.014359035,-0.11541487,0.22445959,-0.07727605,0.020204175,-0.026040768,0.11351187,0.1381323,-0.046203777,0.12194704,0.2085649,0.025158819,-0.23559904,0.17345168,-0.060529977,-0.095538825,-0.034031283,0.01357807,0.02283589,0.15745439,0.036672838,-0.24148083,0.0824048,0.1294233,0.07174497,0.0015190835,-0.12888546,-0.0050221495,0.05492538,-0.060268197,-0.049707714,0.07225877,0.12401045,0.1497402,0.06579498,0.005424506,-0.15229233,-0.010613827,0.1139167,-0.2315019,-0.28288266,-0.03060326,-0.20203295,-0.11845869,-0.12232303,-0.20888929,0.020568449,0.13582015,0.06783976,-0.06689777,-0.057039537,-0.036741033,0.10808699,-0.16173556,-0.026765754,-0.10995306,-0.05050938,-0.17680757,-0.027825892,0.0068703187,-0.12715009,-0.15887381,-0.06923114,-0.059480645,0.103272244,-0.13049747,-0.23871207,0.016884882,0.050116308,0.040793445,-0.043085378,0.07855331,-0.082802415,-0.15153253,-0.23892371,-0.13032956,-0.21826614,-0.020731503,0.14820994,-0.073374696,-0.11354128,0.014961232,0.040121593,-0.004437303,0.031301163,-0.02024745,-0.17443904,0.02425673,0.16613904,-0.12264267,0.27650133,-0.009644871,0.18723303,0.020297293,0.19923154,0.0711879,-0.022184536,0.07623075,-0.08747991,0.17595743,-0.12660265,0.12020163,0.11521776,0.04813548,-0.0890614,-0.018479388,-0.07023416,0.20516834,-0.24700628,-0.08442272,-0.13275446,-0.0070469086,0.016116405,0.013183823,0.0077003078,0.123803645,-0.08411071,-0.00029012706,0.03350386,0.1238204,0.03209144,-0.023944693,0.06933696,0.038181365,0.13830197,-0.062580556,-0.10930159,-0.042321824,0.23786028,0.035043005,0.09070609,0.08900851,-0.065909125,0.09119256,0.08796038,0.12768038,0.08297444,-0.067716725,-0.12632866,-0.02961563,-0.10555886,0.098246105,0.02301906,-0.15637314,-0.13303134,-0.0657305,0.09968617,0.2257645,0.012623748,-0.04508648,-0.006704985,-0.21748058,0.053388588,0.032849427,-0.11022715,-0.23519224,-0.009810766,0.05491758,-0.032789223,-0.05765311,0.09646518,-0.0485459,-0.05701479,-0.08380647,0.03245242,0.049981087,0.000382636,-0.26867393,0.06513124,-0.26808894,-0.052917477,-0.071152024,-0.08938309,-0.13296539,-0.08482544,0.065810956,-0.053154867,-0.08759601,-0.18897764,-0.008790563,0.05977001,0.1657537,-0.061766252,-0.09097464,-0.02882799,0.15278338,0.0224595,0.042700212,-0.24716406,-0.10448282,0.047805455,0.08235097,-0.06539003,0.013206616,0.12063399,0.040197544,0.014680206,0.14545965,0.056399513,0.026262196,0.081065685,-0.008538498,0.08190137,0.12955862,-0.0033626498,-0.17129779,-0.0983126,0.1206669,0.011483334,-0.13103515,0.060748037,-0.066117756,0.026911464,-0.2072706,-0.049051743,-0.15379275,-0.0325574,0.20126964,0.049224705,0.090618454,-0.12362815,0.007853971,-0.025827104,0.044410475,-0.16532859,0.10702355,-0.08816509,0.10555608,0.1255272,0.06318073,-0.041467063,0.020630352,-0.11349212,-0.08433398,-0.10979718,0.014787864,-0.030823091,0.10271936,-0.018253257,-0.0966189,-0.021675602,0.042828605,0.020412542,0.06045998,0.023044568,0.047057875,-0.057804286,-0.031850226,-0.07210452,-0.09741336,0.036322705,0.04147367,-0.17900006,-0.12819275,-0.21195,0.00035218493,-0.053649705,-0.059690904,0.043091968,-0.08983502,-0.13068636,0.010296461,0.012795049,0.003076937,0.012462219,0.14001393,0.02379743,0.10821405,0.14066629,-0.15282492,-0.010034431,0.037642837,-0.016714392,-0.08634037,-0.091011904,0.063835435,0.0328303,0.087408364,-0.07411177,-0.09453896,0.046857283,0.09596573,0.020057365,0.018612916,-0.057461333,-0.013193453,0.019277984,-0.048687227,0.044642456,-0.16250865,0.01567427,0.035243604,0.22824822,0.14725316,-0.06521705,0.1225854,0.076170556,-0.019670902,0.13468139,-0.058237083,-0.011357817,0.04795211,-0.09380258,0.1545093,0.11296702,0.05593019,-0.21676566,-0.20176376,-0.0705472,0.06258083,-0.09151154,0.021758119,-0.06311031,0.1166234,0.16569118,0.08414814,-0.055795237,-0.19746111,-0.033522252,0.11800527,-0.012154151,0.16238715,-0.064067185,0.12942909,0.16974393,-0.32946014,0.13750172,0.00994054,0.15135103,0.13815762,-0.113033496,0.21872234,0.14427565,-0.07749568,0.18444417,0.019540334,-0.040913593,0.0917099,0.042759042,-0.12832987,0.024066802,-0.028282888,0.09625294,-0.1258588,0.19279398,0.0044650068,-0.011864333,-0.13049261,-0.05218374,0.0029531806,0.023221001,-0.023602484,-0.13641144,0.13846771,0.22551477,0.11894431,0.14172927,0.13167872,0.16812634,0.012462931,-0.1856637,-0.04018711,0.031917542,-0.07348169,0.07993071,0.037302777,-0.054694273,0.122038126,0.19681486,-0.03071001,-0.11877875,-0.06729359,0.020639438,0.06712461,0.006064637,-0.25760305,0.15377478,-0.094748415,-0.023614123,0.08144138,-0.056628585,-0.2159298,0.036559824,0.12961355,0.19877721,-0.2145617,-0.17595798,0.121598616,-0.04862998,-0.24371181,-0.16915298,-0.044425964,-0.1347824,0.0150769325,0.07416761,0.020752596,-0.11650015,-0.046517126,0.09655452,0.16024786,0.03232575,thinman2.jpg
5,0.018969987,-0.055602483,-0.061947938,-0.028843783,-0.01571422,0.09479532,0.10243504,0.21273108,0.1119727,0.10571087,0.09763444,0.10979844,0.12360992,-0.1265791,0.04857206,-0.031943906,0.041531954,-0.115188755,0.086482815,0.1222755,-0.02602179,-0.15010145,-0.049233586,-0.14784831,-0.056267835,0.10048746,-0.038716294,-0.01611165,-0.09586968,0.03462847,-0.025369888,0.006344776,0.025598098,0.13230695,-0.14083539,0.09088607,0.063306734,0.03131298,0.050531916,-0.074406736,0.079655,-0.015468505,-0.11422838,0.16709597,-0.11503062,-0.11404068,-0.16739738,0.10514108,-0.18962646,0.15655959,-0.12830961,0.14191967,0.19662149,-0.13110846,0.0945046,-0.14116314,-0.1507494,0.21072018,0.002795766,-0.014133773,-0.01071829,-0.058561973,-0.034785666,0.09600789,0.13380085,0.03152141,0.14226143,-0.020400476,0.0064530484,0.21520072,-0.12454463,-0.072098695,-0.17993669,0.28378624,0.11584323,-0.11134676,-0.16817601,-0.045795303,0.14980648,0.026542041,0.036317125,0.01269183,-0.14128934,-0.034370285,0.0039915973,0.05779484,-0.1533078,0.026177438,0.14853343,-0.08183252,-0.37271655,0.19005392,-0.17046383,-0.12311471,0.010742607,-0.008296591,0.010175543,0.19748661,-0.017782606,-0.0012955496,-0.034507588,-0.009105891,0.04171423,-0.022550644,-0.033889506,-0.01786274,-0.14202984,-0.12510715,0.13680048,0.0635508,0.03185283,0.017353699,-0.11294077,0.21884112,-0.07288647,0.016131906,-0.023681477,0.10685102,0.13650952,-0.0567208,0.11820125,0.21204112,0.02303303,-0.21196254,0.18393335,-0.050805435,-0.10403057,-0.0267193,0.011345121,0.0025220355,0.1584216,0.030270843,-0.23802096,0.08950556,0.13488357,0.07051023,-0.01100631,-0.119561486,-0.011464772,0.056426268,-0.063562505,-0.062715515,0.06902676,0.11618025,0.15340708,0.069878794,0.008315841,-0.14893845,-0.004372642,0.102493495,-0.22616841,-0.2835345,-0.022891928,-0.20257376,-0.1216991,-0.119319424,-0.21158187,0.029750755,0.1286746,0.060137786,-0.070727006,-0.06323788,-0.04823162,0.112945914,-0.1725663,-0.02779829,-0.104450665,-0.055102695,-0.16554248,-0.020140177,0.014978801,-0.13233598,-0.1649309,-0.07819615,-0.072222434,0.11505912,-0.13320503,-0.23525247,0.029073063,0.05061202,0.035726406,-0.044160187,0.08287326,-0.08690712,-0.13704658,-0.24314582,-0.13619068,-0.2088572,-0.022704026,0.16238672,-0.08541532,-0.11784471,0.009379656,0.04956146,-0.0004214726,0.037788603,-0.020056846,-0.18908817,0.028597515,0.15844506,-0.12439197,0.29148751,-0.006376139,0.18689536,0.02760207,0.19662273,0.08597373,-0.008324647,0.07415163,-0.07318878,0.18111336,-0.12322445,0.12894152,0.11414786,0.0536395,-0.08620635,-0.033283614,-0.06672102,0.19965698,-0.25523567,-0.094892696,-0.13378008,-0.013491004,0.02821908,0.018518662,-0.0052985144,0.11525873,-0.07214392,0.0011327049,0.04300577,0.13885047,0.04289637,-0.020267121,0.07566251,0.039032135,0.13523184,-0.06059831,-0.11058769,-0.05105056,0.23539257,0.035221335,0.0918731,0.101038314,-0.06720175,0.094641075,0.09367255,0.120213315,0.08201053,-0.058187757,-0.12884045,-0.0104332,-0.10767279,0.105532624,0.03079453,-0.15002708,-0.12500225,-0.08365618,0.107557155,0.23495187,0.005494127,-0.045207962,-0.008255864,-0.21454678,0.043901697,0.033110652,-0.11455361,-0.25483742,-0.0068740975,0.060938653,-0.03683779,-0.057046134,0.10029398,-0.05092361,-0.05064828,-0.07527686,0.037479974,0.054423716,0.0049658804,-0.2541991,0.0643969,-0.2641649,-0.04195247,-0.08191598,-0.0926298,-0.13530856,-0.08104686,0.058027044,-0.048443213,-0.09258708,-0.19653611,-0.0032137071,0.06175328,0.1581745,-0.056434955,-0.10576511,-0.030039709,0.15859555,0.035056118,0.04147014,-0.24640907,-0.09623526,0.048910648,0.08042958,-0.07501764,-0.0010364742,0.11491047,0.046401445,0.022703612,0.14477396,0.051565543,0.033213604,0.07680887,0.008103559,0.09228518,0.12393171,-0.00090456463,-0.18244334,-0.09827474,0.12455176,0.017819181,-0.13563962,0.068168454,-0.053337086,0.035071794,-0.20325446,-0.040918935,-0.15965006,-0.032561217,0.19860376,0.052219298,0.08423444,-0.12078689,0.0062714242,-0.016141824,0.04009989,-0.17431383,0.0998126,-0.09562573,0.09758859,0.11399051,0.0851194,-0.04151992,0.018224278,-0.111572094,-0.081831396,-0.08797406,0.01671385,-0.024130281,0.106716044,-0.021165444,-0.09545844,-0.024880037,0.054914854,0.022784375,0.06367297,0.03197226,0.04756245,-0.06997167,-0.038587905,-0.07550199,-0.09753066,0.048993975,0.05722789,-0.17128864,-0.12746313,-0.20779233,-0.016499056,-0.0484123,-0.06424881,0.0335818,-0.09224272,-0.12538964,0.013047648,0.019797213,0.009539484,0.0015886435,0.13529828,0.02474826,0.102248356,0.15400624,-0.14316107,-0.009937309,0.038654946,-0.015163368,-0.08398588,-0.07321702,0.065217055,0.042407762,0.09436436,-0.080799915,-0.103423424,0.051614504,0.09680048,0.020931086,0.032133795,-0.059193946,-0.013715163,0.021461643,-0.06078678,0.03044297,-0.14656332,0.013892985,0.027141515,0.22777286,0.13530245,-0.07830739,0.11873635,0.07804539,-0.016992228,0.14101982,-0.05966547,-0.013552699,0.045386497,-0.09069515,0.15690593,0.12471633,0.059009463,-0.22307914,-0.22197546,-0.06935205,0.059531253,-0.092920646,0.015005331,-0.045344207,0.09602241,0.15620482,0.08194577,-0.04974294,-0.18887514,-0.031933997,0.119856685,-0.010565047,0.17004609,-0.072005294,0.12033105,0.17876163,-0.3304569,0.13068375,0.01601534,0.15188481,0.14197955,-0.10728611,0.24171165,0.1522503,-0.0867746,0.20584482,0.021062061,-0.04616348,0.0848613,0.0486028,-0.11011784,0.030560827,-0.020046176,0.08969342,-0.12436276,0.19761764,0.010014301,-0.012165661,-0.12102732,-0.046541277,-0.006459407,0.033724308,-0.022054201,-0.15249224,0.13859905,0.22998069,0.12732543,0.12224532,0.1411994,0.16962884,0.012849001,-0.17398186,-0.04804558,0.037252173,-0.09060884,0.080849536,0.03506864,-0.039524306,0.12460609,0.22142477,-0.026040958,-0.11236969,-0.07322822,0.017827842,0.0570184,0.0027573265,-0.26386687,0.16011696,-0.09512817,-0.020158205,0.08561437,-0.057223156,-0.22248165,0.026818018,0.12102658,0.18556938,-0.21123487,-0.16789691,0.12524854,-0.045465708,-0.24079955,-0.16347802,-0.05053588,-0.13300337,0.007101147,0.08122722,0.014834538,-0.112729274,-0.055207286,0.10047286,0.1752071,0.027639406,thinwoman2.jpg
6,0.010389236,-0.061336,-0.053884048,-0.03564513,-0.027209131,0.10481436,0.10452226,0.22974752,0.12421618,0.11603413,0.10733318,0.11430304,0.12080042,-0.13579611,0.044444576,-0.025706518,0.03580127,-0.12581958,0.08071585,0.11705947,-0.024879871,-0.14842755,-0.053514764,-0.14003819,-0.059315957,0.09373582,-0.043560695,-0.009062608,-0.10628012,0.027378494,-0.028336275,0.012357014,0.02492302,0.12408734,-0.14320153,0.08982065,0.07284668,0.03544654,0.050811853,-0.06764687,0.07906807,-0.006733453,-0.13149026,0.16165659,-0.121922895,-0.09455716,-0.16307676,0.10029086,-0.19214924,0.16110672,-0.129444,0.13959277,0.20001458,-0.15053625,0.090781465,-0.13662505,-0.15045771,0.22575502,-0.0072688167,-0.009884704,-0.018852722,-0.072490364,-0.03973255,0.094462566,0.13048375,0.018308753,0.1358353,-0.025576582,0.011655463,0.20869842,-0.13112612,-0.08106994,-0.18972187,0.28909248,0.10849106,-0.12624985,-0.18101189,-0.039786298,0.16645454,0.019086491,0.036082577,0.0100272335,-0.14885528,-0.02774089,0.011916898,0.058784835,-0.16844313,0.011399756,0.14594209,-0.087840095,-0.3647762,0.1973712,-0.18713601,-0.12759152,0.001779616,0.0039008602,0.005093576,0.20396361,-0.015741644,-0.008745403,-0.025892295,-0.014686725,0.04628276,-0.028821288,-0.030769799,-0.013282754,-0.15414117,-0.12541126,0.13087825,0.06259026,0.04169323,0.01482173,-0.11052023,0.22091338,-0.081417374,0.007664931,-0.030830737,0.11448885,0.13711067,-0.040971674,0.11399428,0.21244721,0.0178518,-0.22423595,0.1748266,-0.050824724,-0.09220535,-0.035983782,0.016111858,0.022435723,0.16372442,0.033307206,-0.22796603,0.07564879,0.119874574,0.07772513,-0.011442529,-0.1207871,-0.0017655949,0.056513697,-0.06272813,-0.068235345,0.069064535,0.14194472,0.14789842,0.067371294,0.010420786,-0.14643759,-0.015287912,0.121233106,-0.23129067,-0.28814378,-0.023116568,-0.21276803,-0.13520236,-0.12504493,-0.2139189,0.020179523,0.12689741,0.065279216,-0.069154315,-0.06946465,-0.050664973,0.112461455,-0.17181362,-0.02168765,-0.10777571,-0.049128078,-0.1955031,-0.0067250766,0.0077024633,-0.12724331,-0.16522303,-0.07120558,-0.06757768,0.10964361,-0.1321197,-0.24549228,0.01605704,0.058922123,0.042265557,-0.04872322,0.08174085,-0.088270195,-0.14727437,-0.24249391,-0.12655006,-0.22368684,-0.012613726,0.15943849,-0.07882817,-0.12377187,0.012714998,0.032558687,-0.006119983,0.042022303,-0.01955644,-0.19263273,0.033935275,0.16906658,-0.12632255,0.2832586,-0.010907814,0.19012149,0.025185643,0.20306133,0.08416015,-0.017190544,0.08086334,-0.07884777,0.184999,-0.13172497,0.12892073,0.10418809,0.058517333,-0.08946674,-0.021804309,-0.074575074,0.20580451,-0.2614514,-0.085426144,-0.14346789,-0.013855714,0.021649431,0.013894852,0.0055765808,0.11360448,-0.07104806,0.004040737,0.03897417,0.13285446,0.049522728,-0.016401187,0.076278605,0.0401555,0.1375176,-0.07002573,-0.10739259,-0.042554095,0.24541704,0.028963313,0.08716914,0.094791465,-0.0755294,0.09742127,0.087597266,0.13123809,0.085614376,-0.06874375,-0.12301292,-0.023511628,-0.10756716,0.09760336,0.024040775,-0.16556959,-0.13258785,-0.081559956,0.10556793,0.23111208,0.021173589,-0.045718055,-0.010317696,-0.2219772,0.04096212,0.0334042,-0.1144077,-0.24212477,-0.017773448,0.057473727,-0.03323256,-0.05702058,0.10563261,-0.05772969,-0.05411545,-0.07331937,0.041167643,0.054814875,0.0014818395,-0.25631335,0.06687888,-0.27335936,-0.04255878,-0.081675224,-0.09584331,-0.13445641,-0.08995869,0.054940503,-0.0512854,-0.090676375,-0.1882459,-0.0070927506,0.06784399,0.16642605,-0.052197285,-0.1010937,-0.028223483,0.16469546,0.038162112,0.03428601,-0.24735774,-0.09704218,0.03991227,0.07338064,-0.06803955,-0.007632922,0.12550569,0.041729055,0.015824823,0.15527251,0.050005924,0.02721176,0.07502461,-0.0038759245,0.08626725,0.13506693,-0.007463282,-0.1817674,-0.09458854,0.1303052,0.012609076,-0.13224845,0.058324292,-0.05289052,0.036073275,-0.208246,-0.05733064,-0.16373074,-0.03255581,0.19540085,0.053504415,0.098475926,-0.12118024,0.008727572,-0.017029172,0.057696562,-0.16498072,0.11011057,-0.08315513,0.10205936,0.10954368,0.06955667,-0.04873769,0.027651794,-0.1057019,-0.08811356,-0.0980606,0.019192949,-0.024459098,0.109809965,-0.024910366,-0.0961587,-0.01931299,0.046470627,0.018945651,0.07565936,0.022290582,0.042197462,-0.06921,-0.043421976,-0.075878955,-0.09387341,0.051487766,0.06387036,-0.18446533,-0.13470884,-0.20654257,-0.01339698,-0.034027543,-0.065100655,0.034280572,-0.107436806,-0.12717043,0.011766455,0.013509054,0.008871358,0.0013212463,0.14329666,0.02214556,0.11229987,0.15441738,-0.14759961,-0.009545878,0.03941842,-0.019159423,-0.08064234,-0.08011654,0.075273745,0.0371533,0.09747383,-0.08332366,-0.10852621,0.037481286,0.10509704,0.02125489,0.020511875,-0.06557048,-0.011476509,0.026166592,-0.059584767,0.043445446,-0.15650697,0.018282667,0.02963509,0.22898383,0.14680427,-0.08481409,0.120473295,0.076212354,-0.020070635,0.13812223,-0.056715365,-0.025500346,0.046621997,-0.11166916,0.15984161,0.12069676,0.055540446,-0.21420163,-0.22857235,-0.065689184,0.055587497,-0.089453675,0.022810245,-0.060729492,0.10621882,0.16194128,0.07762012,-0.046927825,-0.18914542,-0.029393515,0.12860844,-0.010922832,0.15614158,-0.061935235,0.12636875,0.16984342,-0.33505142,0.14653696,0.012009271,0.14428546,0.14553915,-0.10282991,0.2269203,0.16486517,-0.08320752,0.20357801,0.01801397,-0.047263242,0.08850658,0.057639133,-0.12352637,0.019087158,-0.015352049,0.09440827,-0.12920198,0.18651114,0.0149860885,-0.010412867,-0.13187599,-0.059162356,-0.0046692435,0.021806851,-0.029341241,-0.14319415,0.12833568,0.23835671,0.12893932,0.12522264,0.13177365,0.17452458,0.008373292,-0.1796716,-0.044201467,0.03541993,-0.08088763,0.08796239,0.03604454,-0.062773705,0.12527151,0.20268251,-0.036008026,-0.12275978,-0.073309675,0.015290422,0.05198864,0.0016595812,-0.26158375,0.15309837,-0.09438186,-0.022779051,0.075110614,-0.06619035,-0.21826078,0.030905839,0.12662745,0.18112585,-0.22214408,-0.17281045,0.123079345,-0.05597016,-0.24444035,-0.15624991,-0.042908635,-0.13427448,0.010147541,0.069982134,0.021802852,-0.11733703,-0.04950204,0.091010526,0.17674215,0.030228145,thinwoman6.jpg
7,0.01433842,-0.0613075,-0.05318088,-0.027230436,-0.019146876,0.097569436,0.09690285,0.20769705,0.12601933,0.106877334,0.09863095,0.11014441,0.117307484,-0.12766099,0.0510003,-0.02589283,0.04512722,-0.114499226,0.08583072,0.108545534,-0.021674331,-0.14377801,-0.054452304,-0.12963091,-0.05693271,0.10382758,-0.03792662,-0.010866998,-0.095563546,0.024304122,-0.031005496,0.006145214,0.023094576,0.12353222,-0.14047924,0.078218184,0.063666835,0.033663202,0.04562049,-0.065456726,0.0633475,-0.014058205,-0.12766367,0.148941,-0.12259252,-0.115700014,-0.15734291,0.09245736,-0.1817413,0.15612695,-0.12450365,0.13954797,0.17777564,-0.14270216,0.09500808,-0.13063316,-0.14840876,0.20623407,-0.004048485,-0.015359924,-0.018555982,-0.05624972,-0.036313806,0.085043214,0.13023539,0.027827512,0.13554811,-0.021531193,0.007888768,0.20973375,-0.13002111,-0.080410555,-0.18582693,0.28212354,0.11206474,-0.11159262,-0.16493902,-0.03988149,0.15381831,0.018381525,0.029575186,0.009159388,-0.13681267,-0.013700927,0.0082065165,0.058338717,-0.15954444,0.018867115,0.1400508,-0.082643315,-0.3626162,0.18281864,-0.17016387,-0.12362966,0.008984581,0.007682109,0.0052816044,0.19796897,-0.026147412,-0.013060391,-0.019709084,-0.018870095,0.04182885,-0.034528095,-0.03441357,-0.008974619,-0.14607516,-0.1210231,0.12907717,0.05887631,0.042285115,0.020101098,-0.10605169,0.21138932,-0.068501115,0.008647797,-0.020495573,0.11499037,0.12468105,-0.046448685,0.1160333,0.20606825,0.01535939,-0.19938871,0.17394786,-0.048047844,-0.0900798,-0.022521617,0.0047600134,0.0070585767,0.15815346,0.03677118,-0.23668724,0.0860345,0.13076693,0.06714853,-0.0036728792,-0.11407089,-0.011416467,0.057976317,-0.056091636,-0.05296382,0.07151785,0.11854126,0.15038443,0.06784148,0.00062091404,-0.14877845,-0.006796796,0.12043909,-0.22150367,-0.27742714,-0.02221874,-0.20373067,-0.114295855,-0.116081074,-0.21158583,0.031992763,0.1386108,0.06982451,-0.07163292,-0.056899175,-0.05232605,0.10100562,-0.16530967,-0.026393162,-0.09923503,-0.04830199,-0.15438446,-0.007958177,0.01365942,-0.12366423,-0.15382648,-0.059544314,-0.07143136,0.100418635,-0.1205959,-0.23415774,0.022738002,0.04911267,0.040346097,-0.035850797,0.07170057,-0.07120282,-0.14139785,-0.23831314,-0.13555089,-0.20667724,-0.018410485,0.15921824,-0.084532276,-0.11583389,0.0016361964,0.04591082,-0.009157683,0.039535683,-0.01284482,-0.17831786,0.018736623,0.16275977,-0.11769645,0.28453997,-0.006732516,0.18259665,0.024043985,0.20760685,0.09066071,-0.008810016,0.07067849,-0.08630585,0.17341746,-0.12749967,0.1262763,0.11552951,0.054410856,-0.08803366,-0.022716608,-0.06235446,0.20378196,-0.25586724,-0.08975027,-0.12651646,-0.020744687,0.013292418,0.0099916905,0.009261035,0.11672218,-0.06368148,-0.00857448,0.04014962,0.1358447,0.03496078,-0.022508426,0.0712168,0.03980593,0.14078149,-0.060720608,-0.10858219,-0.041419826,0.23861791,0.026499912,0.088727,0.100704156,-0.066000395,0.09233407,0.09595003,0.12455193,0.07873836,-0.053558193,-0.122041516,-0.019784674,-0.099458486,0.10202256,0.027407413,-0.14959785,-0.11692864,-0.08018342,0.10545506,0.23579833,0.028857123,-0.04115291,-0.0036448229,-0.22180331,0.048803624,0.03842678,-0.09973603,-0.24990721,-0.008611799,0.056587223,-0.033544153,-0.055392977,0.10273547,-0.056633137,-0.043241322,-0.06971606,0.048613217,0.05078271,0.0016332285,-0.2424304,0.06328529,-0.2653364,-0.03920094,-0.08166464,-0.0891198,-0.1276962,-0.08269861,0.054740574,-0.04953063,-0.09202867,-0.20435548,-0.017594025,0.06749229,0.15641871,-0.058470067,-0.10794373,-0.03484664,0.15239234,0.02539673,0.051241346,-0.23378207,-0.09164337,0.043135818,0.07457595,-0.068534985,-0.0069403527,0.12255364,0.035197396,0.014777988,0.14406176,0.05044033,0.02568175,0.072927974,0.0057054,0.08881241,0.13028434,-0.004388079,-0.17991105,-0.09089065,0.109735206,0.0099569,-0.121941075,0.05896967,-0.05336071,0.042327728,-0.20146887,-0.044726554,-0.14713773,-0.032564875,0.19912201,0.047072213,0.09659715,-0.11184636,0.012597462,-0.02233783,0.050007053,-0.15915062,0.11041642,-0.08877206,0.105040595,0.118252434,0.076350056,-0.033028312,0.021223407,-0.10440709,-0.085361466,-0.08407508,0.022612507,-0.021404253,0.10830528,-0.017826121,-0.08839252,-0.015179515,0.059219595,0.0125390105,0.07176454,0.018279154,0.047273666,-0.0668112,-0.03749335,-0.06623847,-0.09144249,0.043530002,0.058361597,-0.16251604,-0.1306937,-0.20429742,-0.011145879,-0.037945744,-0.06267327,0.032589354,-0.102761574,-0.122808486,0.0075577768,0.018960817,0.019859888,0.0058986703,0.12891738,0.020064188,0.10521009,0.153407,-0.12709714,-0.017356375,0.028575981,-0.022423416,-0.08658886,-0.07001086,0.065056756,0.03655021,0.083893724,-0.08211138,-0.10507449,0.042510886,0.09816826,0.02344634,0.019232538,-0.05965392,-0.012766181,0.026763273,-0.053389285,0.03622103,-0.15485355,0.008228348,0.03380617,0.22051372,0.13917679,-0.07392629,0.12194229,0.07984026,-0.020638801,0.13197549,-0.06751185,-0.036817487,0.039684217,-0.10331631,0.15391678,0.12256948,0.05433028,-0.21305777,-0.19914006,-0.06537277,0.05292913,-0.09159612,0.0127037065,-0.051550943,0.1001345,0.16231263,0.07967362,-0.046808828,-0.1885233,-0.033003632,0.116405495,-0.011210257,0.15653615,-0.06417904,0.12536016,0.17513955,-0.32787722,0.13621937,0.017567853,0.14517045,0.13896589,-0.10161326,0.2385857,0.15115337,-0.07624451,0.19913112,0.027097022,-0.04597309,0.09182483,0.053568877,-0.113911,0.023899276,-0.02814324,0.09344844,-0.12394986,0.18535914,0.007060255,-0.018404596,-0.1247431,-0.052732114,0.0023959647,0.029927557,-0.01417272,-0.13394952,0.11746502,0.22803178,0.12371149,0.1275948,0.13580804,0.16176929,0.011958613,-0.17650324,-0.04120004,0.03273697,-0.07455173,0.08325974,0.036284935,-0.052360963,0.12372833,0.21208863,-0.029617283,-0.11107615,-0.076202154,0.018333286,0.05611424,0.008833792,-0.25158232,0.15199327,-0.091686405,-0.026952952,0.08066793,-0.055663683,-0.20270094,0.023995765,0.12054087,0.18768528,-0.21905282,-0.1551977,0.12441147,-0.048346065,-0.24825685,-0.15414342,-0.043996114,-0.12715296,0.0037622647,0.083752945,0.02798331,-0.11499277,-0.057025243,0.091704965,0.16818024,0.030942524,thinman6.jpg
8,0.0025102294,-0.07148776,-0.058622062,-0.03446523,-0.018792355,0.0945784,0.12369427,0.2274874,0.122532934,0.11970711,0.10739723,0.111695245,0.1170942,-0.13340798,0.053672288,-0.019053835,0.048408344,-0.12064021,0.07987482,0.11475995,-0.033034578,-0.14971742,-0.06262482,-0.13960987,-0.057167973,0.0831834,-0.044344865,-0.017647477,-0.094333,0.02881959,-0.017570673,0.010245468,0.020647015,0.117669515,-0.15029937,0.07827647,0.05491557,0.02854223,0.02774502,-0.06410237,0.0531108,0.0027093804,-0.11814066,0.15897904,-0.11854838,-0.1010845,-0.15582186,0.11853353,-0.1945648,0.15783852,-0.12095131,0.1510225,0.21250376,-0.13537204,0.098084204,-0.123000935,-0.15380749,0.21993586,-0.0030695326,-0.00931823,-0.02977617,-0.06877767,-0.03549577,0.08499202,0.118059024,0.019441264,0.12969379,-0.020793764,0.019724693,0.22455084,-0.11425546,-0.06451872,-0.19238798,0.28826088,0.12710318,-0.11210445,-0.15944627,-0.03543409,0.15401646,0.029068872,0.023978611,0.012085241,-0.13704173,-0.026737876,0.009317335,0.07105438,-0.16188234,0.018877149,0.15447551,-0.07858645,-0.3824132,0.19525023,-0.15900965,-0.1172304,0.00600982,-0.0078106136,0.0080454275,0.21288522,-0.0036737642,-0.005388385,-0.018434167,-0.0081897825,0.040342435,-0.026378533,-0.036524393,-0.026792852,-0.14312626,-0.103263065,0.13854997,0.059206896,0.037058122,0.023651227,-0.11557289,0.22046871,-0.081103735,0.033555724,-0.0067932247,0.12506537,0.12275364,-0.058074407,0.12073737,0.20996557,0.028576052,-0.2195239,0.17654043,-0.05221247,-0.09873564,-0.027861316,0.011950172,0.029428616,0.15888956,0.034051746,-0.23250307,0.104979336,0.13089246,0.07524419,0.0011637682,-0.11557986,-0.0062983534,0.056538653,-0.06400556,-0.053551953,0.07258594,0.11076384,0.14976647,0.07503054,-0.0049102874,-0.14474949,-0.017538512,0.12217861,-0.24824645,-0.27812648,-0.026457794,-0.2086369,-0.11568671,-0.12177917,-0.21181728,0.03944143,0.14588636,0.057700273,-0.06798702,-0.05420326,-0.051039293,0.10177068,-0.14601766,-0.017945921,-0.09905379,-0.04810871,-0.18298511,-0.025345579,0.0083823595,-0.1346292,-0.15265717,-0.07789276,-0.06651349,0.10637827,-0.13249144,-0.24278308,0.026025685,0.05058628,0.051757604,-0.034113053,0.07880774,-0.08630459,-0.14792071,-0.25975665,-0.1394445,-0.20873047,-0.029966898,0.14301793,-0.08193278,-0.112538114,0.008501211,0.052190393,-0.0030454802,0.037975334,-0.021268502,-0.17719929,0.034199614,0.16670042,-0.15608753,0.28899783,0.0007593928,0.18950413,0.034718093,0.19758968,0.0660381,-0.0028604725,0.071992405,-0.08649864,0.18463823,-0.13265175,0.12921464,0.10089754,0.05910248,-0.07224157,-0.026205845,-0.067038015,0.19985089,-0.25101012,-0.080970705,-0.14776178,-0.0011639402,0.022976669,0.017068487,0.001582818,0.12725538,-0.0863434,-0.009848461,0.04054667,0.12689196,0.021185515,-0.029707724,0.06161384,0.030324606,0.14142574,-0.061580196,-0.11352846,-0.03563514,0.24366014,0.041984797,0.09460585,0.09735791,-0.06423438,0.085271195,0.1012693,0.13797048,0.08576327,-0.054493356,-0.14242323,-0.022907706,-0.12150391,0.09890921,0.040552042,-0.1443035,-0.12946063,-0.08392445,0.099422775,0.225463,0.0170907,-0.038246024,-0.0128357075,-0.2292541,0.051091153,0.034770418,-0.10409371,-0.2636346,0.009878978,0.058989957,-0.04287259,-0.050025668,0.09758545,-0.028465983,-0.04959272,-0.10042914,0.038094155,0.0665107,0.0054592094,-0.26142225,0.06979414,-0.27778822,-0.046282496,-0.06977177,-0.0970445,-0.12647955,-0.09285044,0.067086965,-0.0568742,-0.097198196,-0.20166951,-0.01974176,0.059191458,0.16140959,-0.06968789,-0.11583592,-0.01563355,0.161935,0.04110995,0.03760124,-0.24876072,-0.10274162,0.061660834,0.08803216,-0.073397085,0.00025989182,0.12227268,0.044755958,0.024251604,0.15442374,0.06427712,0.025744092,0.08528522,-0.0022118324,0.08460385,0.127465,0.003421475,-0.18196177,-0.105732135,0.119657,0.011263787,-0.13935642,0.06443616,-0.07518377,0.033810437,-0.21785694,-0.044997282,-0.15569842,-0.032561224,0.18764465,0.05560541,0.09600101,-0.12746274,0.007478881,-0.009335292,0.04169355,-0.16522577,0.098759145,-0.084541395,0.12113596,0.13067117,0.0757183,-0.049104962,0.020497376,-0.124853045,-0.069455214,-0.10496827,0.012295748,-0.021049757,0.12503283,-0.016507944,-0.09777838,-0.018833496,0.04290615,0.028251544,0.05834573,0.027091296,0.06338094,-0.06125676,-0.024677332,-0.06916402,-0.12276821,0.027440032,0.044116378,-0.1642634,-0.12524256,-0.21838593,-0.004977271,-0.052405648,-0.06416483,0.029351195,-0.08282033,-0.12938426,0.019502377,0.016000453,0.0009975901,0.018209351,0.14577407,0.011659938,0.103640385,0.15463991,-0.141465,-0.020012833,0.036286112,-0.031499986,-0.07066772,-0.08592369,0.071245156,0.025588073,0.09658972,-0.07854662,-0.08679457,0.05225184,0.09907515,0.023370858,0.022127377,-0.06572727,-0.008548679,0.022943234,-0.04979239,0.037446212,-0.15617579,0.01811887,0.031261813,0.23486587,0.1445679,-0.07974701,0.11832043,0.06746705,-0.03163431,0.1564605,-0.07615551,0.0034905428,0.04096337,-0.09295701,0.14822297,0.11867139,0.060631055,-0.21466781,-0.21521342,-0.06600084,0.045969035,-0.09476872,0.021818526,-0.052628078,0.1083513,0.15173222,0.08584956,-0.051009804,-0.19667423,-0.029215965,0.120853424,-0.02234596,0.15249464,-0.06792883,0.112544015,0.17671245,-0.32195276,0.14581475,0.005062623,0.15476158,0.1402964,-0.12211749,0.2383882,0.15842079,-0.07271909,0.18525739,0.008913628,-0.061835803,0.07850609,0.053369533,-0.1175887,0.027504245,-0.022257306,0.094134964,-0.13020356,0.19346009,-0.013642227,0.0030561325,-0.13661173,-0.052027863,0.0013206883,0.029878056,-0.017282339,-0.13986462,0.13470209,0.23014739,0.11277844,0.12994157,0.150249,0.16900095,0.00917287,-0.17214738,-0.040990196,0.04172307,-0.07450369,0.080759294,0.0322521,-0.053660672,0.12937348,0.20025891,-0.040838353,-0.11409952,-0.07975662,0.03151203,0.05272624,0.019289363,-0.26888415,0.15397727,-0.09142501,-0.042315148,0.07959146,-0.059453428,-0.2181238,0.032395806,0.12732364,0.19246782,-0.22380504,-0.17588769,0.118276134,-0.04901745,-0.24923147,-0.16236886,-0.047725588,-0.13806178,-0.0049906755,0.08439112,0.010643744,-0.11930405,-0.04269047,0.084389895,0.16355166,0.04468651,thinwoman5.jpg
9,0.016454065,-0.05612364,-0.053989958,-0.027859954,-0.017180556,0.09733824,0.102179095,0.2200154,0.12546098,0.10835928,0.096857876,0.10792933,0.11675319,-0.12542252,0.044181276,-0.025285378,0.04522587,-0.11869508,0.084289595,0.108036436,-0.022805972,-0.14389439,-0.054209307,-0.13739358,-0.060494214,0.114483796,-0.036766015,-0.014795592,-0.0900391,0.038154453,-0.024947615,-0.0034456577,0.019990433,0.12272203,-0.1361843,0.08408345,0.06271671,0.035874203,0.04915237,-0.06988495,0.06473464,-0.010905283,-0.11802608,0.15982237,-0.11211552,-0.11841038,-0.1478196,0.10106125,-0.17973474,0.1587633,-0.12161653,0.14057373,0.19117203,-0.13708532,0.08771543,-0.12771581,-0.14465113,0.20554769,-0.0009150451,-0.0130858775,-0.018662559,-0.058981307,-0.03560914,0.0880571,0.1296218,0.02678831,0.14057295,-0.01640074,0.0059331176,0.20864864,-0.108003125,-0.0787776,-0.1921635,0.28045613,0.11749608,-0.105956,-0.1667377,-0.04733688,0.15090325,0.019543255,0.026941163,0.010000913,-0.14163193,-0.02104925,0.011790867,0.057535373,-0.15267348,0.026156932,0.14150615,-0.07863133,-0.36077812,0.19301279,-0.1682862,-0.12456719,0.008653608,-0.0022531792,-0.0010572181,0.2031278,-0.018260175,-0.013348862,-0.02555673,-0.011065905,0.043666482,-0.026936835,-0.031804055,-0.011621503,-0.13935588,-0.12080661,0.12863883,0.059898578,0.042403955,0.020178648,-0.11563649,0.21088645,-0.075051345,0.008468096,-0.017642697,0.12192148,0.13017552,-0.055532906,0.11318805,0.20174769,0.0234422,-0.20994954,0.17490672,-0.048315775,-0.09673187,-0.023617009,0.0047770203,0.0045590242,0.15019825,0.03500703,-0.22942194,0.09623915,0.12559302,0.06575679,-0.008427272,-0.11750327,-0.014277259,0.051574096,-0.061058708,-0.05737415,0.073538095,0.11582833,0.1511246,0.06882602,-3.703657e-05,-0.14879806,-0.014245482,0.117473945,-0.22499335,-0.27512637,-0.015672028,-0.20701219,-0.119520254,-0.11624823,-0.21286874,0.03492873,0.13358603,0.0624454,-0.06827694,-0.058608364,-0.048150018,0.09780411,-0.16476992,-0.024579216,-0.10385919,-0.047253344,-0.16112465,-0.019335112,0.01756537,-0.124478936,-0.15928172,-0.06603198,-0.073857255,0.10413188,-0.13102113,-0.23465888,0.030741422,0.053567987,0.03995818,-0.03858898,0.07704875,-0.08019394,-0.1339236,-0.2417733,-0.13593498,-0.21463619,-0.02561435,0.1610425,-0.07484987,-0.109798975,0.0068310522,0.049034517,-0.0019087403,0.03773006,-0.013579361,-0.16855747,0.028838484,0.16107047,-0.12051566,0.28228992,-0.0070414585,0.18837206,0.034236472,0.1959629,0.080562614,-0.011724951,0.066966444,-0.078864366,0.17915581,-0.123817466,0.12916325,0.11463118,0.049989082,-0.083867006,-0.023435893,-0.067368925,0.2101546,-0.26152673,-0.0894661,-0.12689926,-0.012680429,0.022020504,0.00894011,0.0033247964,0.11982377,-0.06829941,-0.003948366,0.03881135,0.13355315,0.041559886,-0.020321874,0.07258815,0.045440674,0.13801424,-0.06120699,-0.11323927,-0.04350392,0.23958462,0.03748571,0.08318883,0.10407735,-0.063577436,0.08904061,0.09203342,0.1212622,0.07220642,-0.05450606,-0.13112187,-0.017289523,-0.09800189,0.105833285,0.039140224,-0.14860158,-0.11870834,-0.08512154,0.10900943,0.232264,0.012830204,-0.041795947,-0.0042303926,-0.21970217,0.04555836,0.032445963,-0.105622,-0.2538309,-0.005945346,0.061018046,-0.037021045,-0.054208897,0.09754834,-0.05561472,-0.04630939,-0.06785072,0.03960679,0.0540271,0.006335159,-0.24673179,0.06756944,-0.25634935,-0.03870232,-0.0706709,-0.08781331,-0.12733442,-0.07720675,0.058390953,-0.047576685,-0.09371182,-0.20498335,-0.0150830895,0.05943822,0.15742016,-0.053443737,-0.10756459,-0.034041803,0.15420355,0.029801548,0.04533384,-0.23850462,-0.09129872,0.050265152,0.07887066,-0.074373394,-0.0049269316,0.114802785,0.03984326,0.01976883,0.15247633,0.05478084,0.0248978,0.07866237,0.0070468113,0.0931304,0.12507267,-0.004118925,-0.1833462,-0.09632248,0.12551591,0.012218875,-0.13170211,0.06308163,-0.05284326,0.047498126,-0.20220384,-0.04585308,-0.15141404,-0.03256484,0.19958408,0.053590417,0.07965361,-0.118295096,0.012339124,-0.018601326,0.04431778,-0.16197255,0.10577962,-0.09178866,0.10358097,0.114857696,0.080864094,-0.039867867,0.021333823,-0.115241595,-0.07739935,-0.08967499,0.020177893,-0.021612164,0.10638095,-0.018204246,-0.09175866,-0.019038472,0.049142785,0.0167307,0.07292541,0.021658417,0.05389164,-0.060570646,-0.030493602,-0.0676679,-0.09786083,0.039516628,0.05895198,-0.17467615,-0.124618925,-0.20560038,-0.007644716,-0.043905128,-0.06547741,0.032669045,-0.092199504,-0.12502876,0.0075826007,0.020407353,0.012794341,0.005529331,0.13262603,0.017730698,0.10008589,0.14745039,-0.1290221,-0.013914158,0.032516398,-0.012713873,-0.076785184,-0.07598413,0.063485205,0.033334397,0.084035546,-0.08444234,-0.10067319,0.047331836,0.099523894,0.023076473,0.011598139,-0.059252564,-0.009557075,0.019395681,-0.046446607,0.034486357,-0.15142484,0.0079345545,0.029745257,0.22222212,0.13910012,-0.07585831,0.11668325,0.07530859,-0.015432895,0.13295698,-0.068875685,-0.023933174,0.0391048,-0.0974044,0.15810959,0.12190409,0.058823675,-0.21524721,-0.21254745,-0.0663467,0.05541687,-0.090467766,0.012759873,-0.04540322,0.095109984,0.16416271,0.081849255,-0.05046214,-0.1911033,-0.031239068,0.116800666,-0.011246923,0.1650643,-0.073050685,0.12827331,0.17714901,-0.3301592,0.12813835,0.0126090795,0.14502124,0.14021166,-0.100689135,0.23828074,0.14825268,-0.07640704,0.20464905,0.013676378,-0.049192756,0.097345,0.04226207,-0.118505776,0.024457194,-0.021263488,0.08728388,-0.11203488,0.19291319,0.0014743479,-0.006201725,-0.12920304,-0.04683585,-0.0042171795,0.033289842,-0.019015415,-0.14447495,0.12538062,0.22759911,0.122769475,0.13176432,0.14069647,0.16597323,0.013361141,-0.16864021,-0.03400038,0.0374989,-0.082857564,0.08072905,0.035759613,-0.04674382,0.12341157,0.21495166,-0.02572416,-0.10972656,-0.075881526,0.022768497,0.054631457,0.006569003,-0.25577468,0.14857812,-0.099888906,-0.031558245,0.07189615,-0.05389887,-0.20649163,0.025350219,0.116817035,0.1824049,-0.21130972,-0.15844491,0.11797622,-0.0506244,-0.24445799,-0.14966892,-0.0485793,-0.1269283,0.0074670278,0.07327879,0.017428793,-0.11142745,-0.056489766,0.087264016,0.16432205,0.02627184,thinman5.jpg
