,0,1,2,3,4,5,6,7,8,9,10,11,12,13,14,15,16,17,18,19,20,21,22,23,24,25,26,27,28,29,30,31,32,33,34,35,36,37,38,39,40,41,42,43,44,45,46,47,48,49,50,51,52,53,54,55,56,57,58,59,60,61,62,63,64,65,66,67,68,69,70,71,72,73,74,75,76,77,78,79,80,81,82,83,84,85,86,87,88,89,90,91,92,93,94,95,96,97,98,99,100,101,102,103,104,105,106,107,108,109,110,111,112,113,114,115,116,117,118,119,120,121,122,123,124,125,126,127,128,129,130,131,132,133,134,135,136,137,138,139,140,141,142,143,144,145,146,147,148,149,150,151,152,153,154,155,156,157,158,159,160,161,162,163,164,165,166,167,168,169,170,171,172,173,174,175,176,177,178,179,180,181,182,183,184,185,186,187,188,189,190,191,192,193,194,195,196,197,198,199,200,201,202,203,204,205,206,207,208,209,210,211,212,213,214,215,216,217,218,219,220,221,222,223,224,225,226,227,228,229,230,231,232,233,234,235,236,237,238,239,240,241,242,243,244,245,246,247,248,249,250,251,252,253,254,255,256,257,258,259,260,261,262,263,264,265,266,267,268,269,270,271,272,273,274,275,276,277,278,279,280,281,282,283,284,285,286,287,288,289,290,291,292,293,294,295,296,297,298,299,300,301,302,303,304,305,306,307,308,309,310,311,312,313,314,315,316,317,318,319,320,321,322,323,324,325,326,327,328,329,330,331,332,333,334,335,336,337,338,339,340,341,342,343,344,345,346,347,348,349,350,351,352,353,354,355,356,357,358,359,360,361,362,363,364,365,366,367,368,369,370,371,372,373,374,375,376,377,378,379,380,381,382,383,384,385,386,387,388,389,390,391,392,393,394,395,396,397,398,399,400,401,402,403,404,405,406,407,408,409,410,411,412,413,414,415,416,417,418,419,420,421,422,423,424,425,426,427,428,429,430,431,432,433,434,435,436,437,438,439,440,441,442,443,444,445,446,447,448,449,450,451,452,453,454,455,456,457,458,459,460,461,462,463,464,465,466,467,468,469,470,471,472,473,474,475,476,477,478,479,480,481,482,483,484,485,486,487,488,489,490,491,492,493,494,495,496,497,498,499,500,501,502,503,504,505,506,507,508,509,510,511,img
0,-0.12680703,-0.062148146,-0.047551006,-0.3913837,-0.022033365,0.07989962,-0.10832562,0.11200486,0.15523842,0.20356229,0.016474115,0.0660427,0.11567703,0.03887401,0.24004446,0.19187064,-0.035977256,-0.07489707,2.562377,0.0047979443,0.0076985997,-0.14422205,-0.03860809,-0.17805573,0.014980365,-0.037144285,-0.20915937,-0.08641542,-0.03195277,0.28225318,0.9598605,-0.055333856,-0.102623,0.025052471,-0.14138518,0.062436357,0.09254171,0.026985109,-0.00095424236,-0.27460313,0.06752254,0.17273335,-0.12610023,0.00966385,-0.0022590028,0.029206144,-0.110370144,0.19679867,-0.095577866,0.019811582,-0.12596187,-0.0012144338,0.087576814,-0.09522291,0.024918878,-0.02222147,-0.45136973,0.104556724,-0.15276213,-0.00037652164,-0.10009186,-0.09651095,0.14277142,0.1541074,0.1628261,0.19996257,0.014721248,-0.08497368,-0.0048102583,0.18049584,-0.07739603,0.26182362,-0.08449992,-0.16805902,0.13641061,-0.21415089,-0.24746138,0.03222706,-0.004376877,0.00052171753,-0.2598487,-0.028144093,0.13383107,-0.008550843,0.011401258,-0.086223565,-0.109379195,-0.023949195,0.015372602,-0.010596504,-0.22995113,0.078768745,0.08052045,0.012563337,0.067866854,-0.06773327,1.0208066e-05,0.21599418,-0.031468794,0.11376276,0.01988905,0.08904195,-0.10346196,-0.08168872,0.2362051,-0.06308698,-0.10115495,-0.10209128,-0.03281595,-0.12361084,0.018773265,0.021867186,-0.09365982,0.021184903,-0.19826868,0.046703383,0.005616615,0.13359119,-0.013556953,0.020256013,0.2236047,0.31603906,-0.062349375,-0.12268936,0.2796254,0.0017032637,-0.28304952,-0.007077079,0.010532932,-0.107176326,-0.32008106,-1.8666624,-0.04280251,-0.020243889,0.14885508,-0.04328562,0.024811553,-0.09319122,-0.06258382,0.03152768,0.054332342,0.012152954,0.016680438,-0.061875213,0.3828031,-0.008283953,0.20065472,-0.0030945423,0.038646776,-0.058352336,-0.27441534,-0.28978318,-0.060631268,-0.07545722,-0.14359052,0.011861575,-1.6019684,-0.023204405,0.19126348,0.08707544,-0.36689693,-0.09778033,-0.18205716,0.003962001,-0.14515488,0.27584144,-0.0743567,-0.12980434,-0.104010925,0.053012848,-0.022615097,-0.01812333,-0.24860744,-0.099449225,-0.072188176,0.030934284,-0.008797426,-0.10853622,-0.05952145,0.0436535,-0.12103711,-0.08424653,-0.20230821,-0.085144565,-0.14621377,-0.15434976,-0.07825694,-0.09443121,-0.116220824,0.09821987,-0.2429253,-0.12862508,0.16251367,-0.08480558,0.025958752,0.04520238,0.04577198,-0.18899618,-0.021650447,-0.037859753,-0.02420898,0.06865579,0.13272332,1.7351328,0.033296272,0.16005518,0.06617565,-0.08687089,0.27170187,-0.05600165,0.043516796,0.04663026,0.08480888,0.17014588,-0.03463399,0.1744983,0.080555856,-0.040349606,0.61201,-0.12322736,0.036124084,-0.07669228,-0.08647934,-0.04046518,-0.20179352,-0.007516413,-0.07856844,0.06299852,0.043183133,0.015163534,0.13104226,-0.079326466,-0.042098492,0.10714976,-0.05292261,0.14384262,-0.04253327,-0.12291735,0.022672238,0.027820861,-0.035641767,0.13137332,0.019496785,-0.092667885,0.1437356,-0.010729628,0.14703418,0.057825062,-0.08431378,0.072099924,-0.010633071,-0.2776847,0.09832467,-0.08347557,-0.09737899,-0.016919054,0.09511187,-0.0074421423,0.03379716,0.1296429,0.12746526,-0.04113128,-0.15230112,0.063149974,-0.013840918,-0.11131508,0.02812377,-0.03316125,0.30469698,0.08924914,0.11276406,0.017175386,0.060353123,-0.1242238,0.06512759,0.046396054,-0.036045335,0.07045964,-0.17369255,0.11572742,0.06243992,0.052614987,-0.046294525,-0.22773679,-0.06887552,0.1111568,-0.09869603,-0.4355525,0.39654607,0.044847935,-0.006998255,0.07230906,0.17639366,0.16343541,0.04656311,0.18989962,0.33765385,-0.030520605,0.018670673,-0.19511181,-0.11852697,0.15668659,0.06706186,0.096745774,-0.044906624,0.08017704,-0.075195454,0.09895103,0.03061797,0.0568441,-0.13993059,0.0423564,0.13692357,0.09423052,0.34731826,0.079182096,0.083887056,-0.11918128,0.05154691,0.08587561,-0.17899258,0.16766976,-0.020259304,-0.07964212,-0.07942138,-0.112622686,-0.042571228,-0.047670636,0.028428765,0.21646744,-0.005999477,-0.08404479,0.1392669,-0.026506195,-0.08219515,0.04286037,0.04442751,0.0076022744,0.057219032,0.10574184,0.088127844,-0.019588603,-0.027469942,-0.07130888,-0.079795904,-0.04017572,-0.88044757,0.0011198897,-0.007821324,-0.032204125,-0.09547067,0.22829373,0.31240264,0.03528531,0.15703414,-0.07931326,0.3337579,0.023775335,-0.029633708,-0.06116239,-0.042980492,0.067653626,-0.11333117,-0.0514768,0.097846106,0.0120191015,0.03472692,-0.3410777,0.27856818,-0.0699094,0.009948435,-0.036836773,0.20780833,-0.056718078,-0.022569954,-0.053683996,0.046592966,-0.04143453,0.07187719,-0.06708659,-0.13020784,0.08187575,-0.025306875,0.083568856,0.07984786,-0.013971609,-0.032885276,0.0793217,0.14102443,0.024179177,0.09742351,0.08885293,0.11268435,-0.0769402,0.006091115,0.10186095,0.031226223,-0.012236824,-0.017360177,0.102490865,-0.17297597,-0.10899452,0.25413224,0.46940556,0.037753936,-0.10626388,-0.094035536,0.11166757,0.17359403,0.19099683,-0.016928699,-0.112111956,0.101060055,-0.011337914,0.1581821,-0.031903386,0.10043978,0.07994004,-0.07494001,0.0103051085,-0.16967434,-4.548856,0.13005401,0.05605423,0.057518087,0.029641807,-0.047213823,0.28544348,-0.1982235,0.057056244,0.07912664,-1.9070073,-0.062648244,-0.06287601,-0.17403314,0.08922994,-0.18448125,0.1320572,0.10502744,0.046244785,0.16993168,-0.21139087,0.23527056,0.10484632,-0.08444135,0.13949952,-0.03568718,0.059204515,0.008881511,-0.028825985,-0.06393785,-0.15995438,-0.00032395477,-0.030706506,0.0020802664,0.013716157,0.009439394,-0.22317925,0.010289515,-0.059637435,0.2735304,-0.018537186,-0.07894848,0.028323865,0.40756044,0.05554714,-0.03253808,0.10653593,-0.017675782,0.139918,-0.06825153,-0.027493184,-0.05920552,-0.010131714,-0.043682646,0.030321855,0.13271196,-0.04036825,0.31854022,0.045978755,-0.050846487,-0.17550953,-0.043343052,-0.016025022,0.113760434,0.07637841,0.32597613,0.77444416,-0.14437056,-0.0775028,0.0021124813,0.014229917,-0.11050889,0.016150204,-0.038134996,0.096930295,-0.2197336,-0.07378901,0.009085521,-0.059770677,-0.16236016,-0.06250133,0.1279746,-0.06293549,-0.038720835,-0.2367685,0.10665967,-0.2761498,-1.0192418,0.21078491,0.0042499932,-0.12531325,fatman6.jpg
1,-0.12617822,-0.062365763,-0.03914381,-0.39762533,-0.025692992,0.07628962,-0.09797831,0.12216171,0.14542902,0.21058321,0.00838789,0.07724618,0.10991143,0.04857182,0.24239482,0.2059507,-0.03298321,-0.06836953,2.437156,0.01572708,0.013144245,-0.12803176,-0.04217762,-0.17780952,0.020021694,-0.036527067,-0.20765479,-0.08002997,-0.019647041,0.27605814,1.0160156,-0.061407834,-0.11206781,0.03592533,-0.13919806,0.06130663,0.08556419,0.022946311,-0.0024202426,-0.27272084,0.06995478,0.17788872,-0.1315414,0.005805838,-0.0015746825,0.027628869,-0.11453992,0.2015665,-0.092705905,0.017676095,-0.11646536,-0.003805459,0.06988498,-0.09148324,0.020935137,-0.033827394,-0.5782928,0.12066509,-0.16042708,0.010367395,-0.10407372,-0.089267984,0.15608956,0.15525341,0.16495027,0.19149671,0.018725878,-0.08380779,-0.01154219,0.17653772,-0.087213784,0.26010585,-0.0917464,-0.16735154,0.1314831,-0.20487426,-0.24654377,0.03486592,-0.0025958614,0.004335256,-0.25627944,-0.04455967,0.11363132,-0.019560216,0.01276822,-0.095832154,-0.10962236,-0.028854484,0.024402373,-0.008592613,-0.20345956,0.086893424,0.08034651,0.008935285,0.07643088,-0.07114423,0.0050968593,0.21681613,-0.041662063,0.11359527,0.006188395,0.07636171,-0.11625143,-0.07495969,0.24584483,-0.06617801,-0.101558186,-0.103356786,-0.043001916,-0.11627359,0.012833282,0.037483297,-0.107968904,0.02369677,-0.20352454,0.0488061,0.0043607503,0.12475064,-0.02154767,0.018436333,0.21820673,0.3158892,-0.070239685,-0.1359758,0.28826284,-0.011164217,-0.26660737,-0.00092715735,0.003908673,-0.112295516,-0.28677157,-1.782047,-0.049895145,-0.017821072,0.12414475,-0.038866654,0.02241445,-0.088161826,-0.055309545,0.042483933,0.0623816,0.012796199,0.04211443,-0.060496956,0.40358478,-0.0112152565,0.21451014,-0.0072846957,0.031317797,-0.063097835,-0.2740639,-0.30912217,-0.069996566,-0.083626226,-0.14585309,0.013740795,-1.6880347,-0.028127404,0.19335675,0.09364748,-0.3644601,-0.096979134,-0.17271356,0.009198399,-0.15172291,0.26916236,-0.07244502,-0.15998876,-0.10979105,0.057741065,-0.030498113,-0.015164469,-0.24855424,-0.102345936,-0.07480287,0.03621218,-0.016161656,-0.1196841,-0.057786852,0.045145184,-0.12134663,-0.07624258,-0.20470619,-0.09036317,-0.15166567,-0.14824656,-0.07553572,-0.10616216,-0.12873127,0.10112737,-0.2344126,-0.12612367,0.16064258,-0.090077415,0.037109304,0.045936454,0.041879,-0.20559649,-0.018730218,-0.015424817,-0.020553896,0.06780996,0.14199479,1.7472876,0.03221636,0.1683979,0.07143369,-0.10075504,0.2695932,-0.0542624,0.052917976,0.037661467,0.0895314,0.16454618,-0.028957043,0.16491236,0.07923716,-0.05870427,0.61689353,-0.12776639,0.038596995,-0.0696982,-0.09274707,-0.039742943,-0.19888982,-0.00010591609,-0.08128368,0.06329667,0.036492903,0.016416915,0.123619445,-0.07582217,-0.042263765,0.11644214,-0.06352047,0.15870847,-0.03633647,-0.11388886,0.011418851,0.035943337,-0.035878588,0.13731389,0.0104449885,-0.10813172,0.1364716,-0.010418199,0.14649574,0.049629785,-0.07841693,0.078324616,-0.013079158,-0.27138326,0.0921307,-0.084696926,-0.113730125,-0.030146614,0.09962319,-0.011457167,0.038461,0.13097154,0.11358754,-0.04107142,-0.14810197,0.0672266,-0.02771121,-0.11550229,0.029026631,-0.027204396,0.28552952,0.10021796,0.12025633,0.027613604,0.059715167,-0.12543565,0.06350595,0.04452234,-0.04042252,0.061927907,-0.17768423,0.1256603,0.044598293,0.053536486,-0.03348188,-0.22048448,-0.069802895,0.11054144,-0.107093446,-0.44461137,0.39910915,0.033187166,0.008069302,0.07215877,0.18083593,0.15484321,0.0487607,0.18980075,0.34459606,-0.028322808,0.0125110485,-0.2018924,-0.12549406,0.15108918,0.06428961,0.08812688,-0.030902274,0.09193744,-0.0743015,0.10463665,0.046060994,0.064605825,-0.14070974,0.04808368,0.13702416,0.09419111,0.34779644,0.08276376,0.075521454,-0.11433538,0.052792333,0.07713707,-0.18142185,0.14793983,-0.01796336,-0.08190106,-0.08014688,-0.11332972,-0.043003608,-0.047676753,0.025525115,0.21993986,-0.0046057603,-0.08696203,0.1299404,-0.027214305,-0.062447693,0.0464388,0.047726613,0.0005529852,0.0734461,0.09864194,0.08484254,-0.02162933,-0.01972708,-0.07494447,-0.09995003,-0.022468908,-0.8776898,0.0011298731,-0.020752518,-0.03293751,-0.09133512,0.22861624,0.31407183,0.030750275,0.18502764,-0.07885443,0.32923728,0.015795534,-0.021705387,-0.062303644,-0.054995175,0.07024584,-0.10898031,-0.06340179,0.09873063,0.008265175,0.034843016,-0.3356924,0.28593597,-0.07277503,0.007646671,-0.044032443,0.19881612,-0.058887254,-0.03212925,-0.05397304,0.05235937,-0.024368586,0.07923124,-0.05868706,-0.14204095,0.07807453,-0.024006987,0.089827165,0.081145056,-0.00994823,-0.03342457,0.07524657,0.14529078,0.03723118,0.10866911,0.08730636,0.12311889,-0.09101906,-8.745382e-05,0.09852402,0.024782548,-0.019024046,-0.036167767,0.10851197,-0.18334612,-0.109808125,0.25252488,0.48453623,0.039485414,-0.11223895,-0.07657598,0.10335285,0.18779162,0.19393273,-0.016577952,-0.12490081,0.10479814,-0.010580057,0.16172075,-0.046024334,0.09648947,0.0749667,-0.073095895,-0.010535503,-0.16961427,-4.3862157,0.12700793,0.05197131,0.055573203,0.027011363,-0.048023522,0.2632234,-0.20454264,0.06512596,0.08067991,-1.9375817,-0.0630739,-0.058376744,-0.14473407,0.08327541,-0.18313034,0.1311418,0.109759785,0.041858673,0.17480697,-0.20291805,0.23937356,0.10008265,-0.08320821,0.13947919,-0.042200096,0.049990997,0.017732963,-0.028638493,-0.08836773,-0.15353923,0.0026277574,-0.03516322,-0.013542451,0.009969328,0.014281005,-0.21703142,0.0062421286,-0.06330333,0.27624378,-0.016239025,-0.09361232,0.033378292,0.4240884,0.058552805,-0.032103766,0.09008321,-0.010592805,0.15946375,-0.05369696,-0.038115136,-0.09095544,-0.018678678,-0.04081529,0.03682775,0.12978667,-0.04236882,0.32992676,0.042345334,-0.054945704,-0.16508357,-0.047528215,-0.018401993,0.114750974,0.065878116,0.28321943,0.7472642,-0.1357335,-0.075252675,0.005605454,0.0061490578,-0.10953579,0.017821228,-0.025823966,0.10858373,-0.23126623,-0.08040976,0.01052631,-0.05822228,-0.17372352,-0.06317244,0.11857378,-0.064029604,-0.040555343,-0.22385985,0.1150616,-0.27860346,-0.9945197,0.22220787,0.0068081333,-0.12981991,fatman4.jpg
2,-0.13094108,-0.060361166,-0.040432885,-0.38242236,-0.0218991,0.08418761,-0.089917324,0.12182926,0.15738162,0.20565751,0.015125822,0.0861822,0.11899658,0.03992817,0.24012408,0.20773333,-0.0317161,-0.06607968,2.389341,0.006309223,0.008698948,-0.14089224,-0.039577115,-0.18213512,0.017937964,-0.050534897,-0.19741377,-0.08937923,-0.049554244,0.27980763,0.9983807,-0.049802072,-0.104433715,0.030661512,-0.13976693,0.05699579,0.07922137,0.010419958,-0.01341023,-0.2749291,0.06288741,0.17833817,-0.13741648,0.0046018837,-0.007684997,0.026871752,-0.10155859,0.19341242,-0.1019936,0.0069437404,-0.11229486,-0.007175469,0.07919396,-0.09038534,0.030348333,-0.021739863,-0.71742874,0.11566888,-0.15381569,0.009120668,-0.10549822,-0.08980963,0.14664084,0.13970579,0.15004718,0.17838113,0.012610639,-0.09098772,-0.0053473115,0.1849633,-0.07634574,0.24251454,-0.074150346,-0.16146779,0.13884236,-0.20870091,-0.23631059,0.02500781,0.0020422714,0.006469114,-0.26351815,-0.034870263,0.11827647,-0.02992447,0.0074780523,-0.070527405,-0.101121075,-0.035150353,0.013290346,-0.013335433,-0.2462325,0.087955095,0.08529311,0.027806742,0.089366615,-0.06868311,0.009906335,0.21945342,-0.029175924,0.104766846,0.026612092,0.08391529,-0.123371385,-0.091854736,0.24338989,-0.06628759,-0.10537882,-0.099535234,-0.04151679,-0.10500225,0.009237852,0.0038914075,-0.099020235,0.017728986,-0.2015365,0.05518151,0.012159598,0.111657806,-0.019159593,0.01800627,0.21887241,0.32582083,-0.0904779,-0.12271823,0.2947225,-0.008828343,-0.24643323,-0.0037894335,0.0121100405,-0.09413748,-0.2944638,-1.8228476,-0.046386566,-0.020541925,0.13368341,-0.034548722,0.03019387,-0.09084791,-0.046932068,0.04506798,0.057368733,0.020225111,0.04380211,-0.062784806,0.40051973,-0.01610032,0.20495744,-0.003696602,0.03117659,-0.059294224,-0.28119245,-0.28767127,-0.061911196,-0.08676445,-0.13618982,0.016568676,-1.6403034,-0.027035771,0.21609418,0.0834538,-0.35024765,-0.084515356,-0.16651098,0.0059174127,-0.14082795,0.25183627,-0.069457665,-0.13594842,-0.11723919,0.063832626,-0.02944618,-0.020297565,-0.2387119,-0.10138572,-0.06874767,0.027415501,-0.015437485,-0.10574081,-0.056734525,0.04860384,-0.12054109,-0.08253171,-0.19714713,-0.08432179,-0.14028151,-0.15763514,-0.06938295,-0.09640461,-0.122059844,0.09943544,-0.2513476,-0.13232252,0.1643857,-0.08565918,0.015209394,0.056610126,0.052229363,-0.202173,-0.02679284,-0.010294182,-0.023941562,0.0604436,0.13939643,1.7163286,0.030910967,0.16424815,0.07262432,-0.10315357,0.2752266,-0.05774296,0.042646352,0.028843176,0.08210246,0.16899335,-0.03649027,0.16109644,0.081995696,-0.04543592,0.5135388,-0.13211915,0.04064509,-0.06603466,-0.095483035,-0.042372245,-0.18030757,-0.010326596,-0.085894085,0.06634871,0.043614455,0.03223727,0.1251211,-0.08864653,-0.057742868,0.11031073,-0.056021873,0.16823947,-0.04208943,-0.1034106,0.014116068,0.028390171,-0.027909448,0.14654242,0.0099759055,-0.10042138,0.12695841,0.001318943,0.12686476,0.049939398,-0.08976642,0.073120765,-0.011521255,-0.2807209,0.0802815,-0.089229785,-0.1153906,-0.014930948,0.10389418,-0.020607913,0.02792296,0.14553097,0.12315616,-0.052425172,-0.14388403,0.063036546,-0.033544656,-0.11045051,0.021904707,-0.029310813,0.25639307,0.09636214,0.11831057,0.023948504,0.04672021,-0.12872715,0.059845824,0.04269587,-0.03746648,0.071166396,-0.17398931,0.12359644,0.05456262,0.042122494,-0.04876703,-0.22610335,-0.06751717,0.112228036,-0.10800995,-0.42302942,0.38033435,0.026452836,-0.0016749621,0.062343236,0.17964871,0.15971799,0.039886173,0.20325372,0.3466625,-0.033273023,0.017962366,-0.19729258,-0.13330536,0.15517758,0.06711884,0.07517123,-0.04755166,0.10370034,-0.0746338,0.10342044,0.029826466,0.06875787,-0.14234413,0.0426792,0.12827313,0.09153604,0.34397307,0.07694234,0.059579656,-0.11451583,0.052937064,0.09150407,-0.18033308,0.12585413,-0.02225774,-0.091076374,-0.08215054,-0.11184117,-0.03522043,-0.04769034,0.026598744,0.21716005,-0.0027288029,-0.08802599,0.12726966,-0.02448607,-0.045785762,0.047705278,0.046963315,0.013086245,0.074011624,0.10595954,0.09203647,-0.014909519,-0.023398293,-0.088829175,-0.085967176,-0.030148555,-0.8713333,0.0010940048,-0.013815638,-0.029855331,-0.094286725,0.22476776,0.30775785,0.027438326,0.17121889,-0.0914788,0.3184098,0.016399557,-0.028203305,-0.055725224,-0.052420765,0.068941325,-0.110414274,-0.058081467,0.10037869,0.020268433,0.036754318,-0.33654732,0.29627427,-0.079284616,0.010735744,-0.046897795,0.19124743,-0.057256144,-0.034212578,-0.047601175,0.053660855,-0.028145313,0.07879838,-0.030417446,-0.13864271,0.07032118,-0.018590422,0.07349565,0.079456456,-0.01917402,-0.03026896,0.087829046,0.14965987,0.022820259,0.112052225,0.07044256,0.1177772,-0.0725877,0.006062229,0.08790229,0.02307289,-0.019933077,-0.01567054,0.121612854,-0.16777621,-0.102304325,0.2542456,0.46066853,0.04096035,-0.122216366,-0.13167161,0.10833916,0.1936462,0.1853653,-0.017738843,-0.11881647,0.105648875,-0.004147171,0.15419509,-0.06418235,0.03218778,0.08369786,-0.07227301,-0.0009455158,-0.17588593,-4.4316983,0.118399136,0.06486531,0.050323356,0.01567927,-0.05493006,0.22446558,-0.18709107,0.060648497,0.10138595,-2.0440428,-0.06503136,-0.06589181,-0.14616777,0.08591707,-0.18175855,0.12786476,0.10713299,0.05441479,0.17991063,-0.21367179,0.22606164,0.10462351,-0.07070551,0.13513342,-0.05208514,0.034884762,0.018567039,-0.022105033,-0.099391624,-0.15726347,-0.0056262407,-0.02183149,-0.006137421,0.0142753,0.010062597,-0.21259435,0.011816295,-0.0681344,0.2706964,-0.017048698,-0.0893991,0.037505783,0.41688576,0.05436972,-0.04149535,0.11342478,-0.014366875,0.17079127,-0.057157226,-0.052051768,-0.09666393,-0.0052793194,-0.029974349,0.030980222,0.1384607,-0.031010253,0.33480468,0.0475928,-0.057569735,-0.16672051,-0.047162626,-0.02052838,0.12056095,0.06498634,0.27087632,0.75452596,-0.14245772,-0.07345956,0.00047241856,0.0043856944,-0.11067386,0.0082107065,-0.03865776,0.09255908,-0.23131444,-0.08141611,0.0070678527,-0.06961038,-0.17620322,-0.07122654,0.12502068,-0.04689383,-0.04454846,-0.22271834,0.1061943,-0.2756259,-0.98171145,0.19839545,-0.0020317808,-0.1357569,fatman5.jpg
3,-0.12383654,-0.06893281,-0.03671707,-0.39842972,-0.02092148,0.07780347,-0.1012548,0.11553398,0.14122117,0.1980923,0.018772142,0.082286164,0.10070331,0.03901515,0.24303044,0.20922913,-0.03116437,-0.06702971,2.3769646,0.014737149,0.0064189443,-0.12353613,-0.042636044,-0.1683234,0.014292867,-0.066619664,-0.19580637,-0.086617045,-0.06453823,0.27889362,0.94406074,-0.04552737,-0.1056338,0.035316475,-0.15597114,0.0578515,0.08842743,0.009637911,-0.008390113,-0.272216,0.058529947,0.18247148,-0.14302924,0.007015216,-0.01060711,0.028303819,-0.09437637,0.19253086,-0.098077916,-0.0016838401,-0.11223769,-0.007900511,0.080515236,-0.08303422,0.02644235,-0.020404506,-0.77532846,0.11560016,-0.15190041,0.005817884,-0.11750126,-0.10146881,0.14827852,0.14062154,0.16461712,0.194821,0.018228004,-0.08565122,0.0002660792,0.18621476,-0.07011557,0.23875357,-0.07777357,-0.1638674,0.1323637,-0.21682566,-0.22787468,0.028730366,0.0023896915,0.010959397,-0.26226473,-0.038649157,0.12209425,-0.016860561,0.0076538473,-0.08416001,-0.10210322,-0.030869802,0.017154438,-0.012250283,-0.21790417,0.079989344,0.09519548,0.028560506,0.09359206,-0.061306857,0.012057435,0.21932048,-0.030509802,0.10963262,0.032554515,0.08196662,-0.13433233,-0.08805632,0.22274718,-0.06593959,-0.09651301,-0.09767768,-0.038194265,-0.11349144,0.008600069,-0.0015348302,-0.09536563,0.01273009,-0.19718385,0.05743634,0.008659722,0.119509764,-0.01899791,0.026381522,0.21953866,0.32887086,-0.07502538,-0.13151212,0.29914245,-0.015045513,-0.25958908,-0.01137943,0.018844165,-0.10736526,-0.28856784,-1.669362,-0.036555298,-0.013547989,0.12616813,-0.034719903,0.02769383,-0.092783675,-0.048359424,0.03910374,0.059997108,0.009538262,0.052870452,-0.070148885,0.39775988,-0.017876893,0.19315119,-0.0057026213,0.02852767,-0.04987516,-0.27446884,-0.2826203,-0.0554484,-0.083862394,-0.13698833,0.021170618,-1.6793588,-0.023840727,0.21179865,0.07654647,-0.34042445,-0.0888827,-0.16922098,-0.0021784406,-0.13174167,0.25298247,-0.068915434,-0.121457465,-0.112281956,0.06207211,-0.036486935,-0.00870952,-0.22940995,-0.114115566,-0.06856859,0.03163374,-0.0121026235,-0.10357089,-0.05959541,0.043207034,-0.113225065,-0.07325155,-0.19907811,-0.07969282,-0.13247813,-0.17511402,-0.07097994,-0.0985401,-0.13299513,0.098214045,-0.24782772,-0.12720849,0.14950855,-0.08782888,0.012314706,0.05243601,0.047895934,-0.19446333,-0.022767974,-0.009771176,-0.020384198,0.053475723,0.14375474,1.6827024,0.030717727,0.1685206,0.06626878,-0.0993391,0.27797368,-0.056676168,0.04039841,0.041271072,0.081053786,0.16882904,-0.042628013,0.18147728,0.08058792,-0.036852278,0.6333187,-0.11755112,0.041495856,-0.06209851,-0.09782205,-0.03570768,-0.18629946,0.00039987874,-0.08108385,0.059765317,0.039137505,0.02985242,0.12741688,-0.09118628,-0.059625823,0.09093575,-0.041669633,0.16530544,-0.047756493,-0.12466061,0.020462392,0.018142851,-0.023493743,0.14405519,0.0033192285,-0.08857018,0.11721968,-0.006211649,0.129568,0.06680462,-0.091105945,0.07248713,-0.008710142,-0.28170377,0.07960943,-0.08795175,-0.11830745,-0.011441579,0.102234036,-0.020488234,0.021414962,0.1414577,0.12505598,-0.049014468,-0.1263597,0.060347456,-0.025946187,-0.11453727,0.026921384,-0.029784655,0.24154635,0.08673947,0.117207184,0.020223191,0.035683397,-0.12731077,0.064626165,0.039996978,-0.028363274,0.060985282,-0.17643487,0.10844303,0.055271775,0.039102677,-0.048948936,-0.22414136,-0.06873946,0.12676592,-0.09860437,-0.40473762,0.37673452,0.030618882,5.411273e-06,0.059098676,0.17272095,0.1604168,0.046727438,0.19998442,0.3355781,-0.03479006,0.022078611,-0.19238323,-0.12482235,0.14539711,0.06539783,0.080560796,-0.0350493,0.09475035,-0.0865405,0.09832962,0.03626229,0.077722624,-0.13242456,0.04829098,0.12852581,0.1031599,0.34458756,0.08310924,0.055629473,-0.12821658,0.047529824,0.09227079,-0.1765185,0.14119303,-0.029350251,-0.08218389,-0.07885462,-0.1065288,-0.030996852,-0.047698714,0.036327504,0.21512127,-0.009593635,-0.08504727,0.12288262,-0.023511235,-0.056722507,0.04891762,0.046723567,0.014571415,0.078230426,0.11025985,0.08962651,-0.011510403,-0.017418163,-0.080187865,-0.08117074,-0.032714427,-0.90428245,0.0011173505,-0.021375896,-0.023937173,-0.08943471,0.2067876,0.31048572,0.025500977,0.17187455,-0.08501959,0.31968203,0.027386462,-0.035684176,-0.052625928,-0.059675258,0.06951479,-0.11161048,-0.05888935,0.09689352,0.009912105,0.040370468,-0.3337337,0.29100543,-0.074009836,0.020886786,-0.03979613,0.1924997,-0.059297983,-0.019308878,-0.054459173,0.05269377,-0.038179863,0.08537272,-0.033171915,-0.12917827,0.066214934,-0.02135748,0.07242767,0.07963567,-0.0053234654,-0.024143104,0.080807574,0.13971756,0.032649186,0.11740231,0.08503611,0.11128935,-0.08613459,0.0023643915,0.0841565,0.02145564,-0.02169602,-0.012959945,0.11105547,-0.17141764,-0.10006059,0.24911593,0.4739339,0.037245817,-0.11847709,-0.10365879,0.096405685,0.19270499,0.18146122,-0.01426276,-0.11407557,0.11204639,0.00028199638,0.15081707,-0.05955459,0.050288215,0.07040282,-0.06909017,0.0056590233,-0.17921333,-4.331388,0.119853824,0.063943595,0.050887804,0.008192265,-0.06203322,0.24559918,-0.19240117,0.06694837,0.09346718,-2.0290675,-0.06813034,-0.068327956,-0.14310192,0.09485316,-0.18547834,0.124775335,0.10761172,0.049517784,0.1893395,-0.2185012,0.22886129,0.10887121,-0.07041744,0.122335956,-0.05143134,0.03513876,0.013450037,-0.026751535,-0.07500085,-0.15899244,-0.016128106,-0.023491772,-0.0039710114,0.014708432,0.003931606,-0.21590868,0.016972674,-0.06661595,0.26713577,-0.023903174,-0.08552427,0.039157726,0.4151924,0.051002193,-0.047476783,0.12198975,-0.019327004,0.17883892,-0.05282743,-0.04999156,-0.08697893,-0.018589584,-0.03662329,0.030439246,0.14973736,-0.03412453,0.32572117,0.050895587,-0.06048217,-0.1538085,-0.042495172,-0.021678776,0.11268405,0.070161834,0.26773384,0.770488,-0.13033882,-0.07495156,-0.005647184,-0.004921073,-0.10698411,0.010707931,-0.03231489,0.10407947,-0.23145247,-0.076140255,-0.0010481866,-0.070065945,-0.1693419,-0.079040974,0.11824891,-0.05177138,-0.045312863,-0.22202995,0.10683765,-0.27184042,-0.98058844,0.19857371,0.003783951,-0.1390698,fatman1.jpg
4,-0.13080211,-0.06272467,-0.036991917,-0.3730739,-0.024179647,0.08040127,-0.06964742,0.12731415,0.15274489,0.21095063,0.010306248,0.09118023,0.13443857,0.041378953,0.2202175,0.20314208,-0.022351399,-0.06419787,2.3917577,-0.0019591912,0.0091856,-0.11876483,-0.04522221,-0.18662019,0.009337461,-0.03679,-0.2251279,-0.084020935,-0.035732217,0.27388263,1.0561604,-0.064555936,-0.11552649,0.030652532,-0.11771027,0.062279683,0.07919179,0.015206127,-0.017051753,-0.25527373,0.076482244,0.1743848,-0.13632719,0.011421457,0.00069112703,0.024851209,-0.11001697,0.19913837,-0.09596345,0.023010008,-0.11115538,-0.0017993841,0.071731,-0.102908485,0.030276336,-0.029793702,-0.5731167,0.12662409,-0.17488827,0.019532284,-0.099447854,-0.08630523,0.14957677,0.15399154,0.14877848,0.16676761,0.0054933135,-0.08251736,-0.0064285803,0.16988945,-0.077381395,0.24412075,-0.08738655,-0.15794833,0.13058017,-0.2175376,-0.2528021,0.031896897,-0.00042831394,0.0020763306,-0.23504703,-0.049088947,0.098096415,-0.032826085,-0.003941846,-0.07308864,-0.102734104,-0.04927293,0.021788375,-0.004627602,-0.2365548,0.091350205,0.07659522,0.017257337,0.06676028,-0.08608704,0.005028645,0.20686148,-0.032375496,0.10466751,-6.293966e-05,0.0788875,-0.110566,-0.09096063,0.25199658,-0.078658596,-0.123518236,-0.12345964,-0.031730205,-0.10644295,0.0030700823,0.009917858,-0.10249119,0.042738445,-0.20854245,0.04665599,0.005252768,0.12459434,-0.017117249,0.013554048,0.21958114,0.3231587,-0.09333454,-0.12928236,0.272949,-0.028817452,-0.23859945,0.008050674,-0.0046696286,-0.09258522,-0.28964812,-1.8432384,-0.0465874,-0.019340113,0.13459213,-0.04064276,0.031508565,-0.093303226,-0.04413468,0.052349143,0.052940365,0.019454531,0.041374594,-0.06098882,0.39621106,-0.014445873,0.21981944,0.0005278703,0.023940839,-0.06808416,-0.29066446,-0.3200124,-0.06867897,-0.0796833,-0.1468582,0.011797578,-1.6222986,-0.031755444,0.20494738,0.08255745,-0.35850227,-0.086219974,-0.1571079,0.013092647,-0.14456683,0.26596054,-0.076500095,-0.14369303,-0.11646641,0.068497516,-0.01825303,-0.025107125,-0.2472964,-0.10133176,-0.0812423,0.02607151,-0.01701505,-0.11260463,-0.055662706,0.05278043,-0.122480474,-0.0876968,-0.1881927,-0.10393341,-0.15573941,-0.13798907,-0.070948064,-0.096854486,-0.12339972,0.0965685,-0.24546115,-0.13558692,0.17420919,-0.093803875,0.027942773,0.054312445,0.038269714,-0.20897993,-0.019662773,0.0037768532,-0.021384276,0.06039773,0.12985079,1.7343209,0.027970558,0.16540885,0.08463028,-0.111594684,0.27334264,-0.05808225,0.05525212,0.019197673,0.081141986,0.17390442,-0.029352503,0.14133947,0.08060167,-0.05422929,0.51848763,-0.13141182,0.047208395,-0.07566301,-0.08887406,-0.040892635,-0.19031644,-0.0030781482,-0.09150797,0.059416827,0.04444825,0.037807558,0.12649348,-0.07444623,-0.042121906,0.12329727,-0.07725001,0.16832672,-0.04269498,-0.09147181,0.008726668,0.036261205,-0.035344083,0.14294946,0.0011370616,-0.11647737,0.14287174,0.0018847254,0.14764835,0.04777822,-0.086499795,0.077293314,-0.0285244,-0.27287135,0.08640759,-0.088124976,-0.11832224,-0.028954932,0.10532419,-0.028259354,0.042829264,0.13569555,0.11053343,-0.049972493,-0.15534553,0.0667106,-0.040759787,-0.10939977,0.03071946,-0.03468577,0.3037493,0.10951229,0.113479674,0.036760174,0.054403707,-0.13572614,0.05486872,0.043806754,-0.03978644,0.06953705,-0.17935331,0.12907736,0.043243896,0.047933348,-0.046063665,-0.22003704,-0.072157346,0.10290709,-0.11387704,-0.473468,0.3779493,0.020660535,0.002557138,0.0697498,0.18394254,0.15601785,0.05215375,0.19965827,0.3407766,-0.02834536,0.021560969,-0.1913105,-0.13709594,0.17122936,0.071155764,0.07582897,-0.03705355,0.0938427,-0.06663325,0.105640255,0.030255213,0.04837277,-0.13859445,0.03474638,0.13182065,0.07434751,0.33935747,0.07217403,0.084941186,-0.10198787,0.055377055,0.0839218,-0.18079531,0.1440435,-0.025132583,-0.07521474,-0.07541822,-0.11213551,-0.040339157,-0.04768651,0.010968761,0.21917953,0.0019588326,-0.0795484,0.14176077,-0.03318962,-0.050449908,0.0561757,0.04819195,0.0048199636,0.06509385,0.101382874,0.07608216,-0.020162167,-0.03867469,-0.09107413,-0.10617882,-0.015279504,-0.82093793,0.0011229897,-0.019665709,-0.024227178,-0.10342227,0.23627985,0.29888305,0.021280486,0.19635496,-0.092530645,0.3234748,-0.0017382472,-0.018934129,-0.06993607,-0.04927069,0.06608384,-0.10586054,-0.06320062,0.10176277,0.01982993,0.04196902,-0.3290146,0.27913427,-0.070375,0.0037866628,-0.05640326,0.2017974,-0.058346864,-0.041350637,-0.050079048,0.047452036,-0.02095553,0.08333849,-0.045970898,-0.13717666,0.084885776,-0.0130153205,0.08011763,0.084917754,-0.019928293,-0.03669075,0.08794083,0.16251116,0.022442693,0.11453866,0.07380742,0.115595825,-0.062099606,0.006751833,0.093261905,0.030593019,-0.021758122,-0.015739009,0.120027594,-0.18944699,-0.100361094,0.26738787,0.49053138,0.05559245,-0.11060482,-0.13537934,0.113654524,0.1886519,0.1874892,-0.022610765,-0.11976364,0.099698395,-0.014989554,0.15705463,-0.07228721,0.06149344,0.08166435,-0.07663416,0.005921647,-0.17319639,-4.4282584,0.1184407,0.06152321,0.058349345,0.016188554,-0.040228818,0.24883635,-0.20340255,0.04774412,0.09464618,-1.9391129,-0.06730872,-0.056454785,-0.16768242,0.07792134,-0.18667957,0.12343397,0.099985965,0.043444052,0.16055949,-0.21277101,0.23372969,0.103192516,-0.08394931,0.14140868,-0.05629914,0.046046007,0.023385128,-0.008877041,-0.10834642,-0.16647917,-0.0059902333,-0.026276402,-0.008829372,0.009812894,0.015557848,-0.22545512,0.0049132146,-0.07105203,0.2751279,-0.0068451967,-0.094296046,0.038578436,0.4149297,0.05771725,-0.031187402,0.093048126,-0.009147855,0.15016054,-0.04353088,-0.047678575,-0.099636436,-0.011563781,-0.030684365,0.03726334,0.1371066,-0.039672945,0.32231268,0.033657562,-0.057991967,-0.18087418,-0.05497499,-0.021685291,0.115859516,0.06653938,0.29078364,0.722202,-0.13566756,-0.078951456,0.0013434932,0.013560074,-0.12195943,0.018758606,-0.026091173,0.115540035,-0.22871321,-0.093018144,0.0072173555,-0.056933835,-0.18363324,-0.062426105,0.12525731,-0.05442145,-0.04581118,-0.2125912,0.09866832,-0.27766788,-0.985528,0.2047409,-0.00011654663,-0.13360587,fatman3.jpg
5,-0.13261937,-0.06776888,-0.034726053,-0.40186015,-0.023303375,0.07678288,-0.10962833,0.10864042,0.14164144,0.20402111,0.004712434,0.0831879,0.113747075,0.049847245,0.23430315,0.22104703,-0.0302105,-0.06468113,2.4470973,0.009010522,0.0061475774,-0.12687658,-0.04060811,-0.18254152,0.013453643,-0.037970316,-0.19504373,-0.087085605,-0.057250302,0.2843719,0.9965139,-0.058468323,-0.09920376,0.040973607,-0.13707675,0.060582597,0.08782574,0.021884646,0.00046323927,-0.27443823,0.06377436,0.18628801,-0.1366563,0.010112471,-0.005358569,0.032958366,-0.10173951,0.20562565,-0.092507534,0.003937051,-0.116010666,0.00032419927,0.078179546,-0.09308204,0.026236514,-0.025413746,-0.5913588,0.10838154,-0.13933691,-0.00018217435,-0.11164776,-0.09387689,0.15751848,0.1536259,0.17336163,0.18351862,0.024696419,-0.07613122,-0.0031579006,0.17440973,-0.07469277,0.25356376,-0.07978024,-0.15194651,0.13390307,-0.20546985,-0.23576145,0.029159755,9.041049e-05,0.01000731,-0.27712676,-0.032267082,0.1328598,-0.019715594,0.017486736,-0.0855461,-0.103551134,-0.024460204,0.025610812,-0.015257045,-0.19789062,0.075335644,0.09147884,0.009860054,0.090892054,-0.06451083,0.0062661343,0.22053212,-0.030071817,0.108721375,0.03149555,0.07546112,-0.09054847,-0.086476415,0.22458862,-0.06734803,-0.093550414,-0.12216476,-0.03311253,-0.10587225,0.0073163947,0.03170558,-0.10655796,0.015553266,-0.19713603,0.04573006,0.012978884,0.129954,-0.016769977,0.020503351,0.21872611,0.32341573,-0.05434051,-0.1351586,0.31657922,-0.010629998,-0.2633503,-0.0037243462,0.011279343,-0.11216544,-0.27782664,-1.7932177,-0.05546357,-0.0084135905,0.11991564,-0.036333732,0.018506853,-0.102382965,-0.043842666,0.044696223,0.05560918,0.009547711,0.049497623,-0.06586993,0.38616496,-0.010402632,0.18670696,0.0007646751,0.025310671,-0.06258262,-0.27906165,-0.29572326,-0.06126454,-0.08854786,-0.14032435,0.012681269,-1.6771201,-0.02223882,0.197431,0.07703202,-0.35685533,-0.09145436,-0.16642848,0.0071776505,-0.1427804,0.2557654,-0.069576606,-0.12630025,-0.109480605,0.056609463,-0.026194777,-0.013864157,-0.24785437,-0.09979092,-0.06957261,0.02069593,-0.013759847,-0.11052562,-0.05818997,0.03742389,-0.11863172,-0.08161954,-0.17916147,-0.09310708,-0.14336725,-0.175904,-0.080864884,-0.10736668,-0.12050021,0.09819795,-0.23878336,-0.11803143,0.14498946,-0.09405495,0.027060116,0.036535572,0.046392713,-0.18749513,-0.024516327,-0.028894577,-0.016700946,0.06617337,0.14611726,1.7799215,0.04256638,0.17351171,0.068114966,-0.09478494,0.26603436,-0.056399323,0.04498176,0.04232582,0.07712029,0.17166457,-0.030830532,0.15363733,0.07581135,-0.038853426,0.7891087,-0.116675384,0.036971428,-0.07209039,-0.087935805,-0.03720084,-0.19564307,-0.0031754326,-0.07174506,0.056001887,0.029691223,0.031147253,0.12194646,-0.08092696,-0.0525587,0.102298506,-0.05610232,0.1651359,-0.04979037,-0.14414679,0.017369226,0.024177944,-0.024683518,0.1440538,0.015294927,-0.087005004,0.13378927,-0.0013877056,0.13532867,0.064942434,-0.079866886,0.07303277,-0.0072340057,-0.2734642,0.08788042,-0.08822028,-0.10527488,-0.018533332,0.08293982,-0.025216097,0.030617993,0.13383387,0.116400026,-0.042356346,-0.13201663,0.067581564,-0.017059626,-0.11054676,0.023459394,-0.028621048,0.29611874,0.07596759,0.1288084,0.01592996,0.035862174,-0.12615076,0.06536387,0.04550174,-0.044081192,0.051555626,-0.18055463,0.10953977,0.048303135,0.053423237,-0.03243696,-0.21667062,-0.072757006,0.12681706,-0.100499615,-0.3813,0.36758637,0.03952134,-0.005189207,0.07631525,0.18100265,0.15567107,0.048343427,0.1847124,0.33582592,-0.032887183,0.022699468,-0.1927685,-0.117175646,0.15267016,0.06540842,0.08894878,-0.0373395,0.088036805,-0.075779304,0.094664834,0.046402037,0.063286655,-0.14297324,0.045609888,0.13409236,0.10813595,0.34692642,0.08303521,0.066136725,-0.13251619,0.04707112,0.088151604,-0.1704153,0.12198587,-0.037633955,-0.07494706,-0.07651804,-0.10533356,-0.03789061,-0.047691423,0.042079985,0.23128685,-0.013456788,-0.082663015,0.13302036,-0.018974204,-0.061868645,0.051968277,0.05139598,0.007841408,0.060893785,0.097609095,0.0930183,-0.014770211,-0.01970407,-0.06613067,-0.08810548,-0.0516849,-0.8662241,0.0011518028,-0.011457931,-0.029447572,-0.08836801,0.21856073,0.31847888,0.021800816,0.17135261,-0.07432294,0.31999126,0.01824462,-0.03159998,-0.05140597,-0.052534465,0.05690441,-0.11036256,-0.066058286,0.09724449,0.01090626,0.03961419,-0.3297762,0.28200126,-0.076793924,0.021941386,-0.04279529,0.1989535,-0.062405463,-0.018426502,-0.06305139,0.051567674,-0.049852822,0.088265754,-0.046553094,-0.13006096,0.06956565,-0.033920046,0.07012241,0.081339546,-0.010696687,-0.022457663,0.071170434,0.13251776,0.032535266,0.124894395,0.09199918,0.11790086,-0.08747486,0.004371425,0.09352964,0.025755383,-0.0014322557,-0.022203878,0.10233179,-0.17657124,-0.10800962,0.24083947,0.4809271,0.05358945,-0.100299984,-0.084864065,0.10080263,0.19364515,0.17687173,-0.016114742,-0.12595314,0.11051434,0.0036393323,0.15422995,-0.02530426,0.08875105,0.065441206,-0.073259436,0.013834475,-0.16917376,-4.325625,0.12683564,0.061152007,0.051833693,0.024234436,-0.04839494,0.24846052,-0.19533357,0.06378589,0.08472254,-1.9709555,-0.048097525,-0.062237885,-0.16432573,0.093303435,-0.1877752,0.11989326,0.10516831,0.0473926,0.18237957,-0.19509923,0.2393457,0.09898611,-0.08144918,0.14285037,-0.050157957,0.037065286,0.007942293,-0.040949836,-0.07067652,-0.1524336,-0.0026530295,-0.02843692,0.0054329224,0.013596212,0.008619478,-0.21018745,0.003271919,-0.058062363,0.2744576,-0.015908308,-0.085051335,0.030382922,0.4120114,0.054899253,-0.032763287,0.13501066,-0.013808651,0.15874738,-0.07217446,-0.043937825,-0.06816321,-0.02174032,-0.05324786,0.031126415,0.14331758,-0.033964712,0.33629525,0.051474955,-0.061577067,-0.16787548,-0.04390628,-0.022483448,0.112080574,0.069206424,0.2690915,0.75391775,-0.1483976,-0.07082736,-0.0032863698,0.013368358,-0.11024273,-0.00011800725,-0.022838263,0.11028249,-0.22720356,-0.0719385,0.013830382,-0.06298783,-0.17090812,-0.07106324,0.12403747,-0.055486005,-0.04148372,-0.21914025,0.1086268,-0.27214018,-0.99407613,0.22497174,0.013998341,-0.14156732,fatwoman1.jpg
6,-0.13285953,-0.07250139,-0.039075933,-0.38719296,-0.024322735,0.08471654,-0.095294386,0.110270254,0.14530747,0.20457344,0.008674735,0.09278902,0.113633096,0.052111376,0.23416671,0.228362,-0.024496892,-0.064473785,2.396514,0.0064293114,0.0057328963,-0.11456716,-0.041981496,-0.17639343,0.012098483,-0.051495958,-0.19531989,-0.0893748,-0.06434146,0.29209092,0.94467956,-0.049471304,-0.11914287,0.03383439,-0.13846886,0.052831408,0.09331012,0.020208012,-0.0024336495,-0.26566872,0.060165748,0.18401591,-0.14038381,0.018834872,-0.008777051,0.03255516,-0.09337355,0.20866369,-0.09332716,0.002346722,-0.10985725,-0.001472566,0.07341557,-0.095482364,0.023538696,-0.023228467,-0.6786568,0.113312244,-0.15706213,0.012048885,-0.11736633,-0.100676596,0.14237855,0.14784357,0.16263598,0.18126123,0.028948424,-0.07577083,-0.0026125377,0.17520142,-0.066981316,0.24342585,-0.076662734,-0.17153023,0.1262725,-0.21071568,-0.23440602,0.023281049,0.0012316701,0.015380682,-0.25938916,-0.033505384,0.13182384,-0.026051996,0.0059155137,-0.078774,-0.1036432,-0.028798213,0.021749828,-0.0147692505,-0.21212167,0.07274571,0.08829113,0.025022514,0.08969528,-0.07026425,0.011398946,0.23262437,-0.033697397,0.10964359,0.033574507,0.075436786,-0.113344535,-0.094269656,0.22218354,-0.07150153,-0.10536281,-0.13676225,-0.042068493,-0.11541675,0.015748575,0.010413006,-0.10027776,0.002821382,-0.20440961,0.053337924,0.014177841,0.120620094,-0.014829268,0.01417811,0.22314642,0.32166165,-0.07043699,-0.12356207,0.3007736,-0.011810916,-0.258336,0.007038988,0.011174053,-0.10679342,-0.29018503,-1.7691424,-0.045202382,-0.014020472,0.13231221,-0.0429027,0.017543888,-0.098450236,-0.03806724,0.0497447,0.06336291,0.0138249295,0.05695564,-0.06405568,0.40905264,-0.014160223,0.19469707,-0.0018665176,0.019653907,-0.0534506,-0.28473896,-0.29513937,-0.056215495,-0.08956681,-0.13598955,0.018745976,-1.6925017,-0.027999105,0.22209236,0.08045978,-0.3529589,-0.07926052,-0.16000657,0.0027540077,-0.13420498,0.2418653,-0.07005175,-0.12482841,-0.11348918,0.06187301,-0.030239722,-0.02042254,-0.24360064,-0.10804437,-0.06982313,0.028579388,-0.016839782,-0.10717164,-0.060321815,0.050927382,-0.12653603,-0.08327843,-0.19784462,-0.08128494,-0.13683392,-0.15590027,-0.07356657,-0.09721577,-0.12225785,0.10292926,-0.24572013,-0.12613234,0.14830996,-0.08653789,0.012423827,0.06268342,0.047086347,-0.19706382,-0.027293565,-0.004864174,-0.021192806,0.058808867,0.14569506,1.6890339,0.041192956,0.17792247,0.06557286,-0.09140123,0.26758698,-0.0620644,0.04218006,0.029163636,0.0691172,0.16596113,-0.04214326,0.16868952,0.07722344,-0.037789468,0.6783421,-0.1261767,0.03942596,-0.06359184,-0.10128232,-0.037419964,-0.19122343,-0.009013795,-0.08396708,0.055401996,0.03792998,0.037066814,0.1263116,-0.08653419,-0.059628036,0.10601402,-0.05552962,0.17039566,-0.046107862,-0.11078929,0.014985058,0.025820363,-0.016129512,0.13976035,0.012699166,-0.105731554,0.13607925,-0.0028259351,0.13416107,0.06138109,-0.078702636,0.0733106,-0.00641652,-0.27825838,0.08487048,-0.09571683,-0.113972194,-0.007939862,0.10258766,-0.03729858,0.041714888,0.14403023,0.12327481,-0.04599649,-0.13009581,0.06363192,-0.015576895,-0.10824564,0.028697964,-0.026399165,0.24929649,0.08546462,0.13134784,0.031485856,0.03304267,-0.13997735,0.06372334,0.041800737,-0.030755544,0.06302886,-0.17144565,0.10428774,0.047176983,0.043206528,-0.04387341,-0.2229771,-0.06977356,0.12254475,-0.10309343,-0.38972232,0.35412183,0.027863832,0.0016909755,0.063564785,0.17947459,0.16150835,0.04860457,0.19316545,0.3360023,-0.029599698,0.0103022875,-0.20217752,-0.12892374,0.16000952,0.06346963,0.0779514,-0.033349883,0.100265875,-0.08039506,0.100524984,0.042877775,0.070151486,-0.1422878,0.040110376,0.13642323,0.09585668,0.3392206,0.079211615,0.066060595,-0.122871816,0.047927473,0.0886971,-0.1685791,0.14666696,-0.037587706,-0.078757755,-0.072587356,-0.11471681,-0.03679637,-0.047692552,0.032200266,0.22902846,-0.003315588,-0.07610378,0.13257426,-0.02612852,-0.054739155,0.05398695,0.04747547,0.016189585,0.08066036,0.11154264,0.08943036,-0.009872637,-0.017244266,-0.07675794,-0.079398714,-0.018274367,-0.8852706,0.0011076992,-0.023208754,-0.021940747,-0.0818114,0.22966716,0.3236837,0.023911713,0.17710388,-0.07808335,0.32184178,0.020720003,-0.03832032,-0.03959267,-0.058066055,0.061989773,-0.10754211,-0.05618119,0.10329364,0.01694996,0.032881446,-0.33799732,0.28864932,-0.08158317,0.016919276,-0.045110557,0.19160573,-0.058059145,-0.028947363,-0.061549824,0.049739867,-0.033637717,0.07537011,-0.035900343,-0.13230005,0.059314955,-0.0250698,0.0707216,0.088063575,-0.0059867995,-0.028896155,0.07597355,0.14353532,0.027510436,0.11507112,0.07440355,0.11298963,-0.08576705,0.006615369,0.08308943,0.02877452,-0.023343975,-0.015933564,0.11131543,-0.16650526,-0.1021984,0.24834219,0.4752773,0.049304847,-0.11276873,-0.09482,0.10305697,0.1978381,0.18223467,-0.0167846,-0.12809962,0.12125607,-0.0008996197,0.15635705,-0.06217546,0.09812206,0.06806987,-0.070894316,0.009102367,-0.18954526,-4.3513446,0.11680897,0.068392515,0.050204847,0.010697593,-0.05699293,0.25363716,-0.1902974,0.06776285,0.09490084,-2.0310988,-0.0648657,-0.057997975,-0.14804043,0.08626919,-0.19342698,0.12137502,0.10439574,0.04255814,0.18201002,-0.20684005,0.23214237,0.09972143,-0.080839194,0.12536326,-0.05252308,0.03143095,0.007971318,-0.02453908,-0.08519438,-0.1571397,-0.0048528966,-0.023142826,-0.0043549766,0.013958414,0.0033397446,-0.21988913,0.01281236,-0.067062214,0.2711672,-0.017140403,-0.09112473,0.040435694,0.4166583,0.053871512,-0.039646868,0.12490404,-0.012452242,0.18174347,-0.05394718,-0.043667812,-0.07107099,-0.0137174865,-0.043158248,0.028210247,0.14937595,-0.030455321,0.3396407,0.04892931,-0.06856877,-0.16155604,-0.04370091,-0.017186577,0.117889896,0.07168549,0.26163495,0.7397185,-0.13495396,-0.06866891,-0.0021108768,0.002599353,-0.11662329,0.012594983,-0.03574297,0.09358462,-0.22656834,-0.07490424,0.0064594373,-0.06528722,-0.17716576,-0.07178756,0.13038631,-0.04031502,-0.045903493,-0.21432069,0.11528547,-0.27516374,-1.0002495,0.21110292,0.0044165743,-0.13429898,fatwoman3.jpg
7,-0.13477953,-0.05574795,-0.039674576,-0.37735802,-0.020453213,0.08233424,-0.08779123,0.11874556,0.14581811,0.20245081,0.0045979586,0.089320965,0.12167313,0.040561575,0.22988015,0.21423815,-0.025186285,-0.06478616,2.3874307,0.007368965,0.0010872154,-0.1315017,-0.04400999,-0.16790137,0.027403126,-0.066238664,-0.20687355,-0.08643274,-0.039812542,0.2721295,1.0221615,-0.048344553,-0.11118273,0.03701263,-0.13438271,0.056624077,0.07856761,0.0053797616,-0.007873402,-0.2720028,0.064340726,0.18219069,-0.14035353,0.008747147,-0.0060883756,0.028320571,-0.0920459,0.19943334,-0.09677383,-0.0010054627,-0.115717664,-0.0018876336,0.07307758,-0.09063396,0.034100384,-0.026694164,-0.6818034,0.11479514,-0.16156816,0.008670574,-0.10597988,-0.0855364,0.14803281,0.13830322,0.1571275,0.18312763,0.01685504,-0.08292467,0.0026866852,0.17218198,-0.072453134,0.23948084,-0.07116889,-0.14068078,0.124681816,-0.21164712,-0.22927263,0.024907047,-0.0010366688,0.005713547,-0.2544091,-0.028631402,0.12184886,-0.033077408,0.009251251,-0.07934387,-0.096903786,-0.037126884,0.020881929,-0.011583513,-0.22647268,0.08856903,0.08800118,0.02598214,0.08396182,-0.082089424,0.007456721,0.20756166,-0.026538378,0.109453015,0.03175809,0.08248277,-0.12339383,-0.087724,0.24058057,-0.06857171,-0.09698026,-0.099064745,-0.045988202,-0.10047211,0.0006340371,0.019763969,-0.08783642,0.01917233,-0.20915334,0.055962767,0.013192283,0.10723313,-0.02194626,0.020296382,0.22295415,0.31776428,-0.078210734,-0.13664313,0.29199514,-0.013513295,-0.24326956,0.014906882,0.008372625,-0.0960333,-0.29404262,-1.7776662,-0.05526248,-0.015444372,0.12845652,-0.038694113,0.028448952,-0.093508236,-0.042590074,0.04234936,0.050313257,0.015974905,0.052279096,-0.0669437,0.39314306,-0.012341765,0.2002705,0.0013449615,0.019725023,-0.063281626,-0.27879784,-0.28674614,-0.06859062,-0.08893521,-0.13351323,0.0150501225,-1.6472825,-0.026379785,0.2135038,0.08019624,-0.34920412,-0.08358528,-0.16371411,0.004910326,-0.13828917,0.25119218,-0.063982286,-0.13664055,-0.11677872,0.060044065,-0.03428829,-0.021091748,-0.2363887,-0.09393602,-0.072810166,0.03539007,-0.01407552,-0.1147189,-0.057004534,0.045791388,-0.11843894,-0.08271888,-0.19228038,-0.090208374,-0.13270143,-0.15221033,-0.07053138,-0.09809327,-0.13339627,0.09174664,-0.25493947,-0.124030136,0.17248908,-0.08923104,0.017937396,0.06142641,0.044915058,-0.19159096,-0.02950349,-0.008520845,-0.016949147,0.05481817,0.1395884,1.7106445,0.027674256,0.16385669,0.066541776,-0.09787866,0.27247995,-0.057940584,0.045109604,0.033237804,0.08184197,0.16884537,-0.03179522,0.1561243,0.087546065,-0.04093244,0.5579827,-0.12520072,0.0397762,-0.06445718,-0.10632763,-0.03380543,-0.18864816,-0.006256437,-0.08625253,0.057429098,0.039915763,0.02698245,0.12091893,-0.096295595,-0.054800157,0.10699308,-0.060216915,0.15499727,-0.038328476,-0.105499454,0.014921128,0.031308,-0.020711465,0.14601451,0.007817946,-0.083848566,0.13188803,0.00054285186,0.13812366,0.05935249,-0.08902693,0.071928024,-0.010630852,-0.27800173,0.07739678,-0.09222286,-0.10769472,-0.011258261,0.09554777,-0.022637619,0.029586095,0.12539032,0.12148814,-0.04581097,-0.13432643,0.06257819,-0.027518416,-0.10564528,0.02963758,-0.038958445,0.26036352,0.09328561,0.11926931,0.015089462,0.048668277,-0.13767974,0.058900893,0.044217307,-0.038991217,0.0610786,-0.17529358,0.11803425,0.056767177,0.038125835,-0.035080824,-0.22369842,-0.07258105,0.11883526,-0.103255846,-0.43766454,0.38074002,0.01919872,0.0014768345,0.06312594,0.17221618,0.16107465,0.042326946,0.1941276,0.34034052,-0.027190093,0.016880374,-0.1879469,-0.117499515,0.16057898,0.071015835,0.07133791,-0.025669277,0.1052297,-0.073561005,0.10489968,0.029483058,0.06673484,-0.1349662,0.045178983,0.13327551,0.09303406,0.33318827,0.074641734,0.06491267,-0.13007033,0.05271235,0.08587063,-0.1794402,0.14850046,-0.030580418,-0.09272222,-0.061642576,-0.098669484,-0.035324723,-0.047704086,0.033190366,0.2129808,-0.009316205,-0.08063442,0.12687106,-0.02605799,-0.043711428,0.04439933,0.04945461,0.010708006,0.080182046,0.10180207,0.08966439,-0.014756521,-0.033098456,-0.096971124,-0.090091586,-0.021839848,-0.87575406,0.0011031622,-0.018536452,-0.028931934,-0.09363926,0.21553753,0.3128084,0.027956756,0.17267846,-0.08876025,0.32201153,0.008222679,-0.030990142,-0.05136171,-0.051528264,0.06828438,-0.10629374,-0.055985738,0.1038252,0.024273178,0.04207344,-0.33184534,0.28233182,-0.07356389,0.009598053,-0.0411879,0.19325356,-0.06771508,-0.03849009,-0.052859683,0.050749656,-0.034908157,0.07829942,-0.030608939,-0.13150081,0.06934754,-0.013232606,0.07322155,0.076127686,-0.01632049,-0.033274032,0.07733518,0.14754099,0.023822237,0.121254236,0.08076943,0.106197186,-0.08869739,0.011192415,0.09235024,0.026670694,-0.02508919,-0.023995819,0.121805415,-0.17515305,-0.09989395,0.26955253,0.45777655,0.0596086,-0.1062167,-0.13758369,0.1018949,0.19064981,0.18821596,-0.017253686,-0.11051983,0.102164656,-0.004164651,0.14798881,-0.06596597,0.050960135,0.0741233,-0.06896037,0.019713975,-0.17616774,-4.3886957,0.1146778,0.06667689,0.049072396,0.0122194495,-0.049905192,0.22871377,-0.1872163,0.06074526,0.09049356,-2.0403845,-0.062224854,-0.07114532,-0.1568337,0.0864289,-0.18384048,0.1178001,0.10484895,0.048385665,0.18235587,-0.20904694,0.2343741,0.097941324,-0.08077463,0.12761039,-0.06464441,0.033963926,0.01711715,-0.020610735,-0.082077645,-0.15801084,-0.0011726189,-0.019124767,-0.006470069,0.014752494,0.009424902,-0.21804228,0.012460301,-0.069970116,0.26678532,-0.009049799,-0.08860918,0.03448179,0.41393632,0.054194115,-0.03684271,0.10597935,-0.013102086,0.16718194,-0.05312067,-0.037093736,-0.10067126,-0.012291017,-0.026989298,0.033655748,0.13825849,-0.033682786,0.32289857,0.043701377,-0.056718398,-0.15205547,-0.049201507,-0.024629226,0.11627524,0.064114586,0.2603654,0.7539305,-0.1397963,-0.07281007,0.00017650549,0.008247614,-0.11508655,0.018368768,-0.023823978,0.098894246,-0.23487079,-0.07889761,0.0054252404,-0.0670721,-0.17569654,-0.075822756,0.12425788,-0.04940255,-0.043969024,-0.22014003,0.104368724,-0.27070794,-0.9747034,0.2057833,0.0052174367,-0.12910914,fatwoman2.jpg
8,-0.13095324,-0.05195769,-0.04284405,-0.3789933,-0.022141572,0.077384606,-0.102920644,0.111371785,0.14517447,0.20348074,0.0035339994,0.08731662,0.13014519,0.055313114,0.22025579,0.21107848,-0.028938152,-0.06865908,2.4365792,0.004694465,0.011787955,-0.14830413,-0.033010755,-0.18419333,0.034750592,-0.05682577,-0.21396604,-0.08772557,-0.02491727,0.2767949,1.0328853,-0.04412642,-0.105124556,0.03282018,-0.13702759,0.05812206,0.074514896,0.020277455,-0.0076864497,-0.2722027,0.06297342,0.17796095,-0.14016601,0.010623268,-0.0036863827,0.033649903,-0.08846832,0.20080157,-0.10447184,-0.0122632645,-0.114059515,-0.005575627,0.08005218,-0.09386366,0.029192636,-0.025385182,-0.70335525,0.103612766,-0.14880066,0.008861009,-0.116491124,-0.077496804,0.14244257,0.13846655,0.16171153,0.17482494,0.02329802,-0.08039487,0.0033393805,0.17508127,-0.0681231,0.2528946,-0.07017289,-0.14224572,0.1302995,-0.2100447,-0.22489381,0.028373012,-0.0021899515,0.005450099,-0.25196677,-0.03240821,0.13194548,-0.031075774,0.005684692,-0.078879155,-0.0937348,-0.031709727,0.01755752,-0.024692021,-0.21104735,0.07875586,0.072609305,0.026870517,0.075309955,-0.068123735,0.008603197,0.23051418,-0.024078218,0.10082956,0.027173346,0.07910916,-0.10229956,-0.08004922,0.22813512,-0.057313267,-0.09751635,-0.11168919,-0.03447537,-0.094661094,0.015920147,0.03174747,-0.09628751,0.020793527,-0.1961528,0.057542305,0.015517885,0.12455885,-0.016074575,0.01736969,0.2061487,0.32670546,-0.08812026,-0.13182381,0.30376232,0.00041854056,-0.24349028,0.0036193866,0.0048281397,-0.09441055,-0.27999815,-2.0309074,-0.051139943,-0.023620924,0.12880097,-0.0286173,0.026618714,-0.096215345,-0.034084145,0.047981635,0.05878611,0.013852032,0.051931947,-0.06499433,0.39700812,-0.01038359,0.19400162,-0.002676074,0.018283429,-0.0652132,-0.28236508,-0.2910347,-0.070249446,-0.09225873,-0.12664375,0.012666628,-1.6636307,-0.026877182,0.21493138,0.079752475,-0.35952097,-0.07929961,-0.15817104,0.0026567169,-0.14509316,0.26148316,-0.059182692,-0.13028085,-0.12301048,0.055618193,-0.036757533,-0.018572928,-0.24254549,-0.101106904,-0.052982967,0.028694363,-0.007709015,-0.10901859,-0.050988987,0.04643562,-0.121257745,-0.07914341,-0.19273098,-0.085838236,-0.13781479,-0.1670876,-0.07421408,-0.09893747,-0.1196846,0.09596069,-0.25709587,-0.12597597,0.15534984,-0.08363465,0.017795235,0.061287455,0.054878276,-0.19708884,-0.036884464,-0.022342589,-0.024699938,0.071003415,0.13772845,1.7705219,0.03399562,0.1682456,0.06977393,-0.09409717,0.26498237,-0.05126484,0.049248666,0.028941583,0.07862804,0.15737967,-0.036558267,0.16204941,0.08731012,-0.048589025,0.6553083,-0.1285745,0.022871755,-0.06650689,-0.1024669,-0.039435867,-0.19828776,-0.008083738,-0.08238188,0.060544346,0.042405877,0.040891483,0.11479111,-0.08644402,-0.058095817,0.112444654,-0.07554952,0.15232146,-0.041940283,-0.11460511,0.0070170034,0.031484045,-0.025759067,0.13394651,0.019184997,-0.07215216,0.13775276,0.0015653885,0.12864119,0.06985623,-0.08318644,0.06786544,-0.0069459127,-0.278587,0.08077068,-0.08853221,-0.09811127,-0.027850432,0.08359631,-0.032545883,0.033462685,0.13422187,0.11077964,-0.048990443,-0.13129836,0.06744869,-0.03618604,-0.10391934,0.02260699,-0.0344057,0.27858037,0.0858036,0.13504076,0.03086877,0.039836597,-0.13683338,0.053173944,0.044421468,-0.046245966,0.058706775,-0.16958176,0.13126223,0.060452,0.047131523,-0.038932517,-0.22484398,-0.068087384,0.1101903,-0.10198298,-0.38439232,0.41303298,0.023594592,-0.0007638791,0.06158191,0.17348926,0.16522864,0.04339324,0.20061333,0.3440922,-0.026762389,0.016610017,-0.19535303,-0.11162713,0.16433597,0.07198006,0.07943321,-0.047732186,0.114149176,-0.07088946,0.10694221,0.021911476,0.06464032,-0.14297429,0.051256806,0.13065231,0.09725664,0.3345327,0.07131096,0.06575642,-0.11274808,0.058131855,0.09538574,-0.1761383,0.10850963,-0.02549142,-0.09190304,-0.07429631,-0.102707446,-0.03152949,-0.04769742,0.032620512,0.2274075,-0.008217456,-0.07853479,0.12692155,-0.0223775,-0.037890326,0.048460476,0.0491865,0.016673304,0.062578805,0.0915783,0.08889017,-0.008639971,-0.022672204,-0.07432501,-0.088341914,-0.048008464,-0.83841807,0.0010693918,-0.014896808,-0.034346886,-0.092337534,0.22530223,0.3235699,0.027813403,0.16380692,-0.08125819,0.31563568,0.0011142994,-0.027864534,-0.03219551,-0.04635372,0.06323604,-0.11232801,-0.052505657,0.1036095,0.0239412,0.034931265,-0.33675018,0.29937348,-0.07345836,0.017739365,-0.039341267,0.20486689,-0.06770493,-0.037554346,-0.055238947,0.04874261,-0.041299373,0.07535583,-0.039858464,-0.13294993,0.060577873,-0.019898513,0.06344524,0.068165965,-0.02269998,-0.03387508,0.084279254,0.15411378,0.024071194,0.11723201,0.079647355,0.115001656,-0.092605196,0.019849293,0.08540312,0.02858718,-0.007895741,-0.022181243,0.12295013,-0.16372867,-0.114136405,0.25329334,0.45744005,0.05663952,-0.11355897,-0.12946795,0.11269708,0.18432005,0.18352547,-0.01724327,-0.11846471,0.10844628,-0.0111565655,0.14770842,-0.056664005,0.0055214055,0.0829209,-0.07210825,-0.012780942,-0.17251271,-4.4727736,0.1233913,0.06532921,0.050531402,0.022526907,-0.040901672,0.23072973,-0.18978675,0.064980224,0.08978058,-1.9599084,-0.05300575,-0.075037785,-0.16020136,0.088215195,-0.18601973,0.12943727,0.08640044,0.051971413,0.17337207,-0.20827886,0.23046847,0.10048184,-0.08656288,0.14503585,-0.060076814,0.02801035,0.0059628887,-0.03705316,-0.07257239,-0.15303947,-0.002088963,-0.021023497,-0.006127615,0.013738254,0.0037333712,-0.2121253,0.014299345,-0.081182584,0.27569306,-0.014015622,-0.08548394,0.034483925,0.41204822,0.058191646,-0.034599286,0.096493915,-0.019705424,0.16112454,-0.078915395,-0.04209554,-0.100888655,-0.008811632,-0.033682648,0.02906739,0.111291364,-0.02838276,0.34194434,0.049273994,-0.06181161,-0.17379312,-0.051919382,-0.024611605,0.11157622,0.058298092,0.25808048,0.7434504,-0.15407816,-0.068728484,0.004397968,0.018453266,-0.10922967,0.0027507711,-0.029827168,0.10708826,-0.23318574,-0.07340282,0.011993069,-0.06966368,-0.1755254,-0.06716311,0.1221944,-0.06281196,-0.047495168,-0.21759918,0.10365513,-0.27806824,-0.98369396,0.2194514,0.009410714,-0.12768428,fatwoman6.jpg
9,-0.14214177,-0.058579106,-0.037015386,-0.3816444,-0.01921253,0.08939066,-0.076943666,0.12525012,0.15231563,0.20320083,0.008285472,0.103284284,0.14160995,0.04187867,0.23223999,0.21673016,-0.02216507,-0.06311929,2.3592687,0.0012692981,0.0052028606,-0.1271382,-0.040367033,-0.18721591,0.014854516,-0.06593698,-0.20430411,-0.08552518,-0.053193614,0.2771771,1.0571811,-0.04938246,-0.11936068,0.024258628,-0.13266028,0.05989685,0.08717729,0.012982674,-0.017715784,-0.26415995,0.06693268,0.18000948,-0.1476534,0.0132546555,-0.007290221,0.030850487,-0.09153178,0.20637783,-0.098432854,0.0038207397,-0.12008748,-0.00522188,0.074661605,-0.098674096,0.037147675,-0.02751732,-0.69566286,0.12301916,-0.16292265,0.018623505,-0.11109996,-0.09263337,0.14102773,0.14539146,0.16556391,0.18581575,0.016863437,-0.08947234,-0.00021056965,0.1745039,-0.070305705,0.24582082,-0.079674914,-0.16841932,0.1382549,-0.21969414,-0.2437187,0.030583773,0.0044578398,0.00989315,-0.25899172,-0.037553128,0.12231209,-0.034930766,-0.0006557594,-0.0801278,-0.09815014,-0.045432948,0.01269375,-0.012657579,-0.20179123,0.09385202,0.07857368,0.029105132,0.08688537,-0.08746789,0.011917924,0.22307076,-0.025490858,0.09706187,0.022754427,0.076554,-0.10624935,-0.09294313,0.2524433,-0.07892173,-0.11981329,-0.13578804,-0.043919533,-0.107175216,0.0019145911,0.013879673,-0.090147905,0.017713513,-0.20928958,0.049648426,0.018223498,0.1247041,-0.013176309,0.02025658,0.21603262,0.33922306,-0.093022436,-0.12998632,0.29096767,-0.011652906,-0.23801158,0.016431425,0.0008731689,-0.0871027,-0.30200675,-1.8653061,-0.050223824,-0.013090674,0.13219288,-0.037026916,0.031250786,-0.093027994,-0.039018847,0.056500196,0.058299676,0.017373338,0.07262698,-0.06665098,0.40913376,-0.024393138,0.20792155,0.0005136714,0.019430589,-0.060951166,-0.28464347,-0.3073166,-0.07064947,-0.09187241,-0.14182876,0.015760511,-1.6276982,-0.03136464,0.22678597,0.08736726,-0.36362648,-0.08679937,-0.15865737,0.0037435703,-0.13314463,0.25837234,-0.0703588,-0.13172631,-0.116707735,0.07110897,-0.027483428,-0.03130662,-0.2515898,-0.09375064,-0.07758689,0.022212334,-0.01294515,-0.11034224,-0.055800058,0.05202565,-0.1293477,-0.08462291,-0.18915536,-0.09034949,-0.1442571,-0.13459808,-0.07862314,-0.0973147,-0.1251655,0.097771354,-0.25394365,-0.1344733,0.17551154,-0.090158865,0.02869373,0.069043554,0.051332366,-0.20186919,-0.03227436,-0.0018795743,-0.033036716,0.06190993,0.1363654,1.7907875,0.033024736,0.1706947,0.07703926,-0.10150521,0.27430472,-0.06160509,0.0446172,0.02065088,0.07981019,0.1679241,-0.042640753,0.15265729,0.08384114,-0.051948294,0.5506842,-0.12608226,0.038423542,-0.06597488,-0.1060966,-0.039536968,-0.18741915,-0.008285687,-0.088219926,0.06421779,0.05413317,0.035030723,0.12437105,-0.09469589,-0.06421632,0.10863562,-0.07075601,0.16807835,-0.03678108,-0.094575,0.018834135,0.024554415,-0.021883372,0.1464583,0.00250898,-0.10837437,0.14571679,-0.0034205168,0.1413493,0.05512568,-0.087825,0.072776735,-0.013913884,-0.28698155,0.07984083,-0.09900121,-0.11208545,-0.013425252,0.09265384,-0.032700915,0.038296882,0.13429806,0.11702342,-0.051464077,-0.15284091,0.06631886,-0.03674188,-0.10240422,0.031461626,-0.037974108,0.26252547,0.10069456,0.13804421,0.02714096,0.042525712,-0.13798992,0.053363897,0.03847988,-0.03104281,0.06242325,-0.17459857,0.12350756,0.044718757,0.0422708,-0.050764654,-0.2303395,-0.0632671,0.11588384,-0.10953815,-0.5104481,0.3558035,0.022761196,0.0017826088,0.06360528,0.17534107,0.16025297,0.055015787,0.19966015,0.344139,-0.031305686,0.01630997,-0.20284659,-0.12651832,0.18220323,0.07569926,0.08023501,-0.044561625,0.11109425,-0.075171955,0.10974302,0.025563566,0.061671928,-0.13996463,0.04516003,0.13499457,0.08849658,0.3396479,0.06425727,0.06666372,-0.10815639,0.04955961,0.08292917,-0.18165842,0.08350589,-0.033325832,-0.0874795,-0.07577933,-0.113298714,-0.03870795,-0.04766753,0.015081595,0.22357085,-0.00012883109,-0.0821732,0.14474836,-0.032236457,-0.04294823,0.048382588,0.042664483,0.0126797715,0.07882049,0.10857834,0.081094995,-0.010737844,-0.030137207,-0.08969875,-0.09065755,-0.026761925,-0.84658325,0.0010916137,-0.01640289,-0.03032517,-0.095097035,0.23582701,0.32532448,0.023701502,0.18675631,-0.09668649,0.32604733,0.007888375,-0.03440977,-0.057444006,-0.05203079,0.062273707,-0.10386609,-0.056634158,0.10214863,0.0229385,0.037131183,-0.3259461,0.29561183,-0.07475664,0.010193547,-0.04936072,0.20436665,-0.06494474,-0.03591834,-0.05072365,0.047091532,-0.030823862,0.087173454,-0.033681657,-0.13260795,0.062465485,-0.01726807,0.065978445,0.08753917,-0.022990245,-0.03297984,0.081832156,0.15003876,0.017188461,0.10833184,0.07224965,0.117945194,-0.082722366,0.01655096,0.07477093,0.027240565,-0.023057882,-0.02078325,0.12775071,-0.16941369,-0.10511253,0.27684158,0.4837668,0.054892298,-0.1217396,-0.13855839,0.1070106,0.20957185,0.19038285,-0.012954373,-0.12181685,0.110234,-0.012503941,0.15242955,-0.08178406,0.04844301,0.08139137,-0.07604889,0.012347022,-0.17860231,-4.4671097,0.12554145,0.074935876,0.04624858,0.010945981,-0.045235123,0.26014584,-0.1976334,0.066122375,0.097754195,-2.1213028,-0.067172036,-0.05783914,-0.17333668,0.08436403,-0.19718851,0.13105701,0.09189658,0.049243603,0.17623802,-0.22657827,0.2386894,0.1029285,-0.07468256,0.13721378,-0.055425912,0.025276106,0.013037101,-0.024127718,-0.100045785,-0.1678659,-0.0062923525,-0.031084659,-0.006276178,0.014125806,0.014324397,-0.22281918,0.0117053315,-0.07263184,0.2756943,-0.012460407,-0.09759953,0.050231155,0.4224263,0.05485139,-0.04309524,0.10937136,-0.01568038,0.17621548,-0.05544485,-0.045195017,-0.10663515,-0.011041375,-0.03221795,0.031024508,0.14358215,-0.030640151,0.33946055,0.04869438,-0.0599628,-0.1580655,-0.04941815,-0.020660449,0.11392996,0.06955961,0.27581266,0.74397355,-0.13343267,-0.07733252,0.0010245378,0.015012256,-0.11282222,0.0063434686,-0.037595365,0.10187062,-0.23748676,-0.08277146,0.008787981,-0.06814547,-0.18730702,-0.069177695,0.12870672,-0.050446317,-0.040239587,-0.20847115,0.10370962,-0.27928603,-1.004562,0.20795484,0.0038244152,-0.13868192,fatwoman4.jpg
