,0,1,2,3,4,5,6,7,8,9,10,11,12,13,14,15,16,17,18,19,20,21,22,23,24,25,26,27,28,29,30,31,32,33,34,35,36,37,38,39,40,41,42,43,44,45,46,47,48,49,50,51,52,53,54,55,56,57,58,59,60,61,62,63,64,65,66,67,68,69,70,71,72,73,74,75,76,77,78,79,80,81,82,83,84,85,86,87,88,89,90,91,92,93,94,95,96,97,98,99,100,101,102,103,104,105,106,107,108,109,110,111,112,113,114,115,116,117,118,119,120,121,122,123,124,125,126,127,128,129,130,131,132,133,134,135,136,137,138,139,140,141,142,143,144,145,146,147,148,149,150,151,152,153,154,155,156,157,158,159,160,161,162,163,164,165,166,167,168,169,170,171,172,173,174,175,176,177,178,179,180,181,182,183,184,185,186,187,188,189,190,191,192,193,194,195,196,197,198,199,200,201,202,203,204,205,206,207,208,209,210,211,212,213,214,215,216,217,218,219,220,221,222,223,224,225,226,227,228,229,230,231,232,233,234,235,236,237,238,239,240,241,242,243,244,245,246,247,248,249,250,251,252,253,254,255,256,257,258,259,260,261,262,263,264,265,266,267,268,269,270,271,272,273,274,275,276,277,278,279,280,281,282,283,284,285,286,287,288,289,290,291,292,293,294,295,296,297,298,299,300,301,302,303,304,305,306,307,308,309,310,311,312,313,314,315,316,317,318,319,320,321,322,323,324,325,326,327,328,329,330,331,332,333,334,335,336,337,338,339,340,341,342,343,344,345,346,347,348,349,350,351,352,353,354,355,356,357,358,359,360,361,362,363,364,365,366,367,368,369,370,371,372,373,374,375,376,377,378,379,380,381,382,383,384,385,386,387,388,389,390,391,392,393,394,395,396,397,398,399,400,401,402,403,404,405,406,407,408,409,410,411,412,413,414,415,416,417,418,419,420,421,422,423,424,425,426,427,428,429,430,431,432,433,434,435,436,437,438,439,440,441,442,443,444,445,446,447,448,449,450,451,452,453,454,455,456,457,458,459,460,461,462,463,464,465,466,467,468,469,470,471,472,473,474,475,476,477,478,479,480,481,482,483,484,485,486,487,488,489,490,491,492,493,494,495,496,497,498,499,500,501,502,503,504,505,506,507,508,509,510,511,img
0,-0.09978979,-0.04298008,-0.037168264,-0.3904869,-0.028203411,0.074590996,-0.09406555,0.11793306,0.14341074,0.18662427,-0.013454368,0.056604505,0.12641403,0.039484628,0.22383757,0.19282283,-0.022714589,-0.06742088,2.4898138,0.012175424,0.011034559,-0.1475413,-0.03207819,-0.17639287,0.027965209,-0.057193033,-0.23385343,-0.09856519,-0.008416574,0.2424,1.1730521,-0.04335858,-0.093108006,0.030054847,-0.1337589,0.047810264,0.067084715,0.02206528,-0.028722158,-0.26167953,0.06865181,0.1627368,-0.11490325,0.006030079,0.01203804,0.032149706,-0.10481889,0.19523352,-0.09248746,0.0193073,-0.13239731,-0.005420021,0.08633685,-0.07025973,0.025540624,-0.02199234,-0.50240225,0.10267683,-0.16093178,0.0049344944,-0.09898106,-0.061552286,0.1499297,0.16136055,0.1656478,0.18013006,0.008384143,-0.063023746,-0.008170863,0.1671611,-0.06919687,0.27160996,-0.08280256,-0.13902959,0.1325554,-0.22067933,-0.22240822,0.036997486,-0.0016776934,-0.0058576553,-0.24677354,-0.037302665,0.11852674,-0.01891944,-0.010408687,-0.10030389,-0.08700736,-0.049802974,0.007192506,-0.0049832384,-0.23682168,0.08768319,0.061820675,0.017716072,0.057365023,-0.074222006,0.0047486145,0.19976512,-0.0318344,0.108049855,-0.010452299,0.08313845,-0.09329251,-0.06850724,0.24481107,-0.058867875,-0.10498026,0.04624983,-0.02136954,-0.12000173,0.0029971283,0.00772411,-0.09798222,0.025765557,-0.20334986,0.046027485,-0.0037099246,0.11373387,-0.0324031,0.022815825,0.20895882,0.30950078,-0.09113176,-0.11953741,0.24749346,0.015834056,-0.2430333,0.0075650685,-0.000600998,-0.09457833,-0.32430366,-2.1594949,-0.046393394,-0.02078522,0.13622317,-0.054414038,0.019124458,-0.092067026,-0.04904988,0.03551265,0.038798653,0.023576261,0.037556782,-0.0614986,0.3767885,-0.013270244,0.22317974,0.007639211,0.036356978,-0.076905385,-0.27465227,-0.30563512,-0.06731859,-0.07820993,-0.12339201,0.014856043,-1.5075319,-0.023743512,0.17709027,0.08456178,-0.37313962,-0.08657692,-0.18117544,0.008919289,-0.1463729,0.28811747,-0.07393634,-0.14435099,-0.10912947,0.041564874,-0.030728742,-0.014702149,-0.24976106,-0.10766175,-0.0601384,0.020369045,-0.006025378,-0.1157821,-0.050494373,0.034730244,-0.11933404,-0.07141453,-0.1970532,-0.12046774,-0.15172906,-0.15243784,-0.05966707,-0.09965632,-0.107122436,0.10327112,-0.22875695,-0.12846835,0.16202284,-0.09890105,0.029374747,0.045142476,0.03867191,-0.20646583,-0.020229472,-0.02427274,-0.02789125,0.08171871,0.122508734,1.7037164,0.033469334,0.13470343,0.063093804,-0.08736783,0.27811962,-0.05546363,0.04475608,0.038732506,0.09659433,0.15924558,-0.022364182,0.18059668,0.09237036,-0.05747161,0.47658813,-0.12727915,0.044492815,-0.06556247,-0.062196195,-0.0349834,-0.20529607,-0.018096713,-0.05848639,0.050968315,0.044416253,0.011725663,0.130241,-0.060516465,-0.04367961,0.10219989,-0.08999261,0.14466542,-0.03647018,-0.08663182,0.012759806,0.046740767,-0.044489972,0.13261738,0.0032565389,-0.075094655,0.14701842,-0.014900296,0.14001794,0.06167291,-0.06351228,0.07322253,-0.021202896,-0.28659648,0.100516826,-0.087940335,-0.09603662,-0.040116522,0.0902827,-0.013373933,0.029908622,0.12568547,0.1233422,-0.062090725,-0.15460694,0.04986494,-0.037171327,-0.10013059,0.03085181,-0.043218564,0.32053146,0.097999156,0.10925321,0.0055875727,0.14377369,-0.12964769,0.05146238,0.04543162,-0.031461895,0.056649838,-0.16463342,0.13970879,0.0854347,0.05453483,-0.027907493,-0.21943335,-0.05720201,0.08908952,-0.09840136,-0.45124477,0.36946326,0.025285156,-0.006347296,0.088451646,0.16050719,0.15672144,0.0549005,0.19208461,0.3547117,-0.027709998,0.014532786,-0.20385194,-0.103769265,0.14030409,0.06108034,0.059032045,-0.015724422,0.08508849,-0.063872,0.10529123,0.017655902,0.05507837,-0.14751227,0.054079294,0.1200347,0.06807851,0.3203918,0.0758796,0.10651466,-0.118939765,0.063001804,0.08088214,-0.19274263,0.12090436,-0.0076788426,-0.07545658,-0.08271554,-0.10826273,-0.048174065,-0.047719885,0.004350399,0.19820406,0.0044625504,-0.089497566,0.12460004,-0.02920467,-0.07036608,0.04458066,0.035958145,-0.000504501,0.06806884,0.08737487,0.08146252,-0.028323432,-0.03935053,-0.064992726,-0.10311123,-0.024758587,-0.7942514,0.0010991524,-0.023351952,-0.01410992,-0.10564765,0.19990435,0.30520836,0.025567856,0.16756938,-0.08513372,0.3270722,-5.3834523e-05,-0.020379491,-0.06865573,-0.039926354,0.047286157,-0.11060358,-0.051899087,0.09428652,0.0074377977,0.041599713,-0.32841748,0.26675987,-0.04890338,-0.004508011,-0.03915351,0.203592,-0.059111197,-0.04753953,-0.046998665,0.049364865,-0.043114547,0.06386903,-0.049264655,-0.13220526,0.112421125,-0.0068634283,0.08451174,0.07669689,-0.0268909,-0.047443483,0.066923946,0.17821878,0.021966772,0.10234332,0.090595074,0.11938892,-0.09248077,0.0024116435,0.09980632,0.028695805,-0.0131755285,-0.024889227,0.12031333,-0.17886373,-0.093098,0.24880517,0.45003274,0.051737674,-0.09790059,-0.13666828,0.11637711,0.15849024,0.2030268,-0.020309215,-0.058975194,0.071462385,-0.009410375,0.14983077,-0.023834,0.10158325,0.08034383,-0.06801384,-0.0026815713,-0.1483588,-4.5119205,0.14085966,0.0365564,0.07098614,0.02963424,-0.035806686,0.26146328,-0.19100176,0.052401125,0.07439991,-1.6981094,-0.06320657,-0.07216497,-0.16226268,0.069374055,-0.16638444,0.13274875,0.10215443,0.024067191,0.14455898,-0.20334542,0.22370663,0.09415177,-0.10122157,0.12611452,-0.054927748,0.0582292,-0.001332693,-0.026196875,-0.05618949,-0.1548664,0.007416372,-0.040062577,0.011437807,0.009831277,0.007654799,-0.18906945,-0.0030178062,-0.081868716,0.26806834,-0.0023535334,-0.082614236,0.019755831,0.43156216,0.04850639,-0.018973289,0.07752407,-0.0021946176,0.08224114,-0.06504055,-0.021118596,-0.06478695,-0.01094195,-0.026605327,0.0432441,0.08881592,-0.037482854,0.29049984,0.040974252,-0.03437074,-0.1868213,-0.046968203,-0.025128122,0.10392967,0.07098824,0.31258717,0.73289007,-0.12429489,-0.07948184,0.012308048,0.008876633,-0.11001883,0.018218726,-0.025600214,0.1306476,-0.21453865,-0.07780725,0.007417394,-0.05537444,-0.14192927,-0.054445826,0.13152122,-0.04082935,-0.042700887,-0.2270142,0.11031834,-0.27479365,-0.96071696,0.22356428,-0.0042061233,-0.12186776,thinman1.jpg
1,-0.12438682,-0.050987694,-0.04240592,-0.39463985,-0.021715486,0.0896946,-0.11704861,0.104011506,0.15514113,0.20770247,0.014406705,0.0808744,0.12619339,0.04886703,0.23615067,0.21077645,-0.027256176,-0.06943859,2.5541446,-0.0017104989,0.012722101,-0.13229285,-0.02620009,-0.18832324,0.018379057,-0.026948944,-0.20535593,-0.08384684,-0.052799527,0.28322065,1.0097796,-0.052122053,-0.10513808,0.03590635,-0.1298969,0.057827223,0.09255725,0.022908062,-0.0014870573,-0.2750718,0.063895814,0.16962877,-0.121657945,0.0066290414,-0.0019602354,0.03080491,-0.111098856,0.19598381,-0.09127635,0.017494245,-0.117724955,-0.017699108,0.07754506,-0.10820727,0.025315385,-0.020812765,-0.4084374,0.10462239,-0.14058661,0.0050994963,-0.09566694,-0.09537954,0.1481163,0.15455395,0.16571422,0.18698001,0.023623306,-0.08056147,-0.009072195,0.17576572,-0.06933658,0.25782356,-0.073064424,-0.14011195,0.124082014,-0.19324818,-0.24843699,0.026497524,0.00037862413,0.0076580546,-0.27110353,-0.021933276,0.12958893,-0.01824472,0.012098838,-0.09139817,-0.08577123,-0.025505356,0.012487799,-0.017730962,-0.20089373,0.07104632,0.07624221,0.0031697988,0.08373469,-0.05320731,0.004184348,0.22974826,-0.04161184,0.1257185,0.016703852,0.0787682,-0.059415225,-0.08108953,0.22176601,-0.059749793,-0.10750526,-0.14331698,-0.02675178,-0.10164639,0.025845312,0.017562935,-0.099824086,0.01128413,-0.19461745,0.046576902,0.001013665,0.13027701,-0.019282036,0.011807039,0.21697275,0.30611342,-0.06825341,-0.11784067,0.31244224,-0.010637494,-0.28038496,-4.9544742e-05,0.0051286584,-0.11273158,-0.29032844,-1.8916066,-0.05871512,-0.030455684,0.14034346,-0.043110337,0.011212473,-0.104690365,-0.057754204,0.037977178,0.062122166,0.013881279,0.04335026,-0.06381365,0.39769095,-0.005806408,0.19458528,-0.00026557778,0.038600486,-0.07172079,-0.27199808,-0.28457677,-0.05420828,-0.09290615,-0.14375246,0.0012066575,-1.6576983,-0.026569936,0.1918518,0.08645264,-0.35992315,-0.08961962,-0.17360573,0.006284387,-0.15118045,0.2651944,-0.06734926,-0.120593354,-0.10862025,0.06009495,-0.029956026,-0.019394588,-0.2536343,-0.0896152,-0.08221157,0.016233692,-0.005198508,-0.10483937,-0.055557054,0.036643587,-0.11483698,-0.08717813,-0.16860199,-0.091365926,-0.15363519,-0.17150356,-0.071228355,-0.099106185,-0.109499015,0.10498245,-0.24640016,-0.1227412,0.15907629,-0.091853,0.015499482,0.04853961,0.04401609,-0.20376945,-0.026121834,-0.04020219,-0.019493347,0.05755039,0.14163177,1.8170408,0.04201074,0.16505371,0.07487454,-0.080673344,0.2662039,-0.066803135,0.04743318,0.03947963,0.076518826,0.16995496,-0.035283986,0.1551293,0.08566186,-0.045505136,0.74796695,-0.13057858,0.037586477,-0.07092079,-0.09550536,-0.039143976,-0.1945649,-0.00655168,-0.07573492,0.06781654,0.038571708,0.04815862,0.12821348,-0.07559249,-0.044483393,0.11471167,-0.064980954,0.15534844,-0.066368505,-0.12240949,0.01534766,0.051663544,-0.04006107,0.14543377,0.020428622,-0.123247,0.13260928,0.004254809,0.14710946,0.06418213,-0.06742833,0.07097512,-0.010117246,-0.27205208,0.08533776,-0.08540262,-0.10207866,-0.026785254,0.08473474,-0.016363323,0.034366872,0.1403978,0.12945913,-0.034699626,-0.1160785,0.062304836,-0.018152606,-0.10384123,0.019316046,-0.02891015,0.29153216,0.083537556,0.12784594,0.03205135,0.037766848,-0.102549545,0.069405586,0.05129925,-0.06698161,0.068130516,-0.17183016,0.111955166,0.07338957,0.053037465,-0.024625996,-0.21129374,-0.07396569,0.119648665,-0.099527046,-0.3635808,0.3340054,0.027013145,-0.014691288,0.08278125,0.18607472,0.14983124,0.04103701,0.18309021,0.3476348,-0.03693386,0.022593964,-0.18432984,-0.112912625,0.1681735,0.061730642,0.089372344,-0.04214671,0.083729826,-0.07276862,0.10031281,0.046612483,0.046389535,-0.15659884,0.0467272,0.13182533,0.08211874,0.3501121,0.07553798,0.067030355,-0.12073079,0.054600805,0.08626672,-0.1778777,0.10202138,-0.04707626,-0.08184068,-0.0755813,-0.10750963,-0.043591004,-0.047690697,0.026157938,0.22620359,-0.009161297,-0.071365945,0.13052209,-0.018858232,-0.06819757,0.046289038,0.05660139,0.0025397646,0.04704523,0.088519946,0.07744777,-0.014047974,-0.028108744,-0.067031235,-0.0757882,-0.05275593,-0.85596085,0.0010806739,-0.010620629,-0.030503735,-0.09497332,0.2312523,0.31932366,0.018576011,0.16258931,-0.082810715,0.31923887,0.0030335507,-0.03446559,-0.045347787,-0.04660008,0.075152025,-0.097468,-0.050794207,0.09157428,0.023944108,0.030800408,-0.3332753,0.28243807,-0.07327699,0.0033761694,-0.049279623,0.18847173,-0.055745263,-0.0224199,-0.056341935,0.053021755,-0.04220623,0.086440414,-0.05667585,-0.13357317,0.076694295,-0.030137558,0.07631127,0.084867515,-0.016972097,-0.03549566,0.08550105,0.13620216,0.035049826,0.12714264,0.07347426,0.11771125,-0.075348385,0.009734561,0.0993385,0.025613254,-0.0182628,0.0013883238,0.108288355,-0.1760524,-0.10720047,0.2272437,0.45160076,0.048662476,-0.111813515,-0.07539956,0.11275125,0.19231303,0.17200238,-0.018764954,-0.12694457,0.09568886,-0.0020685457,0.15004277,-0.007614665,0.042429913,0.08065177,-0.07168411,0.002563898,-0.16872033,-4.3953185,0.11947432,0.060794234,0.042976424,0.032967046,-0.047315348,0.2278845,-0.19364393,0.06358222,0.09094553,-1.9379009,-0.053565785,-0.054501135,-0.13207273,0.0935633,-0.17513871,0.12997045,0.10693873,0.04804789,0.1576281,-0.19692151,0.23362489,0.09820951,-0.08481669,0.14892566,-0.030150682,0.053955145,0.0066773663,-0.038377706,-0.08545341,-0.15039086,0.0045233825,-0.037071075,0.0009508854,0.015745481,0.0083253505,-0.2079986,-0.00475989,-0.06722763,0.28153512,-0.019996366,-0.086043425,0.016979361,0.38869855,0.044996362,-0.02738936,0.11635475,-0.017709594,0.16356105,-0.092144236,-0.045647364,-0.08055713,-0.011655882,-0.05698449,0.039153717,0.12786849,-0.031483106,0.3598312,0.04762403,-0.058104098,-0.19919832,-0.0485404,-0.018974517,0.11015855,0.06524763,0.3028023,0.7401592,-0.1424769,-0.074409276,0.009814085,0.024683412,-0.11221221,-0.008389278,-0.05664288,0.116813794,-0.22820659,-0.07687549,0.009649587,-0.058453277,-0.15825525,-0.06299308,0.12685508,-0.040266506,-0.03752424,-0.23650438,0.115038715,-0.27344957,-1.003443,0.21773563,0.004543537,-0.14040561,thinwoman1.jpg
2,-0.13270931,-0.039302286,-0.032111466,-0.3771084,-0.018226257,0.08966183,-0.06242863,0.11557655,0.16039515,0.2103477,-0.00144663,0.09584037,0.13516967,0.034196865,0.21731405,0.18852681,-0.02129112,-0.059873022,2.5531049,-0.0098496,0.008991715,-0.16272275,-0.03374627,-0.17343727,0.014444087,-0.062322594,-0.22616957,-0.09178886,-0.0011774104,0.27261922,1.0505905,-0.05451465,-0.11845913,0.019413464,-0.113480076,0.0594785,0.08974275,0.011964504,-0.014213333,-0.26006278,0.088528514,0.16729318,-0.13202551,0.019620705,0.005141696,0.01848725,-0.108170524,0.21352634,-0.097006984,0.01845799,-0.12914519,-0.0019617293,0.077820204,-0.10525068,0.02789205,-0.030790506,-0.38875225,0.11913644,-0.18141595,0.015037134,-0.09426801,-0.07794318,0.14435406,0.15610398,0.16697024,0.19807127,0.011683199,-0.08974949,0.0015974507,0.1741642,-0.061249398,0.2465172,-0.08704609,-0.16303374,0.13940908,-0.22406326,-0.2683999,0.031514037,0.0026105435,0.002523142,-0.23083284,-0.026530137,0.13451359,-0.024115568,0.001606841,-0.06742702,-0.10484442,-0.05708604,0.011673643,-0.006444548,-0.22561254,0.097817555,0.06402313,0.02299066,0.037850402,-0.0996104,-0.0031985505,0.19977361,-0.030903326,0.12183827,-0.008167306,0.08280767,-0.11372079,-0.07774968,0.26706547,-0.0805747,-0.12194296,-0.12542874,-0.035984844,-0.11800493,-0.0037341614,0.012978728,-0.085296445,0.04132706,-0.21961117,0.04877006,0.006905393,0.13904528,-0.024642177,0.007959219,0.21930875,0.32337663,-0.10642297,-0.12881774,0.2424297,-0.023769645,-0.25335738,0.007339981,-0.005448143,-0.080556974,-0.34621552,-2.1154044,-0.0465278,-0.005657869,0.15620062,-0.046784442,0.03423816,-0.0946773,-0.053311348,0.044749986,0.035897214,0.020957796,0.02165498,-0.06422035,0.39219797,-0.023434525,0.2206247,0.01072475,0.022288827,-0.07344535,-0.28749335,-0.32237673,-0.085872166,-0.08223938,-0.14403439,-0.003311901,-1.5509225,-0.029764445,0.2000887,0.094888136,-0.3803584,-0.09701764,-0.16178425,-0.00092365575,-0.13801064,0.29070953,-0.06587661,-0.11941851,-0.116084315,0.0658149,-0.02197679,-0.03035695,-0.26169878,-0.07595579,-0.066455714,0.024373561,-0.004967545,-0.11661132,-0.056568407,0.066560656,-0.11839317,-0.09824433,-0.19299369,-0.10498928,-0.15762123,-0.14696518,-0.060428623,-0.089250535,-0.119522415,0.094563924,-0.25393724,-0.13630798,0.20084578,-0.096251085,0.045503706,0.060732488,0.04339103,-0.21145546,-0.025964262,-0.012103871,-0.032048445,0.054861322,0.12858361,1.7717644,0.027546203,0.14782393,0.05934897,-0.094463184,0.2830242,-0.07035065,0.04227758,0.03964917,0.10545091,0.18661436,-0.04148553,0.14195852,0.07813379,-0.05486303,0.4648279,-0.12580672,0.052540876,-0.07981769,-0.094469175,-0.038004726,-0.20340855,-0.0037603409,-0.068664074,0.048957683,0.0580969,0.021996386,0.13614734,-0.086422406,-0.03590192,0.12869485,-0.081764065,0.14016709,-0.035473187,-0.07602278,0.01914632,0.034548227,-0.046180837,0.14338508,0.0054855794,-0.12109271,0.15364304,0.00011619155,0.15662687,0.068722084,-0.08239611,0.08145258,-0.014465722,-0.2834137,0.087247305,-0.102918714,-0.097447924,-0.023200788,0.09952552,-0.028880415,0.04911032,0.118837126,0.1219512,-0.054513898,-0.17123497,0.064169705,-0.035714738,-0.10438151,0.043322362,-0.04529555,0.33318824,0.10936657,0.10653829,0.013962255,0.052025016,-0.1407797,0.055346154,0.048924346,-0.04799837,0.06879013,-0.16868669,0.120991126,0.058343183,0.032666348,-0.055306252,-0.22404741,-0.06549192,0.099236496,-0.11006833,-0.50016695,0.33740154,0.020436129,0.0028867323,0.08113788,0.17552371,0.16257526,0.06456199,0.19171587,0.3291255,-0.023010246,0.012335909,-0.2063995,-0.111302845,0.17109719,0.06192799,0.08066846,-0.020928204,0.078885846,-0.06041587,0.11074111,0.011603587,0.044300906,-0.1435806,0.04370566,0.15026665,0.06618517,0.33577284,0.06166292,0.10795276,-0.12275237,0.06001152,0.074191764,-0.19142032,0.1825532,-0.022330552,-0.08520905,-0.073671356,-0.093051665,-0.042044308,-0.04765331,0.016585177,0.19831273,-0.0036324814,-0.087370604,0.14614916,-0.039377294,-0.09285691,0.049039904,0.041192032,0.008258313,0.08112613,0.124986336,0.0807071,-0.012059125,-0.045815043,-0.10217977,-0.106997915,-0.023440203,-0.8524425,0.0011001165,-0.01498274,-0.021515463,-0.1096627,0.22873536,0.31392792,0.024286848,0.18631889,-0.093753666,0.34083366,-0.00202362,-0.022554627,-0.06554512,-0.028112438,0.059434075,-0.09591516,-0.047474816,0.096893296,0.019567467,0.04380236,-0.33041608,0.25836086,-0.055944074,-0.0039625377,-0.04759944,0.21316317,-0.06804685,-0.03191323,-0.048306853,0.034625918,-0.0313758,0.08429197,-0.043591265,-0.11475518,0.08779678,-0.0013129014,0.084213965,0.08650507,-0.018995073,-0.04400888,0.07466748,0.15209146,0.012010738,0.09992865,0.0836392,0.10243216,-0.09004427,0.019955805,0.08937372,0.048070747,-0.0224585,-0.007953089,0.12097346,-0.1822738,-0.100930974,0.26342452,0.48223016,0.05325311,-0.10113898,-0.14543904,0.11194149,0.1784914,0.1970318,-0.022236308,-0.08726288,0.086490065,-0.012922214,0.14621057,-0.0635706,0.041560404,0.09588891,-0.07717333,0.023896981,-0.17933623,-4.474785,0.12546575,0.06770804,0.06283619,0.028221937,-0.035704926,0.2883395,-0.20494345,0.043065067,0.08880214,-2.0182917,-0.06575409,-0.05720009,-0.19680388,0.08778907,-0.1936522,0.12566552,0.10721302,0.04378418,0.16612118,-0.22645068,0.24214713,0.09672081,-0.10422336,0.13169388,-0.06139149,0.048706993,0.021378178,-0.0018294706,-0.07472785,-0.18081251,0.008502768,-0.024985753,0.0034563078,0.014571657,0.0147884535,-0.22320089,0.008064734,-0.077540204,0.27570894,-0.014612603,-0.0925259,0.0347824,0.40794003,0.054512292,-0.027390301,0.084011964,-0.0058304938,0.12491143,-0.04273596,-0.021325883,-0.076272175,-0.0073771747,-0.019354288,0.0425919,0.15939477,-0.039016895,0.31303465,0.034971137,-0.044851143,-0.17463022,-0.05063733,-0.017606262,0.10818452,0.07756448,0.36479583,0.75253546,-0.12494571,-0.081650175,0.0067967116,0.02108678,-0.12254332,0.020577442,-0.041132104,0.11800434,-0.24093555,-0.08999252,-0.00045268284,-0.06194869,-0.18236619,-0.057675816,0.13397726,-0.036490258,-0.029433934,-0.21787643,0.097911306,-0.27685267,-1.0624572,0.19089481,-0.0054878304,-0.12761535,thinwoman3.jpg
3,-0.119324304,-0.049823,-0.0324353,-0.39215702,-0.024795458,0.081355385,-0.08437845,0.11867567,0.15916628,0.19851519,0.008267758,0.069706626,0.13831003,0.02546525,0.23226851,0.19470567,-0.023209324,-0.06315705,2.5102947,0.0066310936,0.013091187,-0.15459248,-0.03603967,-0.18348183,0.021214733,-0.05923179,-0.22923161,-0.09476912,-0.012629829,0.26835814,1.118795,-0.04051564,-0.10924006,0.018424274,-0.1238836,0.05123407,0.087479405,0.021620797,-0.017716909,-0.26260155,0.075748086,0.16808048,-0.12521178,0.003389113,0.0015975505,0.030576406,-0.1131417,0.20756625,-0.09186174,0.019885119,-0.13790277,-0.010464833,0.08346081,-0.093517885,0.028953625,-0.025888508,-0.5466027,0.11570988,-0.16271071,0.016171625,-0.10599093,-0.0781812,0.15042695,0.16797338,0.16569836,0.19104859,0.0030882002,-0.07582996,-0.0068418668,0.17167087,-0.06523886,0.26006383,-0.08292153,-0.15545487,0.13359511,-0.22479057,-0.23866357,0.032521877,0.0021381609,-0.0035752652,-0.24979295,-0.035815448,0.12219864,-0.023660248,-0.0047745164,-0.07544017,-0.102702945,-0.050627552,-0.00169227,0.0016851405,-0.21904188,0.08557592,0.070415884,0.021077689,0.05906546,-0.07853046,0.0057230294,0.19932963,-0.023376102,0.1050195,-0.010169449,0.07961988,-0.09688531,-0.08325864,0.25857884,-0.06899643,-0.11424688,-0.04919883,-0.023726964,-0.11557852,0.0013015307,0.010893941,-0.076089166,0.026496256,-0.21382412,0.044741735,-0.0038257737,0.1270373,-0.027295921,0.01801016,0.21882968,0.32921064,-0.100195296,-0.11796225,0.2640571,-0.0019712003,-0.25249124,0.0045219907,0.0018471663,-0.092864856,-0.33066726,-1.982032,-0.047168493,-0.018426001,0.14268301,-0.045518458,0.034236833,-0.09550753,-0.058407944,0.040529512,0.052762713,0.018875914,0.030724984,-0.06037779,0.39547765,-0.025766784,0.2216675,0.0052218954,0.03672649,-0.07413757,-0.2827972,-0.30156597,-0.07186092,-0.07383161,-0.13451618,0.005402824,-1.5736873,-0.028064301,0.19954847,0.086968556,-0.3721767,-0.0968677,-0.17071636,0.010091348,-0.14396603,0.29188037,-0.07394917,-0.13502462,-0.11076925,0.067185506,-0.026716482,-0.017107345,-0.2555889,-0.10259621,-0.07568354,0.018746892,-0.0080063585,-0.107834116,-0.0582744,0.051958833,-0.12677926,-0.08610687,-0.20070334,-0.108244605,-0.15743054,-0.14806417,-0.06944689,-0.09504207,-0.111936316,0.10039143,-0.2482092,-0.13432883,0.17598903,-0.091485895,0.03796424,0.053117514,0.046013147,-0.21017788,-0.021769473,-0.01547548,-0.033409715,0.07425611,0.12398484,1.7352117,0.03339132,0.14098895,0.07068166,-0.09840538,0.28005108,-0.065454505,0.040886354,0.037393864,0.085088335,0.17405328,-0.032807942,0.16481015,0.08540151,-0.05768245,0.48518178,-0.1236734,0.049471434,-0.072748326,-0.07932071,-0.035629585,-0.2003925,-0.008245659,-0.07899614,0.060237706,0.04946241,0.027251678,0.13788217,-0.07462412,-0.040473178,0.117449015,-0.071515374,0.15538007,-0.037924442,-0.08567601,0.028876295,0.034786683,-0.04136023,0.13986358,-0.0014743196,-0.11259193,0.13864563,-0.0011734962,0.15017551,0.06288924,-0.077335104,0.08155601,-0.026426882,-0.2829217,0.08858721,-0.097233385,-0.10070327,-0.033783387,0.08924175,-0.014791412,0.038602594,0.12879218,0.12618649,-0.0546306,-0.1492361,0.059924062,-0.03585635,-0.10560602,0.035951804,-0.04339814,0.30981022,0.1052079,0.11898358,0.020967634,0.10270661,-0.13464054,0.05634041,0.04812707,-0.030185683,0.06550699,-0.16915588,0.13565059,0.06791375,0.0456829,-0.04998707,-0.21794055,-0.063285716,0.10002352,-0.11048834,-0.50682074,0.37074098,0.021707857,-0.005093817,0.08508632,0.17047092,0.16190496,0.06282661,0.19799203,0.35612404,-0.032543387,0.011071568,-0.19869573,-0.12522744,0.17242642,0.07625533,0.07041577,-0.03611196,0.09227693,-0.06771688,0.110177524,0.01851317,0.05665914,-0.15525727,0.054834835,0.13082136,0.071245424,0.34006137,0.06655782,0.09111692,-0.109540805,0.061151385,0.07414946,-0.18664967,0.1189737,-0.017548125,-0.0764065,-0.07656075,-0.11228936,-0.044056285,-0.047672417,0.004377839,0.1924354,0.008771901,-0.09022521,0.13754235,-0.03415683,-0.06567639,0.050676025,0.03448233,0.002825186,0.06874752,0.09889312,0.07904759,-0.018551467,-0.031502288,-0.07508943,-0.10537696,-0.029542578,-0.8283446,0.0011016628,-0.014433928,-0.030225914,-0.10260476,0.22470716,0.30602917,0.022086807,0.17143944,-0.09348114,0.33310252,-0.0009198041,-0.02354265,-0.07342366,-0.041082457,0.058499634,-0.1037073,-0.055802926,0.09133226,0.01679542,0.03421134,-0.33259454,0.27263185,-0.055159293,-0.002718543,-0.043769978,0.21266672,-0.060420256,-0.03403558,-0.045532826,0.044345457,-0.04126695,0.08017424,-0.05307913,-0.12885582,0.094844,-0.009162736,0.08641361,0.08820103,-0.025980398,-0.04122773,0.0898376,0.16238655,0.019482903,0.10327756,0.07946381,0.113217756,-0.07491562,0.01129378,0.09918662,0.02402282,-0.016878264,-0.007952186,0.13026121,-0.18296531,-0.1045246,0.25087503,0.46889943,0.04517002,-0.10916048,-0.15698911,0.12403382,0.17804515,0.1929698,-0.022530654,-0.08139767,0.07995247,-0.013239864,0.15143572,-0.053782478,0.06919537,0.08591233,-0.07163831,0.0038665626,-0.16912486,-4.5443115,0.12773114,0.052425575,0.064522564,0.03513858,-0.03736943,0.2702379,-0.20625696,0.046942726,0.08632244,-1.9418193,-0.06355057,-0.056848265,-0.17959683,0.07751353,-0.17245814,0.13512602,0.10791728,0.033632953,0.16364089,-0.21320683,0.23900244,0.1061928,-0.07829177,0.13690074,-0.044065263,0.05385737,0.009215043,-0.021791965,-0.09155586,-0.17998572,0.004560742,-0.046910707,0.004397059,0.010514243,0.016306113,-0.21632391,0.008473109,-0.07548186,0.28495046,-0.011528343,-0.07719764,0.030428108,0.41375187,0.050687898,-0.037806205,0.086161084,-0.012484163,0.12393212,-0.065083615,-0.028317627,-0.078062855,-0.00840887,-0.026036844,0.039845895,0.118876845,-0.041800395,0.32179552,0.03942395,-0.03663371,-0.19210748,-0.04994046,-0.020083569,0.10827331,0.07572122,0.32118377,0.73519343,-0.12394718,-0.076910235,0.0147300325,0.023827197,-0.1108479,0.017619839,-0.023741513,0.11238059,-0.23203765,-0.08548643,0.002889242,-0.063376226,-0.16435581,-0.052203324,0.1345355,-0.047938876,-0.03568917,-0.22520101,0.105129704,-0.27817678,-0.99727446,0.20362325,-0.0032377867,-0.13242736,thinman3.jpg
4,-0.14140604,-0.056430127,-0.03617184,-0.38085553,-0.021380128,0.08663958,-0.07592946,0.11451915,0.14900775,0.20482686,0.0039996174,0.09663011,0.11459137,0.04034241,0.21461919,0.2004655,-0.02729661,-0.062638395,2.3685694,-0.0026389032,0.0067399736,-0.12139775,-0.039872915,-0.1675558,0.008370298,-0.05447264,-0.21428569,-0.09188814,-0.030114908,0.27626452,1.0287222,-0.0515167,-0.1094649,0.03296145,-0.12619434,0.055524,0.07714132,0.01365602,-0.009931161,-0.26872757,0.070901915,0.17058964,-0.13916108,0.007876642,-0.0014875048,0.03007838,-0.100337625,0.19801238,-0.096932,0.01071567,-0.11095919,-0.0067299767,0.084076,-0.10486313,0.026405977,-0.028753716,-0.6379583,0.1143294,-0.16664495,0.012927152,-0.09769538,-0.09320549,0.1527632,0.1387585,0.15635243,0.18021093,0.009330651,-0.07306989,-0.0008338476,0.16681577,-0.065683044,0.23886828,-0.077238284,-0.14512886,0.13516983,-0.20632486,-0.23895921,0.025072511,0.0012247883,0.012480952,-0.23504223,-0.029516703,0.11491427,-0.02969514,0.0040036254,-0.0767341,-0.10128121,-0.044653393,0.017159661,-0.006740532,-0.2386353,0.08663246,0.0786378,0.018226426,0.06855975,-0.083988756,0.008902726,0.19993961,-0.020832868,0.10973556,0.013480112,0.083701365,-0.111311264,-0.08652885,0.2453906,-0.07399199,-0.11132503,-0.100858815,-0.038705394,-0.10840606,0.001960834,0.003254492,-0.09675257,0.024789741,-0.21469435,0.051300704,0.0046722526,0.116486095,-0.023166621,0.0120405,0.22476102,0.32390136,-0.077683836,-0.12941436,0.26296964,-0.012886233,-0.24009997,0.0036110645,0.0039340733,-0.08918856,-0.29519838,-1.9008683,-0.050204273,-0.014811617,0.1332233,-0.041068617,0.031222407,-0.101128474,-0.04996445,0.04468314,0.044189595,0.0176386,0.041483667,-0.06430255,0.38719603,-0.020504836,0.20546564,0.004596891,0.023065375,-0.062847495,-0.2860209,-0.29769844,-0.07336873,-0.08323376,-0.13722353,0.0042107254,-1.5842669,-0.028277317,0.21279657,0.08400986,-0.3520365,-0.08215564,-0.15835693,0.010654752,-0.13776141,0.25321257,-0.06831069,-0.13152406,-0.11334177,0.060946908,-0.03277772,-0.018879708,-0.2390865,-0.09203259,-0.07474913,0.021382313,-0.013705418,-0.110254526,-0.057049423,0.053214997,-0.11868854,-0.08590794,-0.19020027,-0.09235194,-0.13919179,-0.15320158,-0.062430143,-0.09323783,-0.1239759,0.09724731,-0.24297044,-0.12803045,0.17057618,-0.09505869,0.016013172,0.05467849,0.04123013,-0.1910631,-0.020734902,-0.012310115,-0.021647235,0.06493222,0.1357418,1.7221297,0.028768448,0.15603998,0.067111105,-0.096002854,0.27408546,-0.059871014,0.045438167,0.03360672,0.08076394,0.17879003,-0.037941556,0.15003581,0.07854782,-0.045207538,0.5377591,-0.12314027,0.052153043,-0.0727073,-0.09418291,-0.04086724,-0.1906051,-0.0004277324,-0.08344723,0.055794638,0.043984078,0.02633349,0.1255879,-0.083214276,-0.04128074,0.1139178,-0.06802041,0.16866644,-0.04075308,-0.0887074,0.016083905,0.028900243,-0.031733688,0.14920321,0.00048505212,-0.09238063,0.122274876,-0.00036244583,0.1405154,0.05224708,-0.084613964,0.079687126,-0.010714201,-0.27645293,0.083827175,-0.091986716,-0.102205426,-0.023180392,0.107098944,-0.026306367,0.039150663,0.124941655,0.11819544,-0.048589747,-0.1422197,0.06625085,-0.030418739,-0.10561408,0.033910982,-0.03669162,0.27891234,0.10079855,0.1148918,0.02167467,0.057147086,-0.13045079,0.062204666,0.044222366,-0.045917355,0.054902032,-0.16955847,0.11798187,0.056736656,0.036729235,-0.038682003,-0.22103605,-0.06935472,0.10518883,-0.10684123,-0.48201331,0.36439517,0.020232385,-0.00126803,0.07546426,0.17938915,0.1622508,0.051829807,0.19382617,0.32878378,-0.030177992,0.014341449,-0.1921705,-0.12202202,0.15248945,0.06520416,0.070121564,-0.018197233,0.08848395,-0.066194706,0.105035886,0.0271595,0.053946603,-0.13460994,0.040228713,0.12465715,0.0797519,0.3324902,0.07392594,0.08100031,-0.12591778,0.05847975,0.08467473,-0.1837164,0.16985394,-0.031762518,-0.07810951,-0.07520155,-0.10374128,-0.037931427,-0.04771205,0.022615917,0.20716336,-0.005191391,-0.08214419,0.13049512,-0.028608982,-0.057834353,0.04969395,0.049460564,0.0065253046,0.0728123,0.108929306,0.08632388,-0.020609561,-0.025712918,-0.10165704,-0.0957054,-0.03510855,-0.8407774,0.0011168295,-0.018341389,-0.029549383,-0.10022564,0.22315319,0.30674738,0.022503406,0.17926744,-0.08835604,0.318306,0.010994878,-0.021449119,-0.05625964,-0.043906793,0.06577157,-0.10788038,-0.065197594,0.10889533,0.018803656,0.0473652,-0.3304965,0.2664789,-0.06709766,0.0033599087,-0.047474053,0.19656,-0.061485212,-0.037494343,-0.048824586,0.045950238,-0.0387857,0.076502696,-0.03477243,-0.12320178,0.078342184,-0.009664579,0.0822924,0.08290041,-0.01939982,-0.03417153,0.07691022,0.14973591,0.022569384,0.11624918,0.072295904,0.11156759,-0.07708282,0.006212748,0.09028589,0.025075307,-0.021068554,-0.013161249,0.13255051,-0.17483678,-0.096208856,0.2606827,0.46195075,0.05988944,-0.10511625,-0.14037646,0.105429105,0.17480376,0.1903219,-0.022710377,-0.10689577,0.10089056,-0.0072373347,0.14949717,-0.046985425,0.045809224,0.08042944,-0.074195854,0.012238211,-0.17032684,-4.382961,0.12187636,0.06598957,0.05883503,0.019822206,-0.040247038,0.22567603,-0.19121447,0.050804116,0.08711786,-2.0156164,-0.06784955,-0.057929333,-0.17708239,0.08367652,-0.18552747,0.1175009,0.10413351,0.038264252,0.16642396,-0.2091275,0.23288693,0.094298705,-0.091229245,0.13490789,-0.06394969,0.044724602,0.021996832,-0.012687266,-0.09077533,-0.1695457,0.004392334,-0.019253053,-0.0052611125,0.015202274,0.014278854,-0.20739599,0.0041291565,-0.068218194,0.26306957,-0.011992162,-0.08667974,0.030939057,0.4009452,0.05232628,-0.027865218,0.10859011,-0.004064458,0.1317927,-0.05323602,-0.034281626,-0.086640336,-0.007492135,-0.027927332,0.0350384,0.14005823,-0.031810977,0.30431864,0.03237544,-0.05966945,-0.1693608,-0.05093847,-0.0206398,0.11251502,0.07117729,0.29050174,0.72348136,-0.13944787,-0.07393836,0.0014451285,0.011567031,-0.11619743,0.020236418,-0.027914489,0.09723981,-0.23601025,-0.083998844,-0.0008161448,-0.06446088,-0.17089118,-0.06917937,0.13161641,-0.041883685,-0.04068072,-0.22199906,0.102317385,-0.2713996,-0.9895554,0.19724822,0.0022234556,-0.13105164,thinman2.jpg
5,-0.13152713,-0.042331234,-0.03832837,-0.38438734,-0.022127256,0.09396872,-0.08662824,0.11723288,0.15742497,0.2070134,-0.0017981045,0.08986488,0.12419354,0.041553672,0.22975697,0.19434448,-0.031100476,-0.06947777,2.5325089,-0.0021532483,0.010941589,-0.15509793,-0.030977774,-0.1704776,0.017562358,-0.05596047,-0.21884242,-0.09229647,-0.002493542,0.27358988,1.0953404,-0.05704924,-0.11301352,0.019724455,-0.12900594,0.057817537,0.08545033,0.003781679,-0.008251245,-0.26600245,0.07798425,0.17178601,-0.1318482,0.017991578,0.0029315234,0.023658408,-0.10835178,0.19880846,-0.094922446,0.019842999,-0.115302935,-0.010418825,0.07946173,-0.10034896,0.025370676,-0.025875831,-0.51529396,0.116023324,-0.17539825,0.013255274,-0.089511715,-0.073941655,0.14761077,0.15026288,0.16887543,0.19547756,0.014889109,-0.08274852,-0.0037457673,0.1728201,-0.07020254,0.2464858,-0.08275157,-0.15899326,0.13096203,-0.20876084,-0.24843802,0.02240172,-0.0021007936,0.007352487,-0.22436404,-0.021756573,0.13345268,-0.02147249,0.0048324093,-0.09935553,-0.09739704,-0.040367056,0.0065332935,-0.013275825,-0.21011358,0.0924523,0.068304665,0.025318556,0.064787336,-0.080905095,0.004189024,0.20620988,-0.036762398,0.11458388,-0.011213451,0.08862389,-0.116861515,-0.07814213,0.25408065,-0.068315744,-0.109132096,-0.092436224,-0.039411183,-0.11802024,0.010592089,0.019678336,-0.08764434,0.020973418,-0.20537189,0.04795965,0.002068838,0.120305024,-0.026670901,0.008605311,0.21767426,0.31368873,-0.08906771,-0.12582852,0.26138425,-0.00043889607,-0.26175475,0.017735291,-0.0010098986,-0.09762442,-0.31874874,-2.0217576,-0.058985285,-0.015125785,0.14568162,-0.054826945,0.025038343,-0.09986678,-0.06371042,0.041225273,0.04305407,0.021850651,0.027077373,-0.0588092,0.41567597,-0.020482657,0.22286586,-0.0012884107,0.027646504,-0.07654424,-0.27365893,-0.30521604,-0.0685044,-0.08901213,-0.137352,-0.00450841,-1.6207025,-0.03297376,0.20087488,0.10001573,-0.3793774,-0.08665166,-0.1705201,-0.0029380205,-0.16754167,0.2717254,-0.068728544,-0.14616303,-0.11140517,0.054375328,-0.025913747,-0.03313312,-0.25954393,-0.08478637,-0.077664986,0.032365233,-0.009716409,-0.12089668,-0.055086304,0.05296399,-0.11836403,-0.09186398,-0.18947403,-0.094628476,-0.15554976,-0.12506856,-0.06534238,-0.090753034,-0.116775185,0.10295605,-0.2448897,-0.13064449,0.18253666,-0.0924355,0.022987442,0.05635339,0.046950206,-0.20236717,-0.01869492,-0.021176547,-0.014884273,0.068313986,0.13524067,1.7655299,0.03745014,0.14919642,0.069493115,-0.092024356,0.27451983,-0.06228847,0.043546475,0.047381338,0.101998866,0.16960834,-0.032156117,0.15364723,0.08353464,-0.05792013,0.52462435,-0.13461156,0.04465048,-0.06912197,-0.092994265,-0.03749016,-0.19955042,-0.0102744615,-0.067279786,0.06282935,0.052936006,0.015428198,0.13369681,-0.08051358,-0.03603211,0.12031859,-0.08041464,0.14891402,-0.033046614,-0.07968716,0.017850159,0.03715776,-0.03684432,0.1346766,0.011580276,-0.11035932,0.13816182,-0.0057082605,0.15137209,0.062401745,-0.07949518,0.081618465,-0.0058278614,-0.28738165,0.08648864,-0.09746157,-0.108926736,-0.021926971,0.10580691,-0.015885925,0.04824894,0.124447346,0.12877925,-0.050415736,-0.14626503,0.05702783,-0.03438702,-0.10666985,0.041311897,-0.03917551,0.27865827,0.09882572,0.11019202,0.019526985,0.060181934,-0.13143684,0.061282553,0.048331328,-0.05639595,0.07180529,-0.17247298,0.12242087,0.07239642,0.039379716,-0.03642566,-0.22662614,-0.061056774,0.09825066,-0.10539598,-0.47581658,0.3708277,0.021903431,0.0025025473,0.087821595,0.17224692,0.1590339,0.04793117,0.18986288,0.33097258,-0.024073353,0.0095801,-0.20554633,-0.117497995,0.15081145,0.06357253,0.067747705,-0.02870959,0.08306903,-0.06284959,0.104962364,0.01931181,0.047659684,-0.13479117,0.042528063,0.13511929,0.074647285,0.33079475,0.063516386,0.08723515,-0.11878458,0.06368122,0.075818315,-0.1858211,0.18062422,-0.015474258,-0.08249157,-0.071808815,-0.095807105,-0.039950468,-0.04767182,0.01996518,0.20389709,-0.0057626273,-0.086465284,0.13679779,-0.044133577,-0.07709996,0.040914867,0.045254,0.0016482053,0.058800448,0.1053419,0.08341031,-0.0142606795,-0.02928027,-0.081425205,-0.10261153,-0.01706886,-0.85674894,0.0010937577,-0.01929098,-0.027237887,-0.10136904,0.22505015,0.3233999,0.029886946,0.18246536,-0.08321246,0.33054584,0.003966445,-0.024451217,-0.061421115,-0.028127287,0.068597995,-0.10051124,-0.050589733,0.09191383,0.02536635,0.0401279,-0.3469745,0.26248398,-0.06332651,-0.009549035,-0.039948024,0.19711709,-0.06448268,-0.039959427,-0.05401933,0.039805617,-0.02912971,0.07684774,-0.046249613,-0.12133992,0.082861826,-0.006793941,0.09401063,0.078981675,-0.021242462,-0.036713593,0.074740514,0.15326197,0.021291211,0.095411524,0.070163354,0.10770342,-0.09793332,0.01819662,0.097216405,0.032564726,-0.033054203,-0.024284484,0.12124217,-0.17057571,-0.10456395,0.24173328,0.45693958,0.04626398,-0.11175567,-0.10948736,0.112127066,0.18035692,0.2074141,-0.017450899,-0.09760724,0.08573447,-0.009282902,0.16280994,-0.039763015,0.0458368,0.085694164,-0.08248887,0.006429062,-0.16747352,-4.515707,0.12822188,0.06220963,0.057269707,0.028675977,-0.044508837,0.26660138,-0.2065045,0.055828933,0.08031118,-1.9303459,-0.059700977,-0.06347761,-0.17613085,0.08426762,-0.183738,0.13255087,0.11299081,0.03672373,0.1617398,-0.21539249,0.23450823,0.093132645,-0.09642474,0.13914464,-0.0458726,0.059121534,0.02497134,-0.0077502173,-0.08368883,-0.16620699,0.011090483,-0.02978293,-0.002946955,0.018940844,0.019501725,-0.20723678,0.0072059813,-0.07748214,0.27225706,-0.016662484,-0.0856149,0.022095155,0.40694085,0.055129964,-0.022940056,0.09216463,-0.0044938414,0.13608825,-0.047016505,-0.01993016,-0.0864633,-0.009188423,-0.02183056,0.049476635,0.12430844,-0.031888917,0.32004514,0.036986556,-0.043210935,-0.18682295,-0.048417572,-0.018617075,0.11266115,0.06867552,0.32806438,0.7461837,-0.13695036,-0.07681935,0.00847939,0.017889664,-0.11126085,0.021112246,-0.033315428,0.109404676,-0.23111795,-0.08512392,0.010298191,-0.060511447,-0.163854,-0.068037085,0.13596447,-0.04352059,-0.033528205,-0.21989407,0.11521504,-0.27455917,-1.0439256,0.21182021,-0.00295726,-0.12658767,thinwoman2.jpg
6,-0.13367592,-0.050216533,-0.03357422,-0.38376468,-0.02187378,0.08524565,-0.09829223,0.124802366,0.15132149,0.21695928,0.011653398,0.08651285,0.13109171,0.039016288,0.22617522,0.211645,-0.025882144,-0.066410944,2.5031288,0.0070332997,0.01482154,-0.15614615,-0.03410704,-0.19088465,0.021259444,-0.050343163,-0.22051756,-0.089825936,-0.013913137,0.28078353,1.055108,-0.04593085,-0.111138,0.027786773,-0.12048464,0.06386257,0.082468346,0.013502019,-0.017081385,-0.26436904,0.07801461,0.17748335,-0.13702656,0.006548635,-0.005273092,0.02304989,-0.10601854,0.20496297,-0.100068435,0.0056912163,-0.12328063,-0.010558854,0.07978637,-0.09898678,0.02837094,-0.028540121,-0.5673534,0.12530842,-0.1586598,0.016207838,-0.10076581,-0.086002156,0.14624034,0.16262153,0.16586953,0.18115348,0.01404378,-0.082133494,0.0037577709,0.17168033,-0.075466506,0.24998195,-0.07555797,-0.15797913,0.13109909,-0.2180741,-0.2545793,0.031947963,0.0003000798,0.0029098704,-0.26041806,-0.030652072,0.11336467,-0.022862729,0.007282518,-0.071909085,-0.10026639,-0.0429385,0.01608752,-0.011796203,-0.18850851,0.08799955,0.07726869,0.017817603,0.060021017,-0.078417085,0.009506494,0.21783406,-0.024620125,0.108847834,0.003908131,0.07251805,-0.098863825,-0.08219955,0.25008303,-0.06367023,-0.11318472,-0.13350764,-0.032509815,-0.09873727,0.003682945,0.010023748,-0.08605543,0.036864348,-0.20904605,0.050513193,0.0020820985,0.12566958,-0.021087948,0.020445429,0.21986623,0.32688463,-0.09870215,-0.13663062,0.29912236,-0.019254213,-0.25083187,0.012267013,0.0013795354,-0.10010898,-0.3098788,-1.9311064,-0.042593695,-0.019424833,0.13543119,-0.04235318,0.029580971,-0.09389492,-0.052024785,0.04126101,0.059700023,0.01738121,0.035985067,-0.06374438,0.4045743,-0.020513343,0.21389984,0.0073698163,0.029703384,-0.072371356,-0.2816214,-0.31304395,-0.07414935,-0.08462811,-0.14280902,0.0072120046,-1.647886,-0.030248128,0.20129213,0.091086164,-0.37052396,-0.097189344,-0.16153654,0.0074772974,-0.14939497,0.2780692,-0.06808296,-0.13076319,-0.12299943,0.072910495,-0.030143041,-0.01705835,-0.24713749,-0.099958405,-0.08021016,0.026829358,-0.01218031,-0.10781967,-0.057743814,0.054430574,-0.11997782,-0.09392609,-0.19129299,-0.10059703,-0.15341772,-0.1483954,-0.075598605,-0.09999086,-0.12525943,0.09688993,-0.25962153,-0.13109443,0.17803012,-0.09397469,0.03101613,0.055595245,0.046051383,-0.20839792,-0.02824584,-0.012103823,-0.022995042,0.06446694,0.13215992,1.7900577,0.034109537,0.15882213,0.07470965,-0.10175825,0.27233112,-0.060311817,0.05327901,0.03779889,0.08673916,0.17426814,-0.044829942,0.1585153,0.08285688,-0.055381786,0.5934553,-0.13488942,0.038607758,-0.075088926,-0.10370381,-0.032819316,-0.20056048,-0.0041572764,-0.08935548,0.06944143,0.05051042,0.037902236,0.1288403,-0.0812459,-0.05091717,0.12572406,-0.07246403,0.15184347,-0.05092024,-0.099229366,0.0124339415,0.039121713,-0.035039295,0.14464147,0.010853286,-0.117153645,0.13440315,0.0052903406,0.14365913,0.063406855,-0.08555511,0.07897924,-0.01903718,-0.28704002,0.07600301,-0.09260735,-0.10403106,-0.03619937,0.0922544,-0.025282074,0.03979974,0.1299421,0.117292814,-0.049028113,-0.13926733,0.06910598,-0.041224375,-0.108628266,0.03295252,-0.037588842,0.30601153,0.09983202,0.12643965,0.02786391,0.049439017,-0.13412018,0.058365736,0.049203504,-0.040941216,0.07056137,-0.17908657,0.13077979,0.058401406,0.03858021,-0.043252803,-0.22383727,-0.06316354,0.107013024,-0.114015736,-0.4118376,0.38977045,0.020250972,7.788641e-05,0.07307,0.18121754,0.16217074,0.054944124,0.1938071,0.34181222,-0.025200553,0.018001817,-0.20005034,-0.119552106,0.16902222,0.07277105,0.08014161,-0.04820151,0.10248314,-0.06396013,0.11315161,0.03283269,0.049876783,-0.15596534,0.0514587,0.13352172,0.087073974,0.34888145,0.07214657,0.08190523,-0.11078645,0.062074404,0.08695723,-0.18538882,0.102763996,-0.026450224,-0.090955466,-0.08088398,-0.10877608,-0.037282396,-0.047661427,0.020554418,0.21780601,-0.00084089785,-0.0828882,0.13440633,-0.023853403,-0.048281178,0.05437137,0.04474723,0.007250759,0.061236724,0.102388404,0.07394028,-0.008178443,-0.033705823,-0.09101854,-0.10380417,-0.037273504,-0.8471528,0.0010991319,-0.019534804,-0.028382953,-0.09759628,0.22317633,0.32091397,0.023593832,0.1777279,-0.08199263,0.32487944,0.00022868645,-0.030215027,-0.052816644,-0.04501868,0.06745435,-0.10666007,-0.05129289,0.09543656,0.026748544,0.032082986,-0.33231872,0.29091972,-0.06581165,0.0023384392,-0.053032573,0.2072333,-0.06180109,-0.034301583,-0.05376857,0.04577872,-0.029330688,0.083573475,-0.052701574,-0.12600799,0.0765873,-0.016669031,0.078573264,0.08630576,-0.023875799,-0.037929673,0.097313374,0.15129502,0.016608277,0.1224515,0.07460332,0.11070445,-0.0786939,0.019840049,0.100793764,0.031414047,-0.019158036,-0.019890659,0.12979122,-0.17426427,-0.11228382,0.2618735,0.48173937,0.046683215,-0.117515855,-0.14628138,0.11393519,0.19380942,0.1839711,-0.019639099,-0.12090805,0.090656735,-0.0096392725,0.15298896,-0.06312669,0.046718907,0.089968875,-0.07163427,0.00047515216,-0.17747824,-4.4870996,0.1287224,0.07121306,0.051455963,0.027161254,-0.0372935,0.24154261,-0.2007299,0.058276676,0.09469838,-1.99044,-0.058009196,-0.06373137,-0.14971796,0.08405954,-0.1802445,0.12998098,0.10108129,0.047826063,0.16458902,-0.21308923,0.24333043,0.10071435,-0.083593994,0.14200631,-0.049180154,0.044018526,0.020607166,-0.021746786,-0.08948663,-0.17035927,0.0029230774,-0.032695856,-0.01101242,0.015577116,0.0101616,-0.22174129,0.007991101,-0.07808751,0.27841944,-0.013944765,-0.08776275,0.03201347,0.4110711,0.057554483,-0.040457446,0.09198766,-0.011944613,0.16619743,-0.074049585,-0.039682776,-0.09920844,-0.0041406658,-0.03236019,0.04085082,0.13241372,-0.037631586,0.34733403,0.03841147,-0.058093797,-0.1791824,-0.04576744,-0.022799531,0.11059468,0.06400448,0.2986133,0.73885053,-0.13621135,-0.0754461,0.010047277,0.025887288,-0.11763488,0.013496271,-0.031628422,0.10439443,-0.23547411,-0.081285514,0.008830676,-0.0645295,-0.17879772,-0.058256514,0.11961228,-0.056674536,-0.03715494,-0.2219674,0.09925815,-0.28374416,-0.97510844,0.202488,-0.0012399954,-0.13297428,thinwoman6.jpg
7,-0.12875363,-0.057916716,-0.03387371,-0.38895833,-0.023946088,0.08394033,-0.096211486,0.107878946,0.15885226,0.20943841,0.016351318,0.08668507,0.12769914,0.037140474,0.2292342,0.20823766,-0.015381899,-0.06736813,2.4960432,0.0035921524,0.0038414723,-0.14687201,-0.03779271,-0.16959332,0.02260447,-0.048638918,-0.21959728,-0.08911649,-0.017161103,0.26553532,1.0367376,-0.041857816,-0.11552363,0.015048065,-0.13706598,0.054632444,0.09221838,0.015108732,-0.017354272,-0.26341698,0.07436605,0.17330486,-0.12660593,0.010414317,-0.0056041246,0.031988498,-0.104847096,0.19903289,-0.09699166,0.009817592,-0.12538175,-0.016935796,0.07890968,-0.10183958,0.032151114,-0.027643193,-0.508446,0.11060683,-0.16191351,0.011118665,-0.113886684,-0.08877291,0.14157338,0.15384063,0.16028053,0.18511151,0.023574978,-0.068689905,-0.012063427,0.16715454,-0.061867625,0.2518993,-0.08056989,-0.14883119,0.12914088,-0.21173303,-0.24895875,0.02803885,0.0014316615,0.0025864262,-0.24621841,-0.03975248,0.13397112,-0.018972514,0.007765016,-0.058973804,-0.09878629,-0.0432155,0.012063067,-0.010810944,-0.23437008,0.078067586,0.08318348,0.016859444,0.07626881,-0.07307615,0.0073673716,0.21374175,-0.036866263,0.122598395,0.006779181,0.079604715,-0.098226875,-0.085103884,0.23318233,-0.067998104,-0.11279666,-0.10499735,-0.033411838,-0.11084387,0.01695695,0.012680836,-0.08870219,0.01844546,-0.19890006,0.041700833,0.0144563895,0.12670605,-0.029190836,0.018851858,0.2244317,0.316483,-0.09266761,-0.11339782,0.27446806,0.010599568,-0.25015885,0.019128704,-0.0016396579,-0.10611397,-0.30662706,-1.9445504,-0.049438275,-0.019106854,0.13454002,-0.045099616,0.023938313,-0.09427438,-0.054435648,0.046487182,0.06163964,0.01562819,0.04000843,-0.06697947,0.408842,-0.015826749,0.19977032,0.0012014026,0.03056983,-0.064258456,-0.28110862,-0.308512,-0.070922844,-0.08305223,-0.13425416,0.0037580535,-1.631872,-0.029341603,0.20320334,0.09220554,-0.37102377,-0.08874266,-0.15877676,0.0018736455,-0.1444267,0.26968098,-0.06931256,-0.12652878,-0.104519986,0.0634038,-0.02996375,-0.021341424,-0.24357374,-0.102240264,-0.07904668,0.024816101,-0.009616425,-0.113689885,-0.058105644,0.048751935,-0.11860485,-0.08736382,-0.19109105,-0.09692416,-0.14916584,-0.14890763,-0.07858158,-0.09790213,-0.119162574,0.10727288,-0.25961012,-0.12722416,0.16271144,-0.08734353,0.02909191,0.059232708,0.045578066,-0.21230553,-0.022127263,-0.015366995,-0.026164811,0.07179529,0.13367571,1.7308456,0.03531606,0.16199757,0.07533648,-0.09048202,0.27097788,-0.067658626,0.04312539,0.039349787,0.074116684,0.17491622,-0.03520049,0.16267261,0.086103946,-0.05407346,0.5469205,-0.12603241,0.03959889,-0.068175785,-0.090800904,-0.04274109,-0.19502822,-0.00937533,-0.09239405,0.06251189,0.0448045,0.048542917,0.13174513,-0.07284099,-0.045084,0.1104345,-0.06489131,0.15273336,-0.050306883,-0.0967951,0.023834946,0.03506825,-0.03751934,0.13126592,0.008712812,-0.11475577,0.13325511,-0.0003160617,0.14230347,0.06628424,-0.08352962,0.079517655,-0.013382237,-0.28050634,0.092727564,-0.09831205,-0.10691088,-0.010058822,0.08946028,-0.034091443,0.04200112,0.13472705,0.13182813,-0.049129445,-0.13533981,0.06353475,-0.031810164,-0.108606525,0.030317416,-0.0416056,0.29241842,0.09337414,0.12399605,0.030337615,0.058402807,-0.1290652,0.065168075,0.052313644,-0.036729995,0.061461486,-0.16765457,0.11002669,0.067436285,0.044237707,-0.04512491,-0.22537413,-0.06897234,0.112728745,-0.111638084,-0.47296834,0.3612047,0.021925734,-0.004759096,0.075040676,0.17437986,0.1616509,0.054744475,0.18930812,0.34556556,-0.03831083,0.017760996,-0.19829527,-0.117590636,0.17204902,0.06952199,0.079771,-0.035839096,0.09502671,-0.07264489,0.10099289,0.026874801,0.05735526,-0.14389293,0.048646595,0.13404822,0.076862305,0.3445136,0.066641234,0.08862336,-0.120095246,0.052486166,0.08156949,-0.18027134,0.11424414,-0.037636995,-0.074475184,-0.06938716,-0.11207846,-0.044628482,-0.0476839,0.02690352,0.20218787,-0.0019584324,-0.07134276,0.13734846,-0.03378706,-0.059509017,0.052207295,0.046632167,0.004267924,0.07009674,0.09931318,0.075938396,-0.0124279605,-0.025315115,-0.07255152,-0.081641674,-0.009191453,-0.8483441,0.0010881734,-0.012509037,-0.032366697,-0.09253584,0.22807178,0.33088762,0.02422146,0.17484008,-0.086053416,0.32616022,0.0111770835,-0.02953266,-0.053912304,-0.042040538,0.06775967,-0.10534627,-0.052592456,0.08754856,0.020610534,0.03492163,-0.33458722,0.27654615,-0.06376804,0.01112133,-0.04295084,0.19836059,-0.058989722,-0.021077579,-0.05684779,0.043961465,-0.033617895,0.08952836,-0.058902264,-0.124783486,0.07494509,-0.01628284,0.068421744,0.09066968,-0.014469558,-0.04127799,0.08113784,0.16004324,0.025404423,0.1153403,0.072764345,0.10892878,-0.077684395,0.011822268,0.08697654,0.029349364,-0.028406605,-0.012555372,0.12124718,-0.17562483,-0.10345917,0.2518852,0.46677026,0.04957558,-0.10890658,-0.11523336,0.12091183,0.18314059,0.18943466,-0.022770518,-0.118176095,0.093885235,-0.013744775,0.15809871,-0.047738567,0.0673483,0.082175225,-0.064581625,0.014705902,-0.18047641,-4.462117,0.11969972,0.06736341,0.050047573,0.02903019,-0.04658223,0.24492629,-0.20455556,0.058391742,0.086109065,-1.9453055,-0.076880924,-0.06734897,-0.16651045,0.08636377,-0.17801495,0.13398758,0.104426235,0.0359379,0.16650438,-0.21111795,0.24129537,0.10617751,-0.07065144,0.1450226,-0.03973129,0.043734774,0.007852868,-0.030579375,-0.094066866,-0.16825882,-0.00024352164,-0.031328026,0.003705654,0.009144798,0.007103104,-0.21669634,0.007487152,-0.07704612,0.27659872,-0.016802493,-0.07740254,0.03176905,0.41038916,0.048735447,-0.032673307,0.09029032,-0.007955953,0.15452251,-0.050744455,-0.031746354,-0.082170576,-0.0063147373,-0.03583472,0.037453454,0.12795098,-0.03417222,0.3462882,0.041141856,-0.058246683,-0.17541076,-0.052230585,-0.020813733,0.10569019,0.07122949,0.30395758,0.7315317,-0.1269314,-0.0734784,0.013177898,0.017768504,-0.10944969,0.016834896,-0.030619591,0.10732737,-0.23432645,-0.0811227,0.011077262,-0.061269954,-0.16794534,-0.062179673,0.12686035,-0.04266865,-0.03499209,-0.22489169,0.120335266,-0.27866283,-1.0215011,0.20659786,0.00034891008,-0.13190635,thinman6.jpg
8,-0.14105454,-0.056965187,-0.03683745,-0.37833267,-0.019732889,0.083395496,-0.08160813,0.10202916,0.14803693,0.20907679,0.01772725,0.105942816,0.123225175,0.037482325,0.22219643,0.21696988,-0.019619852,-0.05516654,2.418634,0.0007325658,0.0046212724,-0.14491278,-0.031636555,-0.18621679,0.022310257,-0.053217106,-0.2059451,-0.08635129,-0.043710425,0.28761667,0.9648611,-0.037291743,-0.1130015,0.028080788,-0.12727399,0.05911924,0.096082844,0.019288478,-0.014761105,-0.2690875,0.07011736,0.17753704,-0.13914406,0.00865018,-0.0059550344,0.032538693,-0.09802604,0.21342082,-0.1006164,-0.003539966,-0.11684478,-0.013651083,0.08582611,-0.10085406,0.024334483,-0.0281424,-0.5767416,0.11654105,-0.15592472,0.018606948,-0.12299216,-0.095649794,0.14535646,0.15862916,0.16256829,0.18001804,0.020181159,-0.080087356,0.004859421,0.1724366,-0.050694775,0.24414307,-0.070808545,-0.14596039,0.14851041,-0.21290872,-0.24954511,0.027413217,0.0053961817,0.00942244,-0.25170976,-0.031371813,0.13651837,-0.031252325,0.008142367,-0.06788311,-0.11097363,-0.04006826,0.015216869,-0.010374908,-0.20152412,0.07564303,0.07613498,0.02596277,0.06938326,-0.0831956,0.0064732297,0.22483084,-0.029144939,0.12191847,0.034776714,0.07171916,-0.09997,-0.09035788,0.22624981,-0.07717512,-0.113183826,-0.15082331,-0.034296203,-0.10295704,0.0071053086,0.01682063,-0.08144595,0.013756109,-0.21328957,0.059462104,0.012877203,0.1301252,-0.018096587,0.015150263,0.22251512,0.33652183,-0.08511585,-0.12512377,0.29318565,-0.0072812983,-0.25996816,0.008597272,0.003984877,-0.093719184,-0.30935973,-1.8856974,-0.0397415,-0.015445475,0.13234767,-0.03415294,0.024439685,-0.09664321,-0.038128722,0.045064826,0.056280117,0.0098239975,0.049387377,-0.07245244,0.40158165,-0.024742326,0.18307942,0.0036020896,0.020762103,-0.053458937,-0.29715598,-0.29283696,-0.064491846,-0.09148471,-0.13814442,0.012177255,-1.5994669,-0.022935243,0.22141948,0.08132276,-0.34937972,-0.086689,-0.16261849,0.003387267,-0.122565515,0.26548487,-0.06965866,-0.10153226,-0.11794204,0.06944141,-0.036133155,-0.025503436,-0.2333655,-0.10341494,-0.06810126,0.021022478,-0.005361507,-0.10186709,-0.060944375,0.056931414,-0.123004235,-0.09269917,-0.20134641,-0.090881534,-0.13400492,-0.1774366,-0.07812066,-0.09107673,-0.13162836,0.09800606,-0.25473818,-0.12228496,0.16716568,-0.08189286,0.019703906,0.07229988,0.0496223,-0.1918597,-0.03248628,-0.011003641,-0.027590506,0.056634452,0.1315499,1.7248261,0.030779373,0.15955454,0.06867228,-0.08325163,0.27780518,-0.066427216,0.040798258,0.029003108,0.06753574,0.1773537,-0.04984074,0.16101561,0.079426974,-0.039737422,0.6228598,-0.1235039,0.037630536,-0.07057802,-0.09730638,-0.036142554,-0.19044566,-0.0073931245,-0.08587422,0.05360023,0.045053735,0.04606037,0.12563795,-0.09131547,-0.051568203,0.10939203,-0.060266405,0.15359107,-0.052846886,-0.099689774,0.028885104,0.024353579,-0.03257292,0.1509886,0.013570772,-0.11194625,0.13896161,0.008380191,0.13462798,0.070061624,-0.08354841,0.06832142,-0.013842214,-0.28535104,0.07856612,-0.09459821,-0.09498215,-0.010890644,0.083942294,-0.03957709,0.032838695,0.13829334,0.11679346,-0.05086521,-0.12609272,0.078991175,-0.02192689,-0.10825814,0.029870968,-0.027818153,0.27294183,0.08893917,0.13393,0.023809941,0.040136687,-0.13632137,0.059121896,0.049429066,-0.034343123,0.06481503,-0.16641265,0.11031572,0.059598677,0.031715766,-0.053495195,-0.21593164,-0.07018102,0.11182984,-0.10503559,-0.44800094,0.3507565,0.022852797,-0.0067576594,0.06912488,0.18241227,0.1611003,0.050327312,0.19304352,0.33661017,-0.037305664,0.0062732417,-0.20443109,-0.11881703,0.18266127,0.069425136,0.095217995,-0.03137261,0.099845365,-0.07005772,0.10862725,0.03260951,0.063846886,-0.13851246,0.061756857,0.13795577,0.08983507,0.3472829,0.06779542,0.0754706,-0.120821305,0.053984713,0.08591695,-0.1724692,0.06620959,-0.04933775,-0.08416418,-0.07157758,-0.111026496,-0.04001245,-0.04768855,0.030938324,0.21989585,-0.0020065962,-0.07225924,0.12965228,-0.028951155,-0.05404402,0.058732804,0.041678555,0.01874132,0.07813161,0.11624378,0.083838716,-0.011107204,-0.027196206,-0.08319666,-0.0823107,-0.035899833,-0.8759554,0.0010752706,-0.009793094,-0.02630941,-0.08904699,0.22521679,0.3186071,0.019701134,0.16925803,-0.092126176,0.32628274,0.016697789,-0.04029595,-0.040281884,-0.049134262,0.06265442,-0.11185542,-0.054541394,0.10173668,0.019346174,0.034792345,-0.32903054,0.28263894,-0.06796252,0.023587417,-0.040662885,0.20448264,-0.056782324,-0.025465442,-0.056258302,0.044951435,-0.042206995,0.087039046,-0.047198158,-0.12507467,0.055266242,-0.017056342,0.06725037,0.0883897,-0.012990841,-0.03373737,0.08983326,0.14233749,0.018975189,0.12677166,0.074444175,0.10237066,-0.08342319,0.011584609,0.0872551,0.032788705,-0.017581835,-0.0017478862,0.117182784,-0.1773527,-0.097106844,0.25209585,0.49102613,0.0487327,-0.115631886,-0.12053235,0.10659287,0.18641052,0.18464434,-0.02276301,-0.1152445,0.108042754,-0.0019660178,0.14897683,-0.06649206,0.024145214,0.08749982,-0.074576095,0.020541113,-0.19419877,-4.3983555,0.120490275,0.076191835,0.049424533,0.017863909,-0.0406683,0.24397449,-0.19707404,0.061163206,0.096685894,-2.0745044,-0.06810496,-0.057586208,-0.15189439,0.08915706,-0.18371983,0.12653893,0.103605196,0.04764861,0.18060641,-0.21490394,0.24046502,0.10479874,-0.08344534,0.13216524,-0.056655426,0.029155469,0.0011253954,-0.023570709,-0.07186381,-0.17185037,-0.0026500684,-0.024936806,-0.0029934603,0.01758643,0.0070937877,-0.2170753,0.01200636,-0.07592169,0.2810547,-0.008611985,-0.081932835,0.032458246,0.40169525,0.055353694,-0.047386594,0.10627141,-0.01496479,0.17371382,-0.08137119,-0.03715399,-0.082754165,-0.0038616355,-0.036276683,0.031284697,0.1456424,-0.03341252,0.35225654,0.046198267,-0.06702368,-0.16516963,-0.042518623,-0.020174123,0.1087359,0.07197151,0.28712553,0.73042595,-0.13251793,-0.072270095,0.0043434063,0.020197172,-0.11665654,0.00566706,-0.037334863,0.10260849,-0.24515748,-0.07664914,0.00035183667,-0.07268709,-0.17804772,-0.06303125,0.135011,-0.04089732,-0.03850817,-0.22026417,0.09341704,-0.28304625,-1.0027987,0.1953602,0.0076490473,-0.13442573,thinwoman5.jpg
9,-0.13148004,-0.049884055,-0.04114096,-0.39230028,-0.022218453,0.08055808,-0.10483232,0.11220311,0.15465449,0.20474607,0.012754666,0.08557692,0.12125953,0.038946968,0.23355757,0.21674809,-0.02700956,-0.06838983,2.514317,0.002901402,0.008852613,-0.14746734,-0.03336442,-0.17702064,0.0130194295,-0.039399814,-0.21638878,-0.08778116,-0.026511684,0.27669543,1.0541987,-0.047383886,-0.1031033,0.026395004,-0.13955222,0.052044977,0.08948726,0.02158748,-0.017625814,-0.2764173,0.071392216,0.1692814,-0.12482015,0.008793558,-0.0009245133,0.027781812,-0.107136615,0.19951558,-0.096491046,0.013924755,-0.12682064,-0.0060561546,0.08921999,-0.098145604,0.023520563,-0.020330725,-0.47928634,0.107139096,-0.15445122,0.010342297,-0.10156004,-0.08677166,0.14958328,0.15697032,0.16114166,0.19322996,0.017925335,-0.07959333,-0.0070543885,0.16864373,-0.07335465,0.25568256,-0.07687566,-0.15572777,0.13804981,-0.20812212,-0.24758817,0.02918305,0.0037430995,0.0062134303,-0.26723102,-0.030096803,0.12780057,-0.018416705,0.010086442,-0.08138877,-0.10402161,-0.03549521,0.009962658,-0.011755165,-0.20598635,0.074048825,0.07687743,0.014234847,0.07121807,-0.06856805,0.0063611167,0.21545145,-0.03045422,0.118055865,0.011436231,0.080574855,-0.08850677,-0.08099046,0.24003167,-0.06477756,-0.111556806,-0.08379556,-0.03351036,-0.11977634,0.015296124,0.0230792,-0.09354486,0.024010252,-0.20622212,0.051422246,0.0064516705,0.12978736,-0.013429255,0.018661838,0.2208247,0.32351345,-0.08119871,-0.12211781,0.2816905,-0.0044417907,-0.27548128,-3.9015154e-05,0.008408852,-0.10600806,-0.31132475,-1.9460006,-0.05083766,-0.025098545,0.13665754,-0.041668564,0.021345353,-0.10212177,-0.058421824,0.039311484,0.04878323,0.019517133,0.03369847,-0.06453967,0.40026683,-0.0158783,0.20367564,0.0039933776,0.033072677,-0.06644735,-0.28295884,-0.30209398,-0.06493606,-0.0893404,-0.14450195,0.0044696946,-1.5996778,-0.025313059,0.20386091,0.09553092,-0.36502162,-0.08898671,-0.17458534,0.0026930475,-0.15399523,0.27922368,-0.07668023,-0.13795502,-0.112564296,0.058469366,-0.029634431,-0.017668134,-0.25449684,-0.0981666,-0.07344606,0.023357794,-0.010406956,-0.105303794,-0.0559859,0.048464846,-0.11807282,-0.0955042,-0.18847404,-0.10067902,-0.14898814,-0.17221226,-0.07355905,-0.097547196,-0.11593328,0.102825455,-0.24657547,-0.12981473,0.16372931,-0.09267139,0.029616144,0.05763675,0.044258386,-0.19857338,-0.025148332,-0.029506847,-0.023980811,0.069520794,0.13373259,1.7840078,0.035886448,0.15545587,0.07168045,-0.08919271,0.27465704,-0.062093366,0.04376715,0.042049076,0.085466586,0.17108266,-0.03356615,0.1597303,0.084322445,-0.04900541,0.62756413,-0.13249685,0.042897046,-0.07345471,-0.086456135,-0.03981661,-0.19903362,-0.007844766,-0.079825506,0.063851215,0.042614367,0.031969324,0.13128243,-0.0706107,-0.0414643,0.10714518,-0.059694562,0.15548255,-0.053507008,-0.11105627,0.023793256,0.034293678,-0.042488124,0.14023548,0.016900804,-0.100881256,0.13557948,-0.00088751427,0.1388336,0.0691009,-0.08244769,0.07633788,-0.011561714,-0.27913022,0.090028964,-0.08916026,-0.10177443,-0.025388977,0.079028405,-0.018087322,0.029566674,0.13352145,0.12235777,-0.051149406,-0.13434301,0.061815117,-0.028341176,-0.110385135,0.028175212,-0.03613585,0.30312017,0.09386136,0.12450901,0.0143326,0.06830462,-0.11955976,0.06655704,0.054286297,-0.039570432,0.06067023,-0.17208809,0.12369153,0.06979612,0.047859963,-0.038052343,-0.21990493,-0.07415756,0.11080484,-0.1043062,-0.42607778,0.3838501,0.033051725,-0.009554548,0.07805515,0.17774628,0.1626393,0.05109651,0.19448318,0.34782904,-0.03177613,0.019392751,-0.20452586,-0.12122661,0.16437697,0.06870723,0.09113585,-0.03774754,0.08394508,-0.07284984,0.10486734,0.030611238,0.05682523,-0.14947443,0.052204344,0.13260262,0.08535749,0.350418,0.07649973,0.07838646,-0.11759356,0.05626201,0.085540235,-0.18424496,0.09919538,-0.034431208,-0.08044002,-0.085192956,-0.10862515,-0.043889876,-0.04767022,0.029096613,0.21694785,-0.00404654,-0.080434926,0.13128199,-0.028937824,-0.06390635,0.04805899,0.05190404,0.0042693126,0.053743623,0.0962349,0.08850761,-0.015959045,-0.027982092,-0.0688328,-0.089772366,-0.033379264,-0.8524057,0.0011011324,-0.015043065,-0.033506893,-0.1019188,0.22871403,0.31750965,0.02565726,0.16165417,-0.08783589,0.3242867,0.007471365,-0.027030576,-0.048621934,-0.04447724,0.06230758,-0.105769865,-0.05949983,0.10028686,0.016032495,0.034906104,-0.33395702,0.27913293,-0.06896456,0.0138712125,-0.042553313,0.20758031,-0.062549666,-0.026072284,-0.048316084,0.046988834,-0.04408184,0.076766394,-0.055130973,-0.12943757,0.07902838,-0.02003346,0.07998306,0.08218702,-0.022840824,-0.037304338,0.08080297,0.14793563,0.030874241,0.11580518,0.07925387,0.11385777,-0.081105545,0.005193815,0.09724606,0.02990228,-0.013326402,-0.011971448,0.122436,-0.1768138,-0.10120261,0.23705803,0.46984506,0.042196486,-0.112250276,-0.11532597,0.11842974,0.18496893,0.18954448,-0.022300914,-0.11570302,0.09421096,-0.0077302624,0.15586784,-0.03877377,0.033838842,0.08136504,-0.07384191,0.0077888155,-0.17221539,-4.53315,0.12749462,0.058462936,0.056462202,0.03254517,-0.039146602,0.26095438,-0.20348877,0.051073812,0.08955633,-1.9620296,-0.05841188,-0.060142312,-0.16071373,0.08904832,-0.17849115,0.1317472,0.10903663,0.045695413,0.16479439,-0.20641099,0.2436986,0.09792788,-0.08323704,0.1467555,-0.043694053,0.0470209,0.0075727077,-0.030191574,-0.08066794,-0.16252473,0.0039422032,-0.040739886,0.0036616975,0.015792146,0.014091083,-0.2061232,0.0016223983,-0.06785744,0.28177264,-0.016498344,-0.08620395,0.025846532,0.4162603,0.051589817,-0.031025695,0.10163177,-0.013080811,0.13933486,-0.077172324,-0.03514434,-0.077654734,-0.008081966,-0.03611715,0.041842125,0.12856713,-0.034353778,0.3409063,0.044850003,-0.061738852,-0.18704565,-0.05005134,-0.018796917,0.10964031,0.07126125,0.3110582,0.74358064,-0.14363591,-0.07475854,0.012040968,0.026934586,-0.1101988,-0.00077751116,-0.042420805,0.117282376,-0.23417866,-0.07772791,0.009372203,-0.06464295,-0.16861308,-0.05793731,0.13515799,-0.049464814,-0.039714936,-0.23295413,0.10966524,-0.27453202,-1.0029649,0.21699052,-0.00066945923,-0.13937643,thinman5.jpg
