,0,1,2,3,4,5,6,7,8,9,10,11,12,13,14,15,16,17,18,19,20,21,22,23,24,25,26,27,28,29,30,31,32,33,34,35,36,37,38,39,40,41,42,43,44,45,46,47,48,49,50,51,52,53,54,55,56,57,58,59,60,61,62,63,64,65,66,67,68,69,70,71,72,73,74,75,76,77,78,79,80,81,82,83,84,85,86,87,88,89,90,91,92,93,94,95,96,97,98,99,100,101,102,103,104,105,106,107,108,109,110,111,112,113,114,115,116,117,118,119,120,121,122,123,124,125,126,127,128,129,130,131,132,133,134,135,136,137,138,139,140,141,142,143,144,145,146,147,148,149,150,151,152,153,154,155,156,157,158,159,160,161,162,163,164,165,166,167,168,169,170,171,172,173,174,175,176,177,178,179,180,181,182,183,184,185,186,187,188,189,190,191,192,193,194,195,196,197,198,199,200,201,202,203,204,205,206,207,208,209,210,211,212,213,214,215,216,217,218,219,220,221,222,223,224,225,226,227,228,229,230,231,232,233,234,235,236,237,238,239,240,241,242,243,244,245,246,247,248,249,250,251,252,253,254,255,256,257,258,259,260,261,262,263,264,265,266,267,268,269,270,271,272,273,274,275,276,277,278,279,280,281,282,283,284,285,286,287,288,289,290,291,292,293,294,295,296,297,298,299,300,301,302,303,304,305,306,307,308,309,310,311,312,313,314,315,316,317,318,319,320,321,322,323,324,325,326,327,328,329,330,331,332,333,334,335,336,337,338,339,340,341,342,343,344,345,346,347,348,349,350,351,352,353,354,355,356,357,358,359,360,361,362,363,364,365,366,367,368,369,370,371,372,373,374,375,376,377,378,379,380,381,382,383,384,385,386,387,388,389,390,391,392,393,394,395,396,397,398,399,400,401,402,403,404,405,406,407,408,409,410,411,412,413,414,415,416,417,418,419,420,421,422,423,424,425,426,427,428,429,430,431,432,433,434,435,436,437,438,439,440,441,442,443,444,445,446,447,448,449,450,451,452,453,454,455,456,457,458,459,460,461,462,463,464,465,466,467,468,469,470,471,472,473,474,475,476,477,478,479,480,481,482,483,484,485,486,487,488,489,490,491,492,493,494,495,496,497,498,499,500,501,502,503,504,505,506,507,508,509,510,511,512,513,514,515,516,517,518,519,520,521,522,523,524,525,526,527,528,529,530,531,532,533,534,535,536,537,538,539,540,541,542,543,544,545,546,547,548,549,550,551,552,553,554,555,556,557,558,559,560,561,562,563,564,565,566,567,568,569,570,571,572,573,574,575,576,577,578,579,580,581,582,583,584,585,586,587,588,589,590,591,592,593,594,595,596,597,598,599,600,601,602,603,604,605,606,607,608,609,610,611,612,613,614,615,616,617,618,619,620,621,622,623,624,625,626,627,628,629,630,631,632,633,634,635,636,637,638,639,640,641,642,643,644,645,646,647,648,649,650,651,652,653,654,655,656,657,658,659,660,661,662,663,664,665,666,667,668,669,670,671,672,673,674,675,676,677,678,679,680,681,682,683,684,685,686,687,688,689,690,691,692,693,694,695,696,697,698,699,700,701,702,703,704,705,706,707,708,709,710,711,712,713,714,715,716,717,718,719,720,721,722,723,724,725,726,727,728,729,730,731,732,733,734,735,736,737,738,739,740,741,742,743,744,745,746,747,748,749,750,751,752,753,754,755,756,757,758,759,760,761,762,763,764,765,766,767,768,769,770,771,772,773,774,775,776,777,778,779,780,781,782,783,784,785,786,787,788,789,790,791,792,793,794,795,796,797,798,799,800,801,802,803,804,805,806,807,808,809,810,811,812,813,814,815,816,817,818,819,820,821,822,823,824,825,826,827,828,829,830,831,832,833,834,835,836,837,838,839,840,841,842,843,844,845,846,847,848,849,850,851,852,853,854,855,856,857,858,859,860,861,862,863,864,865,866,867,868,869,870,871,872,873,874,875,876,877,878,879,880,881,882,883,884,885,886,887,888,889,890,891,892,893,894,895,896,897,898,899,900,901,902,903,904,905,906,907,908,909,910,911,912,913,914,915,916,917,918,919,920,921,922,923,924,925,926,927,928,929,930,931,932,933,934,935,936,937,938,939,940,941,942,943,944,945,946,947,948,949,950,951,952,953,954,955,956,957,958,959,960,961,962,963,964,965,966,967,968,969,970,971,972,973,974,975,976,977,978,979,980,981,982,983,984,985,986,987,988,989,990,991,992,993,994,995,996,997,998,999,1000,1001,1002,1003,1004,1005,1006,1007,1008,1009,1010,1011,1012,1013,1014,1015,1016,1017,1018,1019,1020,1021,1022,1023,1024,1025,1026,1027,1028,1029,1030,1031,1032,1033,1034,1035,1036,1037,1038,1039,1040,1041,1042,1043,1044,1045,1046,1047,1048,1049,1050,1051,1052,1053,1054,1055,1056,1057,1058,1059,1060,1061,1062,1063,1064,1065,1066,1067,1068,1069,1070,1071,1072,1073,1074,1075,1076,1077,1078,1079,1080,1081,1082,1083,1084,1085,1086,1087,1088,1089,1090,1091,1092,1093,1094,1095,1096,1097,1098,1099,1100,1101,1102,1103,1104,1105,1106,1107,1108,1109,1110,1111,1112,1113,1114,1115,1116,1117,1118,1119,1120,1121,1122,1123,1124,1125,1126,1127,1128,1129,1130,1131,1132,1133,1134,1135,1136,1137,1138,1139,1140,1141,1142,1143,1144,1145,1146,1147,1148,1149,1150,1151,1152,1153,1154,1155,1156,1157,1158,1159,1160,1161,1162,1163,1164,1165,1166,1167,1168,1169,1170,1171,1172,1173,1174,1175,1176,1177,1178,1179,1180,1181,1182,1183,1184,1185,1186,1187,1188,1189,1190,1191,1192,1193,1194,1195,1196,1197,1198,1199,1200,1201,1202,1203,1204,1205,1206,1207,1208,1209,1210,1211,1212,1213,1214,1215,1216,1217,1218,1219,1220,1221,1222,1223,1224,1225,1226,1227,1228,1229,1230,1231,1232,1233,1234,1235,1236,1237,1238,1239,1240,1241,1242,1243,1244,1245,1246,1247,1248,1249,1250,1251,1252,1253,1254,1255,1256,1257,1258,1259,1260,1261,1262,1263,1264,1265,1266,1267,1268,1269,1270,1271,1272,1273,1274,1275,1276,1277,1278,1279,1280,1281,1282,1283,1284,1285,1286,1287,1288,1289,1290,1291,1292,1293,1294,1295,1296,1297,1298,1299,1300,1301,1302,1303,1304,1305,1306,1307,1308,1309,1310,1311,1312,1313,1314,1315,1316,1317,1318,1319,1320,1321,1322,1323,1324,1325,1326,1327,1328,1329,1330,1331,1332,1333,1334,1335,1336,1337,1338,1339,1340,1341,1342,1343,1344,1345,1346,1347,1348,1349,1350,1351,1352,1353,1354,1355,1356,1357,1358,1359,1360,1361,1362,1363,1364,1365,1366,1367,1368,1369,1370,1371,1372,1373,1374,1375,1376,1377,1378,1379,1380,1381,1382,1383,1384,1385,1386,1387,1388,1389,1390,1391,1392,1393,1394,1395,1396,1397,1398,1399,1400,1401,1402,1403,1404,1405,1406,1407,1408,1409,1410,1411,1412,1413,1414,1415,1416,1417,1418,1419,1420,1421,1422,1423,1424,1425,1426,1427,1428,1429,1430,1431,1432,1433,1434,1435,1436,1437,1438,1439,1440,1441,1442,1443,1444,1445,1446,1447,1448,1449,1450,1451,1452,1453,1454,1455,1456,1457,1458,1459,1460,1461,1462,1463,1464,1465,1466,1467,1468,1469,1470,1471,1472,1473,1474,1475,1476,1477,1478,1479,1480,1481,1482,1483,1484,1485,1486,1487,1488,1489,1490,1491,1492,1493,1494,1495,1496,1497,1498,1499,1500,1501,1502,1503,1504,1505,1506,1507,1508,1509,1510,1511,1512,1513,1514,1515,1516,1517,1518,1519,1520,1521,1522,1523,1524,1525,1526,1527,1528,1529,1530,1531,1532,1533,1534,1535,img
0,-0.013252394,-0.074870214,-0.11155254,-0.043288462,-0.056949254,-0.0070177126,0.119658664,0.03805938,0.03591856,-0.08408622,0.011226866,0.06355155,-0.113552205,0.15534882,-0.032665703,0.050180566,-0.011896685,-0.051071502,0.05080616,-0.034912173,0.009243186,-0.009172546,-0.13002451,0.027129782,-0.049001247,-0.0016776795,-0.016952677,-0.072470404,-0.08509425,-0.032158032,-0.091395006,0.016468827,-0.0784122,0.022056289,-0.08417133,-0.011005574,0.03734004,-0.06159908,0.10910219,0.098039754,-0.053983107,-0.028518321,-0.06387828,0.005615839,-0.10854168,0.034312326,-0.09306347,-0.11846996,-0.016494041,0.172538,-0.022266986,0.08571869,0.023372343,0.05994007,-0.0020704442,-0.083678134,0.0022767198,-0.014048419,0.0013196281,-0.078145094,0.09715078,0.009119588,0.122646175,0.0024889756,0.042210426,0.010894934,-0.10073151,-0.03499656,0.0068929126,-0.051070787,-0.046471067,-0.037919693,-0.016307697,0.14605841,-0.012103233,0.0382933,-0.055580266,-0.062581584,0.08140104,-0.027859554,0.17251605,-0.05634799,-0.059933297,0.048327614,-0.1420753,-0.083189115,0.028743118,0.091332994,0.030536402,0.028962081,-0.048786193,-0.04638864,0.062567905,0.07435857,-0.053115286,-0.011631771,0.12669578,-0.0343915,-0.021758683,0.009168737,-0.033586938,0.000944015,0.0041829,-0.015714593,0.043998454,-0.049907766,-0.04219919,0.015178107,0.00049283344,0.02348959,-0.068730965,-0.022593355,-0.02076423,0.022245798,0.14785191,-0.136323,0.055449847,-0.06032158,0.066490464,0.065094195,-0.048626848,-0.054384384,0.021654503,0.033382103,-0.09995838,0.010478997,0.02888174,0.051869992,0.012475372,0.08150532,-0.07344596,-0.012931094,0.049536455,-0.05384136,-0.058235474,0.09682855,-0.08798773,-0.095323116,-0.083243825,-0.032337133,0.016474867,0.01652959,-0.0556726,-0.0036749274,0.08185101,-0.03389728,-0.002734612,0.058996245,-0.039470505,-0.0955097,-0.10317676,-0.008579837,0.061516415,-0.0575998,-0.03932737,-0.05949861,0.03348902,-0.012504554,0.034155145,-0.07471816,-0.05405756,0.055574507,-0.14497638,0.037259664,0.009250503,-0.06410511,0.07330042,0.023500035,-0.052872054,0.05274807,-0.019740656,0.025072234,0.023587106,0.013621906,0.038990308,0.10817637,0.022704339,0.08879263,0.02976853,-0.004262409,0.028308509,-0.058046564,0.06785473,0.0012652819,0.042997226,0.11459007,0.008332127,0.031758144,-0.070649445,0.031740207,0.022887489,0.01801133,-0.018506136,-0.016600557,-0.07243756,-0.041821446,0.05412715,0.12041522,0.010754823,-0.028959293,0.057070088,-0.014780773,0.025757497,-0.11948609,0.069039695,0.018604916,-0.025320379,-0.044097014,0.009790873,0.0034737035,-0.06789397,-0.08846017,-0.06451529,-0.029149178,-0.04887884,0.016107377,0.010371625,0.021860354,0.019579433,-0.1466162,-0.07355342,0.03130948,0.07364107,-0.12642924,0.081402496,-0.0067287725,0.044840537,-0.019918393,-0.05870883,-0.007336034,-0.09951633,0.0094316155,-0.041108772,0.023091828,0.041325763,-0.07555675,0.004340558,0.027156869,0.033605337,0.03095372,-0.0782851,0.20482078,0.08775387,0.13646445,-0.03839323,0.06466538,-0.032531943,0.11101087,0.039754413,0.03992168,-0.030669682,0.03011595,0.06924436,0.026992522,-0.025830887,0.011026485,-0.03509019,-0.07806377,0.007758281,-0.020951768,-0.0884053,-0.093273625,0.0052720187,-0.032014214,0.073438875,-0.053232867,0.07572269,-0.03702178,-0.11350222,0.13396691,0.04987042,0.061278984,0.0026461051,0.022154782,-0.096934356,-0.0007611936,0.034966275,0.05531654,0.021628182,-0.08214585,-0.11825801,0.078366995,0.08391055,-0.01801003,0.06191841,0.023569424,0.19047874,0.05636779,0.06363253,0.035043687,0.04645868,0.049884103,-0.027627941,-0.07472175,0.019653102,0.05622954,-0.043959644,0.05160398,-0.107722126,0.01462634,-0.09062801,0.07563859,0.06140051,-0.04977914,0.080967955,-0.018868648,0.11193139,0.071863055,0.022581156,-0.07925728,-0.056872416,0.036678072,0.056045108,-0.1167303,0.10461629,0.003460878,-0.10708055,-0.059294354,-0.008026257,-0.038641214,-0.11404268,-0.048070185,-0.089852,-0.051187254,0.012147066,0.06654313,0.08812787,0.0140512325,-0.060709067,-0.016336314,-0.032168876,0.049166165,-0.100008495,0.0023625009,-0.23366728,0.111827016,0.00087620417,0.07268327,0.04267674,-0.12380259,-0.0011005466,-0.0333688,0.01069558,-0.023567548,0.10431331,0.19130756,-0.051178288,-0.053074196,-0.015744386,-0.009648959,-0.005432538,0.10118086,-0.02846858,-0.05884589,0.04137959,0.066108,0.010090901,0.014143156,-0.1179032,-0.09666954,-0.09328046,-0.050372276,-0.020690944,0.028530058,-0.005569559,-0.11584463,0.10124375,0.030657504,-0.040524043,-0.016780905,-0.11983711,-0.04829148,-0.0066092527,-0.027445344,0.011855055,-0.020705037,0.018029187,0.04177065,-0.014414551,-0.03370569,0.08270194,0.07846149,-0.04190876,0.08997484,0.07715783,0.026347002,0.059539635,0.05521456,0.025023615,0.008875003,-0.006684007,0.19553253,0.0077552954,-0.04115641,0.015949268,0.089539,-0.013266609,0.07550808,-0.21272048,0.041950114,0.051271364,-0.18145801,0.05262451,0.04084709,0.03837552,-0.08385691,0.07410333,-0.14058731,0.040009268,-0.022397565,0.077429205,-0.03281294,-0.01938465,0.08586687,0.03155304,-0.006261758,0.011370487,-0.05127656,0.055438943,0.06347475,-0.11736434,0.10300919,0.0014220788,-0.06544028,0.0013805397,0.09249238,-0.08899307,0.17973845,0.03416285,-0.009701619,-0.07133107,0.03146703,0.03890085,-0.038301587,-0.07881919,0.043724794,-0.06664883,0.036670808,-0.021440912,0.06441026,0.05559164,0.014516067,-0.051242582,-0.065932594,0.006904733,-0.015192264,-0.055362973,-0.09011913,0.03057588,0.061274197,-0.061262008,-0.022496574,-0.04806524,-0.079665594,0.008918526,0.06264176,-0.016692342,-0.02321952,-0.02961392,0.02498025,-0.05339652,0.12543736,-0.06070967,-0.005911148,-0.0085042585,0.039780978,0.06592428,0.050405823,0.11576954,0.008690246,-0.07446984,-0.029880837,-0.0064110747,-0.058363214,-0.012276678,-0.026907025,-0.027374098,-0.009574791,-0.07221337,-0.04103786,-0.039093148,0.050782345,0.08460911,-0.041795347,-0.052763186,0.070879295,-0.05457302,-0.047685724,0.11246072,0.025039589,-0.10046679,0.04712099,0.005378846,0.08924478,0.04395694,-0.07058815,-0.0003170741,0.031081025,0.03368679,-0.007448782,-0.061096907,0.030255131,0.002595464,0.27119043,0.059900694,-0.0044480567,0.15043071,-0.06465086,0.1174904,0.0015018969,-0.09547269,0.059879918,0.018830206,-0.07792906,-0.10674609,-0.060760148,-0.0385551,-0.045494873,0.02824782,0.03600326,0.11771353,-0.004558094,0.011710562,0.055432793,0.053461593,-0.083752096,-0.050508335,0.08686072,0.041211035,-0.07699762,0.08224835,-0.09853179,0.07190069,-0.029255234,0.054292835,0.08904553,0.028996432,-0.09845501,-0.0016836283,-0.15470365,0.04671749,-0.04651859,0.076708294,0.0031646027,0.019876724,-0.040285423,0.058887422,-0.05589279,0.045701846,0.019531611,-0.012758912,-0.037088893,0.010404442,-0.07855222,0.05440338,-0.11601364,-0.051667385,-0.0036642123,0.08607837,-0.020304214,0.017531833,-0.06611454,-0.1221663,0.03482239,0.09472265,-0.03508732,0.0018938682,0.18070035,-0.0059949853,-0.11142379,0.006682844,-0.051945865,-0.010666889,0.0037571336,-0.010387749,0.020407142,0.03491268,-0.03494956,-0.05871918,-0.01822563,0.08639634,-0.11216775,0.11125305,0.056344945,0.052708965,0.030589344,0.022589786,0.009790782,0.017212003,0.026487296,-0.16486412,0.06003937,0.028639471,0.013288447,-0.06467425,-0.14763846,-0.02553187,-0.06942613,0.1068168,0.00086942466,0.03038584,0.0030228535,0.0887431,0.019693205,0.04595186,0.046958096,-0.04738942,-0.045612153,0.014088896,-0.065966696,0.045539215,-0.09640506,0.04243338,-0.08151687,0.018269818,0.11179185,-0.075357646,0.07132121,-0.0023695317,-0.004742664,-0.060726397,-0.0009989183,0.111223936,-0.27691293,0.03799307,-0.055792402,0.09451704,-0.062794276,-0.08843261,0.0150332255,-0.023607688,0.0016242476,0.05471658,0.08009902,0.07765102,-0.08712802,0.0035860331,-0.044909567,0.005826461,0.10902443,0.033210926,0.01982921,0.025497582,-0.01655478,0.0035791267,0.051907096,0.17730935,-0.014680476,-0.10317843,-0.0028934602,-0.05588908,0.040609896,-0.019624658,0.050213296,-0.148014,-0.058675267,0.045157544,0.06861678,0.014518358,-0.052271884,-0.14674097,0.036081456,-0.017502204,0.00764469,-0.056398712,0.07990542,-0.03986164,0.078928255,0.023800852,-0.028991874,-0.04993779,0.01385277,0.01790328,-0.05929351,0.010494425,-0.078001045,-0.032521985,0.027234806,0.0071438877,0.055465188,0.05811384,0.027731836,-0.07309107,0.03981945,0.050318394,-0.06346904,0.0915308,-0.09572262,0.051193986,-0.112103306,-0.009254649,0.14155354,0.07775647,0.11278571,0.0303494,-0.02690149,-0.00871281,0.026437081,0.14857891,-0.16502346,-0.033037264,0.009237109,0.07718612,-0.03601363,0.053611815,0.11137299,-0.010968943,0.115039974,0.06490062,0.016723694,-0.054098617,-0.021260988,-0.008392522,-0.043190338,-0.07402016,0.06891589,-0.20068021,-0.11594242,-0.011132355,0.09233046,0.03358928,-0.05794534,0.11101727,-0.056526348,0.016321665,-0.062812395,-0.022343274,0.009513625,-0.1153786,0.015262867,-0.13154757,-0.01774352,-0.055340063,-0.10867543,-0.016997885,0.07006542,0.004264657,0.025027324,0.103857934,-0.07501179,-0.017659832,0.10904658,0.061896656,-5.1012597e-05,0.19454096,0.08952954,0.05058783,0.051950704,0.028349627,0.04650963,-0.07628543,0.010336842,-0.11694359,-0.008029923,0.019577384,-0.030092895,-0.025386203,-0.12131215,0.043768376,0.04852539,0.07930586,0.046482805,-0.13860296,0.06789564,-0.09528502,-0.01729564,-0.02551267,0.054121662,-0.04630771,0.010561668,-0.03596218,0.008148886,-0.03480134,-0.08767535,0.060851224,-0.118710205,0.091469236,0.011121824,0.025839774,-0.002782742,-0.0042239954,0.052391954,0.045260772,-0.08590842,0.020705292,0.034501705,0.10780502,0.068648785,0.013974686,0.048948936,-0.11562767,-0.061833035,-0.09332855,0.050194755,-0.05144743,0.04642795,-0.040895365,0.051006474,0.020025557,0.0010977441,-0.038044646,0.12094228,0.11063643,0.110056475,-0.09658537,-0.0051317024,0.07802922,-0.07498881,-0.017760476,-0.070034906,0.002243108,0.072369345,-0.06791547,-0.018919138,-0.012649446,-0.05181193,-0.0098890355,-0.020969162,0.09716246,-0.06645078,-0.04239263,-0.06389554,-0.014487598,0.002690046,-0.039005768,-0.055189922,0.026899783,-0.03376916,0.011141774,-0.016779367,0.1432263,-0.061513413,0.08454148,-0.06525844,-0.0050046775,0.13171703,-0.018604351,0.009824792,0.0025142743,0.1090646,-0.116646014,0.05528602,0.04790259,0.008914762,0.04755235,-0.026774012,0.12856838,0.07421675,0.06424024,-0.0072852154,0.094813466,0.0018021021,0.0018574613,0.10472164,0.02939496,-0.05915027,-0.06948572,0.024668014,0.64683825,-0.015246437,0.07699981,0.027337879,-0.044150416,-0.17447948,-0.04714553,0.048996583,0.023783136,-0.09094586,-0.0049648546,-0.05192181,-3.1477342e-05,-0.10950313,-0.021466274,0.029858558,-0.01589922,0.0038785164,0.12741175,-0.107187465,0.046439182,0.06752641,0.15049148,-0.0017270026,0.03401815,-0.006232736,0.062434282,0.06354766,-0.016353622,-0.06406131,-0.10600748,0.08716142,0.008944486,-0.005063984,-0.009680879,-0.053047664,0.061449476,0.0059222286,0.09623362,0.010188964,0.039876167,0.09967876,0.038405538,-0.08969749,0.05173517,-0.04620534,0.014583605,-0.06830474,-0.10345273,0.12614684,0.049800225,0.0023885784,-0.09350149,-0.014903731,0.040614344,0.04446524,-0.010433122,-0.07663229,0.1149742,0.0068839714,-0.030701451,-0.019161629,-0.014274452,0.23854218,0.0013519309,-0.014392383,-0.08642755,-0.10115176,-0.023436515,-0.030604785,-0.03632201,0.019603739,-0.027766963,0.058262456,-0.07622983,-0.0460735,0.042129923,0.059416834,-0.12703903,-0.21837941,-0.01638054,-0.13685504,-0.023291815,-0.063477226,-0.1044429,0.026215447,0.015887558,-0.028583977,0.065212436,-0.17338803,0.055496614,0.0071313335,-0.042416133,-0.20442675,-0.10429028,0.051038843,0.051767062,0.051509358,0.12957445,0.15305088,0.009596449,-0.0046883435,-0.10610835,0.07870926,-0.053100333,-0.018749729,0.025340376,0.06096463,0.036228605,-0.025168778,-0.012211613,-0.03462589,-0.046651475,0.10138029,-0.09305205,-0.029110687,0.01981033,0.023096407,-0.071999386,-0.1619693,-0.040965933,-0.073115565,-0.07186798,0.089140095,-0.082730874,-0.08673193,-0.028244188,-0.08623219,-0.08732128,-0.050554086,0.044772565,0.03841079,-0.15188828,-0.006113229,-0.008498173,-0.23921366,-0.0817545,-0.059944194,-0.022731783,0.039968148,-0.018650007,-0.050992567,0.004655878,-0.009262396,0.04757425,-0.0107905865,-0.022730976,0.10059054,0.13319929,-0.05692655,0.114858635,0.13738182,-0.016961843,-6.810458e-05,0.08690486,0.05136484,-0.024472669,0.03555736,-0.07480643,0.12910715,0.029284509,-0.05436024,-0.02496534,0.15404189,-0.023855904,-0.09932658,-0.06998188,0.024498533,0.028776092,-0.026688801,-0.081441365,0.06727452,-0.07920995,0.08990331,0.11128054,0.11723316,-0.010801971,0.016627997,0.058761977,-0.07684491,-0.02971459,0.067749545,-0.0365908,-0.042119477,0.062271897,-0.050843008,-0.021401059,0.038167115,0.024189202,-0.0072913524,-0.10807577,0.042594064,-0.078502715,0.0029096038,0.08381723,-0.044440243,0.024157181,0.044036146,-0.019906634,0.012989124,-0.06567544,0.082807526,-0.003033322,0.01661876,0.052435674,-0.07111229,-0.04229383,0.29310438,0.06473594,0.08429801,0.038999412,0.00020265946,0.109182045,-0.04469064,-0.05286841,-0.08772346,0.051989473,0.15619859,0.079632096,-0.05339334,0.0123152435,0.11047223,0.11612307,0.11700001,-0.0058741984,0.039760515,-0.08687993,-0.010465286,-0.006711114,0.08069281,0.006618202,-0.014090232,0.0856345,-0.11806518,0.04529336,0.008997825,-0.0540204,0.03118534,0.026564205,0.10564162,-0.038969968,-0.10968058,0.04962943,0.08253706,-0.02484476,-0.026082667,0.031958938,0.024726873,-0.031340785,0.086321205,0.035012975,0.0043697692,-0.00210315,0.022994447,0.04266682,-0.017078253,0.01796669,-0.028376173,0.037552733,0.038716912,0.016989304,-0.003629122,0.06407037,-0.10060751,0.023651896,-0.04190507,-0.07516942,-0.09803856,-0.026011359,-0.012053382,-0.028104378,0.048057914,0.017914146,0.050895985,0.016077317,0.03493773,-0.07338021,0.034941398,0.022976272,-0.06108218,0.03469434,0.050366975,-0.033270154,-0.03369446,0.09415657,0.043592438,-0.007800191,-0.040394735,0.02439925,0.0076905848,0.0061864173,0.039247926,-0.0043763323,-0.20052746,0.041226577,-0.0695587,0.08363499,0.13739271,-0.045848973,-0.0024358556,0.044875514,-0.03460005,0.024629477,0.07078743,0.013992387,0.013726343,0.09578862,-0.1082138,0.03307705,-0.006038376,0.04220933,0.059863143,0.016464552,0.15697591,0.0984573,0.05214335,0.026985858,-0.052043788,0.012820775,0.016294224,-0.11913821,-0.05733537,-0.008968138,-0.103345454,0.011322481,-0.04812014,0.082019895,-0.008760392,-0.03599815,-0.052573103,0.02700731,-0.037344743,0.062322803,0.020318147,-0.009514307,-0.003224518,-0.035946216,0.03653063,-0.14520308,0.019810695,0.09433445,0.015731685,0.05678368,-0.08449371,-0.09362981,0.15212774,0.008487271,-0.052807547,0.05976366,0.011865609,-0.0198704,0.004891354,-0.079299375,0.14740022,-0.123437494,-0.0329056,0.07334458,-0.0021083895,-0.026603678,-0.03941292,-0.045850743,-0.10027333,-0.017000351,-0.030227348,-0.046570655,0.0034804104,0.031090066,-0.0709928,0.0031877938,0.0857867,-0.0710066,-0.062981725,0.058457054,-0.1125653,-0.020165253,0.05074343,-0.13240911,0.08577772,-0.032537747,0.14536907,-0.050635003,0.029237667,-0.009908818,-0.016068593,0.036749423,0.10973606,-0.041609537,-0.0138006685,0.043128338,0.0762232,-0.057792816,0.03671272,0.0005226318,0.10141425,0.03226012,0.083497874,-0.027940733,0.0043905666,-0.047504056,-0.13510759,0.072664864,-0.10197085,-0.025274863,0.028730085,-0.039161585,0.55506915,-0.037711296,-0.030225683,0.09741991,-0.08969918,-0.08226422,0.01513833,-0.08341295,0.030405981,0.023890467,-0.10386067,0.003756203,0.06974687,0.116168156,0.12511593,0.00040851723,0.013336504,-0.036532115,0.061505385,-0.025509188,0.063108586,-0.11361621,-0.0016087921,0.16931316,0.0031097706,0.046724226,0.21986859,-0.05409539,-0.1722504,-0.010962488,-0.048305452,-0.010978172,0.037008718,-0.016972782,0.027504528,-0.0011431448,-0.070598416,-0.08406682,-0.010239241,0.019003252,-0.014561857,0.09257174,0.017773775,0.019511733,0.055874206,0.0077367043,-0.05094163,0.05084623,-0.031103035,-0.023951055,0.027175535,-0.07410569,-0.043048326,0.06659081,-0.106681,-0.04683504,-0.10189168,-0.1321913,0.06351796,0.039979793,-0.023738347,0.09836686,0.04282777,0.10016725,-0.04904966,0.21972093,0.070219755,-0.0039625955,0.0072531374,0.046710894,0.0092283655,-0.023865096,0.038093403,-0.100490496,0.06710726,-0.030948961,-0.087175354,0.007399333,-0.0041804058,-0.07330957,0.014786632,0.011633905,-0.10730786,-0.02013042,-0.072741054,0.032645833,0.051553875,-0.030116271,-0.10776414,0.12215668,0.0035566636,0.098450094,-0.15498406,-0.02616321,0.03294218,0.011748847,-0.07415208,-0.011618089,0.044023965,0.04254973,0.02925757,0.009633195,-0.07473309,-0.07162174,0.013915982,0.034604218,0.10649024,0.08750999,-0.037205733,0.03004455,0.07055529,-0.0106768,0.100624785,-0.01782507,0.0820575,0.025169883,0.06801844,0.0047629173,-0.12026075,0.1357365,-0.031246787,0.08342415,-0.04555818,-0.053610552,0.0593219,-0.08461214,-0.06018714,0.0036644577,-0.010524809,-0.018370923,0.025117371,-0.057491392,-0.014959291,0.025964364,0.018416427,-0.07344044,-0.12031142,0.037431918,0.092295974,0.06883225,0.07351313,-0.002709553,-0.01029494,-0.054763235,-0.091570795,0.043491542,0.04385805,-0.087607324,-0.10008353,-0.022367733,0.06549939,-0.029679652,0.04535386,0.00407728,-0.10807061,-0.014819452,-0.06813815,0.035956822,-0.036842003,-0.048486114,-0.028306836,0.08851169,-0.0637284,0.086399734,0.042349245,-0.05287557,-0.018227946,-0.058438286,-0.0074111302,-0.033625063,0.048735984,-0.010401311,-0.049893882,0.007822459,-0.009237783,-0.006370507,-0.06717229,-0.009278801,-0.03209044,0.019291848,0.022668157,0.017079096,-0.01792648,-0.057249833,-0.016847195,-0.10297457,-0.0615833,0.072712354,-0.04480577,-0.087057024,-0.0068462784,0.035924222,0.19010472,0.039111353,-0.02383076,0.025447052,0.047616802,0.015374039,-0.024518814,-0.0055763805,0.053219046,-0.10565146,0.11351023,-0.19665451,-0.09234156,0.04511314,0.058684137,0.037015446,0.12464771,-0.026691403,0.12420424,0.10074803,-0.024985809,-0.1432163,0.16614299,0.05658031,-0.03563986,0.08088616,0.013317721,0.0219949,0.055612024,-0.11035598,-0.026524935,0.0049691964,0.028915467,0.05698092,0.051133115,-0.00047935493,-0.053873584,-0.06098424,0.09488373,0.032416143,-0.16388644,-0.10206857,-0.027879693,-0.18707204,-0.05990886,-0.023867497,0.05939269,0.048015468,-0.07531037,-0.044347923,-0.019572077,0.063150495,-0.0026177256,-0.008204981,0.026510863,-0.052288663,0.019236306,-0.0040506464,0.058616232,-0.009511492,0.01058844,-0.023488019,-0.03705305,-0.13187139,0.020715155,-0.09078591,0.07732034,0.08237245,-0.041222718,-0.017648483,0.054726016,0.02510699,0.0670211,0.01849751,0.0053642266,0.07540993,-0.048145905,0.018181726,-0.08708663,-0.06531594,-0.034294706,thinwoman5.jpg
1,0.010691039,-0.07312203,-0.09914015,-0.02828584,-0.068113565,-0.013708034,0.11143409,0.06662724,-0.003947622,-0.07247724,-0.022921687,0.06804813,-0.10302355,0.122549824,-0.028889244,0.054779444,-0.025520585,-0.049526524,0.049839325,-0.0135197425,-0.013757171,-0.0053775446,-0.12559804,0.033434127,-0.048541006,0.0067170397,0.012032693,-0.06307668,-0.07457718,-0.040716134,-0.07977887,0.0073950747,-0.046544492,0.005480137,-0.10769513,-0.01613152,0.030582398,-0.027423773,0.11926566,0.09608027,-0.06825377,-0.042313613,-0.039954603,0.01022185,-0.13383183,0.03727815,-0.062403496,-0.1268484,-0.013074231,0.18236075,-0.015382948,0.07878811,0.03794893,0.060742114,0.028150713,-0.07402147,-0.0030623947,0.00039324607,0.008541202,-0.0756728,0.109812185,0.0161794,0.122775234,0.02802323,0.045262713,0.011664433,-0.11255933,-0.03539065,-0.023216132,-0.046964135,-0.042513847,-0.033700757,-0.012794824,0.14086126,0.0035255046,0.0366577,-0.039206356,-0.044217166,0.05308539,-0.015761783,0.17257862,-0.06480548,-0.059850715,0.021947129,-0.13362134,-0.09935564,0.042958975,0.07959468,0.0016867401,0.02863485,-0.015180799,-0.06607916,0.07420382,0.049692832,-0.013943989,-0.029193338,0.1709058,-0.044736452,-0.003101152,0.019145,-0.03510135,0.0020099864,0.0010860824,-0.0016560825,0.0671448,-0.06589256,-0.03369493,-0.005154804,0.005942246,0.042798307,-0.037808113,0.0053709056,-0.022999281,0.018194128,0.1364736,-0.13020928,0.06267747,-0.06797298,0.023434635,0.04401775,-0.043273877,-0.0363302,0.026679346,0.03294238,-0.08929794,0.008796795,0.011974471,0.043400206,0.016914364,0.082900025,-0.05936225,-0.017832106,0.057050336,-0.05077731,-0.033906028,0.076802306,-0.08878059,-0.060124915,-0.09527009,-0.027116168,0.02478364,0.042913157,-0.059392624,0.027661376,0.08267854,-0.042461712,-0.0027256133,0.04255189,-0.051379688,-0.047338266,-0.10172223,0.009141587,0.05205524,-0.020861752,-0.03684445,-0.082583904,0.029716438,-0.012932649,0.034423046,-0.094731,-0.059301496,0.07341262,-0.12910506,-0.0066334265,0.0066524427,-0.06310337,0.044670034,0.0065463223,-0.06001976,0.06337464,-0.007735275,-0.0010937407,0.01845995,0.030347196,0.047995158,0.09475915,0.021087293,0.085897096,-0.01385943,-0.03156515,0.0098451385,-0.045461275,0.069179334,-0.017009389,0.032061283,0.124729276,0.024821775,0.049074132,-0.053089473,0.052459445,0.024274273,0.0029313117,0.035989553,-0.013332931,-0.07636854,-0.040480252,0.07864028,0.11481321,-0.0071144267,-0.029999867,0.052049354,-0.0031626623,0.04130487,-0.081885345,0.032137968,0.029668752,0.007752517,-0.03451962,0.016133288,-0.03147507,-0.0479542,-0.08071669,-0.043962035,-0.030818475,-0.052791636,-0.012902058,0.033008546,0.028906073,-0.0023620732,-0.14040636,-0.051187765,0.013541899,0.07134169,-0.11400843,0.11022807,0.01935621,0.05829634,-0.026067384,-0.043246645,-0.025788398,-0.085078835,0.010364767,-0.033279773,0.010327821,0.060967952,-0.08122886,-0.014143786,0.04131649,0.047821257,0.046066448,-0.09245423,0.21305408,0.06421766,0.14054866,-0.090518594,0.06747619,-0.0212289,0.09471801,0.045504954,0.040360503,-0.035408296,0.01788304,0.042470578,0.037748873,-0.013985996,-0.0142567735,-0.025463535,-0.08494622,-0.020658357,-0.028978076,-0.0726179,-0.080897175,0.014227413,-0.023084767,0.069135465,-0.07030555,0.09114532,-0.0553544,-0.08374098,0.10983371,0.04049561,0.07810751,0.011525948,0.0048337583,-0.08544685,0.005550578,0.037361342,0.059174776,0.023618525,-0.074704014,-0.098492965,0.057776056,0.038935956,0.0030761675,0.06129164,0.011335261,0.17585205,0.046679523,0.0484,0.037059624,0.023298973,0.041214205,-0.034517847,-0.07716605,0.021865524,0.06697913,-0.07343141,0.054674238,-0.09822526,-0.01396263,-0.076437905,0.076659575,0.06390314,-0.04186436,0.08838174,-0.0069450373,0.08305332,0.059118416,0.0073970277,-0.066346616,-0.029871698,0.0062865876,0.0683475,-0.11795604,0.09690893,-0.0034195492,-0.093814544,-0.037903488,0.013967855,-0.033860568,-0.14924026,-0.056393154,-0.10099552,-0.042833626,-0.026809396,0.07672469,0.07313761,0.017706824,-0.058225773,-0.0010356386,-0.03460057,0.05477908,-0.117224276,0.00036512074,-0.22507018,0.0948964,0.017062882,0.05989576,0.049077258,-0.11126385,0.011744147,-0.008599688,0.0008686285,-0.04139989,0.08376615,0.21182877,-0.06773814,-0.06806168,-0.011206215,0.016469253,-0.00085954956,0.07829243,-0.03668303,-0.05255832,0.027466588,0.07514151,-0.0055017634,0.027695728,-0.119067974,-0.080191694,-0.06733329,-0.059877593,-0.016551677,0.00827361,0.0068338066,-0.10078354,0.116159916,0.058965556,-0.027093817,-0.023465184,-0.1497766,-0.11517482,-0.022899672,-0.00997438,0.029583959,-0.0045886873,0.0018307142,0.04278006,-0.011062819,-0.033584084,0.07105693,0.07155871,-0.051691767,0.07504752,0.053936705,-0.01763157,0.06891663,0.04909555,0.03504441,0.025097411,-0.0054199826,0.20537363,0.026127778,-0.031223163,0.038990445,0.086173125,-0.024487348,0.06203294,-0.18896449,0.04689916,0.036926266,-0.1792426,0.028135803,0.0521788,0.0046153744,-0.081597894,0.068273686,-0.14347021,0.0061004288,0.018006703,0.075756855,-0.024582323,-0.035099052,0.109971,-0.010484558,-0.03249045,0.026022013,-0.027455155,0.08213902,0.054738503,-0.10087166,0.09706074,-0.0074795946,-0.07753986,0.016067663,0.092372,-0.08613567,0.15311782,0.010048862,-0.013179353,-0.047325548,0.02888837,0.045037128,-0.03203419,-0.10473437,0.066685036,-0.06686091,0.043504197,-0.028111424,0.05568419,0.047397446,0.0010358917,-0.07193027,-0.053868752,-0.015873322,-0.030187296,-0.0592875,-0.07933447,0.034235734,0.066303395,-0.053170502,-0.0011370076,-0.012293897,-0.048138693,0.0036479163,0.050383482,-0.01642874,0.00983541,-0.030037642,0.0064709913,-0.04553662,0.12367057,-0.080623694,0.0055821068,-0.0109486645,0.05383243,0.06432675,0.073017076,0.0821305,-0.009576897,-0.061777983,-0.045723144,-0.0054073934,-0.035432596,-0.0011268217,-0.0042612744,-0.008152722,-0.013273474,-0.05337799,-0.03691741,-0.053247914,0.005508652,0.06621562,-0.047839113,-0.058222927,0.08487565,-0.015553048,-0.032590244,0.12794474,0.033768117,-0.0977344,0.020895677,-0.023395212,0.086948335,0.058514025,-0.06127977,0.025486497,0.020682827,0.013120137,-0.0044143163,-0.04124445,0.01151874,0.015298138,0.2586612,0.06723198,0.009525038,0.11989252,-0.06814838,0.114135444,-0.0006497774,-0.070079595,0.051666483,0.022969518,-0.07784699,-0.10513533,-0.06544143,-0.0056237113,-0.038674038,0.03031983,0.061090447,0.112764336,-0.011579388,-0.00048232276,0.052204996,0.0644632,-0.10462804,-0.03125578,0.073742375,0.0037999165,-0.06586883,0.08004524,-0.12080762,0.045507878,-0.02704225,0.03283871,0.081758104,0.014703502,-0.10126884,-0.0020763106,-0.12284202,0.06535166,-0.03445486,0.057432864,0.022963636,0.04609902,-0.04391652,0.03988528,-0.04824251,0.022231791,0.0043058433,-0.0019704776,-0.039869837,-0.017946146,-0.075748265,0.037005596,-0.11001757,-0.04676386,-0.0071448926,0.08070901,-0.016991545,0.020932956,-0.062732935,-0.09733926,0.034320243,0.08751406,-0.03021431,0.01369023,0.19032997,0.04064637,-0.14283635,0.0106213605,-0.05519392,0.023044033,-0.0060305498,0.022368465,0.017481443,0.004319628,-0.04140496,-0.03792918,-0.036329534,0.07947772,-0.13220826,0.101777166,0.023172047,0.07718681,0.023399172,0.020215865,-0.021172032,0.043138035,0.055663437,-0.17146704,0.05381394,0.010675407,0.0006952204,-0.08273329,-0.116694205,-0.03011164,-0.040469233,0.09418568,-0.02654578,0.019006748,0.027436897,0.09427571,0.054312464,0.03230238,0.042537052,-0.0263175,-0.049022585,0.016947163,-0.040263776,0.03848851,-0.09913088,0.029250469,-0.05187552,0.024130385,0.12452473,-0.07606076,0.078419246,-0.00022079692,-0.009306885,-0.05904779,0.00955533,0.12599777,-0.24991749,0.04077751,-0.045537088,0.08703611,-0.06386907,-0.065221526,0.009024123,-0.029133186,-0.0013059881,0.055324797,0.04880226,0.065730676,-0.08065727,-0.021501478,-0.048529934,0.005929859,0.11047511,0.020349372,-0.005065112,0.013604768,-0.034457587,0.01868745,0.049934257,0.1531226,0.008156898,-0.106476784,-0.0017937624,-0.047521677,0.046002828,-0.029986314,0.056529276,-0.12881742,-0.058462843,0.032884955,0.07187865,0.022168856,-0.046734992,-0.14011647,0.005032253,-0.047007386,0.017110243,-0.053118728,0.043853372,-0.034248717,0.054937873,0.01978679,-0.057674482,-0.035180278,0.008580264,0.0046255505,-0.040782172,0.004981836,-0.07080349,-0.0269519,0.010960404,0.007133093,0.04698652,0.033529893,-0.00014503335,-0.09099381,0.053726092,0.049320206,-0.07598957,0.08290575,-0.10019184,0.030503685,-0.09488705,-0.023450404,0.15671873,0.079509884,0.11351263,0.013842755,-0.0069491817,-0.039824467,0.054086503,0.11296945,-0.17808872,-0.030716313,-0.0010364676,0.11503283,-0.012246955,0.04339976,0.1151915,-0.030321894,0.07898729,0.060818475,0.014291037,-0.04434924,-0.042307205,0.0019095306,-0.036793485,-0.06976592,0.06930613,-0.1886651,-0.09885147,-0.01484273,0.08296263,0.021311386,-0.043114413,0.104666784,-0.03835301,0.041304205,-0.048034605,-0.04278207,-0.000364323,-0.1234573,0.029600123,-0.15791829,-0.011796738,-0.075097516,-0.10112771,-0.015047488,0.03259695,0.0006399095,-0.007602821,0.09314456,-0.04106774,-0.002976448,0.13036644,0.04498289,-0.008984527,0.19357419,0.10803536,0.059842046,0.013459337,0.02821688,0.035825804,-0.08117284,0.0015668104,-0.086422265,-0.004575372,0.026492711,-0.071916595,-0.022908708,-0.12901792,0.013468134,0.036046993,0.057171978,0.056562386,-0.12529124,0.009766991,-0.103632204,-0.013608194,-0.041971046,0.026974719,-0.042188935,0.025395606,-0.045255415,0.0060983975,-0.0387093,-0.07147284,0.04877125,-0.1180149,0.091782674,0.015590462,0.027351143,0.03450822,0.0021662668,0.05802594,0.062032573,-0.10938543,0.030137014,0.014420049,0.13642243,0.081557155,0.0137367835,0.058160707,-0.09611759,-0.04099832,-0.08856134,0.034968484,-0.07351465,0.056931313,-0.06740739,0.07505768,-0.017856758,0.00977383,-0.035270244,0.115387715,0.119971894,0.13172346,-0.068879284,-0.01541195,0.06417597,-0.043428514,-0.03274592,-0.100282714,0.006515063,0.033630017,-0.056897067,0.003203103,-0.017545575,-0.044829134,0.0007217273,-0.029009938,0.07550846,-0.061385732,-0.04431837,-0.057318654,-0.010456835,-0.011862881,-0.055467412,-0.061353836,0.009856021,-0.034210462,-0.04108417,-0.005202647,0.14064732,-0.06793391,0.08351216,-0.054877833,0.0038341961,0.11397463,-0.018684048,-0.0225206,0.01802756,0.11203362,-0.0848942,0.0573583,0.022668531,0.021886097,0.059343956,-0.026577046,0.11329302,0.07426549,0.049383923,0.0021391078,0.14210749,-0.004652888,0.0039413157,0.100373246,0.023392651,-0.050536327,-0.03063282,0.034951244,0.62007684,-0.025824377,0.07162738,0.020017136,-0.08858798,-0.18082793,-0.04965407,0.04885233,0.05730478,-0.06338028,0.04463577,-0.045522626,-0.020496862,-0.1110609,0.00078122143,0.02675583,-0.03600567,0.022715965,0.10479012,-0.09906431,0.0463425,0.06266672,0.15048823,-0.022005657,0.012750975,-0.014080898,0.055627365,0.068061374,-0.005657624,-0.07362178,-0.10300788,0.096325144,0.022442397,-0.015119968,-0.029654816,-0.063870095,0.036412366,-0.013228726,0.10656281,0.023481108,0.05518629,0.08523323,0.015939325,-0.120332286,0.048804987,-0.072232716,0.016049387,-0.06806006,-0.0831621,0.14242923,0.048508443,-0.011575806,-0.094752245,-0.0011816168,0.042937897,0.019177765,0.0068314867,-0.056094926,0.09483929,0.02140733,-0.036934774,-0.04765123,-0.030080581,0.2152457,0.009001209,0.001799805,-0.11262842,-0.095603086,-0.019669358,0.014820532,-0.037153408,0.049399644,-0.038698066,0.062845506,-0.1010374,-0.04097415,0.043537125,0.029094918,-0.10327542,-0.19955702,-0.00456522,-0.1303581,-0.0015274347,-0.08104315,-0.07574946,0.03936208,0.0023210775,-0.027553763,0.07287494,-0.15807317,0.049577635,0.029551832,-0.02773038,-0.19396695,-0.11944789,0.041843083,0.031200213,0.071811095,0.0856948,0.12743145,0.0026600803,0.016742373,-0.10748694,0.06871564,-0.03136696,-0.034193717,0.018295703,0.05879226,0.04350949,-0.025157368,-0.03139515,-0.0028088384,-0.06280275,0.10790036,-0.12720443,-0.022033364,0.050868202,0.017086346,-0.045372985,-0.16688651,-0.030982438,-0.096122265,-0.046347294,0.07918111,-0.0849659,-0.056376327,-0.04528192,-0.077388674,-0.072037734,-0.02531805,0.026500668,0.037837785,-0.1496218,-0.0038031626,-0.016885096,-0.22223172,-0.06718562,-0.06629331,-0.052209076,0.062453464,-0.035607535,-0.059964225,-0.0018586144,0.0016839807,0.030895408,-0.011867461,-0.039786745,0.05411253,0.119010255,-0.09141172,0.094946645,0.15386917,-0.005158757,-0.020390427,0.095179185,0.082501516,-0.0058522807,0.03430173,-0.05202504,0.14221251,0.01658282,-0.06401723,-0.01833679,0.15613501,-0.019892644,-0.10352222,-0.049901735,0.042641785,0.01581075,0.00046232095,-0.06314913,0.07525018,-0.07113062,0.07625482,0.08982268,0.105205655,-0.020029884,0.051455252,0.06341308,-0.065175876,0.010299394,0.07483768,-0.012432533,-0.040756863,0.09067338,-0.042415112,-0.01242854,0.019404486,0.019767102,-0.039531663,-0.12401683,0.03740062,-0.07797987,0.014781391,0.10639889,-0.024444234,0.003533883,0.032041498,0.0104781855,0.040509526,-0.04958269,0.09264602,0.019177996,0.031496946,0.037808053,-0.07890344,-0.053828184,0.26677766,0.080290265,0.09053686,0.05015311,-0.008248993,0.076209046,-0.041061427,-0.07294888,-0.066605546,0.007774698,0.13320997,0.06703538,-0.027681375,0.013346922,0.10903017,0.09546933,0.09012751,0.003667794,0.021833686,-0.089600794,-0.01819915,0.015906332,0.09233161,0.028717991,0.003364994,0.09279484,-0.1049804,0.043817367,0.011843516,-0.05501327,0.031471834,0.0077303625,0.08701584,-0.044047743,-0.10611665,0.05244975,0.08660522,-0.052917402,-0.019282084,0.03558961,0.021994717,-0.028051237,0.08544839,0.0218508,0.023341142,-0.022272684,0.01936271,0.025581459,0.009774201,4.9515158e-05,-0.028930815,0.042164195,0.041548617,0.0044616433,-0.013742826,0.051076505,-0.09796382,0.020466717,-0.035990555,-0.0689792,-0.1040747,-0.030368542,0.009541341,-0.0021150904,0.063981436,0.008129117,0.048181005,0.00861379,0.059680674,-0.062482227,0.04455411,0.025128849,-0.042099684,0.047881808,0.05670942,-0.0346413,-0.024241738,0.078942195,0.035239868,0.0059236283,-0.027573725,0.010533002,0.012709203,0.010362232,0.005726927,-0.029537855,-0.1695755,0.06795754,-0.05970302,0.07397051,0.10071793,-0.050747927,-0.004225557,0.053348534,-0.032734767,0.0082492605,0.081260644,0.030878633,-0.0012220911,0.106871806,-0.097493224,0.04321036,-0.017201606,0.016245475,0.05404739,0.007729477,0.13092943,0.11713473,0.045257058,0.034079403,-0.061904527,-0.0070507783,0.02742991,-0.10183075,-0.05169524,-0.010270585,-0.14867555,0.01872065,-0.035083096,0.1014177,-0.013125609,-0.014845101,-0.06605306,0.03287656,-0.043460317,0.05941509,0.042033423,-0.026666624,-0.0060647847,-0.04539189,0.047953624,-0.13493434,0.018489975,0.06212447,0.017750736,0.090930566,-0.088233195,-0.110696994,0.12922032,-0.00013524404,-0.04564639,0.058105696,0.008627459,-0.017028201,-0.022002961,-0.070985086,0.13864571,-0.12415194,-0.057111416,0.08511012,-0.039729647,-0.0020381962,-0.057106864,-0.05595947,-0.110172644,-0.017892849,-0.008978868,-0.04971148,0.024980169,0.05119404,-0.05779086,-0.01791548,0.07244213,-0.108704425,-0.03571875,0.036394246,-0.088195406,-0.040478826,0.043644246,-0.12358243,0.076252624,-0.0069813184,0.16769198,-0.061961208,0.008123749,0.00463089,-0.028455907,0.02290488,0.121652514,-0.038899682,-0.038123205,0.03596947,0.051320616,-0.063641876,0.03374185,0.008849993,0.07955246,0.052255373,0.077495284,-0.06027184,-0.005808569,-0.039856933,-0.092148654,0.07117364,-0.098876506,-0.040233266,0.036476616,-0.034918707,0.5365938,-0.041924506,-0.011226587,0.08001929,-0.096843064,-0.08198022,0.008012942,-0.086389706,0.037877597,0.04352519,-0.1258595,-0.019747885,0.041589,0.13059431,0.1407686,-0.0058618467,0.0068973457,-0.037738793,0.08654029,-0.04055904,0.04424151,-0.10098679,0.02070754,0.16448303,0.025947405,0.0057516024,0.21138926,-0.04501352,-0.16300398,-0.030155746,-0.036920305,-0.014571016,0.043537345,0.014161935,0.030553617,-0.014555016,-0.045248114,-0.10107297,5.8278965e-07,0.009392633,0.024526449,0.11065131,0.026013413,0.0040653907,0.03912556,0.010882487,-0.05760686,0.024157973,-0.014692539,-0.009355075,-0.006897682,-0.08567087,-0.04994114,0.05210345,-0.12082775,-0.050961494,-0.101507396,-0.12626173,0.09216881,0.02187667,-0.0063186474,0.09532602,0.039752956,0.082803495,-0.036267683,0.19944277,0.067084104,-0.016868398,-0.0044250134,0.06117988,0.034393057,-0.055064287,0.04010076,-0.07862702,0.058581453,-0.020778446,-0.09128473,0.03367279,0.03375096,-0.04879148,0.033692166,0.025590295,-0.08494893,-0.025218159,-0.06378499,0.022010822,0.044513565,-0.0312391,-0.08369503,0.086988084,0.0014760909,0.10503955,-0.16200279,-0.038597226,0.034390494,0.007755611,-0.07641557,-0.01457051,0.06784537,0.05169069,0.013512939,-0.026656179,-0.07434598,-0.08479973,0.00959839,0.033842888,0.10837166,0.076881,-0.04642994,0.03768706,0.071473405,-0.010568221,0.09727905,-0.0025017064,0.06728951,0.02551719,0.08000949,-0.015382234,-0.11273051,0.14887358,-0.024011815,0.09361864,-0.03826712,-0.066734254,0.07833591,-0.048447605,-0.042795137,-0.0034817164,-0.010917429,-0.028148454,0.010587614,-0.06014059,-0.012428215,0.02106138,0.024847688,-0.061772145,-0.10504651,0.046139855,0.11321547,0.07488416,0.063683495,0.010252036,0.022849273,-0.04449398,-0.06752535,0.023089906,0.05914657,-0.07429451,-0.0925177,-0.022680406,0.088522844,-0.0057483786,0.025520084,0.029055662,-0.122774236,-0.044814873,-0.05199934,0.035823986,-0.030291703,-0.08080391,-0.026073894,0.08168474,-0.069913186,0.054739904,0.038957443,-0.0340002,-0.025669307,-0.040646147,-0.004470733,-0.06711807,0.021244159,-0.026134107,-0.051278856,0.0068540857,-0.008181502,-0.006114412,-0.043665975,0.013475125,-0.011644475,0.009763708,0.01813264,0.03550845,-0.025736956,-0.063333765,-0.027985632,-0.102945946,-0.08126321,0.049477648,-0.030856648,-0.11029593,-0.0020235453,0.030222248,0.18002969,0.04782402,-0.042582046,0.0358939,0.051381566,0.004799495,0.0009826381,-0.010863847,0.05822061,-0.079586014,0.10404564,-0.1756819,-0.09808094,0.033910323,0.060094837,0.013466397,0.12636709,-0.029968426,0.16032462,0.099869035,0.014521882,-0.12509865,0.17328607,0.08286916,-0.06825258,0.059607845,0.0057025305,0.0249435,0.04551437,-0.096311614,-0.056856863,0.017381502,0.020674236,0.0726283,0.040415797,0.012587666,-0.03691005,-0.083501205,0.09914658,0.04906336,-0.15300237,-0.10761206,-0.023116963,-0.19618796,-0.084585406,-0.033282198,0.053048354,0.007326954,-0.04730066,-0.019703008,-0.016419897,0.066337086,-0.004766896,-0.019182889,0.0075835697,-0.060456485,0.012576733,-0.008745577,0.04029569,-0.025440218,0.011892602,-0.050460976,-0.05309084,-0.10326022,0.05178133,-0.08967077,0.07018914,0.12200401,-0.007782674,-0.014129253,0.06935255,0.012082589,0.07996894,0.029038297,-0.0063605155,0.05036248,-0.023805542,0.042305302,-0.059225608,-0.07869229,-0.022301303,thinwoman6.jpg
2,0.004266601,-0.04877246,-0.07251073,-0.053757004,-0.057576668,-0.029461926,0.111085154,0.04241695,0.016771803,-0.09260751,-0.014415979,0.08353364,-0.07000804,0.12830819,-0.025325935,0.048206873,-0.013737123,-0.066501126,0.0804984,-0.048831027,0.00071298605,-0.03657564,-0.13302727,0.023808196,-0.077796325,0.023511454,0.01642519,-0.06783898,-0.08909543,-0.027459638,-0.0805352,0.013333523,-0.02817099,0.008297557,-0.0947555,-0.029700728,0.0522589,-0.028657587,0.11233445,0.0937597,-0.05783412,-0.03317776,-0.053279527,0.020252598,-0.10203091,0.07727687,-0.06820781,-0.12114613,0.0017073693,0.13974611,-0.012260515,0.05843539,0.029446231,0.041661523,0.0183617,-0.098810636,-0.008735234,-0.029053831,0.008127539,-0.07661155,0.10678007,0.01042644,0.12112328,-0.014171389,0.08048271,-0.012987743,-0.08353419,-0.032902617,-0.011889159,-0.048649255,-0.030617869,-0.021751076,-0.021610249,0.14672473,-0.032453343,0.051703483,-0.020971518,-0.032486588,0.06806967,-0.013935904,0.15647556,-0.059855707,-0.041526087,0.015154789,-0.14763384,-0.11392521,0.040965937,0.092044115,0.009129773,0.04141093,-0.024044376,-0.041751403,0.058008187,0.04605845,-0.03433207,-0.020951485,0.13732547,-0.048189793,-0.0043758843,0.012359996,-0.03444284,0.014783957,0.017365964,-0.015246966,0.02820046,-0.07003361,-0.037472606,0.017300216,0.00882217,0.024122115,-0.03772434,0.025824543,-0.0027645952,0.029838955,0.14349349,-0.14276727,0.041612923,-0.07131737,0.013828177,0.03612445,-0.033879332,-0.019755954,0.0074686506,0.04677046,-0.09385195,-0.0015815613,0.035591695,0.041526265,0.005380253,0.08349444,-0.076444395,-0.019654898,0.017504372,-0.0429009,-0.024305277,0.091695644,-0.088944554,-0.08440323,-0.115856655,-0.006135413,0.01650708,0.033254806,-0.03977508,0.023550354,0.072239764,-0.021769056,-0.0027310883,0.024597539,-0.055344146,-0.068174526,-0.105608515,0.007923244,0.0402876,-0.039381612,-0.01822082,-0.07155302,0.011932355,-0.020514976,0.03799315,-0.0969174,-0.04347633,0.07289256,-0.1371121,-7.3030906e-06,0.0009994641,-0.080379024,0.061808284,0.036947615,-0.064139135,0.06092024,0.040101167,-0.008703917,0.002367037,0.0091677755,0.030078795,0.07830051,0.030809188,0.08741917,0.0029777493,-0.01188246,0.007930817,-0.06543069,0.0492182,-0.014999626,0.0063040927,0.10466033,0.035054307,0.05046676,-0.06570087,0.032504134,0.0336107,0.0051278877,0.008596698,-0.028609611,-0.07773926,-0.046987023,0.10279854,0.11605451,0.036527883,-0.030480871,0.068153664,-0.016557975,0.0037414825,-0.10094221,0.019238323,0.020905815,-0.0050448286,-0.043634694,0.041714113,-0.0014297027,-0.08583095,-0.0919233,-0.036012307,-0.038996093,-0.07285185,-0.0009518455,0.024930516,-0.014475156,0.008466667,-0.14597301,-0.04769985,0.0015799063,0.082150705,-0.15038173,0.09903641,0.030563274,0.06956935,-0.020309554,-0.071985945,-0.00044348268,-0.07302996,0.018838592,-0.039524212,0.018639168,0.026149275,-0.080020756,-0.0035726211,0.030537535,0.043309227,0.013066385,-0.0943882,0.2008815,0.08726092,0.15343793,-0.06684157,0.074778914,-0.014976959,0.106508136,0.07269305,0.03808437,-0.05173633,0.024780788,0.0587899,0.040701494,-0.01932634,0.015211884,-0.03834173,-0.0713468,0.028851688,-0.032464,-0.08135315,-0.09579089,-0.0025640428,-0.024267469,0.07457593,-0.068428345,0.061841298,-0.040634982,-0.08184459,0.13035284,0.031098632,0.0720044,0.021275962,0.015651867,-0.071247615,0.011258596,0.032903895,0.04566329,0.020619364,-0.06878066,-0.110610776,0.074528255,0.0729412,-0.045040276,0.055649493,0.00027200743,0.16689338,0.038020443,0.044629823,0.055617917,0.0027276578,0.059728976,-0.02609433,-0.09735088,0.036007,0.038836475,-0.056143776,0.048179276,-0.11270108,0.013825958,-0.088870734,0.10350346,0.05114152,-0.032720808,0.09712661,-0.022949897,0.08781202,0.07895317,0.045741335,-0.050121605,-0.039031595,0.010420617,0.034202587,-0.13011017,0.060562722,-0.0013444528,-0.10735207,-0.044435997,0.005092391,-0.050036654,-0.11069081,-0.047520608,-0.06553045,-0.06898398,0.0017944161,0.074180864,0.07531073,0.0070678424,-0.04143652,-0.023990367,-0.03380589,0.032306436,-0.11340899,0.04072097,-0.22653157,0.09370473,0.008893979,0.0692225,0.039192386,-0.12885542,0.009440564,-0.0041223303,0.019551907,-0.009812862,0.08379259,0.19074059,-0.04732964,-0.046442088,-0.024706665,-0.0021472261,-0.010284981,0.08352051,-0.041075207,-0.045132753,0.02972041,0.08381605,-0.006223572,0.04782016,-0.097504266,-0.11273409,-0.07629832,-0.067461,-0.043289006,0.0023394243,-0.0012373286,-0.11061369,0.08611607,0.070239104,-0.0138722295,-0.0026496195,-0.11113347,-0.09795045,-0.04138106,0.022886554,0.0065152575,0.01370404,0.006259869,0.03056129,-0.03524941,0.006443703,0.053382117,0.090994604,-0.036811143,0.095079705,0.04819449,-0.016383052,0.075454846,0.03929994,0.015212767,0.0009165352,-0.0026450076,0.21914071,-0.025055671,-0.042309582,0.017647574,0.10573666,-0.013128746,0.06033985,-0.21317227,0.051236846,0.0438826,-0.17154796,0.007780527,0.06125291,0.023265477,-0.05907332,0.07208952,-0.11017742,-0.010067373,-0.0032050957,0.08224805,-0.024545314,-0.022619955,0.10449476,-0.014262396,-0.0089098355,0.0060579325,-0.047410693,0.065605514,0.041261725,-0.11289304,0.07018847,-0.016024534,-0.068451256,-0.01920726,0.08277057,-0.10554629,0.15346417,0.0019005212,-0.005093761,-0.05590005,0.035200365,0.027886892,-0.010073531,-0.07630591,0.04435506,-0.045160983,0.0152176,-0.055267572,0.06043489,0.043416772,-0.005506395,-0.075977676,-0.073162735,0.0062843035,-0.006495878,-0.032867532,-0.08696964,0.0091132205,0.0696625,-0.05095982,-0.013241345,-0.063783534,-0.07150396,0.013236704,0.056527607,-0.011115199,-0.0072751273,-0.043317974,-0.0010601983,-0.035302524,0.12090511,-0.06258802,-0.006010614,-0.022906432,0.015137848,0.051359925,0.044057526,0.084881134,-0.005851453,-0.1141711,-0.04981833,0.00074300886,-0.053275373,-0.0046185213,-0.010648209,-0.025588902,-0.01071549,-0.044533234,-0.037138876,-0.042091586,0.01494211,0.07700264,-0.017896079,-0.069249794,0.06905472,-0.048334096,-0.04116823,0.09136373,0.024852647,-0.06973062,0.025887888,0.012210792,0.08926686,0.04202574,-0.04804864,-0.005696425,0.019591395,0.024074532,-0.00021759418,-0.06452147,0.013727975,-0.013622649,0.26112533,0.07395126,-0.0059945,0.13410424,-0.04596158,0.090777814,0.024094142,-0.06379044,0.09461164,0.018836554,-0.070943385,-0.08656568,-0.063359044,-0.02522407,-0.059256367,0.043989237,0.045751166,0.10661333,-0.017989075,0.012280912,0.049154196,0.042250074,-0.06755262,-0.049730923,0.08182624,-0.013671886,-0.057168197,0.06959434,-0.10750767,0.055303067,-0.035677806,0.058460668,0.060713954,0.010136315,-0.078816675,0.003343592,-0.12282282,0.056640267,-0.01962495,0.026998857,-0.006262263,0.04927105,-0.046635985,0.04304856,-0.04252966,0.010180451,0.024837637,0.0068404665,-0.037254788,0.009828514,-0.06394765,0.035735175,-0.11408855,-0.047531694,-0.027908588,0.083647445,-0.01703143,0.048922576,-0.06694939,-0.09022535,0.04206002,0.047883052,-0.038184613,0.0076081837,0.18419085,0.020741623,-0.1547505,0.016782045,-0.036992744,0.022638597,0.006676713,-0.027515503,0.008246797,0.025806844,-0.043411557,-0.076293685,-0.022627959,0.0464247,-0.11176576,0.10577645,0.050151337,0.07279533,0.014259948,0.01849858,0.005518272,0.031282354,0.021479217,-0.1700465,0.055618394,0.019893473,0.018931288,-0.04612685,-0.104587965,-0.028265722,-0.03614049,0.08740507,-0.009077992,0.018992612,0.018360542,0.07444169,0.01334884,0.03719402,0.06950474,-0.023608038,-0.044026457,0.02635522,-0.039491974,0.05466055,-0.071682535,0.033060946,-0.059113756,0.0018806958,0.10523642,-0.10672385,0.089460775,-0.0074704085,-0.016039971,-0.08464168,0.0022300256,0.13156359,-0.25469604,0.022261627,-0.058146827,0.08831513,-0.0612847,-0.059134774,0.020338848,-0.026010443,0.021113388,0.058961235,0.06305761,0.09715556,-0.08063464,-0.014594158,-0.06286729,0.0059060697,0.12206236,0.009262511,0.031643078,0.016555361,-0.020617088,-0.01933769,0.071684055,0.15994382,-0.0067227124,-0.09770372,-0.026024742,-0.058756962,0.043859802,-0.020309398,0.0443776,-0.14196905,-0.036986127,0.014581991,0.050766986,0.01683702,-0.060197737,-0.16953762,-0.0056818477,-0.027683657,0.025812406,-0.043954946,0.069323905,-0.030930387,0.057266846,0.023302974,-0.053184357,-0.046215978,0.010889152,0.037995126,-0.045062914,-0.0015980916,-0.0678286,-0.011848639,0.029259864,0.028596606,0.02528304,0.039828803,0.035963986,-0.060432326,0.0328838,0.04890415,-0.06425868,0.08304101,-0.09389677,0.042223815,-0.08935705,-0.019006949,0.14318061,0.06635504,0.10733795,0.038149513,-0.03600845,-0.015807489,0.029436342,0.11212861,-0.15297812,-0.043253757,0.00043997,0.06345494,-0.0027292098,0.058516707,0.08166481,-0.019359458,0.08338092,0.055552147,-0.0009802212,-0.046113685,-0.03092174,0.024021626,-0.04030972,-0.061264195,0.08095439,-0.20092563,-0.07460232,-0.044717744,0.06496833,0.0096819475,-0.03382084,0.11620408,-0.055412028,0.018156825,-0.07562535,-0.033558723,-0.011537409,-0.14171664,0.008642317,-0.15578507,-0.01236629,-0.06293016,-0.10809936,-0.0060063037,0.06340438,0.004664343,0.0014251779,0.07267862,-0.051606257,0.0037972624,0.12055015,0.07047985,-0.0009787736,0.18254156,0.073694825,0.051383484,0.0014275877,0.006378394,0.033486977,-0.069090806,0.020991504,-0.06337044,-0.008774621,0.024500242,-0.053797293,-0.029636357,-0.15082684,0.027240459,0.026875384,0.047415234,0.029002622,-0.09613494,0.04329199,-0.107106134,-0.020725785,-0.03884071,0.037216764,-0.05264409,0.026205603,-0.037306175,-0.0007090795,-0.02849675,-0.06182044,0.040193874,-0.11791016,0.108360425,0.0030515909,0.042513147,0.017477093,-5.0597373e-05,0.0762783,0.047078885,-0.09987699,0.011881766,-0.0028159735,0.110351175,0.054912888,0.016484689,0.06693315,-0.098602645,-0.032662157,-0.08838519,0.03263346,-0.06484071,0.044506684,-0.03355546,0.053716682,0.009086499,0.020005522,-0.025647318,0.13216926,0.11415175,0.13886687,-0.079737656,-0.02169898,0.0922894,-0.063468166,-0.03759481,-0.08520691,0.008697855,0.02274139,-0.063937835,-0.0051539293,0.0045315786,-0.046412613,-0.006884192,-0.014598355,0.10226013,-0.063995875,-0.03254261,-0.0656316,-0.0065661278,-0.0026034915,-0.066665426,-0.03777984,0.030423075,0.007401576,-0.008641346,0.0161189,0.16506022,-0.058270875,0.08462944,-0.06805953,0.009713062,0.07895316,-0.02638447,-0.017975181,0.03553246,0.099950835,-0.097052425,0.038913224,0.036583737,0.031007243,0.049320407,-0.025379274,0.1271729,0.076242834,0.054495107,-0.010639774,0.10148196,-0.010565314,0.027021,0.07588446,0.045758698,-0.016505023,-0.036383595,0.0013674905,0.6153603,0.008839198,0.105773985,-0.005381072,-0.04806968,-0.16054982,-0.07235445,0.026197251,0.028932214,-0.061764445,0.044262294,-0.056362998,0.0030380415,-0.105027005,0.0061045196,0.040832814,-0.031500448,-0.010223478,0.0951205,-0.09871971,0.071857706,0.035268623,0.13493231,-0.0014866138,0.020133208,0.0015671435,0.04787827,0.061908614,0.017612817,-0.07421134,-0.07813534,0.121158645,0.025325878,-0.006236665,-0.0066083106,-0.07049232,0.06273843,-0.041422576,0.10579448,0.015419605,0.033413872,0.071931995,0.010010161,-0.09903488,0.05084838,-0.045043018,0.024124144,-0.04439948,-0.08340833,0.12480385,0.03400609,0.013966345,-0.093727835,-0.040571127,0.0515703,0.04101705,0.01842535,-0.08627746,0.09014305,0.017728055,-0.030931383,-0.039816372,-0.010102685,0.23409986,-0.016333062,-0.010240483,-0.076390356,-0.10665079,-0.0018635053,0.0049073137,-0.033952676,0.04918933,-0.018584229,0.06488857,-0.0878584,-0.044304185,0.054211836,0.04216811,-0.13909635,-0.20058025,0.0073518176,-0.12512754,-0.023968173,-0.057716656,-0.09729758,0.03342329,0.01306852,-0.03266201,0.05923388,-0.15723094,0.04005858,0.033356562,-0.042229377,-0.19583753,-0.10213945,0.010952351,0.023660423,0.038144458,0.109426335,0.16811779,0.01481323,0.008838283,-0.07083636,0.06274466,-0.032834895,-0.027013255,0.032692924,0.053479113,0.02405501,-0.03227191,-0.010074584,0.0029343828,-0.042390108,0.09436407,-0.10526824,-0.03777744,0.038762588,0.009874402,-0.04134848,-0.14984904,-0.019117624,-0.06796899,-0.06834572,0.104657926,-0.092315756,-0.08366081,-0.016142061,-0.073309265,-0.09636848,-0.017501304,0.05450649,0.0488523,-0.16931319,-0.009526781,-0.0043606483,-0.21359983,-0.06597526,-0.056090083,-0.029558582,0.011292992,-0.04740473,-0.03661363,0.0080019375,-0.0034085107,0.026499914,-0.010712754,-0.04051664,0.045022003,0.117780216,-0.059873432,0.10611111,0.14319406,-0.0032512655,-0.0024828115,0.07485915,0.09140664,-0.02944932,0.021405475,-0.06377451,0.10439137,0.031626716,-0.08768635,-0.0049397834,0.15022142,-0.024672624,-0.09797739,-0.062001392,0.035665818,0.052640133,-0.016088499,-0.044504095,0.066618875,-0.061180253,0.09347368,0.10311261,0.071288995,-0.008703335,0.046057418,0.0388981,-0.04160425,-0.014488576,0.074254565,-0.027017033,-0.03810747,0.058117233,-0.036752626,-0.021398826,0.022311078,0.030606212,-0.029132921,-0.10142936,0.03913858,-0.08650045,0.028909383,0.10282435,-0.009583327,-0.00540901,0.026426809,0.039208435,0.033058755,-0.051970046,0.065237686,0.040797293,0.018160414,0.020751292,-0.06584711,-0.051096674,0.2751921,0.06279636,0.08111974,0.05167084,0.013198018,0.07705226,-0.009016674,-0.062373165,-0.07736954,0.024621041,0.1553643,0.086739816,-0.02613342,0.013325125,0.07471731,0.0973798,0.07059976,-0.024215853,0.026943449,-0.06506045,0.006928408,0.008943028,0.094528064,0.02837662,-0.012688435,0.08804013,-0.105306976,0.044776447,0.033192873,-0.055703558,0.04688392,0.030995233,0.07410108,-0.027048472,-0.13594529,0.08353854,0.080071315,-0.05121623,-0.037947487,0.032051243,0.06311412,-0.039054777,0.08526371,0.014337858,0.0014920159,-0.03984467,-0.005429329,0.038725227,0.004304573,0.024438605,-0.020271236,0.042279884,0.04285212,0.021127155,-0.017385326,0.050395217,-0.11715303,0.051587556,-0.043537796,-0.06672144,-0.12118669,-0.01538377,-0.005665989,-0.020524371,0.08683376,0.002015303,0.070910476,-0.0006198968,0.027403066,-0.059992973,0.04060574,0.008276251,-0.06485836,0.03572221,0.04947264,-0.021141134,-0.03609767,0.06710442,0.022648547,0.0024731148,-0.01546871,0.010794883,-0.0034067675,0.022059282,0.0045643593,-0.009590293,-0.17236747,0.028433105,-0.048294064,0.08993774,0.09149129,-0.07246821,-0.017180027,0.06401821,-0.03986038,0.013956552,0.085996,0.03534462,0.006273851,0.084805384,-0.118796445,0.04468242,-0.017924055,0.022453604,0.038328867,0.017572252,0.14027484,0.10406772,0.05661098,0.011370092,-0.051144745,0.015892565,0.028527284,-0.13866964,-0.0760979,0.018074362,-0.13751352,0.032716177,-0.024949972,0.081294164,-0.0066643525,-0.033735853,-0.051148515,0.020478839,-0.043850932,0.05180515,0.042546563,-0.01069438,-0.01894623,-0.03202683,0.03076509,-0.11018994,0.040590975,0.060217746,0.015028593,0.06567642,-0.09066263,-0.115351245,0.14204274,-0.0029218034,-0.053815123,0.07801907,-0.010457981,-0.03168107,-0.023547908,-0.0708102,0.14607275,-0.13256249,-0.035765693,0.068014614,-0.04242528,-0.016911402,-0.062116668,-0.07080194,-0.0972337,-0.004307149,-0.029011875,-0.030448707,0.013550745,0.04596537,-0.075278305,-0.016560102,0.07667419,-0.08732363,-0.06218425,0.052043997,-0.087105006,-0.020452684,0.034411,-0.110930085,0.0473811,0.023240874,0.16734903,-0.067720644,0.024524292,-0.017526662,-0.027233323,0.03669949,0.13271266,-0.034866426,-0.017167382,0.018378783,0.049919326,-0.045307186,0.020784087,0.023949254,0.093606055,0.050264943,0.07379536,-0.05351046,0.005507675,-0.0319001,-0.113986135,0.07599386,-0.10710836,-0.033989068,0.039146196,-0.04782196,0.5257896,-0.02978687,-0.05711413,0.11952937,-0.09888292,-0.094993636,0.0070494874,-0.08747543,0.021530071,0.02856562,-0.09873808,-0.0015308196,0.040858645,0.08712576,0.11575668,-0.0050513726,-0.00787758,-0.04232664,0.061967976,-0.01001608,0.062026646,-0.07639294,-0.010215569,0.16770878,0.023863293,0.026592696,0.2228644,-0.046078935,-0.1524649,-0.015853293,-0.025492558,-0.011086607,0.05921094,0.008922962,0.030741878,-0.0059732855,-0.01454369,-0.07054123,-0.0084537715,-0.02504838,-0.00026220252,0.09978786,0.021930236,0.0118447505,0.04646905,0.0037732946,-0.060499508,0.030420372,-0.024374917,-0.01578078,0.036570802,-0.074025586,-0.0059644086,0.097359985,-0.09823538,-0.032789808,-0.08524614,-0.10652347,0.06651517,0.01401257,-0.032777872,0.10782737,0.021000983,0.06484345,-0.011416824,0.20779252,0.057436842,-0.019882195,-0.016182678,0.058396097,0.024071401,-0.04439278,0.049455132,-0.06238501,0.03696112,-0.033385202,-0.08784403,0.0053434926,0.006114678,-0.057632327,0.015551006,-0.0041443175,-0.105987124,-0.040259182,-0.05731338,0.028613383,0.05179831,-0.020271394,-0.08115112,0.07814404,0.009696742,0.093904726,-0.13572007,-0.011735036,0.01767846,0.009760485,-0.05644089,-0.012563239,0.06689837,0.04682239,0.0056894803,-0.00882142,-0.0724083,-0.09716335,0.04457568,0.04235182,0.10799854,0.07337583,-0.027566407,0.030287057,0.09330489,-0.0034415992,0.08752542,0.0042384393,0.05889029,0.02246409,0.069321185,-0.027459411,-0.09405861,0.150347,-0.02024249,0.07790614,-0.046825994,-0.05532158,0.06463436,-0.04365897,-0.070014596,-0.00021672243,-0.008982946,-0.032001235,0.0054841074,-0.053023633,-0.019410081,0.022847705,0.01524173,-0.068086915,-0.09572533,0.050207432,0.12242194,0.09272297,0.08476425,0.028032806,-0.0063706604,-0.03601455,-0.08402457,0.039474685,0.06739236,-0.081023596,-0.07675765,-0.016147071,0.10166138,-0.03560867,0.058544993,-0.0019877374,-0.089312755,-0.019763226,-0.05098618,0.03728626,-0.044815376,-0.05027874,-0.029964272,0.0753214,-0.059598375,0.09834921,0.06220563,-0.048933264,-0.02567121,-0.042905107,-0.008893082,-0.03837031,0.013568059,-0.030365989,-0.054112673,-0.011226274,0.008517562,0.020026816,-0.0398015,0.014421006,-0.039300777,-0.011004691,0.0054237135,0.021133034,0.006573563,-0.049079727,0.004280418,-0.10186105,-0.05882053,0.0669679,-0.015372299,-0.12458802,0.020408964,0.042391624,0.15263721,0.022804283,-0.013511945,0.020399936,0.055187922,-0.002250145,0.015585988,-0.02039443,0.07476604,-0.0715942,0.10851978,-0.17742813,-0.06738293,0.039464366,0.051441185,0.056746587,0.14020255,-0.0028081462,0.17563169,0.08809883,-0.03429554,-0.13245744,0.14511363,0.0692052,-0.018787052,0.051935274,0.0036701062,0.03834063,0.058158997,-0.11566055,-0.02117894,-0.01654227,0.0280287,0.04655093,0.05667661,-0.015858382,-0.04102817,-0.07649772,0.11454251,0.05320558,-0.12199014,-0.10091741,-0.03414639,-0.17224637,-0.036411542,-0.054217465,0.064204894,0.009274887,-0.07530283,-0.019026006,-0.019625403,0.06262339,-0.0070658866,-0.027968388,0.023466382,-0.058056492,0.013732231,-0.027659167,0.040410835,-0.02159466,0.002513567,-0.028821824,-0.06135918,-0.13043599,0.022594756,-0.09323346,0.045038905,0.09224965,-0.024052242,0.0014215724,0.06351242,0.0033199522,0.087096736,0.021987071,0.01106717,0.07871638,-0.05010141,-0.009834915,-0.059007782,-0.072323635,-0.03905808,thinman6.jpg
3,0.010466405,-0.050567415,-0.06332538,-0.0099858595,-0.056920182,-0.014587848,0.11208196,0.044639677,0.009458614,-0.07998416,0.0021604032,0.0846798,-0.07386647,0.13393752,-0.052089024,0.04811195,-0.030710986,-0.043677296,0.071885824,-0.030072184,-0.008080217,-0.020311719,-0.12333299,0.03993712,-0.06223622,-0.003701078,0.004331543,-0.07774398,-0.07658133,-0.046832494,-0.07442119,0.020253235,-0.05062249,0.0051558926,-0.10104652,-0.01684393,0.02401506,-0.037279867,0.109086566,0.10664814,-0.055545922,-0.045661006,-0.05068715,0.026100948,-0.11594534,0.066684015,-0.08004948,-0.12647289,-0.010635488,0.16780703,-0.0072619696,0.08095628,0.023011116,0.07415499,0.006461771,-0.07400751,0.012267348,-0.019709278,0.020453129,-0.08119672,0.10434415,0.0058574877,0.1121604,0.0063521313,0.033530973,0.002840557,-0.105219565,-0.030546326,-0.028617572,-0.060009737,-0.032869034,-0.023005875,-0.0011070844,0.14455311,-0.017022695,0.039158575,-0.022909904,-0.036931306,0.06731777,-0.017600916,0.16255844,-0.06672145,-0.050059263,0.027968392,-0.13420106,-0.0898957,0.047951452,0.07872503,0.0118070515,0.03734242,-0.031675227,-0.06256599,0.072556175,0.072457045,-0.027285706,-0.03254132,0.15616807,-0.0618107,-0.0069278134,0.0032979357,-0.04052874,0.020678777,0.005045178,-0.012913808,0.038786784,-0.059007462,-0.027862515,-0.002011569,0.010144477,0.028248878,-0.030914558,-0.010653346,-0.002453858,-0.00093423197,0.13313217,-0.118857205,0.04844535,-0.059608668,0.021597397,0.045688972,-0.030707102,-0.027805885,0.021430586,0.02967863,-0.07891438,0.0074925744,0.020796305,0.054187804,0.020822925,0.082994364,-0.05126618,-0.030347856,0.04305999,-0.034557216,-0.037118092,0.07321907,-0.08083055,-0.06686144,-0.105187245,-0.015776142,0.010063035,0.019667072,-0.07513616,0.025540171,0.087206915,-0.047338437,-0.0027222177,0.03710468,-0.03704653,-0.07368165,-0.1198174,0.005663361,0.042002164,-0.0112012215,-0.033095744,-0.06757847,0.011403996,-0.014809539,0.047461387,-0.10224234,-0.0503666,0.07383878,-0.1390601,-0.001258122,-0.021031806,-0.0720964,0.04372061,0.018119365,-0.050915625,0.074224584,-0.0007064852,-0.019849373,0.015600565,0.01961757,0.045008454,0.095105015,0.018735182,0.07916213,-0.011369855,-0.029945614,0.009438488,-0.04122865,0.0453002,-0.017741637,0.02844395,0.104047425,0.027212478,0.055009313,-0.06429424,0.019105332,0.03215781,0.011615007,0.02093714,-0.011296961,-0.096615426,-0.041727174,0.09895986,0.09818131,-0.004576714,-0.021430982,0.06521123,-0.014819416,0.033698227,-0.099704325,0.045617588,0.030186053,-0.0015064045,-0.026606703,0.0254654,-0.011405306,-0.06760954,-0.09257861,-0.03224135,-0.038087502,-0.058939412,0.0023186235,0.038861766,0.010424494,0.0055189664,-0.15222928,-0.039522722,0.020377323,0.07519628,-0.117982045,0.10144682,0.011253434,0.04769128,-0.025621913,-0.054397933,-0.0033697416,-0.08270095,0.013016137,-0.046765648,0.017055897,0.06534701,-0.08308878,0.0033940154,0.04157142,0.046891786,0.03283346,-0.089945704,0.21668631,0.0762454,0.14345391,-0.10334749,0.08453348,-0.013761177,0.09012264,0.054268718,0.044417474,-0.03480387,0.041309744,0.05729516,0.040571537,-0.012002953,-0.0035285307,-0.026447922,-0.091885895,-0.0063843187,-0.01829697,-0.0804653,-0.091766156,0.008049806,-0.016961442,0.0788584,-0.0636588,0.08362457,-0.053317253,-0.08130485,0.11479619,0.063570656,0.07094803,0.008872032,0.0022114336,-0.083041094,-0.0038212556,0.036367934,0.06609099,0.021564163,-0.07630611,-0.11001588,0.07484478,0.07589017,-0.028926613,0.0618412,0.033500317,0.17814785,0.043906502,0.06595233,0.035045836,0.016545147,0.050691184,-0.029327715,-0.075029895,0.013017182,0.06947645,-0.058412675,0.05770881,-0.10913678,0.014429126,-0.0796932,0.09381771,0.07241609,-0.04023838,0.08338517,-0.015762432,0.09308972,0.067201994,0.014478894,-0.07364084,-0.029895691,0.024785956,0.064032294,-0.13395715,0.09756062,-0.0017954812,-0.088830605,-0.05185619,0.0042574015,-0.049415722,-0.12053492,-0.048983444,-0.09082983,-0.04634631,-0.019295862,0.06831489,0.07850811,0.013222962,-0.057942364,-0.01767882,-0.026505547,0.05560587,-0.10835797,0.000228682,-0.21575922,0.09318266,0.022332326,0.070587754,0.043624304,-0.12092835,0.021120114,-0.018714024,0.008267047,-0.0354353,0.08786105,0.20452556,-0.04225663,-0.07344311,-0.025760144,-0.0041559055,0.0025397162,0.07831041,-0.042571355,-0.058761045,0.033091992,0.06275484,-0.0004459161,0.05005277,-0.112708464,-0.102690116,-0.07277851,-0.061861128,-0.019870885,0.023678565,0.0024968877,-0.11056431,0.1123722,0.052364536,-0.038441498,-0.013897646,-0.13611642,-0.102391414,-0.02771138,0.0042384504,0.016435439,0.010909208,0.007177311,0.041032545,-0.019844398,-0.018458923,0.06649803,0.07085797,-0.03923636,0.09425479,0.04844941,-0.0102297235,0.07716992,0.044983465,0.02653535,0.015211938,0.009466315,0.20485425,0.012133968,-0.030100014,0.026910227,0.083568804,-0.02276217,0.067303814,-0.18459205,0.06462545,0.032455545,-0.17748587,0.016122842,0.05276078,0.017172609,-0.07173626,0.06927428,-0.12521096,0.009793556,-0.010031382,0.06861325,-0.015046355,-0.027235398,0.09603279,-0.01648675,-0.03447176,0.01598067,-0.04013654,0.09279678,0.0499734,-0.095880456,0.09712974,-0.00939696,-0.0853512,0.02038349,0.07681229,-0.09218564,0.15589239,0.009184792,-0.013552397,-0.046908464,0.047278292,0.031131,-0.037159216,-0.07748879,0.050154418,-0.07362577,0.034289096,-0.040634904,0.07121659,0.04227264,-0.0018067756,-0.072873875,-0.056993347,0.00300927,-0.016667636,-0.048250556,-0.08446445,0.039908364,0.06369936,-0.052816395,-0.008678852,-0.048519336,-0.056197807,0.011965722,0.046812195,-0.008225114,0.0012401461,-0.031609807,0.0029864518,-0.04692059,0.11688467,-0.08311124,0.0054077143,-0.026684828,0.026922641,0.05101086,0.0671149,0.08841914,0.00016227571,-0.06517801,-0.042332996,-0.0016142775,-0.035943016,-0.013421105,-0.0072503765,-0.012537891,-0.015956394,-0.051774032,-0.031474337,-0.031076033,0.019425737,0.06253062,-0.033853915,-0.045312583,0.079411395,-0.03184236,-0.039605707,0.13363115,0.021488937,-0.09498478,0.030536894,-0.011986521,0.085589215,0.057753224,-0.06915089,0.008563367,0.023574764,0.019657576,-0.010217646,-0.047321416,0.018845122,0.0063370685,0.256263,0.075213395,0.005380892,0.132634,-0.058988485,0.117215425,-0.0068287943,-0.067302905,0.042429328,0.018102415,-0.07788607,-0.118422836,-0.061889306,-0.015280677,-0.04807941,0.034180414,0.06875045,0.095979996,-0.0031222054,-0.0041490574,0.06603781,0.059721153,-0.08911682,-0.06222978,0.08393567,-0.005559436,-0.085231446,0.0819107,-0.10581869,0.048111465,-0.040331446,0.04799707,0.073045135,0.025350254,-0.10578428,0.0054654535,-0.12925847,0.06786839,-0.039473977,0.039646845,0.016809106,0.04534247,-0.04045024,0.042777203,-0.031936444,0.02157056,0.022283936,-0.018062847,-0.050083615,0.0022868244,-0.06949756,0.020610334,-0.109334774,-0.045615688,-0.011107773,0.08015567,-0.035949808,0.021125276,-0.068120666,-0.080859385,0.04129043,0.064522,-0.027762813,0.0018434033,0.18679945,0.013154939,-0.14420386,0.006660895,-0.057515968,0.014332833,0.008700409,0.00814619,0.010523237,0.017177874,-0.029606149,-0.05374199,-0.023123495,0.09236012,-0.1226401,0.09690177,0.049251217,0.05736471,0.014278846,0.021452758,-0.009359328,0.04797892,0.04724468,-0.17005324,0.0521453,0.019342918,0.0007741232,-0.06321435,-0.12657465,-0.013181719,-0.032718204,0.09057643,-0.022049561,0.023473555,0.024196623,0.09196575,0.032508135,0.034276303,0.04845087,-0.018127201,-0.059130095,0.022366084,-0.03819929,0.049552176,-0.10240676,0.029042572,-0.043392994,0.026775533,0.11146963,-0.08842318,0.07322632,-0.010576206,-0.019959223,-0.04641812,0.005274254,0.12379822,-0.24537939,0.033840645,-0.047086228,0.08828132,-0.045279883,-0.07025708,0.013741168,-0.027787045,0.024224166,0.05913017,0.061826594,0.07298251,-0.087055884,-0.013614643,-0.036597587,0.0059608547,0.115488596,0.020225894,0.0009939693,0.02265479,-0.024376076,-0.00024162864,0.0328631,0.14875294,-0.007988596,-0.11205312,0.004087345,-0.04983795,0.04389246,-0.04245581,0.042944677,-0.14433974,-0.06382179,0.0376732,0.06299116,0.01908014,-0.067433625,-0.16307655,0.020937726,-0.02273225,0.027168797,-0.063227,0.05347462,-0.021328762,0.054636966,0.03554648,-0.047147285,-0.055105194,0.0022710757,0.0143172005,-0.05930929,-0.0022734758,-0.06862443,-0.01962432,0.02126925,0.020520715,0.0444096,0.041825715,-0.003944855,-0.091851436,0.041045804,0.043873213,-0.08871142,0.10499928,-0.08803848,0.04876548,-0.09774812,-0.015021708,0.17020269,0.0799396,0.10984764,0.021619588,-0.018751662,-0.033832278,0.049819455,0.12469803,-0.16008288,-0.031799838,0.0081964135,0.10083899,-0.029121239,0.04795617,0.11116896,-0.0062118494,0.079110846,0.061574556,0.012213721,-0.037058253,-0.027411526,-0.013786611,-0.034386657,-0.08336231,0.061822716,-0.18824807,-0.12659763,-0.041378498,0.065400586,0.035073064,-0.03623839,0.09564044,-0.037046205,0.04280957,-0.079631105,-0.037904013,0.0019794193,-0.13775888,0.04721901,-0.1509654,-0.037410937,-0.059130486,-0.11819971,-0.02612036,0.032244567,0.014609424,-0.0037732567,0.066591255,-0.060700014,0.011621511,0.14777683,0.06325642,0.0017243162,0.18681939,0.10617395,0.03843031,0.019555947,0.026208598,0.041522603,-0.06945365,-0.00018620919,-0.08057445,0.00084075064,0.016774202,-0.06005053,-0.03798549,-0.1320104,0.031922624,0.04990329,0.05655501,0.062050015,-0.110299714,0.033100814,-0.10296116,-0.016088223,-0.049331464,0.03300969,-0.054139294,0.026942672,-0.026716642,0.0029236332,-0.029248131,-0.06988895,0.047605097,-0.11724194,0.10463711,0.013555311,0.02627014,0.02858778,0.0088973725,0.059393853,0.0486419,-0.100941315,0.017854119,0.014145994,0.118273646,0.073224254,0.002938567,0.071443565,-0.09293851,-0.024009636,-0.09272452,0.05178498,-0.078274086,0.051949423,-0.07700762,0.06927284,-0.002603235,0.018248703,-0.031591557,0.11050542,0.11540106,0.13451532,-0.06936511,-0.012009116,0.07625966,-0.054440014,-0.02658208,-0.09124763,0.007940443,0.053035535,-0.051134862,-0.0028393348,-0.026498333,-0.04622387,-0.004580268,-0.013130937,0.09906201,-0.05862571,-0.036378756,-0.07224066,-0.0066657932,0.0069603627,-0.065971725,-0.077109486,0.013282519,-0.033891387,-0.02709723,-0.006081601,0.15227315,-0.06442182,0.08342237,-0.07922928,0.016015865,0.10276921,-0.045234904,-0.013085768,0.018798416,0.110997275,-0.10215956,0.03830485,0.02240777,0.010963211,0.042987105,-0.028711759,0.10895317,0.074600115,0.06632687,0.01585151,0.119635016,-0.007884073,0.016913021,0.09423138,0.032265633,-0.042179532,-0.026726892,0.01571399,0.61082494,0.0045575364,0.073247135,0.018201252,-0.1086911,-0.1851344,-0.056423843,0.033348206,0.043566793,-0.07039335,0.034544773,-0.053100515,-0.021185074,-0.10171053,-0.014810993,0.021478735,-0.028583482,0.0016749684,0.101667754,-0.1088027,0.048046153,0.05605447,0.14922974,-0.027411167,0.027267804,-0.0019009829,0.055243008,0.054081183,-0.013350104,-0.075454324,-0.1087014,0.11070213,0.016349463,0.0013564855,-0.030382743,-0.063786745,0.058566198,-0.027466951,0.09729235,0.03008971,0.038647987,0.098698296,0.035314877,-0.10573101,0.037238088,-0.054650974,0.004674093,-0.069481045,-0.07977348,0.11357723,0.045292016,0.0070877317,-0.09573287,-0.011531065,0.055171926,0.028985662,0.0037085784,-0.06361651,0.09340909,0.0049158446,-0.03645819,-0.046183623,-0.022967037,0.20690091,0.0035232292,-0.012076119,-0.07903946,-0.11045029,-0.015032442,0.0035669764,-0.034737937,0.0539066,-0.028550895,0.059465542,-0.08223179,-0.039011534,0.04220804,0.021847028,-0.13049926,-0.18898714,0.005705942,-0.11670778,-0.0028598374,-0.078457095,-0.09487765,0.033645604,-0.0076784473,-0.027579771,0.07434921,-0.16808634,0.050081566,0.015423343,-0.028806522,-0.2014627,-0.09500958,0.024087716,0.023887517,0.059726235,0.10571218,0.15120173,0.00076134957,0.014096921,-0.08547925,0.07953744,-0.033582933,-0.0272329,0.012389778,0.048741017,0.032499958,-0.028874952,-0.009093319,0.0035915633,-0.038989656,0.086889885,-0.12152982,-0.038026214,0.045839414,0.029422875,-0.05790314,-0.16362281,-0.031808406,-0.089069724,-0.05774741,0.08107067,-0.09922343,-0.06989396,-0.02546212,-0.067521274,-0.07065153,-0.043353125,0.02488396,0.031001568,-0.14552276,0.0007781114,-0.012793226,-0.21060532,-0.08155901,-0.07070424,-0.041933067,0.03559373,-0.044734363,-0.026435856,0.0072628926,0.009430192,0.030783357,0.00448603,-0.06170301,0.059680995,0.1190522,-0.07487606,0.11036751,0.13086984,-0.013486073,-0.019223189,0.083532155,0.09216714,0.008386108,0.036694445,-0.050240103,0.13178942,0.024336305,-0.06292766,-0.017556434,0.15333484,-0.021997236,-0.08980058,-0.057196394,0.041097946,0.027753348,-0.0012720219,-0.06329852,0.05992222,-0.055407435,0.07450729,0.099715486,0.09482088,-0.006737592,0.04984129,0.079064466,-0.049013175,-0.004003547,0.06913309,-0.02467873,-0.027458426,0.07649172,-0.026205739,-0.013265627,0.035024904,0.021302728,-0.026639266,-0.11954609,0.048170023,-0.07910428,0.022832492,0.097424224,-0.032712843,0.011753428,0.04101982,0.005250959,0.029497461,-0.060517095,0.08508049,0.00625888,0.036511,0.028783496,-0.0701064,-0.0504715,0.27072275,0.07556434,0.09057475,0.047052894,-0.0025388706,0.08037378,-0.027854448,-0.058504723,-0.0631236,0.021547524,0.123645104,0.07027323,-0.042399626,0.0023225248,0.07530838,0.080941744,0.09730918,-0.0032154375,0.03496105,-0.08598817,-0.011095831,0.013923449,0.090043396,0.018004715,-0.0047242683,0.11000371,-0.104179665,0.044655453,0.012491321,-0.04827391,0.040828384,0.005709007,0.08324272,-0.024833506,-0.1149435,0.060588107,0.08475901,-0.051140323,-0.02575007,0.024070656,0.020582424,-0.030613033,0.09068013,0.028607085,0.022739809,-0.025309704,0.0028775237,0.02032713,0.010337038,-0.00053570507,-0.021797417,0.03772872,0.03744712,0.02151011,-0.0004184772,0.058753755,-0.12093751,0.03742492,-0.049787078,-0.05403729,-0.10212268,-0.015288955,0.0040595112,0.006667129,0.05486406,0.014669325,0.06746502,0.013185857,0.044601955,-0.056192935,0.037307046,0.0032477689,-0.04534258,0.0691234,0.05401479,-0.03530615,-0.029084828,0.086490855,0.02474819,-0.0010965544,-0.024467826,0.009085081,0.0021419604,0.014257794,0.013141156,-0.017024294,-0.17735134,0.040967833,-0.04995045,0.07017993,0.12882045,-0.06216288,-0.002981439,0.034954682,-0.038966693,0.02802435,0.07728328,0.03324239,0.0064866766,0.087476894,-0.09715301,0.02783357,-0.024212494,0.02775279,0.03701409,0.012139549,0.123193905,0.10095059,0.060136903,0.0035734805,-0.05375452,0.010885026,0.015510725,-0.12530473,-0.06122269,-0.0072999173,-0.15936263,0.01828262,-0.016358964,0.11058662,-0.014016849,-0.013918019,-0.0517493,0.014987251,-0.03691283,0.051370088,0.025722507,-0.017634563,0.0051923944,-0.042362463,0.031564906,-0.12785946,0.02899821,0.058859374,0.018847102,0.079533674,-0.0817166,-0.11059418,0.12828442,0.0049433447,-0.071594045,0.062297814,-0.015500204,-0.047058307,-0.03739071,-0.071377434,0.14060852,-0.11486156,-0.029996462,0.07697478,-0.037111256,-0.013372187,-0.06648778,-0.05376358,-0.10445204,-0.009238587,-0.0237626,-0.010358321,0.013038281,0.058720674,-0.07492871,0.0031435285,0.080438,-0.09237898,-0.04309906,0.043215137,-0.10009212,-0.027045835,0.046607856,-0.13567661,0.07783528,-0.0073567517,0.14855437,-0.06593889,0.01787002,0.007495403,-0.030781794,0.025682501,0.118876174,-0.032261055,-0.008926074,0.035073016,0.06457364,-0.06253217,0.019550446,0.016142458,0.07325444,0.06197445,0.08371623,-0.050092153,-0.005453437,-0.040440504,-0.114480376,0.06452894,-0.08466513,-0.038572814,0.03493051,-0.034155287,0.5385981,-0.041214522,-0.031235809,0.09185849,-0.098058134,-0.08577535,0.0005661315,-0.091319986,0.024573416,0.046083763,-0.12116879,-0.024615748,0.054372195,0.12420564,0.13500263,-0.021751517,-0.00493166,-0.0347485,0.0840943,-0.026430111,0.04690381,-0.11267961,0.01639241,0.16921948,0.0051268027,0.01567184,0.2090496,-0.036663383,-0.16737948,0.007161294,-0.04014693,-0.02833094,0.04675025,0.017533507,0.03768221,-0.004692857,-0.049872573,-0.092604555,0.007877942,0.01211799,0.014403884,0.10413793,0.029451275,0.011231145,0.05145194,0.007042772,-0.050146103,0.04346932,-0.038840294,-0.027950637,0.014724376,-0.09649722,-0.044084676,0.07244681,-0.123744585,-0.05739485,-0.10008686,-0.11766194,0.08301359,0.034526475,-0.022076758,0.11177015,0.040085766,0.08489094,-0.03068546,0.20171797,0.038973004,-0.008309166,-0.014756072,0.054853465,0.035666384,-0.04645644,0.054135296,-0.08867095,0.06278347,-0.014186061,-0.098200835,0.01919689,0.008315409,-0.05125247,0.024631165,0.028425016,-0.08723616,-0.024293806,-0.049357,0.01916143,0.02883754,-0.03401466,-0.09422479,0.0871926,0.008608332,0.11208721,-0.16714981,-0.03731334,0.04348087,0.0056909136,-0.06792704,-0.0037218174,0.057026055,0.049616147,0.00971028,-0.025297424,-0.06649333,-0.09333748,0.015982328,0.036235053,0.10371516,0.07780606,-0.027821643,0.037716318,0.08144261,0.0057763695,0.10020944,-0.012157567,0.068725884,0.013935803,0.07831811,-0.010132796,-0.109464474,0.16168462,-0.023826139,0.08170617,-0.046495233,-0.060609438,0.06594125,-0.047169264,-0.03922066,0.0008430091,-0.0050528776,-0.016953953,0.029550845,-0.047837675,-0.0115967635,0.027969088,0.019887451,-0.07632204,-0.10907261,0.042023182,0.1203097,0.08508703,0.07046082,0.03355504,0.011485736,-0.051927693,-0.0772713,0.03390182,0.05253331,-0.07696098,-0.08300116,-0.028397426,0.088722356,-0.035374872,0.035760775,0.02297107,-0.10753312,-0.022440238,-0.049480136,0.044545,-0.045738846,-0.06750166,-0.030303963,0.08628307,-0.059210483,0.07397085,0.07497578,-0.036485534,-0.00929766,-0.036175337,-0.006392644,-0.063014835,0.032131527,-0.04150287,-0.042440627,-0.0062242984,0.0009294314,0.008490552,-0.04891422,0.010404445,-0.030445863,0.016580325,0.0043198387,0.03525183,-0.010380657,-0.07020358,-0.0052078106,-0.109479785,-0.06627207,0.05257038,-0.029981209,-0.110506654,-0.008761376,0.036193293,0.16275318,0.050250497,-0.025526531,0.028562851,0.0515985,0.00049820205,0.008041321,-0.010318538,0.061268087,-0.085670516,0.101618536,-0.1714656,-0.08507576,0.02978624,0.04706048,0.041246872,0.124069795,-0.020475665,0.14076176,0.09447011,0.010381882,-0.12592193,0.15990679,0.07883736,-0.0548921,0.075488135,-0.0016822192,0.028926866,0.054708023,-0.10231328,-0.0248214,0.004660901,0.034019828,0.03945395,0.04839589,-0.0020427478,-0.04332161,-0.069577016,0.0974736,0.04917968,-0.14614654,-0.09535179,-0.033394538,-0.18941146,-0.060816955,-0.02974362,0.05235706,0.008959649,-0.035915297,-0.009932064,-0.034780055,0.06961873,-0.010054768,-0.032785248,0.024557885,-0.069353014,-0.00069102,-0.020224517,0.03693399,-0.018987652,-0.004899265,-0.04245516,-0.055188015,-0.09782984,0.016656399,-0.0869767,0.056976117,0.10482704,0.0066407244,-0.0015708135,0.07924891,0.0097733345,0.08382735,0.028063416,0.0011832843,0.06387889,-0.036642306,0.02812533,-0.058400888,-0.085896425,-0.030446723,thinman2.jpg
4,0.009699846,-0.050355338,-0.091956094,-0.039236505,-0.07483712,-0.022633005,0.1129404,0.06940489,0.021350754,-0.06826848,-0.016670514,0.078040324,-0.10212193,0.12509227,-0.03345682,0.03906905,-0.016373694,-0.06631192,0.06519619,-0.023455014,-0.011993904,-0.036343414,-0.11587945,0.040485214,-0.07293861,0.043279517,0.009969147,-0.057211097,-0.07869184,-0.028800389,-0.09860766,-0.008237503,-0.028737755,0.014142924,-0.081910096,-0.04209839,0.05513613,-0.053092197,0.13074262,0.11126146,-0.08909026,-0.023504702,-0.049874105,0.020027446,-0.11241263,0.034622062,-0.087266006,-0.11265611,-0.005146633,0.15481782,-0.012782137,0.06384975,0.023255197,0.050651595,0.020896649,-0.10153945,-0.03049297,-0.02404368,0.006389625,-0.063764445,0.10492897,0.0069262628,0.10682751,0.018390374,0.042451806,-0.013213211,-0.06588754,-0.03135521,0.0011780176,-0.05296612,-0.038602132,-0.006713197,-0.03638869,0.14927141,-0.032750048,0.038749088,-0.0312387,-0.041337475,0.062266648,-0.010723863,0.16750102,-0.06398887,-0.05217241,0.011455693,-0.16035612,-0.11711043,0.042382617,0.094253056,0.021201674,0.026565464,-0.0030833932,-0.03858119,0.043584917,0.05365284,-0.016208,-0.026132014,0.13325271,-0.042249426,-0.0016546923,0.031922594,-0.030975863,0.012057327,0.023488393,-0.010801393,0.03806127,-0.0765324,-0.06419404,0.008165749,0.015414371,0.017515698,-0.045372356,-0.0036838748,-0.010359188,0.042555157,0.14779776,-0.14337721,0.046689704,-0.06852108,0.006474092,0.0598736,-0.020619804,-0.05071996,0.008814773,0.034289382,-0.10561395,0.02869396,0.009205797,0.03022624,0.00073459634,0.08729381,-0.0736412,-0.036500588,0.04049144,-0.029437935,-0.036108237,0.06936976,-0.09153754,-0.08565714,-0.061896857,-0.02962514,0.028028682,0.021134803,-0.049484145,0.013915128,0.055619482,-0.047216035,-0.0027336215,0.024010537,-0.04820411,-0.06584547,-0.08726098,0.0012757545,0.05346075,-0.05510568,-0.04225478,-0.08221331,0.0089872535,-0.0009237054,0.016934503,-0.08762675,-0.02136505,0.056618858,-0.1217418,-0.008363316,0.009642238,-0.07042662,0.057378292,0.039589968,-0.06640641,0.04623076,0.022674488,-0.03190751,0.015430458,0.04176412,0.049445275,0.073308304,0.059395384,0.06857956,0.0039893407,-0.019002393,0.009737275,-0.056086548,0.08186218,-0.00769408,0.012899502,0.112934515,0.016598249,0.064295016,-0.06189608,0.047665436,0.032990888,0.01437643,0.015878147,-0.023780627,-0.09355957,-0.03698665,0.07425482,0.12485421,0.011860947,-0.03382677,0.050658166,-0.012515369,0.01469954,-0.10176661,0.020421825,0.036087606,0.0028825123,-0.051619437,0.013707658,0.009377525,-0.07797311,-0.07669203,-0.019796632,-0.041283168,-0.087099604,0.0036508965,0.021695297,0.0135975145,0.010966972,-0.15452695,-0.045126736,0.0064996756,0.07607272,-0.14410204,0.09930741,0.023705598,0.06879669,-0.049088843,-0.08839657,-0.012877036,-0.06977066,0.0020205062,-0.05072139,-0.016865402,0.04165951,-0.075230666,-0.013680798,0.04792683,0.054056857,0.03434886,-0.09531721,0.21299233,0.080195725,0.14677288,-0.063092746,0.06793742,-0.06363202,0.1198539,0.052929647,0.028527437,-0.049938675,0.02016623,0.056111764,0.051560655,-0.018283535,0.018555794,-0.047288187,-0.068897754,0.011124863,-0.03980372,-0.07010537,-0.09096089,0.013452513,-0.033335015,0.034530357,-0.04817244,0.06965641,-0.06637495,-0.10394433,0.12632428,0.03700727,0.0746887,0.010338628,0.0106513025,-0.06834949,0.020927696,0.019158518,0.051872727,0.020169962,-0.07693039,-0.13346589,0.064334385,0.05861109,-0.018801173,0.04729759,0.0061471863,0.15223916,0.056980602,0.047634613,0.048821636,0.0067031197,0.072296396,-0.025896387,-0.09660727,0.012321828,0.046886448,-0.04263323,0.0447627,-0.10920259,0.026475392,-0.07323761,0.07411135,0.061437145,-0.055000093,0.08844665,-0.025025265,0.10195561,0.072452895,0.051750317,-0.043955818,-0.03904725,0.003657036,0.0628528,-0.1439973,0.06172952,-0.012462974,-0.102227256,-0.08045116,0.016569104,-0.036089923,-0.11819797,-0.06552703,-0.084792264,-0.06184512,0.007958425,0.08810349,0.07464023,-0.0014488883,-0.05283102,-0.0009851574,-0.03536294,0.060723856,-0.124470204,0.028752537,-0.22860672,0.10051126,0.016373191,0.06405483,0.041499022,-0.10747844,0.0039252653,-0.014386396,0.020003315,-0.020189706,0.08403496,0.20022543,-0.05602071,-0.051170778,-0.027991122,0.007379374,-0.014146384,0.107931994,-0.018565852,-0.066657245,0.041864883,0.06829851,-0.002658368,0.021075793,-0.106363595,-0.11808591,-0.08525675,-0.061659947,-0.0047576604,0.01498421,0.0065517845,-0.10958174,0.09389893,0.06503112,-0.0030839266,-0.023305189,-0.12753265,-0.09210369,-0.040700525,-0.0014580792,0.006839465,0.0163677,0.007024981,0.055570405,-0.030537875,-0.019363195,0.0652592,0.100908816,-0.02419935,0.09164958,0.07861156,-0.009367959,0.08797354,0.07401079,0.03659728,0.022591658,-0.0069596223,0.21152347,-0.04097754,-0.04604153,0.025988432,0.09373853,-0.030222913,0.05237097,-0.19716607,0.052137673,0.03691568,-0.17799196,0.015080309,0.058657244,0.024042446,-0.058707908,0.062880464,-0.13358958,0.0012516439,0.0150127355,0.09192384,-0.031878788,-0.025465088,0.10679808,-0.027362771,-0.03217854,0.014228264,-0.04547171,0.059801176,0.04471638,-0.082220234,0.09772161,-0.008811155,-0.054515477,-0.007837955,0.09629899,-0.08046852,0.16123095,0.022767764,0.006660811,-0.070250735,0.026901923,0.03058244,-0.008132392,-0.11131379,0.04118564,-0.05022625,0.011906308,-0.0290354,0.038251862,0.061819457,0.008982216,-0.081776045,-0.069506325,-0.018047923,-0.01961836,-0.045182835,-0.08209383,0.001648853,0.07156101,-0.053281244,-0.005270197,-0.047657594,-0.053140316,0.018889269,0.05316964,-0.0069887824,-0.0024013603,-0.0015406054,-0.0125541845,-0.042701058,0.13290505,-0.0841172,0.0029865995,-0.006904342,0.0026399938,0.060388643,0.040070243,0.10432214,-0.017084658,-0.09313956,-0.044973716,-0.0066054836,-0.041761003,-0.00044028062,-0.021091549,-0.008405016,-0.011059064,-0.027184846,-0.03618669,-0.05705297,0.03952797,0.102669895,-0.0311525,-0.059833284,0.09192749,-0.04212019,-0.023455527,0.1094912,0.027121913,-0.08446032,0.01759195,0.029479709,0.1049605,0.03765905,-0.03271942,0.003079249,0.021037525,0.024153162,-0.0135710975,-0.06515371,0.018017013,-0.027686615,0.26296398,0.065279566,0.015508839,0.1323639,-0.052683186,0.09170882,0.022085553,-0.043030433,0.08863549,0.01596483,-0.07243881,-0.08909773,-0.053260166,-0.03990073,-0.055841405,0.032846235,0.03185312,0.12412937,-0.015236129,0.024899242,0.056322362,0.0526579,-0.0762066,-0.027850412,0.07955582,-0.00095527375,-0.06783851,0.07478677,-0.108268924,0.055144895,-0.02632512,0.04563529,0.102479674,0.029229797,-0.07729843,-0.01696288,-0.12548357,0.055446398,-0.030644828,0.0670707,-0.010763251,0.04288592,-0.04370862,0.053499855,-0.03437363,0.00029351545,0.023152381,0.014081756,-0.05265839,-0.006607125,-0.06304888,0.048329,-0.12042643,-0.046344012,-0.025577275,0.07659963,-0.024755774,0.04962821,-0.041771267,-0.097470686,0.048084274,0.059453383,-0.023198383,0.011523939,0.19623603,0.014407365,-0.113899045,0.011339036,-0.036668632,-0.0039008353,0.0031027666,-0.017886097,0.033217426,0.015716637,-0.02909465,-0.07385307,-0.03989418,0.058517847,-0.113482416,0.10965626,0.042989016,0.0827013,0.037978712,0.0026250265,0.022827204,0.026525747,0.04528432,-0.1801645,0.0491401,0.008871905,0.020107647,-0.07153681,-0.09949281,-0.030002432,-0.04864573,0.08191434,-0.027321534,0.024787571,0.016722715,0.086215,0.03600406,0.039574802,0.055820562,-0.030813508,-0.051927257,0.011682445,-0.048480373,0.034551684,-0.08176535,0.056223467,-0.060056087,0.004862373,0.10672866,-0.07833513,0.09798986,-0.009159542,-0.005406878,-0.080563724,0.0024580385,0.12298001,-0.25974151,0.034419317,-0.059725653,0.08761292,-0.05974916,-0.059732806,0.0060811504,-0.026962657,0.017502485,0.054083876,0.05225579,0.07644236,-0.08342679,-0.025419623,-0.05995855,0.005881342,0.12591094,0.019913575,0.028078672,0.019674586,0.006081234,0.0091002425,0.061697725,0.15499406,-0.00077150454,-0.114737086,-0.016436778,-0.04543696,0.044860683,-0.020596404,0.05645555,-0.13659872,-0.041979697,0.025957404,0.072118945,-0.0008002142,-0.0800561,-0.15098071,-0.015872905,-0.026773926,0.042326715,-0.036541797,0.06763706,-0.03143742,0.053405575,0.024814447,-0.047439158,-0.04121507,0.0023361475,-0.0058666826,-0.07263588,-0.0012096603,-0.05309106,-0.031970706,0.011508383,0.019051177,0.029182112,0.055057894,0.024988709,-0.07842542,0.040781826,0.059813693,-0.05650958,0.067924574,-0.11079007,0.06694754,-0.092309326,0.0015434134,0.1691704,0.075558364,0.11964695,0.04314348,-0.02195276,-0.025580417,0.040272683,0.108748816,-0.17677602,-0.035290636,-0.0059097745,0.07731968,-0.017425995,0.048662957,0.09090842,-0.030185865,0.068689935,0.062868915,0.016763775,-0.049442012,-0.03691121,-0.0007009482,-0.041518856,-0.08385865,0.09960918,-0.19453594,-0.07848901,-0.04590011,0.09722608,-0.005277535,-0.05565259,0.12764506,-0.06029906,0.01268805,-0.0450537,-0.032518174,0.010322103,-0.1542662,-0.00048742015,-0.13681693,-0.0160072,-0.07304687,-0.11789428,0.003958206,0.07223508,-0.013148036,-0.007916304,0.08064998,-0.06763334,-0.0017588541,0.08588733,0.06605888,0.011528326,0.19402248,0.10069652,0.046525396,0.018216375,0.012465315,0.029998394,-0.05577748,0.019776143,-0.07282254,-0.008228068,0.03275809,-0.07564465,-0.030908167,-0.13868704,0.008599942,0.039195415,0.060555864,0.04755989,-0.10447404,0.035030775,-0.11427835,-0.02310757,-0.04141363,0.043770954,-0.047504995,0.016353646,-0.034149725,0.01499769,-0.048263393,-0.078378215,0.059561294,-0.11114545,0.07451801,0.008872951,0.022828232,0.020925937,0.007413827,0.07073445,0.058660194,-0.11031385,-0.003558587,0.01624797,0.12758528,0.0671981,0.023772946,0.05237201,-0.12273512,-0.024152715,-0.08387261,0.049758818,-0.08483203,0.043045375,-0.054062888,0.043995246,-0.005523126,0.004480075,-0.03782648,0.11547186,0.13719255,0.14370376,-0.085713066,-0.010609049,0.09463133,-0.039762493,-0.022800012,-0.0898172,0.0053480216,0.01589818,-0.043335453,-0.021391233,0.010265946,-0.038335565,-0.00827162,-0.037719995,0.09229343,-0.074510336,-0.045664456,-0.053282794,-0.0010847993,-0.008352781,-0.056236207,-0.058587,0.038371615,-0.0411516,-0.022686234,0.008597784,0.14994101,-0.053676326,0.08044874,-0.06672422,-0.005031206,0.098725535,-0.008878041,-0.012982887,0.020526852,0.10042145,-0.08532856,0.037673816,0.0352371,-0.007823136,0.052463498,-0.015791062,0.12776215,0.06849878,0.043944597,-0.01580528,0.09845957,-0.006664724,0.0050579486,0.10507555,0.04139636,-0.02975568,-0.0475982,0.00477467,0.63047606,-0.031576857,0.08291911,0.010029186,-0.040837567,-0.18177561,-0.053486973,0.037527524,0.06768006,-0.06615216,0.035551343,-0.03895028,-0.020618243,-0.11687531,0.012412024,0.0313589,-0.01659185,-0.0045878137,0.0991773,-0.10936527,0.05086011,0.06477769,0.09901033,-0.0031492475,0.017102404,0.0051321615,0.058420714,0.05041969,0.018949764,-0.06292567,-0.07885044,0.13351381,0.029341906,-0.012583249,-0.03839005,-0.06963631,0.07840611,-0.008925604,0.09296583,0.010518617,0.036442503,0.11020094,0.04857515,-0.08822057,0.057136856,-0.04396682,-0.00031570718,-0.07832778,-0.10718323,0.118201606,0.053145878,-0.00048241732,-0.11736552,-0.037616707,0.031182826,0.028794156,-0.002019156,-0.059256684,0.089704946,0.023309061,-0.040640224,-0.02359182,-0.007732813,0.23481117,-0.011379692,-0.017293403,-0.07840185,-0.107913725,-0.010631735,-0.0009848722,-0.03519492,0.044047933,-0.028005613,0.07805272,-0.082627945,-0.052294485,0.032770853,0.03995229,-0.12048264,-0.22182508,0.016766327,-0.14590612,-0.01594599,-0.047903426,-0.076717496,0.04576883,0.012607118,-0.032365493,0.07381736,-0.14717025,0.040453456,0.02254076,-0.04337577,-0.19720604,-0.120190464,0.03484987,0.03565323,0.047364898,0.10412923,0.16596006,0.01238254,0.006585853,-0.084616475,0.071124226,-0.043421753,-0.020987058,0.03394793,0.06297276,0.03977851,-0.022505915,-0.009877542,0.0014421998,-0.04190086,0.11884107,-0.09786357,-0.033782117,0.031144625,0.010670357,-0.032231558,-0.17409867,-0.023474963,-0.070579454,-0.04939431,0.094494976,-0.10260509,-0.0639165,-0.0137100015,-0.05240654,-0.08293904,-0.018955965,0.05185037,0.052363284,-0.15399134,-0.00011898132,0.013957004,-0.2196621,-0.06087628,-0.0435049,-0.042260423,0.023043463,-0.028837841,-0.0634044,0.010399047,-0.0123530645,-0.0005758027,-0.0070350147,-0.022061,0.05208304,0.11478625,-0.072349176,0.12743224,0.14661098,-0.009990253,0.010006878,0.094252825,0.084500276,-0.020350982,0.05085908,-0.07095254,0.123308964,0.010213656,-0.070095316,-0.027520016,0.14994586,-0.019859675,-0.09924953,-0.075844854,0.033934806,0.03317552,-0.0048829964,-0.06259086,0.059965096,-0.078758225,0.101727836,0.09454632,0.07261702,0.001417051,0.027069202,0.056463312,-0.0506472,-0.025205815,0.08278553,-0.046810362,-0.05176803,0.0726529,-0.05391779,-0.037976697,0.014314386,0.048904616,-0.010874519,-0.107997,0.04123831,-0.084394045,0.023453347,0.10679843,-0.02415482,0.0013408563,0.03992507,0.025656777,0.033886433,-0.057135742,0.09084159,0.033612248,0.028967485,0.008383198,-0.0876885,-0.04816464,0.2804472,0.07674982,0.087640546,0.054801486,-0.004373482,0.096394576,-0.010311275,-0.06254579,-0.086361416,0.014941587,0.16532594,0.07600067,-0.0060216333,0.03564458,0.09798623,0.08147565,0.09370201,-0.0065754205,0.05449604,-0.08270735,-0.0027586655,0.0095455805,0.06143601,0.025307257,-0.0026037483,0.0824392,-0.11071816,0.03675058,0.040677693,-0.055491067,0.037212417,0.032571938,0.08619422,-0.053572427,-0.10784837,0.080208674,0.08813576,-0.031110168,-0.028905276,0.029883156,0.04510501,-0.025271304,0.09108065,0.022462279,0.004946605,-0.0415238,0.012928347,0.04481309,-0.008057874,0.026255691,-0.02771753,0.04946356,0.03407026,0.032002326,-0.010552701,0.07173844,-0.12334734,0.039447676,-0.037866324,-0.05999266,-0.08614291,-0.010349329,-0.005198137,0.00663695,0.07945269,-0.012101234,0.052939493,-0.004463105,0.022435594,-0.06809419,0.040911373,0.011348229,-0.03191566,0.044349667,0.06264321,-0.017631507,-0.03225741,0.07872781,0.01829293,0.01590567,-0.0062649534,0.014579623,0.010077214,0.010300183,-0.006212556,-0.023382097,-0.17180021,0.037019458,-0.044492107,0.09901844,0.09666977,-0.058321074,-0.0053956294,0.05717692,-0.03625243,-0.016716238,0.053923808,0.022087911,0.019830061,0.08675445,-0.11234534,0.030012513,-0.013791654,0.013602399,0.05659566,0.02730843,0.16113411,0.10215243,0.04257346,0.042477965,-0.046237487,0.017107852,0.014838618,-0.12638396,-0.07522073,0.007947747,-0.13959053,0.028344981,-0.04196444,0.08303737,0.003027314,-0.048753742,-0.06328858,0.03676644,-0.036528345,0.06903718,0.045933556,-0.0125283105,-0.016300922,-0.048734475,0.043169994,-0.13921867,0.032174412,0.07005726,0.023324195,0.05884626,-0.10166577,-0.119897805,0.14072204,0.0050062444,-0.033814527,0.050206695,0.019478787,-0.031720866,-0.0007703984,-0.059837054,0.13909711,-0.12609594,-0.027779136,0.075074,-0.026958011,-0.01437528,-0.06704903,-0.06041898,-0.11109682,0.002466272,-0.013894198,-0.058978833,0.011517706,0.03464433,-0.075017884,-0.022973718,0.08510266,-0.08354164,-0.06568966,0.04634829,-0.09331016,-0.015551245,0.030410426,-0.13201134,0.049347047,0.005925442,0.18870942,-0.061797198,0.041621182,-0.013340592,-0.034007132,0.039052755,0.120449245,-0.029097177,-0.029723117,0.011531269,0.047363605,-0.062175795,0.044981148,0.012843555,0.08994103,0.04948656,0.07818034,-0.04360698,0.0033044282,-0.03218914,-0.098443404,0.05877366,-0.09855411,-0.018775452,0.026655393,-0.061051834,0.52228993,-0.013182339,-0.043672536,0.09640488,-0.10124163,-0.088038735,0.017206242,-0.086542964,0.04257111,0.029558806,-0.10643989,-0.0025389732,0.042039417,0.08845929,0.12976432,-0.03861959,0.014326116,-0.04671573,0.07353368,-0.0352697,0.05550556,-0.08762681,0.007078756,0.18224217,0.035217553,0.007904601,0.21178253,-0.05752935,-0.15126835,-0.026671953,-0.015316356,-0.015496322,0.05451531,0.029333655,0.046167474,-0.018929794,-0.048308715,-0.086697,0.011098017,-0.01053357,0.0068778167,0.115751915,0.022601372,0.007936432,0.053142253,0.01730794,-0.07590001,0.042886246,-0.009116851,-0.017847547,0.021414762,-0.07382204,-0.03172522,0.088546306,-0.107411034,-0.045421764,-0.08829551,-0.14720237,0.075695716,0.025591554,-0.03210774,0.11658821,0.031811427,0.073724054,-0.032615803,0.2103119,0.06922406,-0.009624447,-0.0069389264,0.05877838,0.01532868,-0.04394448,0.023588983,-0.08713335,0.048971843,-0.03183555,-0.07957885,0.0033663316,0.011744106,-0.07903738,0.010950371,0.0035816776,-0.092281744,-0.03274988,-0.08212212,0.030000953,0.026826419,-0.04345335,-0.07044767,0.09829103,0.0071284114,0.083774745,-0.13825259,-0.03153805,0.00819083,0.018688034,-0.048767537,-0.013610765,0.069695406,0.043744963,0.016398307,-0.01754225,-0.09348661,-0.09755594,0.031316955,0.015501521,0.10525896,0.07964396,-0.046373323,0.021030355,0.07686554,0.0035504142,0.09961731,0.0032689942,0.04755079,0.021821424,0.06486945,-0.020569216,-0.10148915,0.1215096,-0.018476376,0.073120266,-0.04182753,-0.061611928,0.050085995,-0.0528438,-0.08025064,-0.011930229,-0.0004879091,-0.033798102,0.018720238,-0.05536052,-0.015660953,0.0492077,0.009426767,-0.082602724,-0.074946605,0.04022665,0.1156021,0.06612577,0.075774185,0.03936769,-0.0044138907,-0.024368344,-0.06473125,0.05317062,0.062325392,-0.09618481,-0.07471519,-0.018690804,0.077804685,-0.04118093,0.03549907,0.0248114,-0.10691723,-0.04033528,-0.040406983,0.05880224,-0.04923919,-0.045688372,-0.02143357,0.0817314,-0.07638527,0.105162635,0.06210523,-0.043735992,-0.027853338,-0.03991735,-0.005642593,-0.039680168,0.026923781,-0.039871085,-0.045866657,-0.0056053954,0.019165281,0.0019091904,-0.04716144,0.0031337906,-0.01111544,-2.3411592e-05,0.031915314,0.022619968,-0.0032788392,-0.03643308,-0.010383306,-0.11611185,-0.051954474,0.06915492,-0.010148411,-0.11517674,0.013122873,0.037120752,0.16426764,0.04923993,-0.023245359,0.029357068,0.042275917,-0.012054089,-0.002006952,-0.041542932,0.06152844,-0.096109405,0.1123386,-0.19612879,-0.07205936,0.038953453,0.07012175,0.046831843,0.13262962,-0.0143103,0.16069256,0.096184775,-0.019870287,-0.12587446,0.16565385,0.07700559,-0.04182989,0.06944028,0.0071760667,0.013693877,0.0517976,-0.12059969,-0.03678614,-0.001118378,0.034963835,0.060450833,0.048186593,-0.0059649167,-0.032269415,-0.08519399,0.10902802,0.043506462,-0.120119825,-0.114614755,-0.028757622,-0.21100554,-0.039338455,-0.035736088,0.034021545,0.012503529,-0.07332135,-0.026071485,-0.019926714,0.08436308,-0.0014740116,-0.015400162,0.0015225967,-0.04311048,0.013155241,-0.030966526,0.05741783,-0.01538281,0.009696176,-0.030867614,-0.028916985,-0.13476029,0.029162444,-0.0919183,0.08111782,0.10822793,0.002859337,-0.015900798,0.047913704,0.0021934614,0.075968094,0.013060055,-0.01415369,0.07565404,-0.03104641,0.013071255,-0.08750027,-0.056777842,-0.028150909,thinman1.jpg
