,0,1,2,3,4,5,6,7,8,9,10,11,12,13,14,15,16,17,18,19,20,21,22,23,24,25,26,27,28,29,30,31,32,33,34,35,36,37,38,39,40,41,42,43,44,45,46,47,48,49,50,51,52,53,54,55,56,57,58,59,60,61,62,63,64,65,66,67,68,69,70,71,72,73,74,75,76,77,78,79,80,81,82,83,84,85,86,87,88,89,90,91,92,93,94,95,96,97,98,99,100,101,102,103,104,105,106,107,108,109,110,111,112,113,114,115,116,117,118,119,120,121,122,123,124,125,126,127,128,129,130,131,132,133,134,135,136,137,138,139,140,141,142,143,144,145,146,147,148,149,150,151,152,153,154,155,156,157,158,159,160,161,162,163,164,165,166,167,168,169,170,171,172,173,174,175,176,177,178,179,180,181,182,183,184,185,186,187,188,189,190,191,192,193,194,195,196,197,198,199,200,201,202,203,204,205,206,207,208,209,210,211,212,213,214,215,216,217,218,219,220,221,222,223,224,225,226,227,228,229,230,231,232,233,234,235,236,237,238,239,240,241,242,243,244,245,246,247,248,249,250,251,252,253,254,255,256,257,258,259,260,261,262,263,264,265,266,267,268,269,270,271,272,273,274,275,276,277,278,279,280,281,282,283,284,285,286,287,288,289,290,291,292,293,294,295,296,297,298,299,300,301,302,303,304,305,306,307,308,309,310,311,312,313,314,315,316,317,318,319,320,321,322,323,324,325,326,327,328,329,330,331,332,333,334,335,336,337,338,339,340,341,342,343,344,345,346,347,348,349,350,351,352,353,354,355,356,357,358,359,360,361,362,363,364,365,366,367,368,369,370,371,372,373,374,375,376,377,378,379,380,381,382,383,384,385,386,387,388,389,390,391,392,393,394,395,396,397,398,399,400,401,402,403,404,405,406,407,408,409,410,411,412,413,414,415,416,417,418,419,420,421,422,423,424,425,426,427,428,429,430,431,432,433,434,435,436,437,438,439,440,441,442,443,444,445,446,447,448,449,450,451,452,453,454,455,456,457,458,459,460,461,462,463,464,465,466,467,468,469,470,471,472,473,474,475,476,477,478,479,480,481,482,483,484,485,486,487,488,489,490,491,492,493,494,495,496,497,498,499,500,501,502,503,504,505,506,507,508,509,510,511,512,513,514,515,516,517,518,519,520,521,522,523,524,525,526,527,528,529,530,531,532,533,534,535,536,537,538,539,540,541,542,543,544,545,546,547,548,549,550,551,552,553,554,555,556,557,558,559,560,561,562,563,564,565,566,567,568,569,570,571,572,573,574,575,576,577,578,579,580,581,582,583,584,585,586,587,588,589,590,591,592,593,594,595,596,597,598,599,600,601,602,603,604,605,606,607,608,609,610,611,612,613,614,615,616,617,618,619,620,621,622,623,624,625,626,627,628,629,630,631,632,633,634,635,636,637,638,639,640,641,642,643,644,645,646,647,648,649,650,651,652,653,654,655,656,657,658,659,660,661,662,663,664,665,666,667,668,669,670,671,672,673,674,675,676,677,678,679,680,681,682,683,684,685,686,687,688,689,690,691,692,693,694,695,696,697,698,699,700,701,702,703,704,705,706,707,708,709,710,711,712,713,714,715,716,717,718,719,720,721,722,723,724,725,726,727,728,729,730,731,732,733,734,735,736,737,738,739,740,741,742,743,744,745,746,747,748,749,750,751,752,753,754,755,756,757,758,759,760,761,762,763,764,765,766,767,768,769,770,771,772,773,774,775,776,777,778,779,780,781,782,783,784,785,786,787,788,789,790,791,792,793,794,795,796,797,798,799,800,801,802,803,804,805,806,807,808,809,810,811,812,813,814,815,816,817,818,819,820,821,822,823,824,825,826,827,828,829,830,831,832,833,834,835,836,837,838,839,840,841,842,843,844,845,846,847,848,849,850,851,852,853,854,855,856,857,858,859,860,861,862,863,864,865,866,867,868,869,870,871,872,873,874,875,876,877,878,879,880,881,882,883,884,885,886,887,888,889,890,891,892,893,894,895,896,897,898,899,900,901,902,903,904,905,906,907,908,909,910,911,912,913,914,915,916,917,918,919,920,921,922,923,924,925,926,927,928,929,930,931,932,933,934,935,936,937,938,939,940,941,942,943,944,945,946,947,948,949,950,951,952,953,954,955,956,957,958,959,960,961,962,963,964,965,966,967,968,969,970,971,972,973,974,975,976,977,978,979,980,981,982,983,984,985,986,987,988,989,990,991,992,993,994,995,996,997,998,999,1000,1001,1002,1003,1004,1005,1006,1007,1008,1009,1010,1011,1012,1013,1014,1015,1016,1017,1018,1019,1020,1021,1022,1023,1024,1025,1026,1027,1028,1029,1030,1031,1032,1033,1034,1035,1036,1037,1038,1039,1040,1041,1042,1043,1044,1045,1046,1047,1048,1049,1050,1051,1052,1053,1054,1055,1056,1057,1058,1059,1060,1061,1062,1063,1064,1065,1066,1067,1068,1069,1070,1071,1072,1073,1074,1075,1076,1077,1078,1079,1080,1081,1082,1083,1084,1085,1086,1087,1088,1089,1090,1091,1092,1093,1094,1095,1096,1097,1098,1099,1100,1101,1102,1103,1104,1105,1106,1107,1108,1109,1110,1111,1112,1113,1114,1115,1116,1117,1118,1119,1120,1121,1122,1123,1124,1125,1126,1127,1128,1129,1130,1131,1132,1133,1134,1135,1136,1137,1138,1139,1140,1141,1142,1143,1144,1145,1146,1147,1148,1149,1150,1151,1152,1153,1154,1155,1156,1157,1158,1159,1160,1161,1162,1163,1164,1165,1166,1167,1168,1169,1170,1171,1172,1173,1174,1175,1176,1177,1178,1179,1180,1181,1182,1183,1184,1185,1186,1187,1188,1189,1190,1191,1192,1193,1194,1195,1196,1197,1198,1199,1200,1201,1202,1203,1204,1205,1206,1207,1208,1209,1210,1211,1212,1213,1214,1215,1216,1217,1218,1219,1220,1221,1222,1223,1224,1225,1226,1227,1228,1229,1230,1231,1232,1233,1234,1235,1236,1237,1238,1239,1240,1241,1242,1243,1244,1245,1246,1247,1248,1249,1250,1251,1252,1253,1254,1255,1256,1257,1258,1259,1260,1261,1262,1263,1264,1265,1266,1267,1268,1269,1270,1271,1272,1273,1274,1275,1276,1277,1278,1279,1280,1281,1282,1283,1284,1285,1286,1287,1288,1289,1290,1291,1292,1293,1294,1295,1296,1297,1298,1299,1300,1301,1302,1303,1304,1305,1306,1307,1308,1309,1310,1311,1312,1313,1314,1315,1316,1317,1318,1319,1320,1321,1322,1323,1324,1325,1326,1327,1328,1329,1330,1331,1332,1333,1334,1335,1336,1337,1338,1339,1340,1341,1342,1343,1344,1345,1346,1347,1348,1349,1350,1351,1352,1353,1354,1355,1356,1357,1358,1359,1360,1361,1362,1363,1364,1365,1366,1367,1368,1369,1370,1371,1372,1373,1374,1375,1376,1377,1378,1379,1380,1381,1382,1383,1384,1385,1386,1387,1388,1389,1390,1391,1392,1393,1394,1395,1396,1397,1398,1399,1400,1401,1402,1403,1404,1405,1406,1407,1408,1409,1410,1411,1412,1413,1414,1415,1416,1417,1418,1419,1420,1421,1422,1423,1424,1425,1426,1427,1428,1429,1430,1431,1432,1433,1434,1435,1436,1437,1438,1439,1440,1441,1442,1443,1444,1445,1446,1447,1448,1449,1450,1451,1452,1453,1454,1455,1456,1457,1458,1459,1460,1461,1462,1463,1464,1465,1466,1467,1468,1469,1470,1471,1472,1473,1474,1475,1476,1477,1478,1479,1480,1481,1482,1483,1484,1485,1486,1487,1488,1489,1490,1491,1492,1493,1494,1495,1496,1497,1498,1499,1500,1501,1502,1503,1504,1505,1506,1507,1508,1509,1510,1511,1512,1513,1514,1515,1516,1517,1518,1519,1520,1521,1522,1523,1524,1525,1526,1527,1528,1529,1530,1531,1532,1533,1534,1535,img
0,-0.005089111,-0.058128912,-0.08581216,-0.026946707,-0.067945965,-0.014011679,0.095222734,0.039541826,0.043968953,-0.062375467,0.021503186,0.070525646,-0.065113135,0.15192129,-0.025904845,0.033917762,-0.04978443,-0.03971477,0.060418993,0.009637499,-0.02668371,-0.0035168715,-0.14805458,-0.025091682,-0.06956644,0.022843385,-0.04125085,-0.07469437,-0.050399695,-0.019354392,-0.0935611,0.013098263,-0.045254707,0.026451549,-0.06681006,-0.037873864,0.02900887,-0.050003815,0.083709545,0.09030525,-0.10148979,-0.035548285,-0.050143432,0.017271493,-0.05440097,0.047797512,-0.09297535,-0.11384099,-0.0111039365,0.13451862,-0.033074863,0.068193056,0.03366089,0.06408366,0.0088969,-0.08767039,-0.026390702,0.012219024,0.012752235,-0.058851354,0.07273943,0.030706726,0.109978706,0.02512377,0.06446939,-0.04794288,-0.09483742,-0.012956423,-0.011185578,-0.059204806,-0.031991653,-0.013366509,-0.06311837,0.12837358,-0.019470401,0.050743096,-0.04149061,-0.048128784,0.09356597,-0.0014595569,0.20539436,-0.0645135,-0.08134626,0.012120516,-0.13919292,-0.08076383,0.04770815,0.070627004,0.011148234,0.065271445,-0.03648142,-0.05003436,0.0620922,0.05564439,-0.025171956,-0.004907348,0.1005367,-0.02145384,-0.019361673,0.02705426,-0.041870613,0.016701516,0.0007514136,-0.019044494,0.04837895,-0.04597539,-0.051928308,-0.003738586,0.0076106004,0.0016036928,-0.06544054,-0.03114205,0.008033622,0.04634965,0.124661274,-0.11803423,0.045745686,-0.09179805,0.031973016,0.06561946,-0.041774105,-0.06012143,0.013793826,0.016706312,-0.07927787,0.01946214,0.026195355,0.048721,0.006193983,0.06989769,-0.072712444,-0.038340807,0.025554076,-0.051220004,-0.05915059,0.08767445,-0.058622867,-0.090294644,-0.05602049,-0.061236065,0.015813744,0.027702002,-0.07920852,-0.0004893825,0.056196023,-0.01860672,-0.002728909,0.025182465,-0.055336963,-0.0683615,-0.0910486,-0.023904856,0.06309443,-0.036710702,-0.03421445,-0.052669745,-0.0045290464,-0.035670128,-0.0025736133,-0.08246827,-0.058840353,0.08083878,-0.1478878,-0.010559683,0.0101215495,-0.06494179,0.07847878,0.042236555,-0.04397644,0.059166342,0.0025061667,0.019906862,0.049576003,0.040138423,0.048420288,0.08443513,0.035601053,0.10263153,-0.013442825,-0.0053605293,0.016938647,-0.03449791,0.04807577,0.022553943,0.018960612,0.13802917,0.0070183766,0.0757488,-0.050801363,-0.005537367,0.038304083,0.011343379,0.019474808,-0.012431075,-0.07004153,-0.038926005,0.061511405,0.09500453,-0.0071505355,-0.031374436,0.037031427,0.01211696,0.020327564,-0.0830455,0.07322719,0.04626053,0.0018426257,-0.03341332,0.021005256,-0.0063116234,-0.05810335,-0.11736989,-0.012428087,-0.026973821,-0.07272387,-0.0130320145,0.031198436,0.054301932,0.020835675,-0.11394467,-0.023951007,0.021524481,0.07535746,-0.14666088,0.08073936,-0.0050538764,0.02927957,-0.038067106,-0.059483744,0.0018808317,-0.06608643,0.016267957,-0.038264643,-0.003380086,0.066990264,-0.07273235,-0.005052464,0.01492626,0.025411392,0.017573638,-0.08106132,0.21997705,0.062227685,0.14303134,-0.067452624,0.06932771,-0.03148959,0.09177117,0.04595413,0.0360353,-0.0307282,0.013410022,0.02857199,0.04166168,-0.0003078157,0.04065168,-0.020256361,-0.05600241,-0.0034724716,-0.017435279,-0.06591809,-0.08879079,0.02671301,-0.053069938,0.050973095,-0.02830385,0.056696847,-0.034366377,-0.113230884,0.12101899,0.04832579,0.050053436,0.0032440329,0.015963962,-0.050682805,-0.017129373,0.010687312,0.04252459,0.027863761,-0.07308927,-0.08785782,0.07190809,0.04676286,-0.020760158,0.06516758,0.04518315,0.17649548,0.043642294,0.06712713,0.036933027,0.016789395,0.05706091,-0.016303843,-0.10329347,0.0007029855,0.061432,-0.06490785,0.024095666,-0.117095165,0.038128946,-0.06572322,0.06427321,0.04203338,-0.04179673,0.10100849,-0.011818516,0.08995563,0.067221045,0.06032586,-0.046872918,-0.009096506,0.013632461,0.0879831,-0.11333805,0.05815462,0.017928973,-0.10038448,-0.063073285,0.028121913,-0.034275766,-0.14030704,-0.03698527,-0.07555471,-0.012868616,-0.0040552425,0.09187744,0.080650404,0.025689293,-0.0434317,-0.015286485,-0.032413412,0.058719065,-0.098753735,0.009069131,-0.2510082,0.07970325,-0.007653869,0.030227752,0.03479346,-0.10540966,0.016560806,-0.01617467,-0.006972999,0.0136120375,0.085626416,0.19915713,-0.018726617,-0.062398117,-0.02431574,0.0016555736,-0.010516633,0.079680234,-0.0043422366,-0.061063357,0.0030526537,0.06647555,-0.018158667,0.01504909,-0.09124521,-0.085540086,-0.070196845,-0.06558529,-0.00961246,0.02761616,-0.0035539716,-0.11849169,0.077508956,0.042293556,-0.023530971,0.007978473,-0.15086143,-0.08221562,-0.03735996,-0.05204169,0.002484278,0.0069170324,0.0152225755,0.043183904,-0.019335328,-0.02451624,0.06031065,0.11398442,-0.020839566,0.10905851,0.0639233,-0.018337298,0.06023771,0.05705314,0.053956743,0.013626117,0.00047558735,0.17024039,0.005374546,-0.027465688,0.02153823,0.0992539,-0.027028978,0.0582457,-0.19063056,0.052193902,0.028896961,-0.16781981,0.03233367,0.03141538,0.019110288,-0.067290545,0.031872693,-0.13578731,0.029299147,0.0021635778,0.10870907,-0.036904573,-0.005777493,0.08899035,0.0038204705,-0.032273553,0.023505175,-0.06860765,0.052844215,0.060102914,-0.09064343,0.084930934,0.038002566,-0.0506703,0.002058966,0.08401321,-0.04919102,0.13936101,0.03334138,-0.015030361,-0.03302533,0.012409954,0.026179891,-0.0140039725,-0.08984569,0.03201372,-0.030947382,0.013532781,-0.029464658,0.04471678,0.06441968,0.007233165,-0.037953895,-0.07938018,-0.0072129224,-0.0023510824,-0.059853934,-0.07728557,0.042012315,0.080997445,-0.039465483,-0.02592257,-0.04411906,-0.09559469,0.00038939013,0.043081176,-0.032445032,-0.017271647,-0.015352206,0.010992052,-0.059291884,0.09473044,-0.10987447,0.0060932306,-0.019432576,0.03815221,0.0659152,0.035548266,0.09614367,0.0074588615,-0.065433234,-0.037712,-0.0102325305,-0.029438451,0.018494384,-0.0143962735,-0.021144425,-0.022552056,-0.05325349,-0.042405296,-0.029432956,-0.0055310065,0.090743415,-0.038243983,-0.03520571,0.08205894,-0.05420569,-0.02827269,0.10220583,0.022865197,-0.09771721,0.012812841,-0.006410802,0.06762165,0.019627376,-0.05097366,0.01920301,0.034472063,0.039299678,-0.0037136674,-0.026551368,0.04353391,-0.015058055,0.23367904,0.067708105,-0.005157882,0.09212118,-0.034370717,0.115289494,-0.008290731,-0.08710333,0.08779679,0.0056985896,-0.063393906,-0.07826465,-0.05910259,-0.029274205,-0.036589175,0.016054127,0.026236346,0.11193101,-0.0030111633,0.01840495,0.04728824,0.07561084,-0.09511161,-0.031055689,0.0717605,0.02908119,-0.046058424,0.101056166,-0.06588695,0.060141806,-0.012854774,0.06332405,0.06363844,0.009956835,-0.08146528,0.000575036,-0.12622146,0.05602532,-0.042893246,0.08088721,-0.002516732,0.036942102,-0.03168064,0.05557523,-0.05726031,0.019349582,0.015120971,0.009888876,-0.062189583,-0.014901344,-0.05898325,0.0039030693,-0.11308377,-0.06258138,0.0009676282,0.057863787,-0.027708724,0.017251078,-0.035170667,-0.09553366,0.04753111,0.0652947,-0.017437795,0.009276669,0.16806684,-0.0017106502,-0.10238994,-0.014189362,-0.060098227,-0.018551555,-0.020446874,0.00072699285,0.018223062,-0.00039365247,-0.046384457,-0.048698403,-0.026287539,0.06325625,-0.104753345,0.10822588,0.030158209,0.04953006,0.044674065,-0.0006568719,0.007782307,0.019593,0.029372346,-0.19081664,0.03246204,0.00084483856,-0.0057740263,-0.06418782,-0.09759219,-0.06686498,-0.06622667,0.103017084,-0.009623876,0.017736724,0.012480458,0.07950216,0.02199709,0.056671366,-0.0012346087,-0.031192567,-0.048839934,0.026651537,-0.04629224,0.04858476,-0.08340903,0.032324176,-0.029708631,0.020556748,0.10088235,-0.046919316,0.07569306,-0.010533157,-0.0015516946,-0.05734546,-0.018927567,0.09788193,-0.25063354,0.047908567,-0.029806327,0.06777155,-0.035392724,-0.08553876,0.013281153,-0.047422435,0.021941293,0.03407699,0.046187725,0.09651045,-0.06645775,-0.008956453,-0.070522815,0.0059494847,0.10828306,0.021583343,-0.0151011925,0.037091132,-0.010394864,-0.0067446884,0.05040022,0.15550603,-0.010215296,-0.08429467,-0.03360647,-0.037468113,0.044392504,-0.014272288,0.02990171,-0.109803475,-0.016496055,0.024918528,0.053198136,-0.004647114,-0.085307285,-0.11901191,-0.021185866,-0.009916149,0.023593707,-0.025431037,0.08288506,-0.039217632,0.054822344,0.03516821,-0.053584106,-0.045224402,-0.025835058,-0.02526709,-0.05856624,-0.013127578,-0.03651473,-0.052845657,0.03316669,-0.003446999,0.023209834,0.0065884753,0.016914718,-0.08444106,0.06302319,0.056359638,-0.037695494,0.05905983,-0.08653479,0.023967521,-0.08348885,0.0029751323,0.13176088,0.091831446,0.122060455,0.053508136,-0.028727632,-0.033301793,0.026552103,0.12084992,-0.144345,-0.012406884,-0.016511135,0.07709134,-0.021557394,0.023466913,0.11392218,-0.019739902,0.06792143,0.0599537,0.037109688,-0.031275522,-0.013278311,0.010380186,-0.01849359,-0.090639226,0.05797274,-0.18656585,-0.09787266,-0.042120855,0.11701336,-0.002964897,-0.060453095,0.10350998,-0.06536301,0.0066817733,-0.04201006,-0.033425875,0.017063105,-0.12453039,0.008456321,-0.13942724,0.00011670115,-0.038741283,-0.083338365,-0.008234263,0.07570301,-0.015809106,-0.0050720116,0.09658168,-0.047346167,-0.0028058405,0.07223155,0.08802112,0.013125417,0.1872521,0.07140919,0.03719494,0.035204515,0.036399163,0.033421896,-0.08387217,-0.0024974004,-0.09322114,0.012938928,0.025040403,-0.069388404,-0.025859185,-0.09669303,-0.007859477,0.009558978,0.048175495,0.010829219,-0.1173306,0.054790754,-0.07508506,0.0021314954,-0.057651874,0.026511244,-0.034184553,0.030851131,-0.04330609,0.049762372,-0.040510956,-0.09333006,0.06636842,-0.11636907,0.06112098,0.0009294381,0.004140203,0.045409728,0.004194225,0.049229957,0.034071863,-0.07861136,0.011559977,0.013021586,0.122027986,0.08793475,0.0011260341,0.06741685,-0.10796078,-0.03690963,-0.05151602,0.03606415,-0.05892,0.025266457,-0.05250989,0.068781435,0.027498921,-0.017274464,-0.06098625,0.089840345,0.091100976,0.14000897,-0.06313162,-0.008804373,0.090661444,-0.07201049,-0.009292534,-0.06507589,0.032494422,0.067274876,-0.019569334,-0.035710797,-0.03833424,-0.037919648,-0.022401778,-0.020818962,0.09437585,-0.04927822,-0.05265762,-0.03650278,-0.027054394,-0.0039962674,-0.07225284,-0.06732601,0.0350659,-0.043590542,0.018217957,0.026189107,0.15997371,-0.05564054,0.08845516,-0.043514214,0.006805826,0.11258043,0.010698487,0.0071803136,0.019129049,0.08439914,-0.08358504,0.05315506,0.017917722,-0.01906444,0.045456644,-0.027731653,0.1268535,0.049064327,0.048180528,0.016573774,0.07407283,0.0034528226,-0.006506931,0.11817958,0.04656726,-0.04708369,-0.05681001,0.031012168,0.60171634,-0.027389867,0.058500987,0.004788649,-0.07082398,-0.18919677,-0.026573863,0.05518076,0.035904486,-0.061623964,0.027821833,-0.054418053,-0.023658432,-0.11090772,0.011785729,-0.0041550403,-0.015539957,-0.010203597,0.07775317,-0.08871311,0.03282237,0.07269074,0.13627511,-0.053988792,0.0038063861,0.0059951465,0.06879569,0.044997673,0.011495767,-0.094133995,-0.10229285,0.07694009,0.034802753,-0.012060719,-0.034718487,-0.10160784,0.03798178,0.016660603,0.07083565,0.027199088,0.06366449,0.09807173,0.045697816,-0.112168185,0.04638249,-0.054275677,-0.006387018,-0.1030023,-0.085612744,0.09969473,0.072391525,0.00485022,-0.09355583,-0.022017201,0.04438787,0.042800777,-0.013222676,-0.06475868,0.1144019,0.04528674,-0.055036597,-0.03092166,-0.0019341451,0.23293038,0.01012223,-0.011325787,-0.10258233,-0.11131416,-0.022007044,-0.025412688,-0.03873023,0.030927602,-0.01972844,0.05401794,-0.07690302,-0.078228325,0.028855152,0.040063452,-0.09520164,-0.18913639,-0.010796785,-0.13707033,-0.048392057,-0.038767777,-0.07163949,0.055259403,0.026914977,0.019226583,0.060331527,-0.15350743,0.02604609,0.043216217,-0.07580044,-0.15774919,-0.08979967,0.012043389,0.030635415,0.044963215,0.09454004,0.15988417,-0.008683113,0.0035543912,-0.06462627,0.053473745,-0.042790093,-0.017953081,0.04280542,0.04402918,0.03382667,-0.032541364,0.0020986113,0.011031843,-0.049653728,0.09561359,-0.08304567,-0.057122666,0.0093488395,0.015438333,-0.04655521,-0.16186129,-0.015845811,-0.06653596,-0.03880481,0.080852,-0.11537828,-0.08567018,-0.016620807,-0.04723643,-0.09797732,-0.026202636,0.05028542,0.038007855,-0.1241347,-0.009756934,-0.013544377,-0.23418213,-0.05169585,-0.06253882,-0.034779232,0.054996807,-0.025303831,-0.047478676,0.012437634,-0.011505104,0.027604412,-0.020631893,-0.025893632,0.09628719,0.100126304,-0.07104095,0.14064282,0.14117491,-0.0057376423,-0.014022637,0.08032767,0.05378993,-0.020613704,0.050095115,-0.08701087,0.110872194,0.01718332,-0.051813398,-0.059920877,0.14505906,-0.015257403,-0.07134816,-0.038495526,0.04235447,0.023422224,0.00039975307,-0.047320545,0.07847499,-0.08581848,0.06759351,0.06400764,0.08371191,0.00027188595,0.02678786,0.07535818,-0.058285505,-0.020290295,0.090358205,-0.048775025,-0.061990954,0.055967227,-0.051912006,-0.021306284,0.032692835,0.021029592,-0.0059586363,-0.101155415,0.036098696,-0.07531655,0.0055892966,0.061650466,-0.017729692,0.0049440237,0.03399614,-0.036458954,0.009478305,-0.049683206,0.056283455,-0.026903693,0.026453843,0.002158261,-0.072560765,-0.06939799,0.29252028,0.07830391,0.06933006,0.058643088,0.0029260248,0.12585136,-0.028745146,-0.0752718,-0.062124707,0.015105178,0.15308727,0.051593404,-0.0030035363,0.03019845,0.07925003,0.11755198,0.098793365,-0.012108319,0.033575792,-0.10479077,-0.029744655,-0.0014521552,0.060661364,0.012987461,0.019390147,0.09007503,-0.115465574,0.011782996,0.015820958,-0.0727153,0.039797433,0.027863942,0.08907863,-0.05107526,-0.099505275,0.068836614,0.08568492,-0.0068201497,-0.0071043535,0.0462977,0.011006256,0.008332473,0.09022643,0.041809257,0.015060602,-0.042670425,-0.0066184322,0.017429218,-0.013964464,0.031125754,-0.02465537,0.045438457,0.018742412,0.0023846643,0.027834522,0.062359184,-0.10284289,0.018247936,-0.031808108,-0.10072128,-0.075463325,-0.0091514895,0.010278501,-0.014808512,0.052803136,-0.041725595,0.045213412,-0.009044456,0.009409647,-0.051917594,0.040472776,0.0065226136,-0.028742226,0.048219748,0.034252074,-0.021856153,-0.028624069,0.08122731,0.037405677,0.01129531,-0.020021688,-0.006068337,0.0129470285,-0.014810409,0.032345645,-0.0073345774,-0.16982313,0.0293981,-0.04456154,0.08229487,0.09625357,-0.061282773,-0.016732918,0.04715225,-0.026628397,0.008275529,0.09848293,0.03192339,0.0071547814,0.109608375,-0.112735435,0.047705173,-0.04268089,0.0010296855,0.076158285,-0.004092031,0.118452676,0.050209243,0.05358124,0.06478163,-0.035610545,-0.004606425,-0.011591649,-0.094788246,-0.047326747,-0.006946112,-0.11045076,0.0018417124,-0.012770951,0.087262444,-0.037800174,-0.018223083,-0.039726283,0.046510164,-0.026499819,0.054264154,0.023338066,0.011277389,-0.02556589,-0.02973327,0.025532797,-0.11313135,0.025065592,0.061837763,0.020790264,0.08550688,-0.086653575,-0.09964725,0.11867552,-0.007669478,-0.060314022,0.07469998,0.03760944,-0.054483976,-0.021695059,-0.02719898,0.14724629,-0.115834065,-0.023863187,0.09231061,-0.037259404,-0.017104855,-0.046505608,-0.015213545,-0.10627356,-0.014007056,-0.017728334,-0.013186292,-0.02824134,0.04140407,-0.07497847,-0.004928085,0.07386452,-0.08178476,-0.036089852,0.06223092,-0.09540742,0.014512087,0.052095447,-0.095861,0.08247558,-0.0038449678,0.17194413,-0.06726114,0.05547657,-0.0030261113,-0.016206468,0.030767815,0.113118425,-0.032178324,-0.034786314,0.03124261,0.045969583,-0.053981274,0.004205755,0.032665163,0.08466193,0.02427555,0.060671028,-0.045119274,-0.02097916,-0.049830977,-0.090671025,0.031406615,-0.081524216,-0.0007314457,0.050039202,-0.06332206,0.43339118,-0.016076017,-0.029523572,0.09554018,-0.12893263,-0.07604602,0.00454952,-0.065032005,-0.015034893,0.00506027,-0.10377504,-0.022443146,0.044580102,0.14615773,0.13147181,-0.016237833,0.02187872,-0.064169005,0.06643965,-0.00430937,0.04057968,-0.10849004,0.01769295,0.16094935,0.027703537,0.04483362,0.21312398,-0.056368455,-0.12965292,-0.030652018,-0.021921193,-0.03012411,0.051014252,0.008946558,0.03280646,-0.02130904,-0.083407186,-0.09570215,0.013998578,0.041237086,-0.013477717,0.10524916,0.048103567,0.023602283,0.052491073,0.00391903,-0.0673198,0.030530483,-0.029874297,-0.005346432,0.007921707,-0.06460301,-0.03997888,0.03665103,-0.09760524,-0.040241454,-0.0957104,-0.119395055,0.084620655,0.017130066,-0.033561155,0.097787574,0.035356075,0.0776369,-0.051439013,0.18007296,0.033940848,-0.015789866,0.011387786,0.062164746,0.03386882,-0.04716302,0.05832221,-0.10355625,0.07059131,-0.043119248,-0.095212474,0.05079709,0.022474509,-0.04246413,0.010331091,-0.008891586,-0.107708596,-0.041917834,-0.04609549,0.030106723,0.037469655,-0.009072845,-0.07966537,0.08640751,0.001047089,0.10356758,-0.15347622,-0.039967097,0.012996975,0.0237244,-0.06146669,0.0095226625,0.059439555,0.08654478,0.033679083,-0.02702415,-0.094895996,-0.057563275,0.016616296,0.011429218,0.1113464,0.04143965,-0.030633852,0.031004477,0.06575296,-0.00087845325,0.07093741,-0.012045763,0.04722831,0.01975582,0.06391098,0.00059889385,-0.08882322,0.13625087,-0.012928372,0.0623328,-0.057884067,-0.05967956,0.07049423,-0.04403602,-0.04593004,0.0008321075,-0.01556124,-0.0035357818,0.0098030325,-0.04397295,-0.0026659349,0.0166582,-0.0042790375,-0.07640135,-0.09942608,0.056016408,0.07429602,0.08385611,0.06941188,0.015688408,0.034669507,-0.055074114,-0.08476078,0.06166708,0.052792642,-0.096246056,-0.069176495,-0.008318281,0.067676134,-0.03594785,0.045263756,0.021495631,-0.077533595,-0.034914926,-0.044480547,0.060003035,-0.026456388,-0.06872407,-0.040519018,0.097876124,-0.07073858,0.10057686,0.0822393,-0.029399266,-0.010070831,-0.04419199,5.924994e-05,-0.033886675,-0.0088236155,-0.045152716,-0.018037127,-0.014967616,0.0018508804,-0.018333266,-0.049577262,0.009846316,-0.010652022,0.009183637,0.019385312,0.048238236,-0.038100842,-0.046691377,0.030070268,-0.12100969,-0.079704784,0.067962974,-0.008755058,-0.13545813,0.023438463,0.043398384,0.19909003,0.040437087,-0.02130768,0.015713356,0.07091457,0.0026166353,0.007824035,-0.014840367,0.059664663,-0.105961904,0.111431606,-0.15847519,-0.07294707,0.015289077,0.0579522,0.012900774,0.096894816,-0.0038348252,0.13482264,0.085039966,0.020987758,-0.13463473,0.17608036,0.045396734,-0.01995806,0.0553607,0.03081168,0.02135826,0.032584958,-0.09279451,-0.04428917,0.019695487,0.040103633,0.028970413,0.030955305,0.012924347,-0.053653244,-0.10178956,0.059916135,0.05755031,-0.13040906,-0.09502761,-0.034425475,-0.17346197,-0.038337987,-0.035968013,0.040550444,0.01904192,-0.08424994,-0.026549833,-0.028690072,0.08214132,-0.018534385,-0.008494155,0.033495493,-0.047884393,0.00084209436,-0.031507287,0.047747932,-0.004657553,0.024252068,-0.02672672,-0.058707774,-0.113791175,0.028347805,-0.09784705,0.068040945,0.04413291,-0.024173783,-0.02684732,0.07108813,0.020161027,0.083079435,0.015800387,0.011623863,0.06648382,-0.027797882,0.012012966,-0.08525871,-0.06403702,-0.006672838,fatwoman2.jpg
1,0.009252023,-0.034892756,-0.052522723,-0.047995586,-0.0785993,-0.034509175,0.096051954,0.07123236,0.042410724,-0.07487414,-0.002434386,0.106260635,-0.048072863,0.105429165,-0.0078051244,0.041269336,-0.017206814,-0.05785789,0.08803255,0.0069570146,0.00843579,-0.03371575,-0.12411313,0.020214971,-0.057788868,0.033454046,-0.029970625,-0.06964372,-0.08869237,-0.0070079216,-0.07496597,-0.012807402,-0.038682085,0.028087828,-0.077020906,-0.03615174,0.044112872,-0.06010882,0.09798473,0.10133207,-0.07933854,-0.02831134,-0.043601025,0.03734857,-0.07508443,0.07334842,-0.06853092,-0.108176775,0.0002560745,0.14237152,-0.012789863,0.046421096,0.031494543,0.040057,0.016227193,-0.112206206,-0.00832897,0.0013934755,0.0039564837,-0.04702938,0.10532056,0.0093109105,0.082921356,0.0058020484,0.09110008,-0.048757587,-0.07153139,-0.011936997,0.012828297,-0.06579403,-0.03849202,-0.004397201,-0.046562403,0.14511587,-0.026074918,0.055063248,-0.041386347,-0.031735543,0.07160388,-0.021235159,0.15641962,-0.06649231,-0.07250597,0.0029187053,-0.13925977,-0.10098412,0.03251292,0.09342286,0.024037756,0.04271227,-0.03389459,-0.018961865,0.046394363,0.067001425,0.0058689285,-0.028035935,0.12723777,-0.05127576,-0.015277519,0.010085447,-0.021487867,0.02219363,0.003174608,-0.013535922,0.044394102,-0.037416708,-0.06226638,0.010820359,0.0075981636,0.007745616,-0.028158287,0.017698921,0.00593953,0.04758057,0.086496316,-0.13658185,0.0407614,-0.07061133,0.017808035,0.062478103,-0.032565936,-0.04643629,0.015410667,0.02447228,-0.085979864,0.017521845,0.041289333,0.035624493,0.014488536,0.06397711,-0.0741668,-0.03529969,0.013905984,-0.03747475,-0.034366183,0.07538597,-0.048957523,-0.10329665,-0.06874708,-0.010388462,0.025041219,0.03821156,-0.06594039,0.012750143,0.07331746,-0.04079251,-0.0027305898,0.038229715,-0.06098442,-0.08111158,-0.094374865,-0.017023677,0.04065257,-0.073373295,-0.032947294,-0.06086083,0.018699063,-0.025596363,0.023257192,-0.10315196,-0.05209368,0.0739555,-0.17362474,0.011658355,-0.01971506,-0.08428533,0.07634424,0.034738544,-0.06700443,0.041785013,0.021025632,-0.0050310777,0.0495078,0.021993686,0.019078538,0.06631252,0.042265113,0.09096065,-0.0033921322,0.005089764,0.013893272,-0.060637627,0.048070364,0.010256852,-0.0057027247,0.11288806,0.025988372,0.072908215,-0.060228907,0.02205823,0.022078043,0.01493387,0.00030264695,0.004343865,-0.07630152,-0.040428545,0.08499024,0.10851475,0.032385048,-0.028372753,0.057118237,0.0012441487,0.0072592977,-0.090506494,0.007947334,0.038568214,0.01611549,-0.033176754,0.044824585,-0.009790394,-0.07501395,-0.10848862,-0.0013455809,-0.049344905,-0.076153345,-0.022536112,0.018695988,0.017554116,0.017572692,-0.11695435,-0.03291859,0.026664566,0.072083116,-0.16888086,0.10291666,0.0022858134,0.03276437,-0.041401267,-0.06871065,0.027681287,-0.0723995,0.031852953,-0.03531606,0.005781513,0.032692693,-0.08601218,0.0057063554,0.022066977,0.04461655,0.008910701,-0.071670316,0.21232861,0.08877116,0.15068783,-0.06637154,0.07975101,-0.007562164,0.09281203,0.072461925,0.02166398,-0.047344618,0.025942618,0.05867419,0.029503,0.00062609196,0.03507775,-0.04703001,-0.046074428,0.005845696,-0.019757133,-0.067215644,-0.0767001,0.004584233,-0.0402394,0.03571391,-0.052982025,0.06366443,-0.044496536,-0.06241601,0.13133912,0.0074859704,0.07202554,0.023827124,0.028947253,-0.050891787,-0.007435199,0.042193484,0.056550026,0.02572151,-0.08584865,-0.08717617,0.065833755,0.05694865,-0.005961845,0.042979278,0.018736301,0.17357399,0.049753927,0.060253732,0.034563225,0.008959708,0.050281335,-0.009147278,-0.071077965,0.028892394,0.027619625,-0.06496066,0.016330125,-0.12423851,0.03371932,-0.071218185,0.08489047,0.047538005,-0.02740844,0.10415342,-0.031232856,0.07381502,0.0874709,0.0644842,-0.04110196,-0.048429944,0.01421317,0.06730538,-0.14320722,0.05371785,0.017754182,-0.10308291,-0.04241882,0.01174151,-0.059352893,-0.13032101,-0.046344783,-0.06664879,-0.031279847,0.03312178,0.07619702,0.08568294,0.012849006,-0.02094609,-0.006966547,-0.031161385,0.05203919,-0.07586619,0.05341885,-0.22487529,0.078647316,0.021319157,0.05739337,0.026433874,-0.12106719,0.026626252,-0.011316093,-0.004914804,0.03227263,0.06919336,0.20552936,-0.045574527,-0.060710933,-0.042949513,-0.019581487,-0.033792153,0.07499482,-0.011422778,-0.038495958,0.006732192,0.07081962,-0.010465395,0.04408408,-0.082450345,-0.10276141,-0.0757885,-0.056318592,-0.035781965,0.020876681,-0.008675572,-0.13853434,0.08910565,0.062778726,-0.005915273,-0.007927835,-0.15058596,-0.08999606,-0.05356964,-0.011748054,0.007955999,-0.0025253647,0.0010180201,0.021905307,-0.033952214,-0.008352649,0.031140579,0.09793684,-0.027731877,0.10437187,0.06243834,-0.031679403,0.057758383,0.058757477,0.018183274,0.0055907327,-0.014705231,0.17983836,-0.023912909,-0.024309585,0.038063914,0.08730903,-0.028912686,0.06659795,-0.17465283,0.061074167,0.026634527,-0.16781719,-0.0037431354,0.050498556,0.01547035,-0.063121215,0.021705093,-0.1222291,0.025809836,0.00048157445,0.094199374,-0.02630942,-0.037842277,0.10713164,-0.02408844,-0.022696305,-0.0038509795,-0.055279125,0.05865382,0.046295956,-0.095381126,0.098613724,0.00028560476,-0.0729204,-0.019633519,0.07886448,-0.08016086,0.12065125,0.017829485,-0.013332205,-0.044363312,0.02658952,0.015854914,-0.023846969,-0.053201444,0.041004967,-0.023923395,0.023918262,-0.049977634,0.048002735,0.07252582,-0.0032162294,-0.059253465,-0.05934032,0.007976528,0.0006239267,-0.06305306,-0.06440473,0.026296193,0.084805846,-0.03683422,-0.0024312697,-0.04582157,-0.06539075,-0.002300243,0.053431313,-0.019466791,-0.002445823,-0.023870563,0.02556026,-0.04134978,0.11393933,-0.07741525,-0.010699591,-0.021518277,-0.0023467652,0.030227667,0.035102922,0.10489958,1.1732003e-05,-0.08852759,-0.042579073,0.008875139,-0.02339773,-0.0024867656,-0.012470892,-0.031720985,-0.019819492,-0.044424977,-0.037657596,-0.021555781,0.009937047,0.0823784,-0.030688638,-0.037500765,0.055926617,-0.060267642,-0.0253021,0.107639,0.010075256,-0.07804079,0.025156742,0.008995124,0.09915059,0.025618894,-0.010118746,0.033643465,0.028651072,0.03079487,0.014267973,-0.0656295,-0.0030290654,-0.023812495,0.23500755,0.065913275,0.013795647,0.10921176,-0.057720292,0.09136639,0.02485885,-0.07808806,0.11302195,-0.01164199,-0.07313042,-0.07185804,-0.04839399,-0.02362901,-0.039876066,0.027503118,0.031609453,0.11676895,-0.008159776,0.011366707,0.04208008,0.062772214,-0.06877608,-0.05807868,0.07513083,-0.015786612,-0.074233934,0.06744239,-0.10228192,0.03194209,-0.02221603,0.08558965,0.06494598,0.013068241,-0.07565674,-0.017052231,-0.12748256,0.051620282,-0.0338398,0.066372246,-0.012827769,0.028750183,-0.03792178,0.028095212,-0.040701415,0.027187008,0.011207341,0.021082131,-0.05139818,-0.02234641,-0.06646373,0.015851276,-0.11367024,-0.039409213,-0.044924024,0.10779251,-0.027216107,0.043269597,-0.027611146,-0.104389735,0.050823633,0.04270113,-0.013069962,-0.005431908,0.18737271,0.012832484,-0.10793057,-0.013747938,-0.045541145,-0.007757277,0.010714854,-0.036188424,0.032783225,0.013261996,-0.037533335,-0.064703315,-0.022401433,0.06599947,-0.10005227,0.11228456,0.029333718,0.03073335,0.02913307,0.03335485,0.013545312,0.017988209,0.017732726,-0.17395194,0.058052752,0.0070365383,0.0062965113,-0.0661624,-0.11003729,-0.034617,-0.023280283,0.09377975,-0.0061873295,0.024745343,0.00976459,0.09071797,0.013027312,0.04896839,0.03497687,-0.014899869,-0.05280939,-0.0003713712,-0.062073532,0.044868264,-0.07114342,0.034828722,-0.034271844,-0.010292448,0.10889639,-0.0882768,0.09991225,0.009515853,0.002311895,-0.0600988,-0.027370553,0.13350324,-0.24160936,0.044703223,-0.028927915,0.10124013,-0.058605615,-0.079781204,0.0033892738,-0.034689937,0.020294549,0.05236069,0.07719557,0.10678165,-0.091207586,0.0035456633,-0.071480356,0.0059415954,0.098028734,0.020009557,0.0008914597,0.046378627,-0.019533591,-5.3532895e-05,0.070299655,0.16023244,-0.0038641444,-0.11380455,-0.0118225515,-0.00588649,0.054752205,-0.012559307,0.048492126,-0.10940098,-0.03883123,0.033995114,0.07437154,-0.017181536,-0.058374338,-0.14398511,0.018269192,0.0077029183,0.018665472,-0.049091764,0.08066701,-0.019397452,0.040560666,0.039363075,-0.04809013,-0.033814903,-0.0155013185,0.007382683,-0.049275253,-0.015213911,-0.06022833,-0.028071698,0.05432153,-0.014033914,0.010731286,0.026985578,0.030660741,-0.08713351,0.040465526,0.036589414,-0.053813044,0.06844816,-0.093224354,0.043426845,-0.06771795,0.0034782044,0.13765879,0.094150506,0.12511615,0.041539583,-0.027586695,-0.002875862,0.022793788,0.09182496,-0.15034658,-0.031746347,-0.008109142,0.060430586,-0.009685034,0.020702638,0.08894586,-0.006366232,0.08163984,0.059293218,0.009149607,-0.037989203,-0.024464471,-0.00020038031,-0.028683709,-0.056029473,0.10827191,-0.20156762,-0.07984229,-0.03247978,0.08870263,-0.008297402,-0.06882611,0.09984422,-0.06801925,0.007141505,-0.04711553,-0.050995775,0.020770734,-0.14929366,0.019781366,-0.14300548,-0.033883326,-0.03905318,-0.08208806,0.0037589655,0.06942475,-0.010110987,-0.0130171245,0.07070185,-0.047653135,-0.013682239,0.11207467,0.07297212,-0.0018790517,0.18828015,0.06306214,0.034095824,0.012293589,0.025012359,0.05326435,-0.086262256,0.006317132,-0.071220614,-0.002976118,0.027882395,-0.0715036,-0.026176019,-0.10246352,0.013459098,0.008420608,0.057385657,0.035180986,-0.09303079,0.042359594,-0.07598245,0.0031805434,-0.04823878,0.061006717,-0.054382127,0.020655446,-0.021527357,0.014386879,-0.041611418,-0.07952265,0.05945428,-0.11539634,0.060962185,0.004643483,0.0139732035,0.04684602,0.011555775,0.055866167,0.036685772,-0.102981165,0.0075496263,-0.0104147615,0.12535352,0.07492922,0.004187659,0.068581745,-0.11941718,-0.019114751,-0.044679176,0.0334422,-0.05870175,0.0478599,-0.03980182,0.030309562,0.006914923,-0.008716111,-0.04660132,0.1047326,0.10608746,0.1586487,-0.08521825,-0.008712784,0.0795242,-0.070652105,-0.034656897,-0.06853341,0.024599843,0.044691715,-0.05219087,-0.025699478,0.015414875,-0.025910016,-0.004042532,-0.01752752,0.1034211,-0.056072585,-0.038193896,-0.041364245,-0.022818848,-0.0023964823,-0.056227636,-0.048907492,0.04040386,-0.044650283,0.007352901,0.025874803,0.16062061,-0.05395004,0.080121726,-0.036614582,0.004967737,0.058163952,-0.008059206,-0.025550457,0.0326342,0.09243232,-0.10500981,0.044170234,0.016849076,0.014449693,0.061505385,-0.009531869,0.11917539,0.05440378,0.068267085,-0.015398631,0.08817969,0.001869381,0.034673862,0.1008086,0.029159041,-0.03450423,-0.01617862,0.020407187,0.6028282,-0.01329599,0.10160778,-0.0026052145,-0.034819808,-0.18392669,-0.105266295,0.057722792,0.032391313,-0.067019045,0.045899663,-0.06397045,-0.011517088,-0.13086212,0.012807282,0.009317418,-0.021765703,0.0064531174,0.061664574,-0.08215456,0.06873592,0.095783964,0.123453304,-0.0052470523,0.040969763,0.009690106,0.04197277,0.030258339,0.02788206,-0.05711418,-0.09113177,0.09984588,0.043972034,-0.0035781376,-0.03870952,-0.10218314,0.056032088,-0.00072766404,0.07781752,0.037624445,0.023877218,0.09242578,0.033027314,-0.11663047,0.044071667,-0.046391714,-0.019576943,-0.09441907,-0.103762396,0.12464759,0.058027625,0.02475893,-0.10045147,-0.026564132,0.050387785,0.047378767,-0.0011642743,-0.08547971,0.09730312,0.034788698,-0.055666696,-0.028947825,-0.022550156,0.24547632,-0.018020712,-0.006036989,-0.08319018,-0.10512042,-0.007927341,-0.008908654,-0.045381982,0.04542221,-0.008436053,0.07700082,-0.087110296,-0.061568912,0.04833102,0.015914,-0.10448833,-0.21953286,0.0039690575,-0.12979405,-0.017659836,-0.040425878,-0.077472955,0.055898126,0.024037475,-0.022342324,0.07072391,-0.14149183,0.050340213,0.013495919,-0.04471296,-0.18052086,-0.09959322,0.021888698,0.020516174,0.023772998,0.092420734,0.17000507,0.0028424943,0.012494145,-0.050743707,0.074510366,-0.05722214,-0.022796027,0.028138034,0.053258725,0.019179497,-0.016952423,-0.0010732112,0.009641935,-0.044378113,0.121018685,-0.087569125,-0.04443148,0.011374176,0.025701921,-0.018735258,-0.14136292,-0.018744411,-0.07428466,-0.050698496,0.07820181,-0.09074521,-0.08075585,0.0077586044,-0.058427934,-0.101767555,-0.019459816,0.064624295,0.054482233,-0.1595615,0.010621944,-0.023535429,-0.2312258,-0.04657222,-0.04648321,-0.04084508,0.029044824,-0.0440426,-0.031102922,-0.009568737,-0.012703061,0.0056512184,-0.014034827,-0.01828907,0.06758458,0.09645086,-0.062071618,0.10183936,0.14310397,0.028976018,-0.0070975116,0.06898278,0.09381651,-0.041255794,0.04262985,-0.091640666,0.10889553,0.021815335,-0.06908602,-0.026161559,0.15126094,-0.019753227,-0.082478724,-0.052693307,0.048619926,0.032766465,-0.01565254,-0.06366196,0.04970548,-0.07760532,0.089877985,0.08429502,0.06427586,-0.01892459,0.03557685,0.06982094,-0.05324054,-0.022239802,0.081749655,-0.0647493,-0.043540653,0.0680771,-0.055710424,-0.043316554,0.04402119,0.039985657,-0.009181374,-0.11142774,0.037773598,-0.06913871,0.018125104,0.07184173,-0.0005904172,0.004114486,0.033990536,-0.007945627,0.046975005,-0.036793526,0.063526005,0.0004797439,0.011372662,-0.012736662,-0.059125468,-0.064573556,0.2925478,0.082946144,0.060898826,0.067024864,0.0101752,0.092353456,-0.03652627,-0.08417051,-0.08965866,0.02697815,0.16361012,0.1016532,-0.0028762962,0.03393181,0.07133297,0.09379967,0.0698454,-0.017803589,0.021251224,-0.09304078,0.009218981,0.019527573,0.06888071,-0.00062336033,0.015401524,0.070064515,-0.1122351,0.045939747,0.042347826,-0.0619164,0.022104966,0.02567743,0.080541655,-0.046996333,-0.12400657,0.05624606,0.07825556,-0.023899622,-0.028949602,0.009951641,0.014906142,-0.04584814,0.083647326,0.041678105,-0.0069843214,-0.035607256,0.01707233,0.019363375,0.008760064,0.01412886,-0.012275734,0.05214297,0.021985268,0.03085146,0.008425266,0.056385994,-0.10427994,0.041448563,-0.030175637,-0.09027442,-0.111446336,-0.012911676,0.0064666555,0.0060239285,0.08295851,0.0018132833,0.04130089,-0.015463833,0.032978565,-0.06179253,0.023993839,-0.017588936,-0.06787432,0.058820646,0.04374763,-0.04038976,-0.008201732,0.07771509,0.022111505,0.0016187169,-0.025268143,-0.018620774,0.020290695,-0.012226433,0.020726157,0.01683658,-0.1654662,0.042457342,-0.023972144,0.075710304,0.09601888,-0.061829485,-0.01452095,0.06605422,-0.019821467,-0.008485873,0.0927224,0.021017563,0.0016150334,0.09432954,-0.124911495,0.045684062,-0.03298628,-0.011485544,0.062015455,0.00632663,0.1356539,0.07665123,0.033588517,0.058618207,-0.03114194,0.015319063,-0.00673058,-0.13084005,-0.0633692,-0.013670568,-0.11086161,0.009960636,-0.03486373,0.07172496,-0.04411284,-0.048719443,-0.03543546,0.046213727,-0.04865372,0.053227603,0.057163402,0.0055131568,-0.021647979,-0.016087534,0.02599762,-0.12916796,0.03250928,0.07884981,0.021489559,0.080936365,-0.09825019,-0.11037885,0.11011363,0.0021313485,-0.05744803,0.07852898,0.03309427,-0.041855793,-0.028560659,-0.046437208,0.14298917,-0.123173185,-0.011405723,0.06795996,-0.024362613,-0.0063104993,-0.06568069,-0.035170976,-0.110971056,-0.008975051,-0.019092526,-0.023572758,-0.012767506,0.009425532,-0.08417004,0.00040985903,0.06380018,-0.06526339,-0.06842478,0.088036604,-0.08415976,-0.00041364544,0.01672288,-0.083801314,0.073785365,0.014750819,0.17233896,-0.075462006,0.056948468,-0.010307331,-0.0069051874,0.05510579,0.11662394,-0.01390902,-0.01669273,0.03325143,0.04095384,-0.047501765,0.01794837,0.03614093,0.093128935,0.037980214,0.06437466,-0.034208126,-0.0009738621,-0.048329677,-0.11085358,0.051885407,-0.09867664,0.011290251,0.04604552,-0.03611041,0.42333063,-0.0090252105,-0.036035094,0.11093515,-0.13039044,-0.06917109,0.010206232,-0.05429813,0.01991136,0.02523018,-0.11506877,-0.0026659116,0.048353136,0.09961819,0.11322527,0.006714694,-0.00048266834,-0.032674756,0.05595812,-0.010121249,0.037585452,-0.09556972,0.0052230633,0.16808578,0.030066406,0.040685136,0.22307675,-0.044912204,-0.14395326,-0.009568742,-0.047349166,-0.022181978,0.050584722,0.0013053438,0.015086877,0.009628941,-0.0535618,-0.07310829,-0.0093025565,-0.004866831,-0.012028475,0.13152209,0.0353093,0.0054933634,0.07834636,0.0135512715,-0.07068351,0.059061103,-0.018479161,-0.022406502,0.031386774,-0.08756294,-0.035396967,0.087617636,-0.08631209,-0.04533256,-0.082740866,-0.12331508,0.041696686,0.003556406,-0.02738652,0.09342043,0.018737532,0.07315624,-0.03558856,0.18306045,0.053087562,-0.010799623,-0.007970388,0.07134977,0.043249764,-0.037066083,0.05037762,-0.07547568,0.037053227,-0.01872525,-0.09406819,0.020024851,-0.017930029,-0.045677055,0.0014340172,-0.01857597,-0.10525769,-0.04247857,-0.08418001,0.03566071,0.04821776,-0.0068107336,-0.09773779,0.06693598,0.007511107,0.09924204,-0.14888717,-0.02401007,0.014299518,0.013420619,-0.045988366,-0.00945911,0.05645338,0.060830295,0.028259188,-0.03129158,-0.098341264,-0.102309495,0.050235406,0.031782698,0.108704306,0.04781609,-0.017152494,0.03192181,0.081446595,6.5521715e-05,0.11373651,0.019824132,0.030468013,0.008141563,0.06929656,-0.0039852564,-0.06178523,0.119516596,-0.029472617,0.06829804,-0.077355474,-0.050133284,0.0696742,-0.07263958,-0.05131491,-0.013347169,-0.045406517,-0.017039537,0.0059074303,-0.05463308,-0.0056692646,0.0030347814,0.031249627,-0.085281916,-0.10070914,0.017697804,0.09106347,0.09895017,0.07781073,0.009398163,0.03380904,-0.04847012,-0.07730927,0.0694429,0.064403765,-0.08093163,-0.0690224,-0.008002868,0.07719225,-0.027543353,0.03736098,0.022025965,-0.09203658,-0.033453654,-0.053825993,0.051849507,-0.024631884,-0.07006077,-0.030941945,0.067686334,-0.07522278,0.08442668,0.09648923,-0.045151953,-0.0064694667,-0.04291863,-0.003260256,-0.023178736,-0.015957808,-0.03570316,-0.0129196895,-0.032473058,0.0025770573,0.017201634,-0.041041072,-0.008451889,-0.016325349,-0.0011609882,0.026775109,0.030277709,-0.010595478,-0.049522948,0.020283062,-0.11653835,-0.04031383,0.050183814,-0.02559953,-0.13407885,0.032262206,0.0417161,0.16391088,0.03296912,-0.019625176,0.018712578,0.07708895,0.012916448,0.020670101,-0.03856563,0.07017965,-0.07328401,0.114301,-0.16360444,-0.07401504,0.012714647,0.055421725,0.02700999,0.12609823,-0.036364254,0.11792389,0.084426895,-0.026148241,-0.14811365,0.1754024,0.03931303,-0.016684487,0.062988125,0.04070759,0.040090352,0.027902897,-0.10750239,-0.036106877,0.024099581,0.039561234,0.05651358,0.033596598,-0.0045074746,-0.042214263,-0.06785846,0.09249828,0.02625914,-0.11198033,-0.113329746,-0.037655655,-0.14951284,-0.03336463,-0.036059808,0.05109856,0.009143707,-0.08243778,-0.013873496,-0.034125347,0.07397395,-0.019117562,-0.0032104973,0.041798957,-0.04920576,-0.009142025,-0.008386187,0.0487946,-0.010191723,0.004624827,-0.036017284,-0.05197654,-0.11563904,0.038421683,-0.10015437,0.051256597,0.05402437,-0.003919947,-0.019189674,0.055861615,0.005785194,0.09262967,0.006389191,0.02727332,0.10739676,-0.04340785,-0.00948774,-0.07432476,-0.071689576,-0.027547264,fatman5.jpg
2,0.006280388,-0.063483275,-0.07915757,-0.014191677,-0.07100776,-0.016720252,0.11277565,0.057372812,0.017280554,-0.07987795,0.002793014,0.08618018,-0.028625323,0.101090826,-0.017457454,0.032247193,-0.017056376,-0.021549692,0.04361097,0.037842125,0.010632975,-0.01098811,-0.122013316,0.024184851,-0.06837125,0.061455775,-0.0042041712,-0.06915847,-0.040069718,-0.014773322,-0.08298592,-0.005614414,-0.0057611736,0.010073128,-0.049987264,-0.05715062,0.03206899,-0.04699011,0.096259035,0.09765451,-0.08708161,-0.01941317,-0.051670495,0.042038407,-0.07175959,0.050203882,-0.06295692,-0.09066511,0.001324799,0.13196394,-0.0065911757,0.05840502,0.04003283,0.035426885,0.0051182597,-0.10696818,-0.0024484957,0.015356674,0.02515971,-0.059084978,0.085849054,0.008244864,0.07670514,0.059734635,0.079355374,-0.036437463,-0.06027244,-0.01220247,-0.00930092,-0.06498328,-0.045840308,-0.009649914,-0.041745022,0.11298681,-0.030732246,0.038070597,-0.038169973,-0.022662837,0.05461827,0.0019078124,0.14384839,-0.072641514,-0.062688895,-0.0021927126,-0.1249343,-0.092757575,0.05680909,0.082198896,0.023531416,0.05603065,-0.012457075,-0.04461424,0.05175743,0.041335393,-0.023223352,-0.014000612,0.12319115,-0.044035293,0.009925716,0.032677084,-0.035394397,0.0067886794,0.0039991043,0.00548482,0.028420191,-0.038442478,-0.04142758,-0.02854908,0.019817483,0.0044144527,-0.019826766,0.04267039,-0.0026533208,0.04993252,0.1226564,-0.11820215,0.03722282,-0.07836671,0.013872525,0.058932967,-0.020629369,-0.041021075,0.013567215,0.0069897403,-0.088823624,0.010045247,0.025629306,0.05698161,0.023371086,0.07133377,-0.073414415,-0.06402524,0.036698267,-0.027826274,-0.032130383,0.10867189,-0.043777723,-0.07471642,-0.068656296,-0.03296345,0.031527225,0.041902304,-0.08022872,0.026085256,0.071825884,-0.047258686,-0.0027194612,0.009444689,-0.051730614,-0.051780067,-0.11113303,-0.032440837,0.056054834,-0.022259662,-0.04065823,-0.056417722,-0.0064410665,-0.015710315,0.021518093,-0.090315975,-0.052910358,0.074819766,-0.12723638,-0.043843463,-0.0016446931,-0.053857666,0.06044046,0.011384834,-0.061871115,0.054589365,0.013918851,-0.010240937,0.040899094,0.043071356,0.0452056,0.047101703,0.03744747,0.08373649,-0.01924654,-0.021530919,-0.0024344942,-0.0576688,0.050755285,0.030758796,-0.003434361,0.13017525,-0.0018984067,0.064399794,-0.019507412,0.0066357935,0.051960416,0.0031455976,0.02840997,-0.008806888,-0.0499945,-0.051557362,0.08341814,0.11045105,-0.019605314,-0.03387918,0.037538826,0.005650063,0.024894767,-0.07008425,0.015752329,0.053860966,0.008013799,-0.03594877,0.032023437,-0.015428255,-0.053730596,-0.08983326,0.02849089,-0.053510386,-0.09191676,-0.03344282,0.051550757,0.04626637,0.012204925,-0.13607314,-0.026792327,0.0014188755,0.087703034,-0.17064351,0.10588322,0.030716505,0.019448828,-0.023572007,-0.049574375,0.0070408615,-0.06111564,0.017226407,-0.057512555,-0.007734336,0.06009672,-0.08936094,-0.01210141,0.043974545,0.030547615,0.005719107,-0.09771093,0.20118514,0.059698913,0.14634956,-0.05890526,0.07166074,-0.034072787,0.07802136,0.065263204,0.025115035,-0.029733827,0.014185794,0.031889543,0.038009144,-0.0037764749,0.030075738,-0.04814754,-0.07361277,0.0008676014,0.012421756,-0.03944144,-0.08689326,-0.0058342996,-0.043906312,0.015942238,-0.065042675,0.086595565,-0.048251998,-0.091818966,0.10961868,0.025392408,0.06303988,0.022658065,0.0025220173,-0.05473435,0.0040539065,0.058100175,0.036256008,0.024841528,-0.0653194,-0.06467533,0.069934174,0.063731745,0.0114984345,0.041187957,0.024560496,0.17343731,0.02438252,0.060905945,0.008281634,-0.006846505,0.05797063,-0.0024180561,-0.07590947,0.033371646,0.06309573,-0.07060026,0.02093605,-0.11829139,0.0065743257,-0.061716158,0.088379264,0.046963673,-0.028173095,0.097196,-0.010691043,0.077706665,0.055727344,0.038290888,-0.030011756,-0.010030262,-0.0039688637,0.072416455,-0.13707466,0.058710977,0.0059118047,-0.12854503,-0.03963805,0.033415716,-0.041984458,-0.1558352,-0.034560293,-0.06727891,-0.052355222,-0.0025381623,0.08607077,0.07584654,0.011409708,-0.023562765,-0.026953598,-0.047935277,0.052920684,-0.09496937,0.026470907,-0.2282099,0.050635003,0.028549992,0.03270187,0.034596894,-0.10479974,0.039161824,-0.0174098,0.0011925435,0.013700919,0.063018285,0.21875179,-0.04370106,-0.05704029,-0.028177038,0.02293756,-0.009181842,0.07941027,-0.01352618,-0.036910176,-0.006771031,0.06997093,-0.03589714,0.045225807,-0.08929813,-0.0662836,-0.07547154,-0.053562827,-0.0072978637,0.036700387,-0.02151934,-0.10853824,0.09462554,0.062198892,-0.0035136272,-0.021698747,-0.15404797,-0.07863846,-0.07513165,-0.021687536,0.02628208,0.0042327615,-0.011097855,0.027741194,-0.032219283,-0.011306472,0.054971583,0.096446924,-0.032459747,0.07359953,0.04388114,-0.046174902,0.073077396,0.04617187,0.043796916,0.024037765,0.0010441025,0.1856427,0.007470715,-0.018192906,0.031605322,0.097882085,-0.008591769,0.03451249,-0.1667166,0.06050611,0.01979988,-0.16375217,0.02582397,0.062414937,0.0037305215,-0.053387437,0.035307005,-0.12417053,0.030941885,-0.014842101,0.090654,-0.024660952,-0.011658307,0.08862274,-0.03549712,-0.050661545,0.010389335,-0.053497024,0.05293705,0.040572017,-0.059166666,0.09819943,-0.0031639864,-0.07167635,-0.011319843,0.078514196,-0.0770445,0.11456477,0.011867694,-0.0026028452,-0.044656694,0.025048675,0.01983398,-0.03101161,-0.08582118,0.032590657,-0.049817346,0.014110277,-0.03262124,0.046807375,0.049369764,-0.0030123715,-0.07760289,-0.048893247,-0.04663143,-0.0068734405,-0.08306741,-0.06826851,0.03828261,0.08016688,-0.015519393,-0.00016017038,-0.046770178,-0.04577162,0.0057117012,0.036867686,-0.011408158,-0.0106128035,-0.01970655,0.012505342,-0.047931645,0.08257145,-0.11389809,0.00014299239,0.0045115314,0.04653817,0.038019847,0.05523331,0.06392059,-0.017227475,-0.06284178,-0.06016621,0.0036735265,-0.02516273,0.03646129,0.021228831,-0.001160453,-0.02354461,-0.022961363,-0.04979416,-0.030389948,-0.02418064,0.070068814,-0.02634197,-0.053748537,0.055512965,-0.042836353,-0.013690867,0.12193422,-0.021648902,-0.11176594,0.0032264306,-0.027438264,0.07993468,0.012185309,-0.03458153,0.03861751,0.021051487,0.025191972,0.024720898,-0.017798973,0.009958386,-0.0027837446,0.23186417,0.0654363,0.019282622,0.09982522,-0.059889443,0.08916777,-0.0021151889,-0.039798096,0.115133435,0.013406674,-0.054390304,-0.08294247,-0.014035604,-0.006661441,-0.055965282,0.05022119,0.013308332,0.11061933,-0.01798009,0.01575028,0.08627275,0.040811807,-0.052167386,-0.03513002,0.06810317,-0.014074918,-0.062274627,0.07136308,-0.08416299,0.019267492,-0.030970575,0.05829016,0.060600672,-0.025696568,-0.07713442,-0.021393728,-0.08847683,0.06376691,-0.045902237,0.051068697,-0.010176114,0.024295107,-0.031233605,0.022214737,-0.03182913,0.04145142,0.029515749,0.012460349,-0.051777557,-0.038910802,-0.06994123,0.013297618,-0.10764932,-0.0367912,-0.042971473,0.084678926,-0.012810319,0.036730222,-0.04004287,-0.09869095,0.036984626,0.028610794,-0.004497913,-0.0062757186,0.18185943,0.027541861,-0.11127695,0.0044536367,-0.0469534,0.013446943,0.007642998,-0.037713103,0.02845841,0.034305584,-0.029448897,-0.052414898,-0.038775858,0.06657542,-0.092815235,0.10131993,0.004161431,0.041716315,0.028508201,0.019259352,-0.019369356,0.03881092,0.015829021,-0.17672525,0.03658206,0.027458329,-0.00936371,-0.06844284,-0.076780796,-0.022606853,-0.045964357,0.087331064,-0.018988155,0.0047668414,0.020581229,0.10280187,0.0236451,0.047887594,0.011772035,-0.043293223,-0.0565833,0.026202952,-0.07512411,0.057951916,-0.06800265,0.018220656,-0.03183215,0.01622491,0.10845408,-0.036537852,0.051642656,-0.01420533,0.011875804,-0.055516142,-0.019250285,0.11959313,-0.22906947,0.06779253,-0.04677943,0.08190878,-0.04181556,-0.0635898,0.0036906945,-0.031081628,0.033465676,0.036071368,0.05780275,0.09392964,-0.06844525,-0.022358505,-0.06835296,0.0060159713,0.09008933,0.019953977,0.00613683,0.024850003,-0.009795772,0.020098807,0.04931248,0.14528458,0.024114337,-0.09291809,-0.014413173,-0.036657766,0.046472117,-0.017006572,0.039624598,-0.11637218,-0.025039416,0.031852826,0.07339028,-0.011473199,-0.0801318,-0.12672594,0.001103357,0.00411982,0.026419843,-0.030696947,0.07563055,-0.02066679,0.038306102,0.03462695,-0.06490653,-0.029305033,-0.041234016,-0.008917304,-0.050987527,-0.01864972,-0.034046594,-0.04216257,0.032955997,0.025499497,0.0013953461,0.01284361,0.034687936,-0.08134744,0.047765113,0.030280115,-0.036232095,0.04358121,-0.086279094,0.037737936,-0.08291292,0.002028541,0.14047974,0.09344235,0.11732331,0.056300517,-0.0075897346,0.007641912,0.056227457,0.08205927,-0.16543677,-0.005820417,-0.0070920736,0.11733877,0.015356921,0.009289272,0.075820565,-0.009686531,0.05727595,0.060422666,0.019918423,-0.0555722,-0.020577036,-0.001858432,-0.0028537293,-0.0473284,0.09515156,-0.17901576,-0.091664255,-0.054679397,0.084313415,-0.022179693,-0.054650567,0.112391,-0.058483798,0.018509667,-0.04684863,-0.04693741,0.023875367,-0.118550524,-0.0074222432,-0.15132104,-0.027094353,-0.03996822,-0.08882603,0.003573387,0.07239755,-0.022046104,0.0025624726,0.054733533,-0.009047091,-0.0022595995,0.09952007,0.08047896,0.034685005,0.19748211,0.09025613,0.03650164,-0.0067986185,0.03642024,0.041580383,-0.10228165,-0.0104490165,-0.06715755,0.010555156,0.029376872,-0.09881165,-0.046207093,-0.09703493,0.015612188,0.011818634,0.060573645,0.02307145,-0.11020215,-0.00057867676,-0.09191066,-0.00728786,-0.06889385,0.051796105,-0.061387543,0.03727286,-0.016788187,0.02315101,-0.025512736,-0.072797194,0.048540577,-0.10643186,0.044761043,0.019838374,0.009723409,0.033246547,0.015365091,0.06974731,0.043809783,-0.10791683,0.0077418955,0.0009579633,0.13148044,0.0896627,-0.005186504,0.07069708,-0.10594231,-0.010642074,-0.046988487,0.03073151,-0.05986724,0.017077066,-0.063163415,0.040598933,-0.026612284,0.0012034158,-0.059863925,0.10353193,0.118305646,0.15125662,-0.07002373,-0.0016452285,0.06412182,-0.07119862,-0.029996498,-0.055251606,0.032811362,0.01748336,-0.026957244,-0.013484653,-0.030340644,-0.006395851,-0.0076844674,-0.022284899,0.10728015,-0.046537466,-0.040443096,-0.037862774,-0.0043714084,-0.011989275,-0.040718805,-0.03521291,0.025195379,-0.031049639,-0.003473365,0.021756006,0.16133781,-0.078483984,0.07849735,-0.03874941,0.011368729,0.08374707,-0.010435856,-0.03930889,0.013324254,0.07603705,-0.07188276,0.02340365,0.027462937,-0.005065494,0.05499621,-0.014946588,0.11444666,0.04404459,0.059554942,0.0067709596,0.09541328,-0.0010066659,0.010915167,0.114388615,0.033393066,-0.021142226,-0.014857343,0.025481561,0.58917403,-0.040457558,0.08120131,0.0013041208,-0.07033304,-0.19421723,-0.07522596,0.051120047,0.046427395,-0.091223426,0.028614027,-0.07645315,-0.04356775,-0.11537136,0.00807814,-0.0067755114,-0.049938064,0.008688582,0.07376619,-0.07413392,0.030776648,0.054277133,0.100688085,-0.048297297,-0.0028415238,0.002900088,0.041059855,0.055824514,0.0384108,-0.05821403,-0.09872043,0.08603211,0.041913517,-0.04530321,-0.067395985,-0.0798169,0.04072821,-0.0103717595,0.08432973,0.044791616,0.032319624,0.09701967,0.043782327,-0.10663901,0.037672643,-0.06393152,-0.012998297,-0.100348875,-0.0800146,0.12294691,0.06214544,-0.0004370254,-0.087654434,-0.024690779,0.04212004,0.042235028,-0.0012193826,-0.06292762,0.08281643,0.03389486,-0.054372746,-0.03748398,-0.032936826,0.2248749,-0.005796204,-0.0063207923,-0.09228906,-0.10457797,-0.04054526,-0.0048561986,-0.040949494,0.033043135,-0.0063111424,0.056832332,-0.10171125,-0.07013986,0.04436922,0.013885624,-0.10185902,-0.21509954,-0.0038933612,-0.13864772,-0.01966446,-0.053863563,-0.061012194,0.055924866,0.04337637,-0.035378464,0.06367247,-0.13043542,0.031693235,0.045647558,-0.048347343,-0.17543128,-0.11054949,0.006346314,0.00943959,0.05000667,0.09929745,0.15721713,0.013726574,0.015588548,-0.060490005,0.03239308,-0.03897945,-0.026561577,0.022007875,0.039814133,0.01239655,-0.030478602,-0.00864295,0.0015718917,-0.038428657,0.10568112,-0.084903434,-0.017946776,0.012186087,0.015621008,-0.025429772,-0.16173385,-3.7635997e-05,-0.07696279,-0.04037312,0.061617997,-0.09047691,-0.0601287,-0.0036065339,-0.03292257,-0.083006464,0.00754384,0.06439403,0.04707506,-0.13814394,0.014756206,-0.028429192,-0.22228208,-0.026240138,-0.044673927,-0.06241918,0.06939535,-0.06124597,-0.0333951,0.015992247,-0.0004289217,0.0021773106,-0.013447166,-0.010622419,0.06000809,0.099991344,-0.07293947,0.10882791,0.15125266,0.011291071,-0.0012127553,0.07074085,0.084098265,0.0028533975,0.04818193,-0.07079859,0.11508524,0.022880109,-0.03718215,-0.021031577,0.14445396,0.0015005957,-0.06089856,-0.021905426,0.059335086,-0.012751628,-0.018080935,-0.048814107,0.051798478,-0.07882628,0.0808034,0.061577123,0.059513073,-0.007801865,0.046175405,0.0950694,-0.0751401,-0.00218181,0.074543215,-0.05695789,-0.03326202,0.09710253,-0.0572697,-0.040278655,0.016060442,0.034262944,-0.0031985468,-0.123334326,0.01679436,-0.07591251,0.02139358,0.091769226,-0.024868151,-0.014798799,0.024069447,-0.020668218,0.028028674,-0.022764001,0.054609373,-0.007530427,0.017729733,0.006188028,-0.06655145,-0.037533075,0.2822279,0.08884811,0.060151163,0.07412418,-0.02434177,0.09929294,-0.007999267,-0.08190996,-0.06363137,0.0014224048,0.13784966,0.082212366,0.011191456,0.006388657,0.065435916,0.04963329,0.07316255,0.011485392,-0.007553796,-0.105069354,0.0019140203,0.01604915,0.08636568,0.0060884533,0.03312347,0.07339399,-0.10509638,0.042197,0.01236628,-0.045934346,0.04749389,0.028412798,0.08334228,-0.06225286,-0.0962691,0.06757716,0.09939874,-0.03052724,-0.00576257,0.05196534,0.014911689,-0.01381058,0.086037256,0.033404958,-0.010197842,-0.06741051,0.026544297,0.011984442,-0.0030028913,0.0017559179,-0.009378035,0.05557612,0.028369762,0.011985248,-0.0018211269,0.063066,-0.092324466,0.018260391,-0.034582537,-0.049781553,-0.072031856,-0.027163079,-0.01034617,-0.0004388089,0.083757415,-0.025632123,0.052722726,-0.0291166,0.016058965,-0.034347165,0.04239226,0.0177887,-0.04318418,0.071607925,0.035081897,-0.03786266,2.6516891e-05,0.07976382,0.008373451,0.017619971,-0.035704393,-0.018079884,0.02904,-0.0066159163,0.014253752,0.0011268306,-0.16314693,0.059881818,-0.012298972,0.076279566,0.091254555,-0.07287809,-0.017584441,0.07133284,-0.023098795,-0.014172294,0.086667925,0.012102735,-0.022902789,0.09384141,-0.103126094,0.037290286,-0.03976666,-0.033346597,0.053860545,-0.0030349316,0.1257599,0.094459996,0.029814322,0.03176294,-0.0189431,0.0077489507,0.0035554385,-0.09822255,-0.07222519,0.0044774665,-0.118306175,0.016818298,-0.05301772,0.098360784,-0.030794896,-0.02849126,-0.033022463,0.051211026,-0.02412584,0.03402548,0.054004643,0.0152151985,-0.016364112,-0.044609796,0.040540807,-0.1180096,0.03348015,0.08345697,0.024262723,0.093686625,-0.09596477,-0.11264206,0.06945113,0.007026896,-0.043784875,0.07891075,0.04590025,-0.029739497,-0.030128047,-0.055338375,0.13793002,-0.09556054,-0.03386782,0.09712995,-0.029014666,0.004552106,-0.07978986,-0.028184487,-0.09883561,-0.008340409,0.00018802521,0.0011525665,-0.011396451,0.012389478,-0.068029664,-0.008137232,0.06651432,-0.064601794,-0.045133702,0.05183357,-0.07233768,-0.010539693,0.0037358014,-0.049877316,0.0910543,-0.009484452,0.18961057,-0.042703327,0.05347645,-0.0013435537,-0.033324897,0.0326155,0.12022889,-0.022097774,-0.018582422,0.023212874,0.0033726683,-0.054983556,0.0057275337,0.026844617,0.06299069,0.05049292,0.08009991,-0.04223631,0.0021860648,-0.07259984,-0.07722271,0.025465742,-0.075328894,0.005695553,0.021022113,-0.03070531,0.4180543,-0.007608857,-0.019473543,0.108742476,-0.13505264,-0.04877368,-0.008155363,-0.068401486,0.020421939,0.020757312,-0.123119734,-0.020031635,0.020289568,0.11063295,0.12720463,-0.012883208,-0.017892268,-0.018264564,0.08019885,-0.015359992,0.012205225,-0.09315483,0.010724505,0.15071073,0.030970123,0.007918115,0.21258286,-0.06448168,-0.119975515,-0.014848095,-0.03096256,-0.026608618,0.055526234,0.010495989,0.021337727,-0.022060137,-0.05577006,-0.09090578,0.019971011,0.0082785925,0.004331015,0.12131988,0.058538154,-0.001298494,0.06981015,0.015654653,-0.073882684,0.037869643,-0.010762914,-0.03377759,0.007885182,-0.05637391,-0.04721349,0.07593572,-0.10327007,-0.065488875,-0.09308153,-0.124654554,0.06722144,0.018887723,-0.011468948,0.08621234,0.005185908,0.053791545,-0.005692613,0.16976707,0.03524605,-0.013762385,-0.0022914123,0.060706895,0.020026155,-0.05766773,0.04503136,-0.084896624,0.04154141,-0.0026001919,-0.112747446,0.03814819,0.03084121,-0.04091346,0.013421545,-0.008392345,-0.08433302,-0.011892331,-0.05988984,0.03466763,0.044234563,-0.04586334,-0.09612344,0.08493566,0.0025693816,0.09954183,-0.17669716,-0.029052408,0.014942391,0.0164751,-0.06704038,0.036789328,0.07551157,0.06359357,0.010684637,-0.07773127,-0.08711741,-0.066442356,0.048981357,0.013711472,0.11343813,0.030683208,-0.023798553,0.028566899,0.07865382,-0.016256131,0.083892,0.01005963,0.00920898,0.011186537,0.07502783,-0.033936992,-0.069525056,0.1264119,-0.012609032,0.068815604,-0.0476378,-0.03452737,0.07352706,-0.04201915,-0.044541866,0.0040736324,-0.018673098,-0.019618718,0.006420894,-0.038263887,-0.00619836,0.02202892,0.0044894465,-0.058382265,-0.08999231,0.01753399,0.11981529,0.067407735,0.030245664,0.008674847,0.03330087,-0.038262405,-0.06454471,0.050334714,0.048796047,-0.0499454,-0.037872825,-0.00534023,0.07098219,-0.02362849,0.04423183,0.037318964,-0.09188423,-0.057477742,-0.032845333,0.06325828,-0.021144317,-0.0767221,-0.015205614,0.06709906,-0.07037236,0.077395946,0.07703874,-0.043014247,0.003990797,-0.022819936,0.0023166547,-0.07127258,-0.01356285,-0.026608735,-0.018756239,-0.019847862,-0.0026539909,-0.0098984,-0.03466693,0.011140301,0.007912641,0.010591629,0.015675245,0.04407739,-0.015258056,-0.035851333,0.038362358,-0.14375517,-0.044181455,0.04299466,0.0045425156,-0.13898656,0.030384732,0.042396486,0.17840993,0.041623637,-0.024960572,0.020001208,0.082634695,-0.0020813947,0.048841704,-0.022109905,0.050843306,-0.06455086,0.10460191,-0.15388145,-0.056165587,0.013213943,0.021144673,-0.002570129,0.11416558,-0.024577623,0.12354864,0.06834474,0.009614902,-0.13427544,0.16546938,0.0692452,-0.02384439,0.055750392,0.041200824,0.0063288705,0.047320202,-0.09377251,-0.051021237,0.035330903,0.022495167,0.052504584,0.052431248,0.008427748,-0.03590384,-0.12091311,0.07799872,0.067237265,-0.10885732,-0.10824506,-0.034501627,-0.1435696,-0.04393498,-0.023746144,0.026448961,-0.018426102,-0.06955062,-0.0062088897,-0.041225325,0.07006685,-0.013000584,0.0034255977,0.0147320945,-0.047139574,-0.0127841495,-0.03160218,0.04492059,-0.023664076,0.024794845,-0.034502897,-0.03375382,-0.07452794,0.014170266,-0.104133435,0.036520135,0.0703432,-0.016547486,-0.030629281,0.09392686,0.008092891,0.10429013,0.012335671,0.007202271,0.06440796,-0.0035067545,0.017138094,-0.07392294,-0.07625461,0.006758101,fatman4.jpg
3,0.011175449,-0.05177013,-0.07566685,-0.01870229,-0.0693397,-0.04629963,0.07749661,0.06686008,0.004202669,-0.07274643,-0.006331577,0.091920845,-0.020214953,0.08973338,-0.0024201416,0.032346614,-0.027445834,-0.043436475,0.06890881,0.028083067,0.011678417,-0.036080655,-0.14092489,0.0010130045,-0.056385353,0.05697052,-0.027224753,-0.075300805,-0.04668794,-0.030659964,-0.061947465,-0.0019522108,-0.008145566,0.015084084,-0.06173172,-0.065582804,0.041110307,-0.033368815,0.11535889,0.114617445,-0.060481556,-0.025948085,-0.054061163,0.06419821,-0.06617687,0.04454128,-0.056087207,-0.10646867,0.009111511,0.14178416,0.008523387,0.053664718,0.0414155,0.044745237,0.0193975,-0.08480028,0.0028844012,0.010130945,0.032202065,-0.040918093,0.08980967,0.0060924236,0.08481742,0.040828716,0.08535366,-0.029672753,-0.0711891,-0.018067887,-0.010614502,-0.052371226,-0.039385993,-0.010275206,-0.031656478,0.13995694,-0.043473788,0.051053595,-0.02026068,-0.029725194,0.04811687,0.020615008,0.14663379,-0.07397036,-0.047014263,0.0028938192,-0.118095174,-0.10015346,0.05797476,0.0825028,0.033901673,0.05440145,-0.009249943,-0.043913517,0.04520064,0.030381843,-0.004661942,-0.0068215197,0.12557742,-0.055843376,0.0026184092,0.02575245,-0.032912362,0.0041004797,0.004251043,0.019033322,0.035096824,-0.057399847,-0.0561951,0.010022898,0.015659265,0.0052361805,-0.028978964,0.028075224,0.017295271,0.01861551,0.09679132,-0.12304053,0.044740606,-0.067779295,-0.0014685763,0.05967432,-0.019290555,-0.02400947,0.026148416,0.021319915,-0.077651605,0.0033988594,0.026818214,0.055598084,0.01572454,0.07341316,-0.06553905,-0.06940552,0.026394073,-0.021528205,-0.028889934,0.09252129,-0.056485236,-0.069932714,-0.09222428,-0.0379608,0.035817713,0.059219487,-0.08984635,0.028217392,0.0816952,-0.058556687,-0.0027165597,0.022781752,-0.053556368,-0.076882035,-0.10522241,-0.03825453,0.045661967,-0.034534134,-0.031569123,-0.060685594,-0.015925817,-0.0022505147,0.010213654,-0.10109727,-0.03523065,0.08179505,-0.14789657,-0.03639208,-0.032807436,-0.06006458,0.05533316,0.02605112,-0.083842464,0.07603304,0.018765602,-0.0018399538,0.028866058,0.026558487,0.02865176,0.039373383,0.035071764,0.07614278,-0.017144302,-0.015587235,-0.0061517567,-0.05826537,0.034378868,0.028794123,-0.0041238777,0.106410146,0.017957024,0.05277793,-0.030462028,0.0031772288,0.0318773,0.008357748,0.021782959,-0.0038551704,-0.08040928,-0.040769573,0.09476529,0.09676309,0.027601236,-0.02664293,0.05034962,-0.00425675,0.049173728,-0.07095646,0.0060320073,0.05108285,0.009854439,-0.009208112,0.044256277,-0.033958167,-0.05021044,-0.11341791,0.035567783,-0.038874704,-0.09001449,-0.021213204,0.038851943,0.03451244,0.018732999,-0.1256399,-0.01673477,0.0061396766,0.082529485,-0.1643369,0.10048681,0.026248258,0.032708447,-0.029054638,-0.06438228,0.03720999,-0.057018224,0.013882092,-0.053431932,0.03188412,0.05239632,-0.07369986,-0.011071109,0.020829326,0.030390019,0.006177645,-0.08201799,0.19882375,0.061544266,0.13714708,-0.08016667,0.086836316,-0.018935654,0.07638003,0.07214565,0.016692385,-0.038514376,0.029835891,0.057244893,0.03269827,0.0029774194,0.036528032,-0.040766787,-0.053017054,-0.0061870767,0.006450117,-0.06629432,-0.064777516,0.0012148164,-0.028227702,0.028489431,-0.063835084,0.069612764,-0.048063237,-0.06674046,0.09626704,0.02307403,0.048410412,0.034257423,-0.002364726,-0.060434345,0.013276664,0.04373302,0.033822414,0.033077598,-0.04552545,-0.06960885,0.06988929,0.05187619,-0.0009830005,0.031668924,0.027409969,0.1690724,0.034634713,0.07527928,0.01641509,0.013700992,0.056080922,-0.014512172,-0.06703204,0.053689912,0.05740788,-0.08723252,0.029771077,-0.120255396,0.016105982,-0.046675645,0.10055069,0.05767931,-0.025338158,0.08320426,-0.019156067,0.07274278,0.074337736,0.036921654,-0.043122258,-0.003428028,-0.009186924,0.08293777,-0.15509063,0.061733186,0.006140422,-0.11430565,-0.025833363,0.04369635,-0.074920975,-0.14621037,-0.03775509,-0.058070038,-0.055920538,0.017045157,0.06686708,0.08576366,-0.00025886454,-0.015352767,-0.017209796,-0.059987597,0.05149098,-0.055373874,0.04075975,-0.21317385,0.060097344,0.004368843,0.05855693,0.023438599,-0.108379945,0.022188218,-0.013042182,0.014679472,0.00772197,0.04361044,0.21933629,-0.03948071,-0.06837672,-0.043071654,0.014135815,-0.0101351235,0.07148634,-0.021804228,-0.014835692,-0.010182733,0.08013303,-0.015585802,0.04983046,-0.083604805,-0.05908414,-0.06575208,-0.059652764,-0.015209102,0.0281374,-0.013359326,-0.1401335,0.10167023,0.07235029,-0.010188372,-0.021042066,-0.12821491,-0.10084143,-0.057218295,-0.0033842586,0.0064824563,0.011606566,-0.023941958,0.0117417555,-0.021032251,-0.006849785,0.048178546,0.10828388,-0.018532299,0.086284906,0.030576017,-0.072436705,0.08054991,0.04755762,0.019412724,0.015068941,0.0062365555,0.18580554,0.0033767596,-0.035717703,0.044992838,0.09133806,-0.02775069,0.045096286,-0.16967177,0.044804927,0.007413989,-0.15948825,-0.00074731355,0.07463889,0.016086658,-0.056835808,0.040844385,-0.11046048,0.022298478,-0.011125227,0.096388645,-0.030771036,-0.02395015,0.09603558,-0.032232184,-0.05667031,0.0015116284,-0.06155826,0.07853694,0.033287812,-0.06195814,0.087082244,-0.009727847,-0.05519722,-0.028816257,0.06971192,-0.0744756,0.121102,0.009643639,-0.0061215474,-0.047198102,0.04208694,0.007999274,-0.03612044,-0.06577976,0.033817675,-0.039405614,0.0354047,-0.038003623,0.051531427,0.028977577,0.011964178,-0.07440855,-0.051789615,-0.027990235,-0.019138826,-0.06330045,-0.05987444,0.021892173,0.10213902,-0.017789593,0.002273805,-0.055738617,-0.050766654,-0.0008887057,0.029647615,-0.008823943,-0.0031983803,-0.027819809,-0.005279004,-0.052566666,0.087553225,-0.06835099,-0.016918229,-0.009364235,0.034159247,0.02997994,0.058047876,0.097734764,-0.00026209315,-0.06873946,-0.061501067,0.0105035985,-0.0057561807,0.02119429,0.011595602,-0.0056204167,-0.015411523,-0.040567495,-0.048690666,-0.021595914,-0.017685955,0.08230849,0.0039727585,-0.04708269,0.04626609,-0.042542808,-0.016379075,0.10684003,-0.0012873628,-0.08657159,0.00779761,-0.0127483355,0.079277925,0.022963876,-0.03550963,0.027281733,0.011148305,0.027020458,0.02847726,-0.03878721,0.0052337684,-0.005543787,0.22035573,0.068796426,0.02575076,0.1075733,-0.04822138,0.10948812,0.017101135,-0.049378697,0.09034586,0.021755537,-0.06133025,-0.084275246,-0.027336366,0.0133930305,-0.038848292,0.038954884,0.041084263,0.11687622,-0.044834647,0.0072406866,0.07860008,0.060747564,-0.07694342,-0.045619935,0.060291782,-0.027350489,-0.06000629,0.08128056,-0.079272956,0.018426739,-0.034400277,0.06282711,0.041959543,-0.024332833,-0.05941804,0.0015263218,-0.06817723,0.08902603,-0.028384972,0.042692196,-0.00066278863,0.025013166,-0.042110283,0.025641333,-0.014262124,0.024540266,0.0077544344,0.019792201,-0.042903647,-0.04722747,-0.06058129,0.0135667,-0.107312456,-0.0440776,-0.055248916,0.08165663,-0.0067070043,0.045903046,-0.024922118,-0.100552544,0.03152907,0.012608621,-0.01782211,-0.011904919,0.15942255,0.040087316,-0.1440187,-0.0018076203,-0.037422497,0.017668594,0.0007568803,-0.05358167,0.03190109,0.0027240412,-0.049465712,-0.040133655,-0.030277649,0.067389265,-0.08666851,0.097111605,0.0079841865,0.037706625,0.0049186074,0.02262358,-0.0068842056,0.03612192,0.04051351,-0.18246683,0.03986156,0.021080777,-0.016283548,-0.06481939,-0.08416435,-0.03168785,-0.022575716,0.10181098,-0.017735582,0.011547538,0.018674988,0.11227212,0.025427617,0.054779444,0.036140483,-0.044478323,-0.056643005,0.022146111,-0.05887509,0.07902968,-0.06433554,0.00923431,-0.022112267,-0.0030162423,0.113936715,-0.040843297,0.05604717,-0.019945044,0.01882482,-0.042578973,-0.025623549,0.12069654,-0.22600177,0.058610085,-0.057570174,0.08652487,-0.061496336,-0.07340942,5.614441e-05,-0.03841173,0.024638908,0.045665186,0.053515,0.08014336,-0.07949296,-0.024826089,-0.06374748,0.006069034,0.08857936,0.008145098,0.0025539133,0.035589907,0.0023663703,0.011361976,0.0702782,0.14207299,0.003089632,-0.10572564,-0.0015289659,-0.039869156,0.056216273,-0.030650413,0.027169647,-0.11230224,-0.037244726,0.02694042,0.074900046,-0.0006465027,-0.02604221,-0.13894112,0.0047938027,0.011282694,0.02431608,-0.049875848,0.08856391,0.0040574446,0.03407908,0.023907585,-0.08164714,-0.023526354,-0.04418283,-0.01077803,-0.039837696,-0.02800608,-0.041883875,-0.028371107,0.057800118,0.013030708,-0.0030309593,-0.0014939898,0.026326388,-0.072015,0.048068155,0.026357884,-0.04598398,0.03449008,-0.089440055,0.041936856,-0.06409724,-0.009027212,0.1550083,0.07534082,0.103250526,0.054737356,-0.03124063,0.0063906363,0.057194605,0.070110664,-0.15667172,-0.008256161,-0.0067515005,0.08482229,-0.00303028,0.013128608,0.057962433,0.0034287795,0.04721483,0.054776046,0.010259407,-0.05471688,-0.03620621,0.026536852,-0.009541431,-0.044077244,0.08465245,-0.18181837,-0.09508731,-0.043556705,0.055761274,-0.021377828,-0.06457318,0.1007139,-0.051567025,0.0126953805,-0.056226764,-0.05387728,0.017501544,-0.136978,-0.0065130456,-0.14778347,-0.039755,-0.057012226,-0.08914288,-0.009911739,0.05454516,0.015735753,-0.014042483,0.05788973,-0.034251057,0.010334247,0.112374775,0.081238605,-0.001322045,0.19650236,0.08209342,0.03976574,-0.009966747,0.032422837,0.039881803,-0.096840665,-0.0047411504,-0.061148558,-0.008563912,0.03222119,-0.08487009,-0.03262097,-0.0997627,0.009948893,0.009273484,0.057944275,0.032868195,-0.08783291,-8.688859e-05,-0.097126216,0.004606627,-0.06549084,0.044455852,-0.048463322,0.029313965,-0.00815067,0.0070691667,-0.035024293,-0.079806514,0.050467417,-0.110992104,0.052325763,0.01846671,0.022339227,0.03204737,0.03573358,0.055600513,0.021240639,-0.09551217,0.002993147,-0.019993056,0.1028282,0.08271083,-0.015944261,0.06730742,-0.11079651,-0.009805395,-0.049572743,0.03833604,-0.061503287,0.030473122,-0.05393876,0.023817677,-0.017238524,0.012208118,-0.030939238,0.09591133,0.096204996,0.16598244,-0.073096134,-0.021766132,0.054341916,-0.05541473,-0.026709879,-0.07125945,0.036368288,0.019341458,-0.0409003,-0.012374137,-0.022047276,-0.0017537425,-0.008143411,-0.011008792,0.09458872,-0.05879436,-0.025336076,-0.036119096,-0.003790041,-0.017417531,-0.056398023,-0.05328337,0.032311358,-0.023235798,-0.013670356,0.014151893,0.149518,-0.076031834,0.05805056,-0.025016265,0.029687935,0.05950212,0.0039557093,-0.04755198,0.023223443,0.07162578,-0.07685619,0.03502185,0.017485851,-0.0050025336,0.074472025,0.009067362,0.11085988,0.02957165,0.06898196,0.016375475,0.09030843,-0.005626044,0.019169226,0.1091077,0.041961942,-0.0051203254,-0.01712078,0.009264677,0.56914425,-0.020877708,0.08463486,-0.0106903985,-0.09813424,-0.18271641,-0.106290996,0.037107743,0.045792323,-0.06550609,0.040577143,-0.049998727,-0.03710516,-0.12216559,0.030229507,-0.0054150345,-0.02609521,-0.00992516,0.07739416,-0.08971427,0.04578883,0.036410667,0.10560691,-0.013277607,0.011863921,-0.0070106727,0.029339075,0.03745791,0.043644477,-0.049068343,-0.09175698,0.101661965,0.03475575,-0.027289372,-0.04122879,-0.08163495,0.041722678,-0.02349246,0.103063345,0.041560993,0.031331815,0.087618075,0.03237736,-0.11554519,0.055231616,-0.067210175,-0.003637576,-0.10486617,-0.08947065,0.11568571,0.053226758,-0.0016811828,-0.084264316,-0.03083933,0.050142415,0.040971827,0.015265619,-0.08379843,0.066213,0.036026333,-0.05049088,-0.046173204,-0.021777742,0.21919747,-0.025812108,0.0050200103,-0.08586344,-0.12161403,-0.033593934,0.006779057,-0.04353303,0.06089952,-0.030179527,0.065596245,-0.10162512,-0.059393533,0.050621435,0.0055423356,-0.08455473,-0.19967495,0.011727706,-0.11622226,-0.016547276,-0.052295525,-0.07520761,0.044895142,0.020978432,-0.03791317,0.06719494,-0.12645999,0.04725311,0.03082139,-0.03723798,-0.1664739,-0.086902924,-0.0116076805,-0.010138729,0.02683993,0.084104665,0.16412926,0.018299988,0.023637544,-0.030859327,0.04666707,-0.035101686,-0.030922292,0.023923356,0.025690364,0.024506103,-0.044957783,-0.015519609,0.026723986,-0.030407295,0.10353775,-0.12800948,-0.021637838,0.011603043,0.022864737,-0.009929015,-0.14418714,-0.0072724414,-0.08747114,-0.04000784,0.07291899,-0.09418012,-0.058239408,0.004592675,-0.042379808,-0.08784961,0.016488655,0.059122313,0.04955664,-0.1567119,0.0171023,-0.03191272,-0.20231514,-0.037082814,-0.043598793,-0.061926004,0.06761761,-0.087360665,-0.024584671,0.00849514,0.020201975,0.012407375,-0.016645612,-0.008401724,0.06952807,0.06498688,-0.08184758,0.10683049,0.1506439,0.018034374,-0.015359999,0.067974865,0.08511605,0.020168412,0.034429587,-0.079102576,0.10381325,0.0187025,-0.059512332,-0.023964448,0.14448042,-0.008843111,-0.08492089,-0.035587654,0.06717068,0.004176946,0.0054142177,-0.043607555,0.061436217,-0.08277386,0.08293428,0.08086723,0.042335145,-0.019255945,0.059428345,0.087526694,-0.046224486,0.017352685,0.07442093,-0.04114123,-0.026999554,0.06705919,-0.029456506,-0.047337655,0.037146606,0.044618208,-0.019096665,-0.13125177,0.0064880387,-0.07980877,0.013791586,0.06876348,0.0036418568,-0.028769467,-0.0069182245,-0.0041553895,0.028971393,-0.014306231,0.03753719,0.011853198,0.02315534,-0.01284051,-0.069980204,-0.056513894,0.27685824,0.079490915,0.047380436,0.07137837,0.010095769,0.09247143,-0.010959387,-0.07625611,-0.09431705,0.015539652,0.13611701,0.071651,0.006240065,0.008406377,0.050095316,0.05503511,0.052584026,-0.017499581,0.0021455465,-0.091753334,0.007399951,0.021671135,0.08248605,-0.017883351,0.021183968,0.074679434,-0.10535325,0.035954718,0.01618132,-0.04775058,0.037183676,0.044922184,0.0859649,-0.039415743,-0.09563328,0.068099774,0.09662748,-0.039753344,-0.027122743,0.021858145,0.0077184937,-0.037832163,0.078165434,0.02077693,-0.0015961159,-0.04399567,0.005541052,0.0110311005,0.0064402507,-0.013597921,-0.010075975,0.05239884,0.030918468,0.01208466,0.00075049617,0.03868679,-0.084331706,0.043852985,-0.045556717,-0.069867164,-0.10477225,-0.016493682,-0.013247804,0.01210794,0.10478787,-0.027436735,0.06343542,-0.03292616,0.03853896,-0.038961012,0.043643124,-0.020794433,-0.03421826,0.06721553,0.03748283,-0.04110097,0.011577101,0.078777485,0.0045980127,-0.0037035227,-0.022462655,-0.029985331,0.022581084,0.008198248,0.02096305,-0.0002118528,-0.13710137,0.031086413,-0.017523015,0.05293286,0.096093,-0.06969104,-0.020670924,0.06341557,-0.017039567,-0.002156945,0.074707724,0.015481769,-0.01835974,0.07986501,-0.11617811,0.04960241,-0.047781415,-0.010815079,0.04587602,-0.005113449,0.098977186,0.08335119,0.026948024,0.03198805,-0.0020294609,0.026791772,0.013504229,-0.11548115,-0.05625922,-0.008153383,-0.12031796,0.020643748,-0.030309254,0.084894024,-0.04426981,-0.048090592,-0.036940858,0.03540899,-0.059384376,0.028543176,0.07640739,0.0022371053,-0.0131761925,-0.01872694,0.022152344,-0.08994631,0.02871915,0.054653663,0.019541817,0.07784149,-0.0897845,-0.12903298,0.07836848,-0.0109905545,-0.0660756,0.08793345,0.021275088,-0.041523665,-0.05688264,-0.049330004,0.14207542,-0.09036786,-0.032690175,0.07750835,-0.036497287,0.0153880315,-0.0883308,-0.04650623,-0.100149415,-0.0014325348,0.012842229,-0.016925398,-0.019030226,0.01746684,-0.06984827,0.012219168,0.06535195,-0.06905196,-0.05437964,0.07723499,-0.071928024,0.0026239643,0.0025297222,-0.06222906,0.09904823,-0.0009173477,0.17068295,-0.0704697,0.042089343,0.0040047364,-0.028861128,0.022761025,0.1306557,-0.026504625,-0.027068855,0.0146978535,0.010873294,-0.041272487,0.0043495665,0.037372224,0.08819629,0.04724716,0.08492431,-0.043479927,0.016266622,-0.061380744,-0.09166223,0.038457748,-0.086933576,0.00257977,0.044515964,-0.030016217,0.40752152,-0.011155391,-0.019941624,0.111377046,-0.13676432,-0.048190564,-0.0071851043,-0.08199088,0.026156966,0.023927897,-0.14239661,-0.0468831,0.030776815,0.098016605,0.12555411,-0.009469355,-0.041579224,-0.019181179,0.1006376,-0.00740197,0.019940501,-0.07479434,0.015619266,0.15839149,0.03555068,0.013385281,0.20378393,-0.043174237,-0.13816215,-0.02286301,-0.030744838,-0.027009964,0.05485264,0.03205752,0.024967512,-0.005874248,-0.07438022,-0.09868785,0.0348982,0.0034368378,0.023548063,0.11405776,0.047591213,0.011057793,0.07227509,-0.0045877183,-0.08381701,0.034133885,-0.0110053,-0.015007758,0.014249046,-0.078182735,-0.031562537,0.07609183,-0.08932756,-0.06747333,-0.102071695,-0.1165468,0.064210236,0.015725374,-0.008200368,0.09435136,0.027098585,0.068394855,-0.01427381,0.17204563,0.038481236,-0.04123401,-0.009550665,0.063835435,0.033313394,-0.053085413,0.047310658,-0.071418926,0.050414562,-0.0017216878,-0.09241821,0.024613466,0.014228748,-0.025960911,0.019444866,0.006549336,-0.09977629,-0.02352562,-0.06326019,0.029822087,0.048303984,-0.029833974,-0.08567724,0.06580326,0.004543897,0.1147511,-0.16442132,-0.029955268,0.03817205,0.0018997001,-0.060971513,0.038894556,0.059704833,0.06462229,-0.00071629824,-0.08034675,-0.06352123,-0.07826972,0.06806001,0.03339066,0.11052223,0.03307737,-0.02598002,0.009372863,0.07324887,-0.0022760695,0.098518826,0.009996692,0.027128672,-0.0075499555,0.06744621,-0.015742503,-0.06278758,0.14332657,0.0013759052,0.07102499,-0.06857457,-0.065603934,0.06524325,-0.04700494,-0.058848772,-0.012632379,-0.02532597,-0.03313526,0.011372505,-0.0342093,-0.00639007,0.022026047,0.014697354,-0.036841366,-0.09009696,0.026417732,0.102043726,0.10057591,0.050949514,0.010025336,0.063601986,-0.033723585,-0.058232363,0.03650278,0.059433315,-0.056232017,-0.04527952,-0.014784779,0.0804036,-0.034991816,0.028312566,0.02170617,-0.08583399,-0.05908546,-0.018133558,0.057215147,-0.025601044,-0.082381524,-0.033656046,0.07836725,-0.066283844,0.06600999,0.104962595,-0.041895583,0.027648702,-0.026479457,0.0010801748,-0.0543023,-0.017425084,-0.03988213,-0.016041538,-0.04406158,0.0045528878,-0.0015844307,-0.016263368,0.009499627,-0.0069763046,0.0068185707,0.008871079,0.05205298,-0.025733024,-0.052603457,0.041767724,-0.13808243,-0.05025067,0.024365064,-0.0037527047,-0.13335426,0.024365759,0.035480224,0.15459567,0.039309617,-0.019330598,0.0075417007,0.07382228,0.008937416,0.069297075,-0.029119583,0.03630726,-0.052722458,0.099365346,-0.12691116,-0.076847926,0.016493732,0.038974736,0.0017967226,0.09615353,-0.029058076,0.13582751,0.080763444,-0.01017856,-0.12591587,0.17014092,0.06425997,0.00026794244,0.043688063,0.048331108,0.026870603,0.037684307,-0.09552996,-0.03154212,0.033901617,0.028948639,0.046539698,0.04615005,0.014199341,-0.048426494,-0.11705598,0.086749054,0.060279626,-0.09868111,-0.10436199,-0.03390327,-0.13838175,-0.031523902,-0.027838109,0.045329444,-0.0211434,-0.058335308,0.0074714045,-0.027725557,0.067759655,-0.019103391,-0.0072052735,0.021326149,-0.07373169,-0.022355247,-0.04218888,0.050638266,-0.03191849,0.018622074,-0.025915371,-0.06323208,-0.078840435,0.017423274,-0.10182756,0.007998518,0.06592379,-0.020630075,-0.018518241,0.0844851,0.007948387,0.08633152,0.014045572,0.026218867,0.05763831,-0.0069608325,0.009190101,-0.06891884,-0.07693448,0.0071923058,fatman6.jpg
4,0.012204618,-0.035672765,-0.05513575,-0.04167444,-0.08010058,-0.040008176,0.07656,0.07721599,0.051670965,-0.0651021,0.017994491,0.092901796,-0.017304048,0.10245583,0.00040888914,0.03905364,-0.03335361,-0.05195255,0.08023931,0.022732528,0.008862105,-0.03638195,-0.122643135,0.006431949,-0.051974855,0.022618411,-0.048804462,-0.061041668,-0.08940702,-0.012715471,-0.056894932,-0.011633731,-0.026323682,0.023008268,-0.06721448,-0.034886386,0.03866173,-0.051109612,0.086942725,0.111985594,-0.06974157,-0.03960376,-0.042387664,0.044782937,-0.062115688,0.062817596,-0.051053885,-0.10924958,-0.0038090958,0.14920264,-0.0048526577,0.049878657,0.02304989,0.04922715,0.020440131,-0.09214827,0.009309737,0.0041349134,0.008037362,-0.0383056,0.10404616,0.022125157,0.07792007,0.0056696064,0.0928484,-0.068815455,-0.07637747,-0.0076030493,0.02952905,-0.0639693,-0.04513502,-0.0120907985,-0.036967352,0.14067206,-0.024228886,0.05552327,-0.027329074,-0.03279159,0.073839806,-0.0021962742,0.15506695,-0.07203433,-0.08533191,0.023591436,-0.11383234,-0.09228499,0.031657625,0.08542187,0.023469245,0.05570095,-0.040685385,-0.032174334,0.044483967,0.070497654,-0.00029935452,-0.026567344,0.12073687,-0.052752826,-0.01942617,0.0047179395,-0.029154444,0.019503118,-0.0011880535,-0.0066955015,0.062223792,-0.03499859,-0.056164093,-0.0020185008,0.0066074408,0.012205926,-0.0356769,0.00064799865,0.0120373815,0.03481036,0.062177468,-0.122625925,0.04368111,-0.051501323,0.026944032,0.059966493,-0.033967525,-0.041986927,0.020575315,0.016698016,-0.06587862,-0.02298979,0.031498484,0.032347336,0.027195018,0.05939666,-0.06310042,-0.040993176,0.017109398,-0.031908974,-0.027142901,0.07412791,-0.040915184,-0.09841238,-0.061058097,-0.008153971,0.018582856,0.051468804,-0.09439102,0.0077732885,0.08359276,-0.041393626,-0.0027209662,0.04326227,-0.062249213,-0.07724899,-0.09732108,-0.021259816,0.032406405,-0.06830957,-0.029644541,-0.05035921,0.019056888,-0.0092576435,0.021071078,-0.099711366,-0.055423357,0.07087994,-0.19172563,-0.0036013674,-0.041722104,-0.082652256,0.07839229,0.03602814,-0.067287244,0.05245048,0.024842609,-0.00031966326,0.0502515,0.018198509,0.009631363,0.06349024,0.02296318,0.09370506,-0.010315298,0.004057081,0.03226603,-0.041478768,0.027305827,0.015669005,0.0093497215,0.115750514,0.015389484,0.06681995,-0.082683325,-0.002664432,0.022054236,0.016312724,0.0010070509,0.012462561,-0.09098879,-0.027334124,0.08813049,0.09097232,0.04149007,-0.02232587,0.06957833,0.01702193,0.036763053,-0.08869202,0.0043127234,0.04073968,0.021396048,-0.016045814,0.050013956,-0.016324013,-0.0590537,-0.12375071,0.00575396,-0.0481614,-0.07698961,-0.023058513,0.019658426,0.02396579,0.016918465,-0.10347633,-0.032466948,0.04205067,0.07604148,-0.16433488,0.09555861,-0.00024207913,0.022530654,-0.040598754,-0.058577903,0.030605538,-0.06697664,0.032252822,-0.044064138,0.023683567,0.051379092,-0.09145265,0.016133495,0.01231118,0.034630165,-0.006045096,-0.067984276,0.2125292,0.06256785,0.14210838,-0.08877083,0.07837281,0.0023943542,0.09483322,0.0700832,0.013075355,-0.031729944,0.026360271,0.056109585,0.030364923,0.014098686,0.054190747,-0.0443233,-0.04680711,-0.0035839726,-0.009367085,-0.06849636,-0.077362955,0.018749138,-0.044163372,0.051014014,-0.059995655,0.058680277,-0.026720481,-0.057414006,0.1195599,-0.0004573124,0.070708044,0.008261333,0.026317382,-0.054849498,-0.019728098,0.036433365,0.058091648,0.034375113,-0.086627305,-0.066028975,0.061239585,0.04332285,0.005047501,0.040426206,0.027465058,0.15729581,0.044344082,0.059622362,0.027056497,0.0012245001,0.049055386,-0.021993993,-0.057304583,0.034538127,0.03134499,-0.091301754,0.015474629,-0.13324665,0.047099285,-0.06976876,0.08286566,0.052221183,-0.011348807,0.09571852,-0.042152036,0.06724728,0.07761937,0.05675158,-0.05374756,-0.035422914,0.022730444,0.07829582,-0.13310415,0.059789903,0.038373034,-0.09453372,-0.034271803,0.0066205473,-0.07432964,-0.12976815,-0.05086386,-0.0773358,-0.0035418528,0.014748617,0.07031624,0.08565663,0.015563622,-0.0029324736,-0.01853185,-0.02388291,0.06365448,-0.04629327,0.03868687,-0.20685968,0.06713947,0.025110481,0.062139954,-0.0053703682,-0.112843476,0.028568186,0.0045953435,0.0019783224,0.029825753,0.061065286,0.2138763,-0.031770196,-0.057716563,-0.04704979,-0.014697446,-0.015173888,0.049605213,-0.0101586925,-0.024186369,-0.0014827342,0.07883179,-0.012520141,0.05567377,-0.08382348,-0.09407332,-0.051104225,-0.045594607,-0.03272741,0.033999283,-0.008172839,-0.13195978,0.10593987,0.06933739,-0.014028341,-0.014068584,-0.14598927,-0.102819905,-0.046932764,-0.014048359,0.0065892343,-0.0027648548,-0.0031329088,0.010526045,-0.035009444,-0.011149558,0.026299888,0.08745926,-0.0314713,0.09766955,0.070705526,-0.03723701,0.06179718,0.05264698,0.012399241,-0.0061288904,-0.0026513299,0.16313547,0.0049473397,-0.022729343,0.03593073,0.07497063,-0.02760341,0.06743578,-0.16831943,0.054548707,0.014101884,-0.161642,-0.0056091594,0.048557978,0.016557403,-0.068977654,0.013222422,-0.124829665,0.028676506,-0.002291904,0.09433074,-0.026257869,-0.02780703,0.091104455,-0.019498909,-0.030811535,0.0028380458,-0.06413816,0.07022736,0.046109255,-0.08451314,0.08039543,0.019030271,-0.062662534,-0.0006964983,0.07508752,-0.0680447,0.12871704,0.021179767,-0.012519909,-0.033545632,0.01618105,0.004275347,-0.031928994,-0.044013392,0.048140172,-0.014416523,0.015540615,-0.059697755,0.05552284,0.05000991,0.013273279,-0.057096623,-0.06909146,0.016505651,-0.0034905337,-0.06855012,-0.04851786,0.03885802,0.07732615,-0.03962271,-0.009177964,-0.052185778,-0.07290401,-0.012807671,0.040396325,-0.037638515,-0.00070538477,-0.030192237,0.021157732,-0.057535082,0.09084797,-0.07872466,-0.01556753,-0.022393262,0.020250974,0.012479556,0.04193846,0.114994444,0.010317094,-0.07064711,-0.03792682,0.010310775,-0.013152758,0.017628027,-0.009425425,-0.027868925,-0.022711055,-0.038178187,-0.04275286,-0.008738562,0.005943266,0.07113215,-0.01581692,-0.022790093,0.050124563,-0.058227766,-0.018619902,0.096754625,0.019162614,-0.07502116,0.0137063535,-0.011271452,0.09371034,0.026995283,-0.008684612,0.046749942,0.030579973,0.041980367,0.022600481,-0.054858927,0.00017505526,-0.011643361,0.20992489,0.053832185,0.025124716,0.08984466,-0.048928436,0.09475186,0.010113718,-0.08928886,0.09578896,-0.016534144,-0.058210466,-0.07990393,-0.03476177,-0.0046228087,-0.035323314,0.02923845,0.057613876,0.10829941,-0.015732782,0.007803331,0.034002703,0.07568425,-0.073157966,-0.07209462,0.06707767,-0.0024122647,-0.04890999,0.06782712,-0.08433279,0.031975523,-0.021056317,0.08609352,0.057623025,-0.0059113465,-0.06897097,-0.018085694,-0.12752616,0.06360343,-0.046852935,0.04428964,-0.02001316,0.040148936,-0.03292349,0.015055804,-0.028205687,0.035806317,0.005836651,0.011162311,-0.04349937,-0.034264047,-0.058521353,-0.0102518145,-0.111332424,-0.036151648,-0.041490126,0.1128756,-0.031317763,0.045990102,-0.01514398,-0.09286312,0.04960687,0.029724434,-0.016268106,-0.012157835,0.17250748,-0.003835381,-0.11542128,-0.018611403,-0.03504187,-0.0030382716,0.012334684,-0.03883867,0.022980222,0.01416927,-0.04339473,-0.054532934,-0.017795604,0.07972637,-0.08675724,0.09458921,0.023354644,0.022630459,0.028192952,0.032270838,0.002604281,0.030024774,0.01776536,-0.1911799,0.05221919,-0.0010370578,-0.0034778658,-0.06548315,-0.10548296,-0.029007826,-0.030784542,0.091136426,0.017946845,0.035661776,0.011512066,0.09309133,0.009956259,0.06898621,0.028735217,-0.01929365,-0.06051566,0.0077075344,-0.05346292,0.053450923,-0.06751947,0.03057675,-0.026725909,-0.012424544,0.10440296,-0.0672255,0.09394768,0.000642009,0.017006222,-0.036672115,-0.03591488,0.127468,-0.22639409,0.042927288,-0.015971648,0.08336658,-0.055868126,-0.0998847,-0.0037461095,-0.049303915,0.035072997,0.039007105,0.055717178,0.10019074,-0.09405912,0.003628802,-0.066694535,0.0060461056,0.09659678,0.024335943,-0.015932284,0.055483095,-0.01708425,-0.008107039,0.052969556,0.15947342,-0.0036254239,-0.11224022,-0.012552714,-0.017647818,0.04925078,-0.016826944,0.03440621,-0.09415402,-0.04208288,0.029629724,0.07390214,-0.005907512,-0.049121257,-0.1322313,0.0132219745,0.01710581,0.020387655,-0.041557465,0.07554948,-0.010812557,0.041424055,0.02584287,-0.05353424,-0.02738554,-0.023267047,-0.00039956262,-0.04616795,-0.032661553,-0.051133428,-0.04172079,0.05651694,-0.005720592,0.012261566,0.01361111,0.03091978,-0.099828,0.058795836,0.04036849,-0.059768174,0.07264059,-0.10024385,0.019542232,-0.072740234,0.011178933,0.12746039,0.090399474,0.12392863,0.03423721,-0.04616044,-0.01107197,0.037025712,0.078301944,-0.1450155,-0.023972666,-0.009256908,0.058162685,-0.012641377,-0.000500312,0.065576784,0.0005918364,0.065111145,0.0640267,0.016073097,-0.035706006,-0.009611279,0.0073535247,-0.020867635,-0.058124352,0.09113302,-0.19245943,-0.094723456,-0.044223633,0.06913548,-0.01150113,-0.08266124,0.09201755,-0.053760212,0.019392945,-0.054615453,-0.038687605,0.032043714,-0.14196534,0.033023585,-0.13911787,-0.04474597,-0.037072424,-0.07924103,-0.0045340466,0.04983617,0.0021648735,-0.03012993,0.059370134,-0.05328077,-0.0052387724,0.09854457,0.08549725,-0.008299467,0.19120747,0.0698926,0.02046639,-0.0024447495,0.01502172,0.05061863,-0.09324452,0.008778262,-0.06586933,-0.0034787313,0.019363709,-0.07080056,-0.0200064,-0.08124029,0.020280603,0.012044944,0.05065628,0.03556596,-0.06682995,0.038168896,-0.055637635,0.016451208,-0.073963575,0.0618578,-0.05001372,0.03237437,-0.020783165,0.006402144,-0.04296087,-0.076809004,0.058757514,-0.11278594,0.03707579,0.0043043275,0.014453918,0.052826386,0.005889557,0.053034913,0.021698352,-0.07511327,0.011479765,-0.014696587,0.1191482,0.073778726,-0.018693743,0.05403067,-0.10129529,-0.006290072,-0.028222987,0.03447271,-0.048293427,0.046114735,-0.04325989,0.039397907,0.021668902,-0.0026404725,-0.05200467,0.07979849,0.08194342,0.14404519,-0.07556484,-0.010421021,0.060725965,-0.072607495,-0.037230533,-0.07182984,0.023286924,0.06755603,-0.04515871,-0.03051085,0.0036883485,-0.005010443,0.0030221457,-0.009636353,0.09261684,-0.06784267,-0.024303347,-0.04031314,-0.0054545226,-0.0021800546,-0.06350371,-0.062463634,0.036986593,-0.03753767,0.009600298,0.025044052,0.15208992,-0.05158547,0.074715346,-0.029633138,0.016645767,0.052173726,-0.00031252886,-0.02514307,0.03355353,0.08462326,-0.11211129,0.03930279,0.0145958625,0.026223175,0.050972715,-0.01154464,0.127963,0.04022187,0.07037457,-0.0008089867,0.08079029,0.006496796,0.028937677,0.12374075,0.018784694,-0.014494861,-0.012919737,0.01888994,0.5726606,-0.009256931,0.09897306,0.0051296083,-0.08842113,-0.18835431,-0.10526274,0.06301447,0.025014052,-0.053074,0.0510123,-0.06730462,-0.015688956,-0.13174854,0.012386509,-0.00043719533,-0.015784774,-0.011764348,0.059061684,-0.06340156,0.057551615,0.08214552,0.11743888,0.00205307,0.034560516,0.005183748,0.041607432,0.023280935,0.016359214,-0.060236298,-0.11607824,0.09453096,0.04944307,-0.013557086,-0.04122939,-0.09553405,0.046682723,0.00041439512,0.05883315,0.035742972,0.027490664,0.06941133,0.018774107,-0.13059568,0.047424477,-0.052046902,-0.02328386,-0.10212021,-0.09277266,0.1170229,0.050581165,0.009683405,-0.092180766,-0.0046821,0.067290016,0.045088485,0.0008900153,-0.07662483,0.08939685,0.03215959,-0.06547259,-0.036059894,-0.0282105,0.22416171,-0.025918737,0.005414863,-0.08036237,-0.10451654,-0.012699318,-0.008953852,-0.044959176,0.05852297,-0.004628954,0.06689163,-0.09196881,-0.053810973,0.03662336,0.004983803,-0.09089861,-0.19945079,0.00075490575,-0.12177695,-0.019193115,-0.03258594,-0.07495642,0.059058417,0.024860647,-0.021832637,0.0737945,-0.13189803,0.051172752,0.006320231,-0.048192024,-0.17957176,-0.07737439,0.0049422174,-0.004143319,0.019726647,0.080665015,0.17544344,0.001927028,0.025705768,-0.0356834,0.0673086,-0.04485522,-0.038175978,0.02495472,0.04158875,0.027878974,-0.023024116,0.0033882454,0.020902572,-0.03108641,0.10793315,-0.106898725,-0.045295406,0.012578308,0.025044736,-0.02692651,-0.13376643,-0.025274947,-0.06931303,-0.050760128,0.07039642,-0.08740004,-0.087597564,-0.006500705,-0.042864304,-0.07980004,-0.019487347,0.0630897,0.045935072,-0.13775088,0.021613818,-0.032772068,-0.22571394,-0.05467919,-0.047211938,-0.041118603,0.046995524,-0.057140127,-0.02771147,0.0034441978,-0.0052722353,0.019652374,-0.013027352,-0.037857752,0.07625459,0.07129039,-0.07150342,0.10305472,0.13315769,0.0320031,-0.016372772,0.07220714,0.08398085,-0.017138863,0.035080038,-0.10433405,0.09468856,0.015504411,-0.054282453,-0.04054061,0.14884499,-0.015806217,-0.07679018,-0.045774702,0.047929257,0.0318266,-0.008772974,-0.054472577,0.049024835,-0.051123634,0.07725271,0.07835397,0.04204963,-0.028591597,0.049805287,0.09276382,-0.051321756,-0.023314819,0.082910836,-0.054165263,-0.03893235,0.064913355,-0.04165503,-0.04212084,0.050706312,0.018761013,-0.004170891,-0.11339234,0.022110365,-0.06438311,0.017981052,0.065247454,-0.00022170231,-0.005677219,0.044710223,-0.010266091,0.04100016,-0.041498102,0.048035875,-0.017681897,0.007532765,-0.018296294,-0.051318236,-0.060692262,0.3014101,0.08041855,0.049381375,0.06952767,0.0133934645,0.094035566,-0.039509885,-0.094768226,-0.0839869,0.016800597,0.14754048,0.08921019,-0.0011830404,0.023022242,0.05399136,0.074582115,0.06794363,-0.016880082,0.014173223,-0.09285483,-0.0015529655,0.014230732,0.069554545,-0.0035538105,0.010653264,0.08966572,-0.113884345,0.038451526,0.03305951,-0.059214883,0.032282032,0.022824615,0.065422654,-0.040758163,-0.10415627,0.045968954,0.07491885,-0.029145604,-0.043790102,0.010693485,-0.007870332,-0.035241604,0.086517334,0.054719876,0.011047156,-0.023860462,0.012973273,-0.0023030404,0.014963638,0.014356694,-0.009774964,0.051300973,0.01696207,0.034158755,0.020866212,0.063646406,-0.100243546,0.05298596,-0.033298273,-0.095472515,-0.11950341,-0.00941362,0.030044286,0.010847591,0.08317042,-0.023150481,0.033730537,-0.022862116,0.030567233,-0.053741254,0.021229997,-0.020950649,-0.059813272,0.054174095,0.04465874,-0.044360317,-0.006078751,0.06649381,0.026175048,-0.017955536,-0.016587975,-0.034108743,0.021600492,-0.017686062,0.02674154,0.006868566,-0.15264247,0.02431362,-0.024813397,0.06927841,0.098119296,-0.073825836,-0.020735724,0.05060026,-0.006435309,0.010874484,0.09205819,0.0142297065,0.00138653,0.096791536,-0.11964795,0.042337846,-0.03807845,-0.009353409,0.064243436,-0.014656073,0.10645909,0.06008906,0.024634289,0.07229474,-0.019911047,0.0023944674,-0.012695676,-0.113074124,-0.06596584,-0.0111456,-0.09684811,0.0030632198,-0.020563345,0.0806492,-0.058687977,-0.034779027,-0.02712879,0.053633135,-0.04562518,0.04269411,0.059282545,0.002571314,-0.007913935,-0.014256172,0.007834096,-0.10305472,0.046039455,0.059611306,0.020213692,0.08467888,-0.09883077,-0.1113765,0.11824479,-0.008304737,-0.082166545,0.07765413,0.025869185,-0.05389292,-0.04613119,-0.048033178,0.14440824,-0.113606654,-0.0012138969,0.07075265,-0.03535273,-0.0008042117,-0.061961584,-0.029041681,-0.108931035,-0.0042195735,-0.0037725077,-0.026393479,-0.031407055,0.012437915,-0.081890166,0.015054677,0.06885974,-0.06865834,-0.061165817,0.08743771,-0.089465804,0.0050715585,0.0048207077,-0.07751744,0.07919672,0.009082168,0.18165185,-0.06881019,0.060400866,0.007996014,-0.0074271387,0.05115898,0.110086426,-0.0143999,-0.03425295,0.031068906,0.029483916,-0.037423696,0.009785959,0.04072652,0.07382867,0.03081309,0.05927103,-0.017741363,-0.009779111,-0.049356103,-0.105058335,0.046448413,-0.09372181,0.008261282,0.04961114,-0.026558565,0.36875987,2.19071e-05,-0.02489766,0.11697489,-0.14866735,-0.052666225,0.009879428,-0.06344268,0.012743149,0.018602032,-0.1313224,-0.033119876,0.047918033,0.11104974,0.08979396,0.004352094,-0.019478234,-0.032169256,0.06435367,-0.0038227302,0.027025456,-0.108344115,0.011901255,0.16085657,0.007936682,0.029547984,0.21864237,-0.05153002,-0.1484886,-0.0032454298,-0.034911197,-0.026560843,0.040102467,0.026058711,0.021331767,0.004153996,-0.072947964,-0.088360004,0.007415875,0.020156154,-0.012773933,0.12548645,0.049387123,-0.0059904624,0.08966095,-0.0022171298,-0.075702496,0.058754183,-0.022707744,-0.017226594,0.026772678,-0.095842175,-0.041734878,0.08268206,-0.08671669,-0.03768186,-0.094899,-0.113407396,0.033131238,-0.008380337,-0.013728111,0.09280493,0.031726576,0.07441258,-0.046758678,0.16640775,0.036761202,-0.010695825,-0.0005984022,0.07506135,0.050906446,-0.030488517,0.047643945,-0.07621488,0.034963056,-0.024488697,-0.08576783,0.04329854,-0.018908124,-0.019435365,-0.00038997034,-0.0017071938,-0.10484716,-0.048447713,-0.07931059,0.056177568,0.05002421,0.008703546,-0.10688422,0.07418421,0.001731818,0.11242796,-0.16037385,-0.031411108,0.022234574,0.01730523,-0.04502655,0.011285893,0.06813946,0.0728305,0.038474318,-0.04993609,-0.083166964,-0.1002036,0.06188223,0.02633633,0.10656106,0.039224032,-0.007945776,0.039502244,0.07977467,-0.007220998,0.117253214,-0.006507151,0.037208475,-0.0019130339,0.06646695,0.003222076,-0.060873605,0.12557861,-0.0253981,0.0644746,-0.09087424,-0.05844305,0.06529548,-0.07038823,-0.046012852,-0.005942614,-0.057592906,-0.022027455,0.0001699645,-0.041053355,-0.00017172133,-0.016698923,0.013122045,-0.06262358,-0.097629525,0.02579552,0.079062104,0.12300597,0.07754211,0.01919306,0.06289515,-0.043211743,-0.06698517,0.053265847,0.06043235,-0.059441354,-0.06113517,-0.015655767,0.07664335,-0.01658385,0.029478658,0.01858628,-0.08671236,-0.033900294,-0.05721235,0.05706517,-0.019829676,-0.08311729,-0.035274483,0.087494746,-0.07051965,0.074294254,0.11063999,-0.035389494,0.005812878,-0.03998383,0.0009256916,-0.034901273,-0.012082911,-0.040282633,-0.0006641901,-0.040295824,0.0069208583,-0.0045550712,-0.035924595,-0.0068880715,-0.017888933,0.002254492,0.015842918,0.04244138,-0.017905973,-0.04857564,0.032383207,-0.10478499,-0.039677218,0.031317737,-0.036717,-0.13373756,0.02118288,0.039572198,0.1628619,0.03587883,-0.018141124,0.01590994,0.07024598,0.00817335,0.02790536,-0.029196769,0.04672703,-0.05608085,0.108719096,-0.14091781,-0.075685516,0.013971419,0.053969517,0.012569616,0.09739292,-0.029512146,0.09681756,0.07960104,-0.01292203,-0.12725404,0.169221,0.027994636,0.006952029,0.07004866,0.054819573,0.053486872,0.016475754,-0.08472205,-0.024686519,0.026586,0.050816398,0.034530323,0.021120414,0.006668719,-0.03457261,-0.06649703,0.07461627,0.01453072,-0.110539295,-0.10550602,-0.028205726,-0.14198853,-0.0333404,-0.02836532,0.04838917,0.012787515,-0.06178694,-0.011202838,-0.03122854,0.07259804,-0.024804628,-0.0015443643,0.050500724,-0.050519243,-0.022526575,-0.011025685,0.04550611,-0.007575494,0.006017013,-0.029499557,-0.06805922,-0.089088775,0.021357145,-0.098752126,0.03953157,0.029888637,-0.01444881,-0.029798571,0.044456765,0.000592888,0.07906615,0.004802974,0.0408498,0.10817251,-0.045293275,-0.00227433,-0.07414429,-0.066545576,-0.031520233,fatman1.jpg
